
\data\
ngram 1=766
ngram 2=5407
ngram 3=4092

\1-grams:
-2.969034	'avila	-0.2167623
-3.284774	'ultima	-0.2149157
-3.051117	'ultimo	-0.3031845
-3.458782	'ultimos	-0.2224883
-3.643311	'unicamente	-0.1546184
-3.643311	'unico	-0.1538928
-1.209461	</s>
-99	<s>	-1.027039
-1.490399	a	-0.6743351
-3.643311	abre	-0.1416172
-3.284774	abril	-0.02719781
-3.643311	acabado	-0.1546989
-3.643311	acceder	-0.1517897
-3.458782	acerca	-0.2450891
-3.643311	acercara	-0.1538928
-3.643311	acudir	-0.1556643
-3.643311	acuerdo	-0.1282149
-2.788148	adem'as	-0.1258148
-3.051117	adi'os	-0.528293
-3.643311	aeropuerto	-0.1413682
-3.284774	agosto	-0.03905918
-3.643311	agradecer'ia	-0.1282149
-3.643311	ah	-0.1541348
-3.458782	ahora	-0.1935578
-2.482375	al	-0.2175876
-3.152418	alaris	-0.2405912
-2.900025	albacete	-0.1084073
-2.534118	alg'un	-0.3276153
-3.643311	algeciras	-0.1192362
-3.458782	algo	-0.1191488
-3.284774	alguna	-0.155179
-2.788148	alguno	-0.3318546
-2.900025	alicante	-0.2199254
-3.152418	all'i	-0.2960624
-3.152418	almer'ia	-0.1146223
-3.643311	almeria	-0.1282149
-2.840494	alrededor	-0.4829174
-3.458782	alta_velocidad	-0.1192362
-3.458782	altaria	-0.1238436
-3.643311	amable	-0.1282149
-3.643311	amigos	-0.1177649
-3.284774	anterior	-0.07041097
-2.062649	antes	-0.9371161
-3.643311	aparte	-0.1413682
-3.643311	aprovechar	-0.1378659
-3.284774	aproximadamente	-0.2120045
-3.643311	aproximado	-0.1538928
-3.458782	aqu'i	-0.1356157
-3.643311	arco	-0.1282149
-3.284774	as'i	-0.1486475
-3.643311	asistir	-0.1416172
-3.643311	asunto	-0.1413682
-3.643311	atardecer	-0.1166944
-3.643311	atenci'on	-0.1282149
-3.458782	aunque	-0.1475845
-3.643311	autobuses	-0.147389
-3.643311	autom'aticamente	-0.1557911
-2.699267	ave	-0.1799123
-3.643311	ay	-0.1282149
-3.643311	ayudar	-0.1282149
-3.458782	a~no	-0.1393353
-3.643311	b'usqueme	-0.1557388
-3.284774	badajoz	-0.09971707
-3.458782	bajar	-0.1417993
-3.458782	bar	-0.1431415
-3.152418	barato	-0.2449394
-3.643311	baratos	-0.1556643
-2.534118	barcelona	-0.1355589
-2.788148	bien	-0.2225474
-2.969034	bilbao	-0.06961317
-2.660831	billete	-0.2305571
-3.284774	billetes	-0.1287299
-3.643311	buena	-0.1551014
-3.152418	buenas	-0.2221027
-2.840494	bueno	-0.1169271
-3.152418	buenos	-0.4585913
-2.900025	burgos	-0.2488596
-3.643311	buscar	-0.1500836
-3.643311	buscar'e	-0.1508969
-3.643311	buscar'ia	-0.1500836
-2.969034	c'aceres	-0.2591333
-3.051117	c'adiz	-0.1233336
-3.284774	c'omo	-0.2125721
-3.643311	c'omoda	-0.1551819
-3.458782	c'omodo	-0.1269999
-2.969034	c'ordoba	-0.1546353
-3.051117	cada	-0.2511749
-3.643311	callado	-0.1282149
-3.458782	cama	-0.1271985
-2.900025	cambiar	-0.3895381
-3.643311	cambrils	-0.1416172
-3.643311	camino	-0.1413682
-3.643311	capital	-0.1282149
-3.458782	caracter'isticas	-0.1270313
-3.643311	carnavales	-0.1282149
-3.643311	caro	-0.1282149
-3.643311	casa	-0.1166944
-3.643311	castell'o	-0.1282149
-2.900025	castell'on	-0.126541
-3.643311	catalu~na_expres	-0.1518708
-3.051117	catorce	-0.2091149
-3.643311	celebre	-0.1557911
-3.458782	cerca	-0.2356416
-3.643311	cercana	-0.1282149
-3.643311	cercano	-0.1416172
-3.643311	cero	-0.155021
-3.643311	cierra	-0.1508156
-2.741437	cinco	-0.2732494
-3.284774	cincuenta	-0.1772179
-3.643311	citado	-0.1282149
-3.284774	ciudad	-0.132367
-3.051117	ciudad_real	-0.1439374
-3.152418	claro	-0.1476931
-2.788148	clase	-0.1893525
-2.741437	coche	-0.4977143
-3.152418	coger	-0.1904218
-3.643311	cogi'endolo	-0.1416172
-3.643311	cogiendo	-0.1378659
-3.643311	cojo	-0.1413682
-2.741437	como	-0.1386109
-3.643311	compa~n'ia	-0.1282149
-3.643311	competici'on	-0.1557911
-3.643311	completo	-0.1508156
-3.284774	comprar	-0.328313
-3.643311	compro	-0.1500836
-2.244313	con	-0.2958626
-3.643311	concierto	-0.103684
-3.643311	concretar	-0.1378659
-3.643311	concretos	-0.1474709
-3.643311	condiciones	-0.1530851
-3.284774	confirmar	-0.1291885
-3.643311	confirme	-0.1378659
-3.643311	confundida	-0.1557911
-3.643311	congreso	-0.1416172
-2.699267	conocer	-0.5697263
-3.643311	conozco	-0.1545378
-3.458782	conseguir	-0.1335066
-3.458782	consulta	-0.1262581
-2.788148	consultar	-0.278304
-3.643311	contestan	-0.1557911
-3.643311	corresponde	-0.1544572
-3.643311	cosa	-0.1557911
-3.643311	cosita	-0.1555036
-3.643311	costa	-0.1549405
-3.643311	costar	-0.1282149
-3.458782	costar'ia	-0.1156218
-3.643311	crem'a	-0.1282149
-2.969034	creo	-0.6266484
-2.534118	cu'al	-0.6387231
-3.051117	cu'ales	-0.2679412
-3.284774	cu'ando	-0.1514966
-2.699267	cu'anto	-0.3107736
-3.458782	cu'antos	-0.1408856
-3.643311	cuales	-0.1552623
-2.625522	cualquier	-0.3797782
-3.458782	cualquiera	-0.12643
-3.643311	cuando	-0.1545378
-3.643311	cuanto	-0.1521139
-2.969034	cuarenta	-0.4094798
-3.643311	cuarto	-0.1127205
-2.660831	cuatro	-0.2805841
-2.969034	cuenca	-0.2387333
-3.643311	cuento	-0.1282149
-3.152418	cuesta	-0.1830757
-3.643311	cullera	-0.1450895
-3.643311	cultural	-0.1450895
-3.643311	curso	-0.1413682
-3.643311	d'e	-0.1508969
-2.458646	d'ia	-0.08621337
-2.969034	d'ias	-0.07457116
-2.699267	d'igame	-0.2203259
-3.643311	d'onde	-0.1526807
-3.643311	da	-0.1556643
-3.458782	dado	-0.1044081
-3.643311	dame	-0.1517086
-3.152418	dar	-0.3013651
-3.458782	darme	-0.1940301
-1.483009	de	-0.4551372
-3.643311	debe	-0.1557911
-3.643311	deber'ian	-0.1551014
-3.643311	debido	-0.1282149
-2.900025	decir	-0.1436817
-3.152418	decirme	-0.1874625
-3.643311	decirte	-0.1543766
-3.643311	deis	-0.1378659
-1.934951	del	-0.3565663
-3.458782	demasiado	-0.1553243
-3.458782	deme	-0.133523
-3.458782	dentro	-0.2356416
-3.643311	deportiva	-0.147389
-3.643311	des	-0.1527616
-1.895326	desde	-0.4843089
-3.152418	deseaba	-0.1851799
-2.741437	desear'ia	-0.350866
-2.840494	deseo	-0.2395696
-2.741437	despu'es	-0.281142
-2.699267	destino	-0.2206864
-3.643311	dice	-0.1365405
-3.643311	dices	-0.1378659
-2.969034	dicho	-0.1008886
-3.643311	dichos	-0.1537313
-3.643311	diciembre	-0.05756658
-3.458782	diciendo	-0.1472883
-2.788148	diecinueve	-0.3322687
-2.900025	dieciocho	-0.2272573
-2.840494	diecis'eis	-0.2994641
-2.788148	diecisiete	-0.3938957
-3.643311	diera	-0.1346046
-3.643311	dieras	-0.1500836
-2.900025	diez	-0.2290156
-3.643311	diga	-0.1517086
-3.643311	digas	-0.1196026
-3.643311	dijese	-0.1330999
-3.051117	dime	-0.1286233
-3.643311	dir'ia	-0.1378659
-3.643311	direcci'on	-0.1416172
-3.643311	dispone	-0.1413682
-3.051117	disponible	-0.1252848
-3.458782	disponibles	-0.2224883
-3.643311	diurno	-0.1373795
-2.840494	doce	-0.2442088
-2.840494	domingo	-0.08942018
-3.284774	dormir	-0.2058759
-2.482375	dos	-0.3629959
-3.643311	dura	-0.1378659
-3.643311	duraci'on	-0.1508156
-3.152418	durante	-0.1667071
-3.643311	durar	-0.1551014
-3.458782	durmiendo	-0.2417444
-3.643311	e	-0.1539734
-3.458782	econ'omica	-0.1273745
-3.643311	efectivamente	-0.1450895
-3.643311	efecto	-0.1282149
-3.458782	eh	-0.2224883
-3.643311	ejemplo	-0.108548
-1.390916	el	-0.763657
-3.643311	el_ferrol	-0.1525998
-3.458782	elegir	-0.2321394
-3.643311	ellos	-0.1043876
-1.716731	en	-0.4399449
-3.643311	enero	-0.05248104
-3.643311	ense~nara	-0.1517086
-3.643311	entendido	-0.1282149
-3.643311	enterar	-0.1474709
-3.643311	entiendo	-0.1556643
-2.507476	entonces	-0.2113034
-2.191295	entre	-0.5578406
-3.643311	enumerar	-0.1517086
-3.643311	equipada	-0.1282149
-3.643311	equivocado	-0.1526807
-3.051117	era	-0.08495048
-3.643311	error	-0.1475686
-2.027036	es	-0.2503113
-2.969034	esa	-0.1831982
-2.178993	ese	-0.3124295
-2.699267	eso	-0.316468
-2.969034	esos	-0.2583584
-3.643311	espec'ificamente	-0.1470613
-3.643311	especial	-0.1519518
-2.788148	est'a	-0.2881071
-3.284774	esta	-0.1540853
-3.643311	estaba	-0.1557388
-3.643311	estado	-0.1546989
-3.643311	estamos	-0.1519518
-2.969034	estar	-0.2844318
-3.458782	estar'ia	-0.2494554
-3.643311	estas	-0.1280539
-2.321225	este	-0.3645624
-3.152418	esto	-0.1773449
-3.284774	estos	-0.1696485
-3.152418	estoy	-0.1553901
-3.458782	estrella	-0.1029764
-2.534118	euromed	-0.3244523
-3.051117	exactamente	-0.0981764
-3.284774	exacto	-0.1540387
-3.643311	examen	-0.1474709
-3.643311	excursi'on	-0.1378659
-3.284774	existe	-0.1981848
-3.458782	exposici'on	-0.1509566
-3.643311	fallas	-0.1474709
-3.643311	falta	-0.1520485
-3.643311	favor	-0.04040015
-3.643311	febrero	-0.0691121
-3.284774	fecha	-0.1169381
-3.643311	fechas	-0.1508156
-3.643311	feria	-0.1413682
-2.900025	fin	-0.6875743
-3.284774	finales	-0.1966439
-3.643311	forma	-0.1508969
-3.643311	francia	-0.1416172
-3.643311	franja	-0.1557911
-3.643311	frecuencia	-0.1555036
-2.969034	fuera	-0.1324579
-3.284774	fuese	-0.1130722
-3.643311	fumador	-0.1282149
-3.284774	fumadores	-0.1879838
-3.643311	fundamentalmente	-0.1526807
-3.458782	galicia	-0.2224883
-3.458782	gasteiz	-0.1828078
-3.152418	gerona	-0.1499343
-3.051117	gij'on	-0.2610484
-3.458782	girona	-0.09417793
-2.562501	gracias	-0.3746091
-2.900025	granada	-0.07725264
-3.458782	guadalajara	-0.2224883
-3.643311	gustado	-0.1500836
-3.643311	gustar'ia	-0.02149656
-2.900025	ha	-0.1846991
-3.152418	hab'ia	-0.1536633
-3.643311	hab'ias	-0.1554232
-3.284774	haber	-0.1513343
-3.643311	habido	-0.1500836
-3.051117	habr'ia	-0.145036
-3.458782	hace	-0.1508127
-3.643311	hacen	-0.1530042
-2.660831	hacer	-0.3931569
-3.458782	hacerlo	-0.2029032
-2.562501	hacia	-0.2431658
-3.643311	haga	-0.1326601
-3.643311	hagan	-0.1378659
-3.643311	has	-0.155272
-2.273464	hasta	-0.2534587
-2.321225	hay	-0.1756917
-3.643311	haya	-0.1500836
-3.152418	he	-0.1842359
-3.643311	hendaya	-0.1238436
-3.643311	historia	-0.1413682
-3.458782	hola	-0.1400476
-2.741437	hora	-0.1347236
-3.643311	horaria	-0.1282149
-2.374896	horario	-0.1756325
-2.144051	horarios	-0.3432651
-2.699267	horas	-0.1824901
-2.840494	hoy	-0.1894667
-3.458782	hubiera	-0.1278889
-3.051117	huelva	-0.168967
-3.643311	huesca	-0.09958866
-2.625522	ida	-0.1002946
-3.643311	idea	-0.1517897
-3.284774	igual	-0.1218305
-3.643311	importa	-0.147389
-3.643311	importancia	-0.1525998
-3.643311	importar'ia	-0.1536506
-3.643311	imposible	-0.1557388
-2.625522	informaci'on	-0.5511413
-3.152418	informarme	-0.1867247
-3.643311	instrucciones	-0.1551014
-2.625522	intercity	-0.3624963
-3.643311	intercitys	-0.1282149
-3.643311	interesa	-0.1034996
-3.458782	interesado	-0.1461745
-3.643311	interesar'ia	-0.15486
-3.643311	intermedio	-0.147389
-3.458782	intervalo	-0.1392196
-2.356259	ir	-0.3861293
-3.643311	ir'un	-0.1129865
-3.458782	irme	-0.2358907
-3.643311	iru~nea	-0.1282149
-3.051117	ja'en	-0.174308
-2.969034	jueves	-0.1236922
-3.643311	julio	-0.09877961
-3.643311	junio	-0.08726889
-3.643311	juntos	-0.1525998
-3.284774	l'erida	-0.1794587
-1.941921	la	-0.4648244
-3.051117	la_coru~na	-0.1729243
-3.643311	laborable	-0.1127205
-3.643311	laborables	-0.1282149
-3.643311	lanzadera	-0.1530042
-2.562501	las	-0.3619874
-3.152418	le	-0.1839295
-3.051117	le'on	-0.1151114
-3.643311	lentos	-0.1450895
-3.643311	lezama	-0.1282149
-2.969034	litera	-0.3148808
-3.152418	literas	-0.2455118
-3.284774	llamaba	-0.3257003
-2.660831	llega	-0.3410985
-3.643311	llegaba	-0.1538121
-3.643311	llegaban	-0.1521139
-2.900025	llegada	-0.1944148
-2.840494	llegan	-0.425301
-3.458782	llegando	-0.122978
-2.436146	llegar	-0.3993764
-3.643311	llegar'ia	-0.1282149
-3.643311	llegara	-0.1356157
-3.458782	llegaran	-0.2358907
-3.643311	llegase	-0.1521139
-3.284774	llegue	-0.1128112
-3.458782	lleguen	-0.1166405
-2.900025	lleida	-0.1895795
-3.152418	llevar	-0.1673185
-3.643311	llevarme	-0.1416172
-3.643311	lleve	-0.1416172
-2.625522	lo	-0.4086321
-3.284774	logro~no	-0.1072078
-2.018571	los	-0.7064276
-3.152418	luego	-0.1293806
-3.643311	lugo	-0.1089783
-2.840494	lunes	-0.09532565
-3.051117	m'alaga	-0.08812987
-3.643311	m'aquinas	-0.147389
-2.338389	m'as	-0.2104993
-3.643311	m'aximo	-0.1543766
-3.643311	m'erida	-0.1097282
-3.643311	m'i	-0.1519518
-3.643311	m'ireme	-0.1416172
-2.534118	madrid	-0.143933
-3.643311	manera	-0.147389
-3.458782	mare_nostrum	-0.2224883
-2.840494	martes	-0.1218976
-3.643311	marzo	-0.009081066
-3.643311	mayo	-0.05221461
-2.356259	ma~nana	-0.1706996
-3.643311	ma~nanas	-0.1282149
-3.643311	ma~nanita	-0.1521139
-2.044478	me	-0.4222012
-3.458782	media	-0.05578882
-3.643311	mediados	-0.1508156
-3.051117	mediod'ia	-0.1680652
-2.788148	mejor	-0.2578493
-3.643311	men'u	-0.1557911
-3.458782	menos	-0.1878123
-2.969034	mes	-0.2511593
-3.284774	mi	-0.1549035
-3.152418	mi'ercoles	-0.124106
-3.643311	miguel_de_unamuno	-0.1282149
-3.643311	mil	-0.1533588
-3.643311	minutos	-0.1413682
-2.900025	mira	-0.186565
-3.643311	mirar	-0.1517086
-2.969034	mire	-0.1809037
-3.458782	misma	-0.1553524
-3.643311	mismamente	-0.1470613
-3.643311	mismas	-0.1557911
-2.900025	mismo	-0.1605879
-3.643311	mismos	-0.1527616
-3.643311	modalidad	-0.1413682
-3.643311	momento	-0.1282149
-3.643311	monumental	-0.1282149
-3.643311	monz'on	-0.1416172
-3.458782	much'isimas	-0.2489724
-2.741437	muchas	-0.8558071
-3.643311	muestras	-0.1503278
-3.152418	murcia	-0.1636016
-3.643311	museo	-0.1557911
-3.051117	muy	-0.1833654
-2.699267	nada	-0.4438364
-3.643311	navidad	-0.1474709
-3.643311	navidades	-0.1474709
-3.284774	necesitar'ia	-0.1493819
-2.788148	necesito	-0.1867989
-3.643311	negocio	-0.1282149
-3.458782	negocios	-0.239363
-3.051117	ning'un	-0.2671409
-3.643311	ninguna	-0.1413682
-3.643311	ninguno	-0.1450231
-2.122226	no	-0.06040204
-3.051117	noche	-0.05401501
-3.643311	nochevieja	-0.1553428
-3.643311	nocturno	-0.1533276
-3.643311	normal	-0.1282149
-3.643311	norte	-0.147389
-3.643311	noviembre	-0.07904702
-3.643311	novio	-0.1378659
-2.788148	nueve	-0.3168122
-2.027036	o	-0.2717408
-3.643311	obra	-0.1413682
-2.625522	obtener	-0.5609465
-2.625522	ocho	-0.298232
-3.643311	octubre	-0.09749827
-3.643311	odio	-0.1416172
-3.643311	oiga	-0.1553428
-3.643311	olvidado	-0.1282149
-2.900025	once	-0.2200952
-3.643311	oposici'on	-0.1282149
-3.152418	orense	-0.1376313
-3.643311	origen	-0.1546184
-3.051117	otra	-0.1893823
-2.840494	otro	-0.4296415
-3.284774	otros	-0.2120856
-2.900025	oviedo	-0.2476284
-3.152418	palencia	-0.1814516
-2.969034	pamplona	-0.1475246
-3.458782	par'is	-0.09958866
-1.716731	para	-0.4770812
-3.643311	parece	-0.147389
-3.643311	parte	-0.1413682
-3.643311	partir	-0.1361204
-2.788148	pasado	-0.5027753
-3.458782	pasar	-0.130553
-3.643311	pascua	-0.1378659
-3.643311	paso	-0.155021
-3.643311	pedir	-0.15486
-3.284774	perd'on	-0.3064443
-3.458782	perdone	-0.1333344
-3.152418	perfecto	-0.2206176
-2.414755	pero	-0.03262414
-3.643311	pe~n'iscola	-0.1474709
-3.643311	pirineos	-0.1282149
-3.643311	plazas	-0.1474709
-3.643311	poco	-0.1496264
-3.643311	pocos	-0.1537313
-3.152418	pod'ia	-0.1504259
-3.458782	poder	-0.1535047
-2.507476	podr'ia	-0.3198492
-3.643311	podr'iamos	-0.1553428
-3.643311	podr'ian	-0.1556643
-3.643311	podr'ias	-0.1553428
-3.643311	poquito	-0.1378659
-1.696301	por	-0.8531024
-2.660831	porque	-0.2049496
-3.643311	port_aventura	-0.1282149
-3.152418	posibilidad	-0.2655826
-3.643311	posibilidades	-0.1522106
-2.741437	posible	-0.08858146
-3.458782	posibles	-0.1418822
-3.458782	pr'oxima	-0.1274603
-2.788148	pr'oximo	-0.1751197
-2.625522	precio	-0.06454161
-2.562501	precios	-0.245935
-2.969034	preferente	-0.2851755
-3.643311	preferentemente	-0.1378659
-3.458782	preferir'ia	-0.2118421
-3.152418	prefiero	-0.1462063
-3.643311	pregunta	-0.1557388
-3.643311	preguntado	-0.1470613
-3.152418	preguntar	-0.1632755
-3.458782	pregunto	-0.1383841
-3.284774	primer	-0.2066428
-2.969034	primera	-0.1071927
-3.284774	primero	-0.1141398
-3.643311	primeros	-0.1413682
-3.643311	principal	-0.1282149
-3.643311	principio	-0.1530042
-3.643311	principios	-0.1413682
-3.458782	pronto	-0.1166944
-3.643311	pudiera	-0.1273745
-3.643311	pudiese	-0.1551014
-3.458782	pueda	-0.1554851
-2.625522	puede	-0.2200011
-3.284774	puedes	-0.1459381
-2.788148	puedo	-0.2727037
-3.458782	puente	-0.2008268
-2.304714	pues	-0.05613361
-3.284774	punto	-0.3195975
-2.230439	qu'e	-0.4723599
-1.712568	que	-0.2895684
-3.643311	quedado	-0.1554851
-2.230439	quer'ia	-0.4067443
-2.458646	querr'ia	-0.3836085
-3.643311	quieres	-0.1542154
-2.133001	quiero	-0.3569238
-2.840494	quince	-0.4650109
-3.458782	quincena	-0.173244
-2.414755	quisiera	-0.3535537
-3.458782	quiz'a	-0.1464209
-2.900025	r'apido	-0.1392779
-3.051117	r'apidos	-0.09689612
-3.643311	realice	-0.1554232
-3.643311	realidad	-0.1519518
-3.643311	realizan	-0.1530042
-3.051117	realizar	-0.1897286
-3.643311	realmente	-0.1533276
-3.643311	reconfirmar	-0.1378659
-3.643311	recorrido	-0.1282149
-3.643311	refiriendo	-0.1544572
-2.900025	regional	-0.24183
-3.643311	regionales	-0.1099788
-3.643311	regresando	-0.1378659
-3.152418	regresar	-0.2114245
-3.643311	regreso	-0.1546184
-3.643311	rep'itame	-0.1517086
-3.458782	repetir	-0.1335066
-3.284774	repetirme	-0.1921764
-3.643311	repitas	-0.1378659
-3.643311	reservar	-0.1500836
-3.643311	respondido	-0.1557911
-3.643311	restaurante	-0.1282149
-3.643311	reuni'on	-0.1266019
-3.643311	reunirme	-0.1534083
-3.458782	ruta	-0.2224883
-2.482375	s'abado	-0.1752572
-3.643311	s'e	-0.09458387
-2.394368	s'i	0.136651
-2.788148	s'olo	-0.1909639
-3.458782	sabe	-0.1505062
-2.356259	saber	-0.2620022
-3.643311	saberlo	-0.1503278
-3.051117	salamanca	-0.1347694
-3.458782	saldr'ia	-0.1326601
-2.969034	sale	-0.1280496
-3.051117	salen	-0.1316397
-3.284774	salga	-0.09004629
-3.643311	salgan	-0.08366113
-3.458782	salgo	-0.1219538
-2.699267	salida	-0.09371462
-2.304714	saliendo	-0.5522206
-3.458782	saliera	-0.127322
-3.643311	salieran	-0.1131809
-3.643311	saliese	-0.1339456
-2.273464	salir	-0.3369066
-3.643311	san_fermines	-0.1282149
-3.643311	san_jos'e	-0.1282149
-3.051117	san_sebasti'an	-0.1544044
-2.699267	santander	-0.1841287
-3.458782	santiago	-0.126
-3.284774	santiago_de_compostela	-0.1975664
-3.643311	satisfecho	-0.1557911
-2.840494	se	-0.1853359
-2.660831	sea	-0.02605797
-3.458782	sean	-0.1330317
-3.284774	segovia	-0.1002565
-3.458782	segunda	-0.1272991
-3.458782	segundo	-0.1513366
-2.699267	seis	-0.3688463
-2.788148	semana	-0.1051492
-3.284774	semana_santa	-0.09222929
-3.643311	semanas	-0.1450895
-3.458782	septiembre	-0.09896033
-2.741437	ser	-0.09412736
-3.643311	ser'a	-0.1551819
-2.534118	ser'ia	-0.3060108
-3.284774	servicio	-0.112205
-3.643311	servicios	-0.15486
-3.643311	setiembre	-0.1450895
-2.660831	sevilla	-0.2363116
-3.643311	se~nora	-0.1282149
-3.643311	se~norita	-0.1470613
-2.035669	si	-0.4859407
-3.643311	sido	-0.1555036
-2.741437	siete	-0.3126812
-2.900025	siguiente	-0.2375869
-3.643311	sin	-0.1535699
-3.643311	sirve	-0.1530042
-2.436146	sobre	-0.4395599
-3.152418	solamente	-0.1078482
-2.900025	solo	-0.1274741
-2.625522	son	-0.1302283
-3.458782	soria	-0.1222143
-3.152418	su	-0.4580281
-3.643311	sueca	-0.1378659
-3.643311	suficiente	-0.104273
-3.643311	supuesto	-0.1282149
-3.643311	sus	-0.1546989
-2.507476	talgo	-0.1751565
-3.458782	talgos	-0.1276318
-2.304714	tambi'en	-0.2101439
-3.643311	tampoco	-0.1538121
-3.284774	tanto	-0.1931836
-3.643311	tarda	-0.1282149
-3.643311	tardan	-0.1535699
-3.643311	tardar'ia	-0.1474709
-2.969034	tarde	-0.02108303
-3.643311	tardes	-0.1304815
-2.900025	tarragona	-0.08807315
-3.643311	te	-0.1557911
-3.643311	teatro	-0.1450895
-3.458782	temprano	-0.1273745
-3.643311	tendr'e	-0.1474709
-2.969034	tendr'ia	-0.1612983
-3.643311	tendr'ian	-0.1517086
-3.284774	tener	-0.1361366
-3.643311	tenerlo	-0.1282149
-3.643311	tenga	-0.118799
-2.436146	tengo	-0.4470671
-3.643311	tercer	-0.1538928
-3.643311	tercero	-0.1282149
-2.900025	teruel	-0.1598649
-3.643311	thyssen	-0.1551819
-3.643311	ticket	-0.1503278
-3.458782	tiempo	-0.1554851
-2.625522	tiene	-0.2223407
-2.900025	tienen	-0.1534431
-3.643311	tienes	-0.1557388
-2.592869	tipo	-0.5366936
-3.284774	tipos	-0.3195975
-3.458782	toda	-0.2451703
-3.051117	todo	-0.2184578
-3.284774	todos	-0.1842807
-3.152418	toledo	-0.08797538
-3.643311	total	-0.1413682
-3.643311	totalmente	-0.1557911
-3.643311	trabajo	-0.1433728
-3.643311	trata	-0.1413682
-3.051117	trayecto	-0.200217
-3.643311	trayectos	-0.1474709
-3.284774	trece	-0.1330702
-2.592869	treinta	-0.4590219
-2.338389	tren	-0.1391159
-3.284774	tren_hotel	-0.1462173
-2.304714	trenes	-0.157523
-2.741437	tres	-0.2985855
-3.643311	triana	-0.1282149
-3.643311	tu	-0.1557911
-3.458782	turista	-0.1271293
-3.458782	u	-0.1973159
-1.876792	un	-0.5860944
-2.458646	una	-0.240398
-2.660831	uno	-0.3552453
-3.051117	unos	-0.2316755
-3.458782	usted	-0.1536662
-3.643311	utilizar	-0.15486
-3.643311	uy	-0.1378659
-3.643311	v'alido	-0.1282149
-3.284774	va	-0.1551746
-3.458782	vacaciones	-0.122718
-3.643311	valdr'ia	-0.1378659
-2.900025	vale	-0.09124796
-3.458782	valen	-0.124983
-2.625522	valencia	-0.1475025
-3.643311	valer	-0.1500836
-2.840494	valladolid	-0.1472139
-3.051117	vamos	-0.3362595
-3.458782	van	-0.1258453
-3.284774	vaya	-0.1492882
-3.643311	vayan	-0.1266019
-3.643311	veamos	-0.1526807
-2.900025	veinte	-0.2498009
-2.900025	veinticinco	-0.4595175
-2.900025	veinticuatro	-0.3922679
-2.900025	veintid'os	-0.3662118
-2.900025	veintinueve	-0.3150126
-3.152418	veintiocho	-0.2390835
-2.969034	veintis'eis	-0.254057
-2.969034	veintisiete	-0.2703639
-3.051117	veintitr'es	-0.2905373
-3.152418	veintiuno	-0.2390835
-3.643311	vendr'ia	-0.1551819
-3.643311	venga	-0.1535699
-3.643311	vengan	-0.1413682
-3.643311	vente	-0.1413682
-3.152418	ver	-0.06096165
-3.051117	ver'a	-0.1799363
-3.643311	verano	-0.1474709
-3.458782	verdad	-0.2224883
-3.458782	vez	-0.09722254
-3.643311	viaja	-0.1503278
-2.900025	viajando	-0.439158
-2.288808	viajar	-0.4783748
-3.643311	viajara	-0.1474709
-2.414755	viaje	-0.274065
-2.741437	viajes	-0.2507248
-3.643311	vida	-0.1474709
-3.458782	viene	-0.03339069
-2.625522	viernes	-0.1312995
-3.458782	viernes_santo	-0.1695019
-2.840494	vigo	-0.1876982
-3.643311	visita	-0.1415152
-3.458782	visitar	-0.2358907
-3.643311	visitarlos	-0.1282149
-3.284774	vitoria	-0.1182058
-2.625522	volver	-0.2634524
-3.643311	volver'ia	-0.1508969
-3.152418	volviendo	-0.1959718
-3.152418	voy	-0.2833132
-2.969034	vuelta	-0.02261293
-3.458782	vuelva	-0.1029939
-3.643311	vuelven	-0.1416172
-3.458782	vuelvo	-0.2321394
-1.609737	y	-0.2027662
-2.660831	ya	-0.2324005
-2.741437	yo	-0.3363699
-3.458782	zamora	-0.1384003
-2.699267	zaragoza	-0.2083811
-3.458782	zona	-0.1555655

\2-grams:
-0.6972961	'avila </s>
-0.9071065	'avila a	-0.3094508
-1.634526	'avila desde
-1.171568	'avila el	-0.5270853
-1.171568	'avila en	-0.2204566
-1.634526	'avila para
-0.534746	'ultima hora
-0.9977037	'ultima semana	-0.5383109
-0.588616	'ultimo </s>
-1.66671	'ultimo el
-1.66671	'ultimo es
-1.66671	'ultimo euromed
-1.203753	'ultimo que
-0.7294807	'ultimo tren	-0.32642
-0.3586547	'ultimos </s>
-0.5205824	'unicamente cu'al
-0.5205824	'unico tren
-4.221373	<s> 'avila
-1.379378	<s> a	-0.1246318
-3.493953	<s> al	-0.08824111
-4.221373	<s> albacete
-3.758415	<s> alg'un	-0.134089
-3.284143	<s> alguno	-0.1656582
-4.221373	<s> alrededor
-4.221373	<s> antes
-4.221373	<s> ay
-3.037086	<s> barcelona	-0.5795857
-2.819403	<s> bien	0.02809211
-2.327693	<s> buenas	-0.3276446
-2.566931	<s> bueno	-0.1950435
-2.259723	<s> buenos	-0.8593239
-4.221373	<s> burgos
-4.221373	<s> buscar'ia
-4.221373	<s> c'aceres
-3.758415	<s> c'adiz	-0.1839095
-3.758415	<s> cambiar
-3.758415	<s> catorce	-0.1324946
-4.221373	<s> ciudad_real
-4.221373	<s> con
-4.221373	<s> conocer
-3.758415	<s> creo	0.3539102
-2.386711	<s> cu'al	-0.2975283
-2.45503	<s> cu'anto	-0.4096493
-4.221373	<s> cuales
-3.143278	<s> cualquier	-0.2519544
-4.221373	<s> cualquiera
-4.221373	<s> cuenca
-3.758415	<s> d'igame	-0.1775693
-3.493953	<s> de
-3.493953	<s> del
-3.758415	<s> desde
-4.221373	<s> deseaba
-2.174321	<s> desear'ia	-0.2118372
-2.061204	<s> deseo	-0.2810551
-3.758415	<s> diecinueve
-3.758415	<s> dieciocho	-0.1636061
-4.221373	<s> diecis'eis
-3.493953	<s> diecisiete	0.01449069
-4.221373	<s> dos
-4.221373	<s> durante
-1.225686	<s> el	-0.1720194
-4.221373	<s> elegir
-3.037086	<s> en	-0.07250357
-4.221373	<s> entonces
-2.765785	<s> entre	-0.7221228
-4.221373	<s> era
-3.284143	<s> es
-3.758415	<s> ese
-3.143278	<s> eso	-0.02538902
-4.221373	<s> esos
-3.037086	<s> este	-0.03794655
-4.221373	<s> esto
-4.221373	<s> estoy
-4.221373	<s> exactamente
-3.758415	<s> exacto
-3.758415	<s> existe	-0.1739261
-4.221373	<s> finales
-4.221373	<s> gasteiz
-4.221373	<s> gerona
-3.284143	<s> gracias
-4.221373	<s> granada
-4.221373	<s> habr'ia
-2.431043	<s> hay	-0.2437724
-1.373206	<s> hola	-0.8784032
-3.037086	<s> horario	-0.1435607
-2.819403	<s> horarios	-0.3488456
-3.143278	<s> hoy	-0.2625683
-4.221373	<s> ir
-3.493953	<s> jueves
-4.221373	<s> l'erida
-2.880586	<s> la	-0.2224863
-3.758415	<s> la_coru~na	-0.1636061
-4.221373	<s> llega
-4.221373	<s> lleida
-4.221373	<s> lo
-3.758415	<s> los
-3.758415	<s> lunes
-2.951824	<s> madrid	-0.6393703
-3.758415	<s> martes
-2.244272	<s> ma~nana	-0.5257421
-1.429855	<s> me	-1.03645
-3.493953	<s> mira
-3.284143	<s> mire
-4.221373	<s> muchas
-4.221373	<s> muy
-2.092157	<s> nada	-0.5988894
-4.221373	<s> necesitar'ia
-2.765785	<s> necesito	-0.07707442
-0.7124052	<s> no	-0.9427127
-4.221373	<s> o
-2.600074	<s> obtener	-0.2836019
-4.221373	<s> ocho
-4.221373	<s> oiga
-4.221373	<s> once
-4.221373	<s> otro
-3.758415	<s> oviedo	-0.1399593
-3.493953	<s> pamplona	-0.2434992
-3.143278	<s> para	-0.03870754
-3.143278	<s> pasado	-0.1182331
-3.758415	<s> perdone
-4.221373	<s> pod'ia
-2.951824	<s> podr'ia
-2.951824	<s> por	0.3115532
-3.758415	<s> pr'oximo
-3.758415	<s> precios
-3.758415	<s> preferir'ia
-4.221373	<s> pregunto
-3.758415	<s> puede	-0.2595783
-3.493953	<s> puedo
-1.656996	<s> pues	-0.4566489
-2.346489	<s> qu'e	-0.3629048
-2.45503	<s> que	-0.1399232
-1.468786	<s> quer'ia	-0.5869914
-2.014064	<s> querr'ia	-0.3841302
-4.221373	<s> quieres
-1.349361	<s> quiero	-0.6095587
-3.758415	<s> quince	0.1428091
-1.608737	<s> quisiera	-0.3658752
-4.221373	<s> realmente
-4.221373	<s> s'abado
-0.4653603	<s> s'i	-0.9365715
-2.507386	<s> saber	-0.3086349
-3.758415	<s> sale	-0.2595783
-4.221373	<s> salida
-3.143278	<s> salir	-0.09942373
-3.758415	<s> san_sebasti'an	-0.2186716
-3.758415	<s> santander	-0.1598097
-4.221373	<s> santiago_de_compostela
-2.951824	<s> sevilla	-0.6201593
-3.037086	<s> si	0.05657236
-3.284143	<s> siete	-0.330199
-4.221373	<s> solo
-4.221373	<s> son
-4.221373	<s> tambi'en
-4.221373	<s> tampoco
-2.951824	<s> tarragona	-0.6403505
-4.221373	<s> teruel
-3.758415	<s> tiene
-4.221373	<s> tienen
-3.493953	<s> tipo	0.1394295
-4.221373	<s> todos
-4.221373	<s> toledo
-3.758415	<s> treinta
-4.221373	<s> trenes
-4.221373	<s> tres
-3.493953	<s> un	-0.1525262
-4.221373	<s> una
-4.221373	<s> uno
-4.221373	<s> utilizar
-3.758415	<s> vale	-0.2691655
-3.758415	<s> valencia	-0.226606
-4.221373	<s> valladolid
-4.221373	<s> vamos
-4.221373	<s> veamos
-3.493953	<s> veinte	-0.2035909
-4.221373	<s> veinticinco
-4.221373	<s> veinticuatro
-4.221373	<s> veintid'os
-4.221373	<s> veintinueve
-3.493953	<s> veintitr'es	-0.1304675
-4.221373	<s> ver'a
-2.819403	<s> viajar	-0.3404714
-4.221373	<s> viaje
-3.284143	<s> viernes
-3.284143	<s> vigo	-0.310446
-4.221373	<s> volver
-2.507386	<s> y	-0.176458
-3.143278	<s> ya	-0.2227765
-3.758415	<s> yo
-1.99934	a 'avila	-0.2632382
-3.340127	a 'ultima	-0.1313254
-1.99934	a albacete	-0.3601592
-2.877169	a algeciras
-2.877169	a alguna	-0.2352256
-1.599173	a alicante	-0.4583676
-2.402897	a almer'ia	-0.2012478
-2.262032	a badajoz	-0.2429406
-1.378477	a barcelona	-0.6056981
-1.654893	a bilbao	-0.3626253
-2.612707	a burgos	0.06354432
-1.884539	a c'aceres	-0.103429
-1.884539	a c'adiz	-0.2062278
-1.836819	a c'ordoba	-0.5317594
-3.340127	a castell'o
-1.836819	a castell'on	-0.2535273
-2.155839	a ciudad_real	-0.3238104
-2.877169	a cualquier	-0.2595783
-3.340127	a cuatro
-2.262032	a cuenca	-0.3447856
-3.340127	a decir
-3.340127	a decirme
-2.877169	a diez
-3.340127	a dos
-3.340127	a esa
-3.340127	a ese
-3.340127	a eso
-2.877169	a finales	-0.3081302
-3.340127	a francia
-2.877169	a gasteiz
-2.402897	a gerona	-0.05484688
-2.612707	a gij'on	-0.1493941
-2.262032	a girona	-0.2134957
-1.884539	a granada	-0.2741012
-2.877169	a guadalajara	-0.03107569
-3.340127	a haber
-2.612707	a huelva	-0.1080386
-2.402897	a huesca	-0.1223461
-3.340127	a ir
-2.612707	a ja'en	-0.03777752
-2.402897	a l'erida	0.01744974
-1.75471	a la	-0.2205703
-1.99934	a la_coru~na	-0.1512626
-1.293075	a las	-0.3614241
-2.262032	a le'on	-0.3221292
-2.612707	a lleida	-0.004011452
-2.070578	a logro~no	-0.2676249
-2.877169	a lugo
-1.938157	a m'alaga	-0.3803036
-2.155839	a m'erida	-0.3645659
-3.340127	a m'i
-1.221739	a madrid	-0.511855
-3.340127	a mediados
-2.612707	a mediod'ia	-0.05956548
-3.340127	a mi
-2.070578	a murcia	-0.4319431
-3.340127	a noche
-3.340127	a once
-3.340127	a orense	-0.247194
-1.938157	a oviedo	-0.3127466
-2.877169	a palencia	-0.1080386
-1.75471	a pamplona	-0.3058445
-2.877169	a par'is	-0.1200696
-1.428432	a partir	-1.106634
-3.340127	a pe~n'iscola
-1.938157	a poder	-0.8989396
-3.340127	a port_aventura
-2.070578	a primera	-0.9621534
-3.340127	a primeros
-2.612707	a principios	-0.603184
-3.340127	a pues
-1.549797	a qu'e	-1.421237
-2.877169	a que	-0.3194986
-3.340127	a quer'ia
-1.938157	a salamanca	-0.4960321
-3.340127	a san_fermines
-1.99934	a san_sebasti'an	-0.2191813
-1.685685	a santander	-0.2965353
-3.340127	a santiago
-2.262032	a santiago_de_compostela	-0.0993198
-1.938157	a segovia	-0.3110025
-2.877169	a seis	-0.05049625
-1.938157	a ser	-1.056345
-1.484888	a sevilla	-0.4960774
-3.340127	a siete
-2.262032	a soria	-0.2739761
-3.340127	a sueca
-1.793827	a tarragona	-0.2677511
-1.836819	a teruel	-0.2964777
-2.070578	a toledo	-0.1368874
-2.612707	a un	-0.2205365
-2.612707	a una
-2.877169	a unos	-0.1974143
-1.394498	a valencia	-0.409304
-1.99934	a valladolid	-0.3334191
-1.527065	a ver	-0.1896759
-3.340127	a viajar
-1.793827	a vigo	-0.2965692
-2.262032	a vitoria	-0.08742918
-1.938157	a zaragoza	-0.3340261
-0.5205824	abre a
-1.400047	abril </s>
-1.863005	abril a	-0.1209115
-1.863005	abril al
-1.863005	abril con	-0.2533752
-1.863005	abril de	-0.4681816
-1.400047	abril del	-0.418188
-1.863005	abril dentro
-1.863005	abril despu'es
-1.863005	abril diecis'eis
-1.863005	abril en	-0.2204566
-1.863005	abril no
-1.863005	abril o
-1.863005	abril para	-0.3019179
-1.863005	abril por	0.1447228
-1.863005	abril porque
-1.863005	abril que
-1.863005	abril quer'ia
-1.863005	abril quisiera
-1.863005	abril viernes_santo
-1.863005	abril y	-0.06717469
-0.5205824	acabado gracias
-0.5205824	acceder o
-0.3586547	acerca del
-0.5205824	acercara m'as
-0.5205824	acudir esta
-0.5205824	acuerdo </s>
-1.66671	adem'as deseo
-1.66671	adem'as el
-1.66671	adem'as en
-1.66671	adem'as la
-1.66671	adem'as lo
-1.66671	adem'as los
-1.66671	adem'as me
-1.66671	adem'as que
-1.66671	adem'as quer'ia
-1.66671	adem'as querr'ia
-0.9392912	adem'as quiero	-0.1291075
-1.66671	adem'as saber
-0.1414579	adi'os </s>
-0.5205824	aeropuerto de
-1.094193	agosto </s>
-1.821612	agosto a	-0.1495794
-1.821612	agosto cualquier
-1.821612	agosto de
-1.821612	agosto del
-1.821612	agosto desde
-1.821612	agosto dos
-1.821612	agosto e
-1.821612	agosto en
-1.821612	agosto es
-1.821612	agosto hasta
-1.821612	agosto por	-0.4924224
-1.821612	agosto quiero
-1.821612	agosto quisiera
-1.821612	agosto si
-1.821612	agosto tambi'en
-1.821612	agosto un
-1.821612	agosto y	-0.07952387
-0.5205824	agradecer'ia </s>
-0.5205824	ah s'i
-1.122642	ahora dime
-0.6596847	ahora me	-0.0963551
-1.122642	ahora quer'ia
-1.863005	al aeropuerto
-1.863005	al atardecer
-1.863005	al cuatro	-0.03868656
-0.7849106	al d'ia	-0.8899531
-1.863005	al destino
-1.863005	al diecisiete
-1.863005	al euromed
-1.863005	al igual
-1.400047	al mediod'ia
-1.863005	al men'u
-1.863005	al mismo
-1.863005	al museo
-1.863005	al once	-0.1292646
-1.863005	al principio
-1.863005	al s'abado
-1.863005	al treinta	-0.3424133
-1.863005	al viernes
-0.5375952	alaris </s>
-1.474825	alaris me
-1.474825	alaris o	-0.4562702
-1.474825	alaris que
-1.011867	alaris si	-0.1083129
-0.7931631	albacete </s>
-1.520582	albacete a	-0.1071714
-1.520582	albacete antes
-1.520582	albacete destino
-1.520582	albacete el
-1.520582	albacete para
-1.520582	albacete saliendo
-1.520582	albacete y	-0.2774354
-1.88231	alg'un ave
-1.419353	alg'un billete
-1.419353	alg'un d'ia
-1.88231	alg'un euromed
-1.88231	alg'un fin
-1.419353	alg'un horario
-1.419353	alg'un otro
-1.88231	alg'un regional
-1.419353	alg'un talgo	-0.02940531
-1.88231	alg'un tipo
-0.5415237	alg'un tren	-0.2234496
-0.8216125	algeciras </s>
-0.8216125	algeciras en
-0.8216125	algo </s>
-0.8216125	algo que
-0.9977037	alguna ciudad
-0.9977037	alguna historia
-0.9977037	alguna otra
-1.171568	alguno </s>
-0.9071065	alguno de	-0.2123398
-1.634526	alguno es
-0.4502386	alguno que	-0.428382
-1.634526	alguno sale
-0.5915678	alicante </s>
-1.312897	alicante a	-0.6168035
-1.775855	alicante antes
-1.312897	alicante el	-0.2644943
-1.775855	alicante ma~nana
-1.312897	alicante para	-0.07793859
-1.775855	alicante pero
-1.775855	alicante saber
-1.312897	alicante y	-0.0541892
-1.298734	all'i a
-0.361504	all'i antes	0.2543448
-1.298734	all'i el
-0.9607148	almer'ia </s>
-1.423672	almer'ia a	-0.2667811
-0.9607148	almer'ia el
-1.423672	almer'ia en
-1.423672	almer'ia hasta
-1.423672	almer'ia por
-0.5205824	almeria </s>
-0.2393852	alrededor de	-0.6250404
-0.9607148	alrededor del	-0.2680846
-0.8216125	alta_velocidad </s>
-0.8216125	alta_velocidad en
-0.8216125	altaria </s>
-0.8216125	altaria o
-0.5205824	amable </s>
-0.9977037	amigos </s>
-0.9977037	amigos en
-0.9977037	amigos entonces
-1.219553	anterior </s>
-1.219553	anterior a
-1.219553	anterior el
-1.219553	anterior que
-1.219553	anterior y
-1.068689	antes </s>
-0.1345885	antes de	-1.528893
-1.174882	antes del	-0.1618367
-2.252976	antes estaba
-2.252976	antes mejor
-0.5205824	aparte de
-0.5205824	aprovechar el
-0.9977037	aproximadamente alrededor
-0.534746	aproximadamente antes	0.2930952
-0.5205824	aproximado m'as
-0.8216125	aqu'i de
-0.8216125	aqu'i desde	-0.233109
-0.5205824	arco </s>
-0.9977037	as'i como
-0.9977037	as'i es	-0.2906407
-0.9977037	as'i hasta
-0.5205824	asistir a
-0.5205824	asunto de
-0.8216125	atardecer </s>
-0.8216125	atardecer y
-0.5205824	atenci'on </s>
-0.9977037	aunque no
-0.9977037	aunque sea
-0.9977037	aunque si
-0.5205824	autobuses que
-0.5205824	autom'aticamente tienes
-0.6111596	ave </s>
-1.951946	ave a
-1.951946	ave d'igame
-1.224527	ave de	-0.1613696
-1.951946	ave desde
-1.951946	ave disponible
-1.951946	ave eh
-1.951946	ave la
-1.951946	ave o
-1.951946	ave pero
-1.951946	ave por
-1.951946	ave porque
-1.951946	ave puede
-1.951946	ave saliendo
-1.951946	ave sevilla
-1.951946	ave si	-0.1998042
-1.488989	ave y
-0.5205824	ay </s>
-0.5205824	ayudar </s>
-1.122642	a~no dos
-1.122642	a~no entonces
-1.122642	a~no entre
-1.122642	a~no y
-0.5205824	b'usqueme usted
-0.835776	badajoz </s>
-1.298734	badajoz a
-1.298734	badajoz el
-1.298734	badajoz para
-1.298734	badajoz y
-0.8216125	bajar desde
-0.8216125	bajar en
-1.219553	bar </s>
-1.219553	bar me
-1.219553	bar o
-0.7565948	bar y	-0.2688858
-0.4284507	barato </s>
-1.36568	barato para
-1.36568	barato que
-1.36568	barato y
-0.5205824	baratos tanto
-0.9279839	barcelona </s>
-1.805813	barcelona a	-0.2611534
-2.26877	barcelona antes	0.3512548
-2.26877	barcelona castell'on
-2.26877	barcelona desde	-0.08173076
-1.190676	barcelona el	-0.3416122
-1.805813	barcelona en	-0.1250134
-2.26877	barcelona ese
-2.26877	barcelona este
-2.26877	barcelona ida
-2.26877	barcelona la
-2.26877	barcelona llegan
-2.26877	barcelona lleida
-2.26877	barcelona ma~nana	-0.2077463
-2.26877	barcelona me
-2.26877	barcelona no
-1.084483	barcelona para	-0.2880585
-2.26877	barcelona pero
-2.26877	barcelona por
-2.26877	barcelona pues
-1.805813	barcelona que
-2.26877	barcelona quer'ia
-2.26877	barcelona quiero
-2.26877	barcelona quisiera
-2.26877	barcelona saldr'ia
-2.26877	barcelona saliendo
-2.26877	barcelona sobre
-2.26877	barcelona un
-2.26877	barcelona una
-1.805813	barcelona valencia	-0.226606
-1.084483	barcelona y	-0.03302556
-0.6585145	bien </s>
-1.842802	bien b'usqueme
-1.115382	bien el	-0.2106511
-1.842802	bien ese
-1.842802	bien est'a
-1.842802	bien estar'ia
-1.379844	bien gracias	-0.04788694
-1.842802	bien me
-1.842802	bien para
-1.842802	bien perfecto
-1.379844	bien s'i	-0.134871
-1.842802	bien si
-1.324642	bilbao </s>
-1.589104	bilbao a	-0.2787738
-2.052061	bilbao al
-2.052061	bilbao alrededor
-2.052061	bilbao barcelona
-1.589104	bilbao de
-2.052061	bilbao desde
-1.589104	bilbao el	-0.03526386
-2.052061	bilbao en
-2.052061	bilbao entonces
-2.052061	bilbao hasta	-0.06643873
-2.052061	bilbao la
-2.052061	bilbao las
-2.052061	bilbao me
-1.114832	bilbao para	-0.01552367
-2.052061	bilbao qu'e
-2.052061	bilbao que
-2.052061	bilbao quer'ia
-2.052061	bilbao quiero
-2.052061	bilbao saber
-2.052061	bilbao santander
-2.052061	bilbao sevilla
-1.114832	bilbao y	-0.05479236
-1.088503	billete </s>
-1.562775	billete a
-0.756184	billete de	-0.9589289
-1.562775	billete del	-0.08618318
-2.025733	billete desde
-2.025733	billete disponible
-1.298313	billete en	-0.2759398
-0.9476379	billete ida	-0.6010791
-2.025733	billete m'as
-2.025733	billete no
-2.025733	billete normal
-2.025733	billete para
-2.025733	billete por	-0.1480692
-2.025733	billete tendr'ia
-2.025733	billete y
-1.219553	billetes </s>
-0.7565948	billetes de	-0.3146528
-1.219553	billetes para
-1.219553	billetes por
-0.5205824	buena hora
-1.799336	buenas a
-1.799336	buenas desear'ia
-1.799336	buenas es
-1.799336	buenas he
-1.336378	buenas me	-0.5743576
-1.799336	buenas mira
-1.071917	buenas quer'ia	-0.1751883
-1.336378	buenas querr'ia	-0.02318478
-1.071917	buenas quisiera	-0.2234931
-1.071917	buenas tardes	-0.4318203
-1.799336	buenas ver'a
-1.842802	bueno desear'ia
-1.842802	bueno el
-1.842802	bueno entre
-1.842802	bueno es
-1.379844	bueno me	-0.2063807
-1.842802	bueno mejor
-1.842802	bueno obtener
-1.115382	bueno pues	-0.03866705
-1.842802	bueno qu'e
-1.842802	bueno quer'ia
-1.842802	bueno quiero
-1.842802	bueno quisiera
-1.842802	bueno s'i
-1.842802	bueno saliendo
-1.842802	bueno ser'ia
-1.842802	bueno si
-1.842802	bueno y
-1.842802	bueno yo
-0.1854127	buenos d'ias	-0.6818088
-0.5216691	burgos </s>
-1.136806	burgos a	-0.2321544
-1.136806	burgos el
-1.599764	burgos la
-1.599764	burgos saliendo
-1.599764	burgos valladolid
-0.5205824	buscar un
-0.5205824	buscar'e la
-0.5205824	buscar'ia un
-0.6466079	c'aceres </s>
-1.261745	c'aceres a	-0.4630733
-1.724702	c'aceres capital
-1.724702	c'aceres desde
-1.724702	c'aceres el	-0.3052365
-1.261745	c'aceres para	-0.1907646
-0.7874727	c'aceres y	-0.06387498
-0.6972961	c'adiz </s>
-1.634526	c'adiz a
-1.634526	c'adiz el	-0.08059056
-1.634526	c'adiz en
-1.634526	c'adiz ese
-1.634526	c'adiz la
-1.634526	c'adiz los	-0.2539144
-1.634526	c'adiz me
-1.634526	c'adiz por
-1.634526	c'adiz saliendo
-0.9977037	c'omo ha
-0.534746	c'omo no
-0.5205824	c'omoda mejor
-0.835776	c'omodo </s>
-1.298734	c'omodo de
-1.298734	c'omodo no
-1.298734	c'omodo para
-1.298734	c'omodo pero
-1.520582	c'ordoba </s>
-1.057625	c'ordoba a	-0.3293977
-0.7931631	c'ordoba el	-0.3102518
-1.520582	c'ordoba para
-1.520582	c'ordoba ser'ia
-1.057625	c'ordoba y
-1.219553	cada cu'anto
-1.219553	cada salida
-0.4921331	cada uno	-0.1343057
-0.5205824	callado </s>
-0.9027228	cama </s>
-1.36568	cama adem'as
-1.36568	cama de
-1.36568	cama o
-1.36568	cama si
-1.36568	cama tienen
-0.5375952	cambiar el	-0.1282461
-0.5375952	cambiar la	-0.0952929
-1.474825	cambiar ninguna
-0.5205824	cambrils a
-0.5205824	camino de
-0.5205824	capital </s>
-0.8216125	caracter'isticas </s>
-0.8216125	caracter'isticas tipo
-0.5205824	carnavales </s>
-0.5205824	caro </s>
-0.8216125	casa </s>
-0.8216125	casa y
-0.5205824	castell'o </s>
-0.7647072	castell'on </s>
-1.379844	castell'on a	-0.4862469
-1.842802	castell'on de
-1.842802	castell'on desde
-1.842802	castell'on destino
-1.379844	castell'on el	-0.1284326
-1.842802	castell'on en
-1.842802	castell'on este
-1.842802	castell'on no
-1.115382	castell'on para	-0.1111082
-1.842802	castell'on por
-1.842802	castell'on viajando
-1.842802	castell'on y
-0.5205824	catalu~na_expres si
-1.474825	catorce </s>
-0.5375952	catorce de	-0.3145945
-1.474825	catorce horas	-0.1334735
-1.474825	catorce por	-0.01458755
-1.474825	catorce tambi'en
-1.474825	catorce verdad
-0.5205824	celebre carnavales
-0.3586547	cerca de	-0.2721443
-0.5205824	cercana </s>
-0.5205824	cercano a
-0.5205824	cero horas
-0.5205824	cierra del
-0.6980231	cinco </s>
-1.88231	cinco a
-1.88231	cinco creo
-0.6127618	cinco de	-0.5652283
-1.88231	cinco esto
-1.88231	cinco horas
-1.88231	cinco la
-1.88231	cinco llega
-1.88231	cinco o
-1.88231	cinco qu'e	-0.1895478
-1.88231	cinco que
-1.88231	cinco y	-0.2714576
-0.9977037	cincuenta </s>
-0.534746	cincuenta y	-0.244794
-0.5205824	citado </s>
-1.122642	ciudad cercana
-1.122642	ciudad de
-1.122642	ciudad monumental
-1.122642	ciudad que
-0.8723444	ciudad_real </s>
-1.136806	ciudad_real a	-0.1516251
-1.599764	ciudad_real el	-0.1588741
-1.599764	ciudad_real hasta	-0.2294367
-1.136806	ciudad_real para
-1.599764	ciudad_real por
-1.136806	ciudad_real y
-0.7565948	claro </s>
-1.219553	claro es
-1.219553	claro para
-1.219553	claro pues
-1.048436	clase </s>
-1.775855	clase de
-1.312897	clase econ'omica	-0.2102514
-1.775855	clase especial
-1.775855	clase m'as
-1.775855	clase no
-1.775855	clase o	-0.2794654
-1.048436	clase preferente	-0.2748875
-1.775855	clase primera
-1.775855	clase qu'e
-1.048436	clase turista	-0.2003904
-1.561975	coche </s>
-0.2211885	coche cama	-0.55121
-1.099017	coche en	-0.2925784
-1.219553	coger a
-0.7565948	coger el
-0.7565948	coger un	-0.2482936
-0.5205824	cogi'endolo a
-0.5205824	cogiendo el
-0.5205824	cojo de
-1.520582	como de
-1.057625	como es
-1.520582	como horarios
-1.520582	como llegar
-1.520582	como m'aximo
-1.520582	como para
-1.520582	como precios
-1.520582	como servicio
-1.520582	como voy
-0.5205824	compa~n'ia </s>
-0.5205824	competici'on deportiva
-0.5205824	completo del
-0.2702844	comprar un	-0.1183586
-0.5205824	compro un
-2.143832	con arco	-0.1253491
-2.143832	con bar
-2.143832	con coche
-0.9595445	con destino	-0.0796902
-2.143832	con direcci'on
-1.206602	con el	-0.1565142
-2.143832	con esto
-2.143832	con la
-2.143832	con las
-2.143832	con literas
-1.416412	con llegada	-0.2466529
-2.143832	con llegar
-1.416412	con punto	-0.2208346
-1.680874	con qu'e	-0.2790864
-0.9595445	con salida	-0.3914079
-1.416412	con servicio	-0.5881217
-2.143832	con trenes
-1.416412	con un	-0.08127158
-2.143832	con unos
-2.143832	con vuelta
-0.9977037	concierto </s>
-0.9977037	concierto a
-0.9977037	concierto para
-0.5205824	concretar el
-0.5205824	concretos para
-0.5205824	condiciones entre
-0.9977037	confirmar el
-0.9977037	confirmar la
-0.9977037	confirmar no
-0.5205824	confirme el
-0.5205824	confundida se~norita
-0.5205824	congreso a
-0.5499768	conocer el	-0.6996691
-1.951946	conocer horario
-0.8738517	conocer horarios	-0.134151
-0.5499768	conocer los	-0.4835271
-1.488989	conocer tambi'en	-0.2574669
-1.951946	conocer un
-0.5205824	conozco entonces
-0.8216125	conseguir el	-0.2545778
-0.8216125	conseguir los
-0.8216125	consulta </s>
-0.8216125	consulta horario
-1.88231	consultar adem'as
-0.6980231	consultar el	-0.4680632
-1.88231	consultar ese	-0.2661009
-1.419353	consultar horario	-0.05435576
-1.154891	consultar horarios	-0.09997867
-0.9450805	consultar los	-0.07886755
-1.88231	consultar precio
-1.88231	consultar precios
-1.88231	consultar tambi'en
-1.88231	consultar trenes
-1.88231	consultar un
-1.88231	consultar viaje
-0.5205824	contestan autom'aticamente
-0.5205824	corresponde al
-0.5205824	cosa odio
-0.5205824	cosita dime
-0.5205824	costa porque
-0.5205824	costar </s>
-1.520582	costar'ia </s>
-1.057625	costar'ia el	-0.1898921
-1.520582	costar'ia en
-1.520582	costar'ia ese
-1.520582	costar'ia ir
-1.520582	costar'ia la
-1.057625	costar'ia un	-0.2853806
-1.520582	costar'ia volver
-0.5205824	crem'a </s>
-0.1144465	creo que	-0.03918918
-1.115382	cu'al de	-0.2138143
-1.842802	cu'al era
-0.1883599	cu'al es	-1.054052
-1.379844	cu'al ser'ia	-0.1591783
-0.9027228	cu'ales de	-0.2796282
-0.9027228	cu'ales llegan
-0.6382611	cu'ales son	-0.1484419
-0.9977037	cu'ando hay
-0.9977037	cu'ando llega
-0.9977037	cu'ando podr'ia
-1.488989	cu'anto costar'ia	-0.2077383
-0.767659	cu'anto cuesta	-0.4562612
-1.951946	cu'anto de
-1.488989	cu'anto dura	-0.1253491
-1.488989	cu'anto es
-1.014717	cu'anto me	-0.4295405
-1.951946	cu'anto puede
-1.951946	cu'anto salen
-1.951946	cu'anto tarda
-1.951946	cu'anto tardar'ia
-1.951946	cu'anto tiempo
-1.014717	cu'anto vale	-0.08893992
-1.951946	cu'anto valen
-0.8216125	cu'antos d'ias
-0.8216125	cu'antos de
-0.5205824	cuales llegan
-1.775855	cualquier clase
-1.775855	cualquier compa~n'ia
-0.8386252	cualquier d'ia	-0.3023886
-1.312897	cualquier hora	-0.08516047
-1.775855	cualquier otro
-0.6977604	cualquier tipo	0.07983628
-0.8386252	cualquier tren	-0.2388591
-0.8216125	cualquiera </s>
-0.8216125	cualquiera pero
-0.5205824	cuando podr'ia
-0.5205824	cuanto antes
-1.423672	cuarenta </s>
-1.423672	cuarenta que
-0.2393852	cuarenta y	-0.5213628
-0.8216125	cuarto </s>
-0.8216125	cuarto de
-0.8574612	cuatro </s>
-1.472598	cuatro a
-1.935556	cuatro cinco
-1.935556	cuatro cincuenta
-0.5947692	cuatro de	-0.4511163
-1.935556	cuatro deseo
-1.935556	cuatro necesitar'ia
-1.472598	cuatro o
-1.935556	cuatro por	-0.01458755
-1.935556	cuatro s'i
-1.935556	cuatro u
-1.472598	cuatro y
-0.6247454	cuenca </s>
-1.099017	cuenca a	-0.1854327
-1.561975	cuenca con
-0.8345558	cuenca el	-0.2404272
-1.561975	cuenca y
-0.5205824	cuento </s>
-1.561975	cuesta </s>
-1.561975	cuesta billete
-1.561975	cuesta cada
-1.561975	cuesta d'igame
-0.6247454	cuesta el	-0.4308717
-1.561975	cuesta este
-1.561975	cuesta ir
-1.561975	cuesta un	-0.175355
-0.5205824	cullera y
-0.5205824	cultural y
-0.5205824	curso de
-0.5205824	d'e la
-1.420212	d'ia </s>
-2.498306	d'ia a
-2.498306	d'ia anterior
-2.035348	d'ia antes	0.4082512
-1.770887	d'ia catorce	-0.09467284
-2.035348	d'ia cinco	-0.5787714
-2.035348	d'ia cuatro	-0.192593
-1.561076	d'ia de	-0.2125146
-2.498306	d'ia diecinueve	-0.4378829
-2.035348	d'ia dieciocho	-0.2154722
-1.770887	d'ia diecis'eis	-0.2091576
-2.498306	d'ia diecisiete	-0.387367
-1.770887	d'ia diez	-0.3814895
-2.035348	d'ia doce	-0.3855325
-2.035348	d'ia dos	-0.08781633
-2.035348	d'ia el
-2.498306	d'ia entre
-2.498306	d'ia est'a
-1.770887	d'ia laborable	-0.3951299
-2.498306	d'ia lunes	-0.2683726
-2.498306	d'ia me	-0.2752211
-2.498306	d'ia nueve	-0.1260767
-2.498306	d'ia o
-1.770887	d'ia ocho	-0.06058614
-2.035348	d'ia once	-0.01926842
-2.035348	d'ia para
-2.498306	d'ia pero
-1.770887	d'ia por	0.04357201
-2.498306	d'ia preferente
-2.498306	d'ia qu'e
-2.498306	d'ia que
-2.035348	d'ia quince	-0.1696217
-2.498306	d'ia s'abado
-2.035348	d'ia seis	-0.4850986
-2.498306	d'ia siete	-0.08585867
-1.770887	d'ia siguiente	-0.1649831
-1.770887	d'ia trece
-1.770887	d'ia treinta	-0.2638907
-2.498306	d'ia tres	-0.3927512
-2.035348	d'ia uno	-0.1789723
-2.035348	d'ia veinte	-0.2428855
-2.498306	d'ia veinticinco
-2.035348	d'ia veinticuatro	-0.322353
-2.498306	d'ia veintid'os	0.03054306
-2.498306	d'ia veintinueve	-0.320645
-2.035348	d'ia veintiocho	-0.1094356
-2.035348	d'ia veintis'eis
-1.561076	d'ia veintisiete	0.09923586
-2.498306	d'ia veintitr'es	-0.3547633
-2.498306	d'ia veintiuno	-0.05756947
-2.498306	d'ia y
-1.935556	d'ias </s>
-1.935556	d'ias desear'ia	-0.1478797
-1.935556	d'ias diecinueve	-0.3253312
-1.935556	d'ias diecis'eis
-1.935556	d'ias doce
-1.935556	d'ias el
-1.935556	d'ias laborables
-1.935556	d'ias llamaba	0.001014143
-1.935556	d'ias me	-0.7495676
-1.935556	d'ias mira	-0.4345036
-1.935556	d'ias mire	-0.2311379
-1.935556	d'ias necesito
-1.935556	d'ias ocho
-1.935556	d'ias podr'ia
-1.935556	d'ias pues
-1.935556	d'ias quer'ia	-0.06986569
-1.935556	d'ias querr'ia	-0.02855554
-1.935556	d'ias quisiera	-0.3468832
-1.935556	d'ias siete	-0.2752442
-1.935556	d'ias son
-1.472598	d'ias tengo
-1.935556	d'ias uno
-1.935556	d'ias veinte	-0.2281808
-1.935556	d'ias veintinueve	-0.1956385
-1.935556	d'ias y
-1.751031	d'igame a
-1.751031	d'igame alguno
-1.023612	d'igame cu'al	-0.004466563
-1.751031	d'igame cu'antos
-0.6729368	d'igame el	-0.7324128
-1.751031	d'igame en
-1.751031	d'igame los
-1.288074	d'igame por	-0.09620312
-1.751031	d'igame si
-1.751031	d'igame tambi'en
-0.5205824	d'onde quiero
-0.5205824	da igual	-0.06947948
-0.9977037	dado </s>
-0.9977037	dado el
-0.9977037	dado es
-0.5205824	dame los
-0.361504	dar el	-0.7835652
-1.298734	dar los
-1.298734	dar por
-0.534746	darme el	-0.2545778
-0.9977037	darme los
-2.641352	de 'avila	-0.2756839
-2.641352	de </s>
-3.368772	de a
-1.423144	de abril	-0.7922178
-2.905814	de acuerdo	-0.1253491
-1.53411	de agosto	-0.5530766
-2.431542	de albacete	-0.4447443
-3.368772	de alg'un	-0.134089
-2.184484	de alicante	-0.5536013
-3.368772	de almer'ia	-0.26455
-3.368772	de alta_velocidad
-3.368772	de aqu'i
-2.905814	de ave
-3.368772	de badajoz
-3.368772	de bar	-0.1083503
-1.654785	de barcelona	-0.6676531
-1.53411	de bilbao	-0.5507614
-2.431542	de billete	-0.2362782
-2.641352	de billetes	-0.3744198
-2.431542	de burgos	-0.2870793
-2.290677	de c'aceres	-0.1061794
-3.368772	de c'adiz
-3.368772	de c'ordoba
-3.368772	de cambrils
-1.913184	de castell'on	-0.8311013
-2.641352	de ciudad_real	-0.1331729
-2.905814	de clase
-2.290677	de cualquier	-0.1503277
-3.368772	de cuatro
-2.431542	de cuenca	-0.2115113
-2.184484	de d'ia	-0.1492437
-2.905814	de de
-1.822472	de diciembre	-0.576116
-2.905814	de diez	-0.3236472
-2.905814	de doce	-0.2607456
-3.368772	de dormir
-2.027985	de dos	-0.9118225
-2.905814	de el	-0.1063958
-2.431542	de ellos	-0.1120407
-1.913184	de enero	-0.4872428
-3.368772	de entre
-3.368772	de esa
-2.290677	de ese	-0.5256623
-2.099223	de esos	-0.5759175
-3.368772	de esta
-3.368772	de estar
-2.905814	de estas
-2.184484	de este	-0.2999697
-2.184484	de estos	-0.09922187
-3.368772	de euromed
-1.654785	de febrero	-0.4564282
-3.368772	de fecha
-3.368772	de forma
-2.641352	de gij'on	-0.2696392
-3.368772	de girona
-2.905814	de granada	-0.2025861
-3.368772	de hora
-3.368772	de horario
-2.905814	de horarios	-0.1831896
-3.368772	de huelva
-1.602429	de ida	-0.8219858
-3.368772	de ja'en
-1.747473	de julio	-0.6761492
-1.513533	de junio	-0.7977132
-2.905814	de l'erida
-1.284589	de la	-1.059364
-2.641352	de la_coru~na	-0.1540096
-1.683538	de las	-0.6164112
-3.368772	de le'on
-3.368772	de litera
-2.431542	de llegada	-0.1009392
-2.905814	de lleida	-0.2679395
-2.905814	de logro~no	-0.2621126
-1.683538	de los	-0.9870141
-2.905814	de m'alaga	-0.2691655
-1.53411	de madrid	-0.5781775
-3.368772	de manera
-1.391671	de marzo	-0.7446699
-1.578442	de mayo	-0.7118798
-3.368772	de ma~nana	-0.09486677
-3.368772	de mediod'ia
-3.368772	de mes
-3.368772	de muestras
-2.099223	de murcia	-0.2521243
-3.368772	de navidad
-3.368772	de negocio
-3.368772	de negocios
-3.368772	de noche	-0.05342203
-2.027985	de noviembre	-0.4963104
-3.368772	de nueve
-2.027985	de octubre	-0.5377591
-3.368772	de orense
-3.368772	de origen
-2.905814	de oviedo	-0.4277557
-2.431542	de palencia	-0.2064769
-2.431542	de pamplona	-0.09018781
-3.368772	de par'is
-3.368772	de pasar
-3.368772	de pascua
-3.368772	de paso
-2.905814	de primera	-0.07502957
-3.368772	de r'apidos
-3.368772	de s'abado
-3.368772	de s'olo
-3.368772	de salamanca
-2.099223	de salida	-0.09087503
-3.368772	de san_jos'e
-2.431542	de san_sebasti'an	-0.3459442
-2.431542	de santander	-0.2062203
-3.368772	de santiago
-3.368772	de segovia
-3.368772	de seis
-2.905814	de semana	-0.3694859
-3.368772	de semana_santa
-1.913184	de septiembre	-0.5463814
-3.368772	de ser
-3.368772	de servicios
-3.368772	de setiembre
-1.966802	de sevilla	-0.4003402
-3.368772	de siete
-3.368772	de talgo
-2.290677	de tarragona	-0.548355
-3.368772	de teatro
-3.368772	de teruel
-2.905814	de trabajo
-1.913184	de tren	-0.4884996
-1.783355	de trenes	-0.5262635
-3.368772	de tres
-2.184484	de un	-0.9165753
-3.368772	de una
-3.368772	de unos
-3.368772	de vacaciones
-1.555711	de valencia	-0.9161558
-2.641352	de valladolid	-0.2756839
-3.368772	de verano
-2.905814	de viajar	-0.06587926
-2.290677	de viaje	-0.4584811
-2.905814	de viajes	-0.1736276
-3.368772	de viernes
-2.641352	de vigo	-0.3086592
-2.641352	de vitoria	-0.1512804
-1.683538	de vuelta	-0.470234
-2.431542	de zamora	-0.177066
-1.71433	de zaragoza	-0.7727262
-0.5205824	debe durar
-0.5205824	deber'ian ser
-0.5205824	debido </s>
-1.951946	decir </s>
-1.488989	decir a
-1.951946	decir cu'anto
-0.8738517	decir el	-0.8229243
-1.951946	decir en
-1.224527	decir horarios	-0.134151
-1.488989	decir la
-1.488989	decir los	-0.05755833
-1.951946	decir para
-1.224527	decir por	-0.1480692
-1.488989	decir qu'e	-0.04367826
-1.951946	decir que
-1.951946	decir si
-1.951946	decir trenes
-1.951946	decir ya
-1.474825	decirme cu'ales
-0.7474056	decirme el	-0.3064439
-1.474825	decirme la
-1.011867	decirme los	-0.1125658
-1.474825	decirme por
-1.474825	decirme si
-0.5205824	decirte una
-0.5205824	deis el
-1.525273	del 'ultimo	-0.2080112
-1.875949	del ave
-2.603368	del a~no
-1.875949	del billete	-0.5193303
-2.14041	del coche	0.1176932
-2.14041	del cuatro
-1.333819	del d'ia	-0.0561616
-2.14041	del de	-0.1091464
-2.603368	del diecinueve
-2.603368	del domingo
-1.057068	del dos	-0.7134548
-1.666138	del euromed	-0.2165934
-2.14041	del horario	-0.2223358
-2.14041	del intercity	0.00466156
-2.603368	del jueves	-0.211316
-2.14041	del m'as	-0.2826108
-2.603368	del mare_nostrum
-1.262581	del mediod'ia	-0.2725379
-1.875949	del mes	-0.05257045
-2.14041	del mismo
-1.666138	del pr'oximo
-2.14041	del precio	-0.1381738
-1.875949	del primer	-0.4265175
-2.603368	del primero
-2.603368	del que
-2.603368	del quince
-1.666138	del s'abado	-0.02075747
-2.14041	del segundo	-0.1602098
-2.603368	del seis
-2.14041	del talgo	-0.06621406
-2.603368	del tercer
-2.603368	del tercero
-2.603368	del ticket
-2.603368	del tipo
-2.603368	del trayecto	-0.05257045
-1.14778	del tren	-0.4188189
-2.603368	del trenes
-2.603368	del tres
-2.603368	del triana
-1.525273	del uno	-0.1367192
-2.14041	del veinticinco	0.03979045
-1.875949	del veintis'eis	-0.2827548
-1.419081	del viaje	-0.5647809
-2.14041	del viernes
-0.8216125	demasiado caro
-0.8216125	demasiado tarde
-0.9977037	deme cualquier
-0.9977037	deme el	-0.2676423
-0.9977037	deme horarios
-0.3586547	dentro de
-0.5205824	deportiva que
-0.5205824	des horarios
-1.89722	desde 'avila	-0.141157
-2.83445	desde </s>
-1.756355	desde alicante	-0.08374509
-2.10703	desde almer'ia	-0.1180092
-2.83445	desde almeria
-2.371492	desde aqu'i	-0.2102514
-1.378862	desde barcelona	-0.3364893
-0.9792116	desde bilbao	-0.5444401
-2.10703	desde burgos	-0.1331729
-1.89722	desde c'aceres	-0.1348976
-2.83445	desde c'ordoba	-0.2414366
-1.756355	desde castell'on	-0.009956345
-1.650162	desde ciudad_real	-0.1223711
-2.10703	desde cuenca
-2.83445	desde el
-2.83445	desde el_ferrol
-2.83445	desde gerona
-2.10703	desde gij'on	-0.1157328
-1.89722	desde granada	-0.07978599
-2.83445	desde guadalajara
-1.89722	desde hendaya	-0.1520919
-2.371492	desde huelva	-0.2231945
-2.371492	desde ir'un
-2.371492	desde iru~nea	-0.1253491
-2.371492	desde la_coru~na
-1.89722	desde las	-0.1028581
-1.756355	desde le'on	-0.2424742
-1.650162	desde lleida	-0.5697239
-1.89722	desde logro~no	-0.0601966
-2.83445	desde luego
-1.249033	desde madrid	-0.456327
-2.83445	desde monz'on
-1.564901	desde murcia	-0.3150582
-2.83445	desde orense
-1.564901	desde oviedo	-0.1720281
-2.10703	desde palencia	-0.1080386
-2.371492	desde pamplona	-0.2531857
-2.83445	desde salamanca
-1.756355	desde san_sebasti'an	-0.2060677
-2.371492	desde santander
-2.10703	desde segovia
-2.10703	desde sevilla	-0.1389354
-2.83445	desde tarragona	-0.2205075
-2.371492	desde teruel
-2.83445	desde toledo
-1.120463	desde valencia	-0.327261
-2.371492	desde valladolid
-2.371492	desde vigo
-2.83445	desde vitoria
-1.093497	desde zaragoza	-0.5325865
-1.219553	deseaba nada
-0.7565948	deseaba obtener
-1.219553	deseaba saber
-1.219553	deseaba tambi'en
-1.191103	desear'ia conocer	-0.01579252
-1.918522	desear'ia hacer
-1.918522	desear'ia ir
-1.918522	desear'ia m'as
-1.191103	desear'ia obtener	-0.4232746
-1.918522	desear'ia que
-0.5777358	desear'ia saber	-0.2047404
-1.191103	desear'ia salir	-0.3361049
-1.918522	desear'ia un	-0.2335145
-1.191103	desear'ia viajar	-0.1500716
-1.637408	deseo cambiar	-0.07433499
-1.637408	deseo conocer	-0.02457257
-2.100366	deseo consultar
-1.372947	deseo el	-0.2094827
-2.100366	deseo horarios
-2.100366	deseo informaci'on
-2.100366	deseo ir	-0.2412296
-1.637408	deseo llegar	-0.3893252
-2.100366	deseo los	-0.09655564
-2.100366	deseo nada	-0.7509547
-1.637408	deseo obtener	-0.208509
-1.637408	deseo que	-0.3171854
-2.100366	deseo realizar
-2.100366	deseo regresar
-1.022272	deseo saber	-0.3898208
-1.022272	deseo salir	-0.6071689
-1.637408	deseo tambi'en	-0.1328467
-1.637408	deseo un	-0.02633253
-1.372947	deseo viajar	-0.1496031
-1.136806	despu'es </s>
-0.4154765	despu'es de	-0.539476
-1.599764	despu'es del
-1.599764	despu'es en
-1.599764	despu'es saliendo
-1.599764	despu'es y
-1.900794	destino a	-0.0733181
-1.437836	destino alicante	-0.2046118
-1.900794	destino antes
-0.8226991	destino barcelona	-0.1213087
-1.900794	destino bilbao
-1.900794	destino castell'on
-1.900794	destino en
-1.900794	destino ja'en
-0.9635639	destino madrid	-0.0301655
-1.900794	destino por
-1.900794	destino santander
-1.900794	destino sevilla
-1.900794	destino tarragona
-1.900794	destino teruel
-1.900794	destino valladolid
-1.900794	destino zaragoza
-0.8216125	dice cu'al
-0.8216125	dice el
-0.5205824	dices el	-0.2545778
-0.8723444	dicho </s>
-1.599764	dicho al
-1.599764	dicho antes
-1.599764	dicho cu'al
-1.599764	dicho de
-1.599764	dicho el
-1.599764	dicho es
-1.599764	dicho los
-1.599764	dicho que
-1.599764	dicho tren
-0.5205824	dichos trenes
-1.423672	diciembre </s>
-1.423672	diciembre a
-1.423672	diciembre con
-1.423672	diciembre de
-1.423672	diciembre por	-0.3674836
-1.423672	diciembre qu'e
-1.423672	diciembre que
-1.423672	diciembre y
-0.8216125	diciendo que	-0.2653193
-0.8216125	diciendo se~nora
-0.6729368	diecinueve </s>
-0.5667441	diecinueve de	-0.5555485
-1.751031	diecinueve horas	-0.1916331
-1.288074	diecinueve o
-1.751031	diecinueve por
-1.751031	diecinueve treinta
-1.751031	diecinueve y	-0.3303584
-1.099017	dieciocho a
-1.561975	dieciocho cuarenta
-0.6247454	dieciocho de	-0.4041935
-1.561975	dieciocho o
-1.099017	dieciocho por	-0.01458755
-1.561975	dieciocho y	-0.2956367
-0.8386252	diecis'eis </s>
-1.775855	diecis'eis cuarenta	0.09165654
-0.5915678	diecis'eis de	-0.4764608
-1.775855	diecis'eis habr'ia
-1.775855	diecis'eis horas
-1.048436	diecis'eis o	-0.1782173
-1.775855	diecis'eis para
-1.775855	diecis'eis y
-1.599764	diecisiete </s>
-1.599764	diecisiete a
-0.2589771	diecisiete de	-0.4400683
-1.599764	diecisiete horas
-1.599764	diecisiete no
-0.8216125	diera el
-0.8216125	diera horarios
-0.5205824	dieras un
-1.66671	diez </s>
-1.66671	diez a	-0.1655064
-0.4824233	diez de	-0.6368078
-1.66671	diez o
-1.66671	diez por
-1.66671	diez pues
-1.66671	diez treinta
-1.203753	diez y	-0.7137725
-0.5205824	diga los
-0.9977037	digas a
-0.9977037	digas el
-0.9977037	digas horarios
-0.9977037	dijese cu'ales
-0.9977037	dijese el
-0.9977037	dijese los
-1.219553	dime alg'un
-1.219553	dime cu'ando
-1.219553	dime el	-0.2545778
-1.219553	dime horarios
-1.219553	dime los
-0.5205824	dir'ia el	-0.2676423
-0.5205824	direcci'on a
-0.5205824	dispone de
-0.7565948	disponible </s>
-1.219553	disponible el
-1.219553	disponible en
-1.219553	disponible para
-0.3586547	disponibles </s>
-0.8216125	diurno a
-0.8216125	diurno es
-1.336378	doce </s>
-1.336378	doce a	-0.1658845
-0.5297876	doce de	-0.4928629
-1.336378	doce del	-0.3747732
-1.799336	doce ese
-1.799336	doce no
-1.799336	doce por
-1.799336	doce vamos
-1.336378	doce y	-0.3199362
-0.9812927	domingo </s>
-1.918522	domingo a	-0.4543365
-1.918522	domingo cualquiera
-1.455565	domingo d'ia	-0.2004734
-1.455565	domingo de	-0.07899158
-1.918522	domingo del
-1.918522	domingo desde
-1.918522	domingo en	-0.2204566
-1.918522	domingo para
-1.191103	domingo por	-0.3957607
-1.918522	domingo que
-1.918522	domingo si
-1.918522	domingo veinticinco
-1.918522	domingo veintid'os
-1.918522	domingo veintinueve
-1.918522	domingo veintiocho	-0.05756947
-1.918522	domingo veintisiete
-1.918522	domingo y
-0.534746	dormir en
-0.9977037	dormir hay
-2.052061	dos 'ultimos
-0.8677741	dos </s>
-2.052061	dos cuarenta
-0.6500919	dos de	-0.4125181
-1.589104	dos del
-2.052061	dos es
-2.052061	dos horarios
-2.052061	dos la
-1.114832	dos mil	-1.095474
-2.052061	dos semanas
-0.9739668	dos trenes	-0.05867869
-2.052061	dos tres
-2.052061	dos y	-0.2160894
-0.5205824	dura el
-0.5205824	duraci'on del	-0.3320212
-1.219553	durante cualquier
-1.219553	durante el
-0.7565948	durante la	-0.2666117
-1.219553	durante toda
-0.5205824	durar como
-0.3586547	durmiendo en	-0.2769403
-0.5205824	e ir
-0.8216125	econ'omica </s>
-0.8216125	econ'omica posible
-0.5205824	efectivamente y
-0.5205824	efecto </s>
-0.3586547	eh </s>
-0.9977037	ejemplo </s>
-0.9977037	ejemplo c'adiz
-0.9977037	ejemplo el
-1.949224	el 'ultimo	-0.0271498
-3.404811	el 'unico
-2.941854	el </s>
-3.404811	el anterior
-2.467582	el ave	-0.2484249
-1.819395	el billete	-0.6824115
-3.404811	el camino
-2.220524	el catorce	-0.7864206
-1.783512	el cinco	-0.6489902
-3.404811	el coche	-0.2452096
-2.467582	el cuatro	-0.2717742
-1.080703	el d'ia	-0.5105231
-1.719577	el de	-0.660668
-2.677392	el del
-3.404811	el destino
-1.819395	el diecinueve	-0.8058597
-1.901504	el dieciocho	-0.4262778
-2.326717	el diecis'eis	-0.2498026
-2.064025	el diecisiete	-0.2734237
-2.002842	el diez	-0.7263087
-2.064025	el doce	-0.6021495
-1.511132	el domingo	-0.2778289
-2.326717	el dos	-0.4449136
-2.326717	el euromed	-0.4007555
-2.326717	el fin	0.1471422
-1.511132	el horario	-0.821979
-2.677392	el intercity	-0.04720452
-3.404811	el intervalo	-0.2102514
-1.690825	el jueves	-0.2164066
-1.549573	el lunes	-0.2411918
-2.220524	el m'as	-0.3988746
-3.404811	el mare_nostrum
-1.719577	el martes	-0.1939022
-3.404811	el mediod'ia
-3.404811	el mes
-2.220524	el mi'ercoles	-0.1344317
-2.002842	el mismo	-0.5810447
-3.404811	el momento
-3.404811	el norte
-2.002842	el nueve	-0.5356912
-1.783512	el ocho	-0.4258823
-2.326717	el once	-0.658252
-3.404811	el otro
-1.20653	el pr'oximo	-0.9763122
-1.225168	el precio	-1.041467
-1.949224	el primer	-0.244476
-2.220524	el primero	-0.1544788
-2.941854	el puente
-2.677392	el punto	0.001014143
-1.949224	el que	-0.2791139
-1.949224	el quince	-0.7106893
-3.404811	el regreso
-1.663858	el s'abado	-0.2926307
-2.941854	el segundo
-1.901504	el seis	-0.8521286
-2.220524	el siete	-0.2841335
-2.467582	el siguiente
-2.467582	el talgo	-0.03168173
-1.819395	el tipo	-1.209524
-2.677392	el trayecto	-0.05257045
-2.941854	el trece	-0.2127189
-1.901504	el treinta	-0.4775436
-1.57015	el tren	-0.3711959
-3.404811	el tren_hotel
-2.064025	el tres	-0.5276203
-1.783512	el uno	-0.7401794
-2.941854	el valencia	-0.2713758
-1.901504	el veinte	-0.6376333
-2.002842	el veinticinco	-0.5244811
-2.135263	el veinticuatro	-0.1990001
-2.677392	el veintid'os	-0.02132303
-2.135263	el veintinueve	-0.7864206
-2.002842	el veintiocho	-0.5865568
-2.135263	el veintis'eis	-0.3998351
-2.467582	el veintisiete	0.04217976
-2.220524	el veintitr'es	-0.2556846
-2.467582	el veintiuno	-0.2343743
-1.57015	el viaje	-0.3125639
-1.297529	el viernes	-0.3186873
-2.941854	el viernes_santo
-0.5205824	el_ferrol no
-0.3586547	elegir el
-1.36568	ellos </s>
-1.36568	ellos a
-1.36568	ellos es	-0.1768159
-1.36568	ellos llega
-1.36568	ellos llegan
-1.36568	ellos son
-1.36568	ellos tiene
-2.943828	en </s>
-2.943828	en agosto	-0.2447897
-2.480871	en alaris
-2.943828	en albacete	-0.2679395
-2.943828	en alg'un
-2.480871	en alicante
-2.943828	en alta_velocidad
-2.943828	en altaria
-1.541859	en ave	-0.3879247
-1.865734	en barcelona	-0.05456732
-2.943828	en c'aceres
-2.216409	en cama	-0.2750606
-2.480871	en castell'on	-0.1598007
-2.943828	en ciudad_real
-1.397529	en clase	-0.5768117
-1.358412	en coche	-0.6875005
-2.216409	en cualquier	-0.02442484
-2.943828	en cullera
-2.943828	en d'ia
-2.943828	en d'ias
-2.943828	en efecto
-1.050149	en el	-0.4447028
-2.943828	en en
-2.943828	en esa
-2.480871	en ese
-2.943828	en este
-1.358412	en euromed	-0.1783744
-2.943828	en fin
-2.943828	en fumadores
-2.943828	en galicia
-2.943828	en horario
-2.943828	en huelva
-1.67428	en intercity	-0.185261
-2.480871	en la
-2.943828	en le'on
-2.006598	en litera	0.09227006
-2.943828	en llegar
-2.943828	en m'alaga
-2.216409	en madrid
-2.480871	en mi	-0.2352256
-2.943828	en nochevieja
-1.865734	en preferente	-0.1199856
-1.289386	en primera	-0.4058554
-2.480871	en qu'e	-0.2414139
-2.943828	en que
-2.943828	en realidad
-2.006598	en regional	-0.1061676
-2.943828	en saber
-2.943828	en segunda	-0.2352256
-2.216409	en semana_santa	-0.132038
-2.943828	en septiembre
-2.480871	en sevilla
-2.943828	en si
-1.177485	en talgo	-0.5733677
-2.480871	en tarragona	-0.0575096
-2.480871	en teruel	-0.1200226
-2.943828	en tipo
-1.358412	en tren	-0.1059292
-2.943828	en tren_hotel
-2.480871	en trenes
-2.216409	en turista
-0.8840438	en un	-0.4074292
-2.943828	en una
-2.480871	en valencia	-0.1261749
-2.943828	en valladolid
-2.216409	en vez	-0.1890344
-1.759541	en viaje	-0.2329973
-2.943828	en vigo
-2.943828	en zaragoza	-0.075745
-2.943828	en zona
-1.36568	enero </s>
-1.36568	enero a	-0.2647354
-1.36568	enero de
-1.36568	enero el
-1.36568	enero en
-1.36568	enero para
-1.36568	enero quer'ia
-0.5205824	ense~nara los
-0.5205824	entendido </s>
-0.5205824	enterar para
-0.5205824	entiendo c'omo
-1.842802	entonces </s>
-1.842802	entonces bueno
-1.842802	entonces claro
-1.379844	entonces cu'anto	-0.2370863
-1.842802	entonces deme
-1.842802	entonces el
-0.6585145	entonces me	-0.5074108
-1.842802	entonces necesito
-1.379844	entonces no
-1.379844	entonces quer'ia	-0.2422783
-1.842802	entonces quiero
-1.842802	entonces tengo
-1.842802	entonces ya
-2.122643	entre </s>
-2.122643	entre bilbao	-0.2465508
-2.122643	entre c'ordoba
-2.122643	entre cada
-0.5763429	entre el	-0.2800276
-2.122643	entre esos
-2.122643	entre granada
-0.3816893	entre las	-0.2718562
-2.122643	entre lleida
-2.122643	entre lunes
-2.122643	entre madrid
-2.122643	entre zaragoza
-0.5205824	enumerar los
-0.5205824	equipada </s>
-0.5205824	equivocado quiero
-1.298734	era </s>
-1.298734	era de
-1.298734	era el
-1.298734	era solo
-1.298734	era todo
-1.298734	era un
-0.8216125	error la
-0.8216125	error no	-0.266591
-1.272223	es </s>
-2.078814	es a
-2.541772	es buena
-2.541772	es bueno
-2.078814	es cada	-0.1643295
-2.541772	es coche
-1.814352	es de
-2.541772	es debido
-2.078814	es demasiado	-0.2102514
-2.541772	es desde
-1.038464	es el	-0.5734865
-2.078814	es en
-2.541772	es este
-1.604542	es euromed	-0.3723766
-2.541772	es exactamente
-2.541772	es horario
-2.541772	es imposible
-2.078814	es intercity
-2.541772	es ir
-2.078814	es la	-0.1147377
-2.541772	es llegar
-2.541772	es lo	-0.1805578
-2.078814	es m'as	-0.2533752
-2.078814	es muy
-2.541772	es oviedo
-2.541772	es palencia
-1.463677	es para
-2.541772	es pero
-1.357485	es posible	-0.4201645
-1.086184	es que	-0.1036658
-2.541772	es s'abado
-2.541772	es saber
-2.541772	es salir
-2.541772	es su	0.001014113
-1.814352	es suficiente	-0.1583975
-2.541772	es talgo
-1.357485	es todo	-0.7223389
-0.9954723	es un	0.006455302
-2.541772	es volver
-2.541772	es y
-1.298734	esa franja
-1.298734	esa hora
-1.298734	esa misma
-1.298734	esa ruta
-0.835776	esa semana	-0.2292538
-1.729723	ese 'ultimo	-0.03656884
-2.19268	ese </s>
-2.19268	ese billete	-0.2830384
-0.7907109	ese d'ia	-0.2136612
-2.19268	ese de
-1.729723	ese diurno
-2.19268	ese domingo
-2.19268	ese es
-1.729723	ese horario	-0.2619236
-2.19268	ese intercity
-1.255451	ese mismo	-0.1901693
-2.19268	ese no
-1.729723	ese primer	-0.1836471
-2.19268	ese recorrido
-1.465261	ese talgo	0.01843669
-2.19268	ese tipo
-1.729723	ese trayecto	-0.1677264
-0.8518937	ese tren	-0.6024132
-1.465261	ese viaje	-0.264309
-2.19268	ese viernes
-0.8843827	eso </s>
-1.358655	eso era	-0.3107075
-0.552064	eso es	-0.7237116
-1.821612	eso est'a
-1.821612	eso me
-1.821612	eso por
-1.358655	eso quiero	-0.2758267
-1.821612	eso s'i
-1.821612	eso ser'ia
-0.9607148	esos dos	-0.2324902
-0.9607148	esos horarios
-0.6962531	esos trenes	-0.2891802
-1.423672	esos viajes
-0.5205824	espec'ificamente por
-0.5205824	especial me
-1.66671	est'a </s>
-0.4824233	est'a bien	-0.2298927
-1.66671	est'a diciendo	-0.2102514
-1.66671	est'a disponible
-1.66671	est'a gracias	-0.5258894
-1.66671	est'a muchas	-0.04037857
-1.203753	est'a todo	-0.2598886
-1.66671	est'a totalmente
-0.9977037	esta bien
-0.9977037	esta noche
-0.9977037	esta semana
-0.5205824	estaba interesado
-0.5205824	estado las
-0.5205824	estamos me
-0.6962531	estar all'i	-0.1436854
-0.9607148	estar el
-0.6962531	estar en
-0.3586547	estar'ia bien
-0.8216125	estas </s>
-0.8216125	estas caracter'isticas
-1.659685	este 'ultimo	-0.03656884
-1.659685	este a~no
-2.122643	este billete	-0.2961541
-2.122643	este domingo
-1.185413	este fin	0.1471422
-2.122643	este jueves
-2.122643	este mes	-0.1677264
-2.122643	este mi'ercoles
-1.659685	este mismo
-2.122643	este pr'oximo	-0.2564324
-1.185413	este s'abado
-2.122643	este servicio
-2.122643	este talgo
-0.9383552	este tren	-0.3595849
-1.659685	este viaje	-0.1810692
-0.720673	este viernes	-0.1512514
-2.122643	este y
-1.122642	esto el
-0.6596847	esto es
-1.122642	esto muchas
-1.423672	estos 'ultimos
-1.423672	estos dos
-1.423672	estos horarios
-1.423672	estos talgos
-1.423672	estos trayectos
-1.423672	estos trenes	-0.1402098
-0.9607148	estos viajes	-0.00660561
-1.122642	estoy diciendo
-1.122642	estoy interesado
-1.122642	estoy refiriendo
-1.122642	estoy satisfecho
-1.122642	estrella </s>
-1.122642	estrella en	-0.258341
-1.122642	estrella si
-1.122642	estrella y	-0.2634555
-0.4644328	euromed </s>
-1.967741	euromed disponibles
-1.967741	euromed el
-1.967741	euromed en
-1.967741	euromed entre
-1.967741	euromed es
-1.967741	euromed por
-1.240321	euromed que	-0.1646562
-1.240321	euromed si	-0.3343949
-1.967741	euromed vale
-1.030511	euromed y	-0.09764761
-1.298734	exactamente </s>
-1.298734	exactamente antes
-1.298734	exactamente cu'al
-1.298734	exactamente el
-1.298734	exactamente entre
-1.298734	exactamente s'i
-0.7565948	exacto </s>
-1.219553	exacto del
-1.219553	exacto ese
-1.219553	exacto eso
-0.5205824	examen en
-0.5205824	excursi'on el
-0.6596847	existe alg'un	-0.1859551
-1.122642	existe ning'un
-1.122642	existe otro
-1.122642	exposici'on abre
-1.122642	exposici'on al
-1.122642	exposici'on cierra
-1.122642	exposici'on no
-0.5205824	fallas para
-0.8216125	falta llegar
-0.8216125	falta viajar
-1.88231	favor </s>
-1.88231	favor adem'as
-1.88231	favor cu'al	0.2874942
-1.88231	favor dime
-1.88231	favor el	-0.1394219
-1.88231	favor en
-1.88231	favor horarios	-0.1965129
-1.88231	favor la
-1.88231	favor los
-1.88231	favor me
-1.88231	favor mire
-1.88231	favor otra
-1.88231	favor podr'ia	-0.1673969
-1.88231	favor qu'e	-0.1895478
-1.88231	favor quer'ia
-1.88231	favor querr'ia
-1.88231	favor quisiera
-1.88231	favor s'i
-1.88231	favor se
-1.88231	favor si	-0.1408267
-1.88231	favor tambi'en
-1.88231	favor ver'a
-1.88231	favor y
-1.561975	febrero </s>
-1.561975	febrero bueno
-1.561975	febrero de	-0.6969907
-1.561975	febrero del	-0.2932492
-1.561975	febrero durante
-1.561975	febrero para
-1.561975	febrero por	0.01895283
-1.561975	febrero preferentemente
-1.561975	febrero pues
-1.561975	febrero sobre	-0.006078452
-1.561975	febrero y
-1.298734	fecha </s>
-1.298734	fecha como
-1.298734	fecha del
-1.298734	fecha entre	-0.147378
-1.298734	fecha posible
-1.298734	fecha tiene
-0.5205824	fechas del
-0.5205824	feria de
-0.09613203	fin de	-1.292578
-0.534746	finales de	-0.2951497
-0.9977037	finales del
-0.5205824	forma la
-0.5205824	francia a
-0.5205824	franja horaria
-0.5205824	frecuencia salen	-0.2452096
-1.634526	fuera antes	0.2930952
-1.634526	fuera demasiado
-1.634526	fuera desde
-1.634526	fuera el
-1.634526	fuera en	-0.1053007
-1.634526	fuera euromed	-0.09866171
-1.634526	fuera por
-1.634526	fuera posible
-1.634526	fuera r'apido
-0.9071065	fuera un	-0.04857658
-1.634526	fuera viajar
-1.36568	fuese a
-1.36568	fuese barato
-1.36568	fuese el
-1.36568	fuese posible	-0.2105413
-1.36568	fuese r'apido
-1.36568	fuese un
-1.36568	fuese viaje
-0.5205824	fumador </s>
-0.534746	fumadores </s>
-0.9977037	fumadores clase
-0.5205824	fundamentalmente quiero
-0.3586547	galicia </s>
-0.534746	gasteiz </s>
-0.9977037	gasteiz desde
-0.6382611	gerona </s>
-1.36568	gerona a
-1.36568	gerona el
-1.36568	gerona para
-1.36568	gerona salida
-0.4864427	gij'on </s>
-0.9607148	gij'on a	-0.3894489
-1.423672	gij'on alrededor
-1.423672	gij'on desde	-0.233109
-1.122642	girona </s>
-1.122642	girona a
-1.122642	girona en
-1.122642	girona para
-0.4789244	gracias </s>
-1.670409	gracias adi'os	0.274729
-2.133366	gracias buenos
-2.133366	gracias eh	-0.3047905
-2.133366	gracias es	-0.4315232
-1.196137	gracias eso	-0.6728497
-1.670409	gracias est'a	0.007381305
-2.133366	gracias ha
-1.405947	gracias hasta	-0.6055689
-2.133366	gracias muchas	0.575759
-2.133366	gracias nada	0.05423898
-1.405947	gracias no
-1.670409	gracias por
-2.133366	gracias s'i
-1.405947	gracias ya	-0.4268965
-1.071917	granada </s>
-1.336378	granada a	-0.1962002
-1.799336	granada de
-1.799336	granada el
-1.799336	granada en
-1.799336	granada entre
-1.799336	granada este
-1.799336	granada hacia
-1.799336	granada hasta
-1.799336	granada para	-0.1993915
-1.336378	granada saliendo	-0.07661393
-1.799336	granada ser'ia
-1.799336	granada sobre
-1.336378	granada y
-0.3586547	guadalajara </s>
-0.5205824	gustado un
-2.011944	gustar'ia </s>
-2.011944	gustar'ia cambiar
-2.011944	gustar'ia como
-2.011944	gustar'ia comprar
-2.011944	gustar'ia conocer	-0.1029427
-2.011944	gustar'ia consultar
-2.011944	gustar'ia de
-2.011944	gustar'ia desde
-2.011944	gustar'ia el	-0.2545778
-2.011944	gustar'ia en
-2.011944	gustar'ia granada
-2.011944	gustar'ia hacer	-0.009244338
-2.011944	gustar'ia hacerlo
-2.011944	gustar'ia informaci'on
-2.011944	gustar'ia informarme
-2.011944	gustar'ia ir	-0.2765536
-2.011944	gustar'ia llegar	-0.1110109
-2.011944	gustar'ia no
-2.011944	gustar'ia obtener	-0.1209123
-2.011944	gustar'ia preguntar	-0.1157328
-2.011944	gustar'ia que	-0.2813638
-2.011944	gustar'ia realizar
-2.011944	gustar'ia regresar
-2.011944	gustar'ia saber	-0.5975623
-2.011944	gustar'ia salir	-0.3242479
-2.011944	gustar'ia si
-2.011944	gustar'ia tambi'en	-0.2667292
-2.011944	gustar'ia tener
-2.011944	gustar'ia un	-0.1893305
-2.011944	gustar'ia viajar	-0.3707011
-2.011944	gustar'ia volver	-0.3663942
-1.599764	ha citado
-1.599764	ha dado
-1.599764	ha de
-1.136806	ha dicho	-0.1397488
-1.599764	ha equivocado
-1.136806	ha habido	-0.1772152
-1.136806	ha quedado
-1.599764	ha respondido
-1.599764	ha sido
-1.122642	hab'ia alguno
-1.122642	hab'ia dicho
-1.122642	hab'ia olvidado
-1.122642	hab'ia uno
-0.5205824	hab'ias dicho
-0.9977037	haber ning'un
-0.9977037	haber tren
-0.9977037	haber trenes
-0.5205824	habido un	-0.332231
-1.219553	habr'ia alg'un
-1.219553	habr'ia alguno
-1.219553	habr'ia gustado
-1.219553	habr'ia para
-1.219553	habr'ia posibilidad
-0.9977037	hace ese
-0.9977037	hace este
-0.9977037	hace falta
-0.5205824	hacen ese
-1.751031	hacer a
-1.751031	hacer de
-0.8138016	hacer el	-0.3873254
-1.288074	hacer este	-0.2716251
-0.4102448	hacer un	-0.7595598
-1.751031	hacer una
-0.534746	hacerlo en
-0.9977037	hacerlo la
-1.336378	hacia 'avila
-0.8621063	hacia barcelona	-0.06369167
-1.799336	hacia cuenca
-1.336378	hacia las
-1.799336	hacia m'alaga
-1.071917	hacia madrid
-1.799336	hacia oviedo	-0.02480337
-1.799336	hacia santander
-1.799336	hacia sevilla
-1.799336	hacia tarragona
-1.799336	hacia teruel
-1.799336	hacia valencia
-0.8216125	haga el
-0.8216125	haga la
-0.5205824	hagan el
-0.8216125	has dado
-0.8216125	has dicho
-2.133366	hasta albacete
-2.133366	hasta alicante
-2.133366	hasta badajoz
-1.670409	hasta barcelona
-2.133366	hasta bilbao
-1.670409	hasta castell'on	-0.08416229
-2.133366	hasta cuenca
-2.133366	hasta el
-1.405947	hasta las	-0.3055545
-2.133366	hasta le'on
-2.133366	hasta lleida
-1.196137	hasta luego	-0.5067418
-0.9490791	hasta madrid	-0.1243274
-2.133366	hasta media
-2.133366	hasta orense
-2.133366	hasta oviedo
-2.133366	hasta salamanca
-1.670409	hasta santander	-0.1598097
-1.405947	hasta sevilla
-2.133366	hasta soria
-2.133366	hasta valencia
-1.405947	hasta vigo	-0.1723916
-1.670409	hasta zaragoza	-0.221292
-1.396266	hay </s>
-1.149209	hay alg'un	-0.5386414
-2.333496	hay alguna
-0.9927092	hay alguno	-0.415973
-2.333496	hay alrededor
-2.333496	hay claro
-1.870538	hay de	-0.0796257
-1.870538	hay desde
-2.333496	hay disponible
-2.333496	hay dos
-2.333496	hay el
-2.333496	hay en
-2.333496	hay entre
-2.333496	hay intercitys
-2.333496	hay ir
-2.333496	hay m'as
-2.333496	hay nada
-2.333496	hay ning'un	-0.1842987
-2.333496	hay ninguno	-0.09509546
-1.606076	hay otro	-0.2886464
-1.870538	hay otros	-0.1313254
-1.606076	hay para	-0.2668199
-1.870538	hay plazas	-0.1253491
-1.870538	hay por	-0.06645364
-1.870538	hay posibilidad	-0.05756947
-2.333496	hay pr'oximo
-2.333496	hay pues
-2.333496	hay talgo
-2.333496	hay tanto
-1.870538	hay trenes	-0.06793256
-1.149209	hay un	-0.536208
-2.333496	hay viajes
-1.870538	hay y	-0.1613694
-0.5205824	haya un
-1.298734	he acabado
-0.835776	he dicho
-1.298734	he entendido
-1.298734	he estado
-1.298734	he preguntado
-0.8216125	hendaya </s>
-0.8216125	hendaya es
-0.5205824	historia de
-1.775855	hola buenas	-0.459909
-1.312897	hola buenos	-1.160354
-1.775855	hola deseaba
-1.775855	hola desear'ia	-0.1371725
-1.775855	hola deseo	-0.147281
-1.775855	hola me	-0.7730488
-1.775855	hola mira	-0.1566251
-1.775855	hola mire
-1.775855	hola muy	-0.3107075
-1.775855	hola necesito
-1.775855	hola quer'ia	-0.3469532
-1.775855	hola querr'ia	0.02030757
-1.775855	hola quiero	-0.4134578
-1.775855	hola quisiera	-0.2012783
-1.775855	hola s'i	-0.2347296
-1.775855	hola si
-1.775855	hola tengo
-0.7695479	hora </s>
-2.039096	hora a
-2.039096	hora cu'al
-1.311677	hora de	-0.4383058
-2.039096	hora del
-2.039096	hora el
-2.039096	hora es
-1.576139	hora llega	-0.5199176
-2.039096	hora llegaba
-2.039096	hora llegan	-0.2017471
-2.039096	hora llegar'ia
-2.039096	hora ma~nana
-2.039096	hora podr'ia
-2.039096	hora porque
-2.039096	hora posible
-2.039096	hora puede
-2.039096	hora puedo
-1.576139	hora sale	-0.2888817
-2.039096	hora salen
-2.039096	hora se
-2.039096	hora tendr'ia
-2.039096	hora tengo
-2.039096	hora y
-0.5205824	horaria </s>
-1.361504	horario </s>
-2.298734	horario a
-2.298734	horario con
-0.6442918	horario de	-0.816178
-2.298734	horario del	-0.3819493
-2.298734	horario desde
-2.298734	horario el	-0.1394219
-2.298734	horario en
-2.298734	horario entre
-2.298734	horario exacto
-2.298734	horario hay
-2.298734	horario ida
-2.298734	horario los
-2.298734	horario otra
-1.361504	horario para	-0.4189802
-2.298734	horario pero
-2.298734	horario podr'ia
-1.835776	horario por
-2.298734	horario que	-0.158519
-2.298734	horario s'i
-2.298734	horario saber
-2.298734	horario saliendo
-2.298734	horario ser'ia
-2.298734	horario sobre
-2.298734	horario tambi'en
-2.298734	horario tengo
-2.298734	horario tienen
-2.298734	horario tren
-2.298734	horario un
-2.298734	horario uy
-0.8967643	horario y	-0.9455045
-0.9954723	horarios </s>
-1.814352	horarios a	-0.1662783
-2.541772	horarios antes
-2.541772	horarios as'i
-2.541772	horarios bueno
-1.814352	horarios con	-0.2826108
-2.541772	horarios concretos
-2.541772	horarios corresponde
-0.751442	horarios de	-0.8132926
-2.078814	horarios del	-0.1186481
-2.078814	horarios desde
-2.078814	horarios el
-2.541772	horarios en
-2.541772	horarios habr'ia
-2.078814	horarios hay	-0.2210213
-2.541772	horarios ir
-2.541772	horarios mejor
-2.541772	horarios o
-0.9954723	horarios para	-0.3036818
-2.078814	horarios pero
-1.604542	horarios por	0.04357201
-2.541772	horarios puedo
-1.814352	horarios que	-0.1198619
-2.541772	horarios quiero
-1.814352	horarios son
-2.541772	horarios talgo
-2.541772	horarios tambi'en
-2.541772	horarios tendr'e
-2.541772	horarios tendr'ia
-2.541772	horarios un
-0.8008186	horarios y	-0.700338
-0.7294807	horas </s>
-1.203753	horas a
-1.203753	horas de
-1.66671	horas del
-1.66671	horas puede
-1.66671	horas si
-1.66671	horas tengo
-1.203753	horas y
-0.9071065	hoy </s>
-1.171568	hoy de
-1.634526	hoy es
-1.634526	hoy mismo
-0.9071065	hoy por	-0.06645364
-1.634526	hoy tiene
-1.171568	hoy y	-0.1058878
-0.8216125	hubiera </s>
-0.8216125	hubiera literas	-0.05756947
-0.9027228	huelva </s>
-1.36568	huelva destino
-1.36568	huelva madrid
-0.9027228	huelva ma~nana	-0.2500675
-1.36568	huelva un
-0.9977037	huesca </s>
-0.9977037	huesca el
-0.9977037	huesca para
-1.361365	ida </s>
-1.625826	ida a	-0.1739519
-2.088784	ida como
-2.088784	ida con	-0.2826108
-2.088784	ida de	-0.1735635
-2.088784	ida del
-1.625826	ida desde	-0.06111479
-2.088784	ida el
-2.088784	ida en
-2.088784	ida entre
-2.088784	ida esto
-2.088784	ida hacia
-2.088784	ida nada
-2.088784	ida o
-2.088784	ida para	-0.3193099
-2.088784	ida por	0.4303661
-2.088784	ida que
-2.088784	ida saber
-2.088784	ida salida
-2.088784	ida saliendo
-2.088784	ida solamente
-2.088784	ida valencia
-1.625826	ida vuelta	-0.2413165
-0.6868147	ida y	-1.192214
-0.5205824	idea es
-1.298734	igual cualquier
-1.298734	igual el
-1.298734	igual qu'e
-1.298734	igual que
-1.298734	igual salir
-1.298734	igual yo
-0.5205824	importa que
-0.5205824	importancia no
-0.5205824	importar'ia viajar
-0.5205824	imposible usted
-1.842802	informaci'on acerca
-1.842802	informaci'on adi'os
-0.6585145	informaci'on de	-0.3536217
-1.115382	informaci'on para	-0.1943711
-0.3872141	informaci'on sobre	-0.4316505
-1.122642	informarme acerca
-0.6596847	informarme del
-1.122642	informarme para
-0.5205824	instrucciones como
-0.3167056	intercity </s>
-1.863005	intercity de
-1.863005	intercity el
-1.863005	intercity ese
-1.863005	intercity por
-1.863005	intercity que
-1.863005	intercity quer'ia
-1.135586	intercity si	-0.4232312
-1.863005	intercity verdad
-0.5205824	intercitys </s>
-1.219553	interesa </s>
-1.219553	interesa el
-1.219553	interesa ese
-1.219553	interesa ir
-1.219553	interesa tenerlo
-0.8216125	interesado en
-0.8216125	interesado euromed
-0.5205824	interesar'ia informaci'on
-0.5205824	intermedio que
-0.8216125	intervalo de
-0.8216125	intervalo hay
-1.902723	ir </s>
-0.7802643	ir a	-0.1650956
-2.36568	ir al
-2.36568	ir como
-1.902723	ir con	-0.2781092
-0.9100928	ir de	-0.3262346
-1.638261	ir desde	-0.05603543
-0.9637111	ir el	-0.09673734
-0.7443815	ir en	-0.006943315
-2.36568	ir entre
-1.638261	ir este
-1.902723	ir hacia
-2.36568	ir hasta
-2.36568	ir ma~nana
-2.36568	ir o
-2.36568	ir ocho
-2.36568	ir por	-0.01458755
-2.36568	ir quiero
-2.36568	ir un
-1.902723	ir y	-0.1058878
-0.8216125	ir'un </s>
-0.8216125	ir'un a
-0.3586547	irme a	-0.163701
-0.5205824	iru~nea </s>
-0.6962531	ja'en </s>
-1.423672	ja'en desde
-1.423672	ja'en el
-0.9607148	ja'en para
-1.423672	ja'en saliendo
-0.8276569	jueves </s>
-1.548986	jueves a	-0.3166015
-2.011944	jueves adem'as
-2.011944	jueves antes	0.1162904
-2.011944	jueves d'ia
-1.548986	jueves de	-0.4429583
-2.011944	jueves despu'es	-0.4235958
-2.011944	jueves dieciocho
-2.011944	jueves diecisiete
-2.011944	jueves entonces
-2.011944	jueves no
-1.284525	jueves o	-0.2317817
-2.011944	jueves ocho	-0.1399306
-2.011944	jueves para
-2.011944	jueves por	-0.2883024
-2.011944	jueves que	-0.4471568
-2.011944	jueves uno	-0.09555525
-2.011944	jueves veinticinco
-2.011944	jueves veintid'os	-0.02132303
-2.011944	jueves veintis'eis
-1.548986	jueves y
-1.474825	julio </s>
-1.474825	julio antes
-1.474825	julio cu'ales
-1.474825	julio del
-1.474825	julio horarios
-1.474825	julio martes
-1.474825	julio pues
-1.474825	julio y
-1.474825	julio ya
-1.474825	junio </s>
-1.474825	junio antes
-1.474825	junio del
-1.474825	junio en
-1.474825	junio es
-1.474825	junio o
-1.474825	junio pero
-1.474825	junio por
-1.474825	junio porque
-0.5205824	juntos no
-0.5713144	l'erida </s>
-1.298734	l'erida a
-1.298734	l'erida antes
-1.298734	l'erida en
-1.373722	la 'ultima	-0.764213
-2.558009	la ciudad	-0.247194
-2.095051	la clase
-2.558009	la costa
-2.558009	la crem'a
-2.558009	la del
-2.095051	la duraci'on	-0.1772152
-1.83059	la exposici'on
-1.479914	la fecha	-0.06947948
-2.558009	la feria
-1.28846	la hora	-0.1996434
-2.095051	la ida	-0.1812362
-2.558009	la idea
-2.558009	la informaci'on
-2.558009	la la
-1.620779	la llegada	-0.05698619
-2.558009	la m'as
-1.373722	la ma~nana	-0.5254734
-2.558009	la ma~nanita
-2.558009	la misma
-1.83059	la noche	-0.5568434
-2.095051	la posibilidad	-0.05756947
-1.83059	la pr'oxima	-0.7392387
-1.28846	la primera	-0.5163356
-1.479914	la salida
-1.479914	la segunda	-0.2933051
-0.9725928	la semana	-0.8804216
-2.558009	la semana_santa
-2.558009	la siete
-1.479914	la tarde	-0.9096817
-1.83059	la una	-0.3427261
-2.558009	la vida
-1.011709	la vuelta	-0.2191007
-0.6247454	la_coru~na </s>
-1.561975	la_coru~na a	-0.2742006
-1.561975	la_coru~na el
-1.561975	la_coru~na entonces
-1.561975	la_coru~na hasta
-1.561975	la_coru~na para
-1.099017	la_coru~na y
-0.8216125	laborable </s>
-0.8216125	laborable de	-0.6109759
-0.5205824	laborables </s>
-0.5205824	lanzadera ese
-2.395644	las </s>
-2.395644	las caracter'isticas
-2.395644	las catorce	-0.4432411
-2.395644	las cero
-1.317549	las cinco	-0.4803868
-1.458414	las cuatro	-0.4395976
-1.932686	las diecinueve	-0.1104672
-2.395644	las dieciocho
-1.932686	las diecis'eis	-0.1587448
-2.395644	las diecisiete	-0.2701845
-1.211357	las diez	-0.7930659
-1.211357	las doce	-0.1913758
-1.668224	las dos	-0.22118
-2.395644	las fechas
-2.395644	las horas
-2.395644	las instrucciones
-2.395644	las m'aquinas
-2.395644	las ma~nanas
-2.395644	las mismas
-2.395644	las navidades
-1.126095	las nueve	-0.2559593
-1.317549	las ocho	-0.2138352
-1.668224	las once	-0.420948
-2.395644	las quince
-1.458414	las seis	-0.0353626
-1.211357	las siete	-0.451584
-1.317549	las tres	-0.3454703
-2.395644	las vacaciones
-2.395644	las veintid'os	-0.4432411
-2.395644	las vuelta
-1.298734	le agradecer'ia
-1.298734	le estoy
-1.298734	le hab'ia
-1.298734	le he
-0.835776	le pregunto	-0.2102514
-0.9607148	le'on </s>
-1.423672	le'on a
-0.9607148	le'on el
-1.423672	le'on en
-1.423672	le'on hasta	-0.3157067
-1.423672	le'on para
-0.5205824	lentos y
-0.5205824	lezama </s>
-0.3455779	litera </s>
-1.423672	litera o
-1.423672	litera por	-0.09620312
-1.423672	litera si
-0.3952231	literas </s>
-1.122642	literas que
-0.2702844	llamaba para	-0.2076284
-1.842802	llega </s>
-0.6585145	llega a	-0.2563248
-0.5020152	llega antes	-0.1847396
-1.842802	llega el	-0.2351185
-1.842802	llega entre
-1.842802	llega ese	-0.3922194
-1.842802	llega este
-1.842802	llega un
-1.842802	llega y
-0.5205824	llegaba este
-0.5205824	llegaban antes	0.2930952
-1.821612	llegada </s>
-0.8843827	llegada a	-0.1088048
-1.358655	llegada antes	0.2930952
-1.821612	llegada de	-0.2790094
-1.821612	llegada del
-0.7435179	llegada en	-0.0746344
-1.821612	llegada es
-1.821612	llegada fuera	-0.2710449
-1.821612	llegada ha
-1.821612	llegada podr'ia
-1.821612	llegada que
-1.821612	llegada sea
-0.5833527	llegan a	-0.05341371
-0.4424879	llegan antes	-0.2358921
-1.520582	llegan de
-0.8216125	llegando a
-0.8216125	llegando el
-1.773628	llegar </s>
-0.7332781	llegar a	-0.2198326
-1.773628	llegar all'i	0.08187376
-0.6902863	llegar antes	-0.4313754
-2.236586	llegar aproximadamente
-2.236586	llegar del
-2.236586	llegar desde
-0.8346164	llegar el	-0.3496314
-2.236586	llegar entre
-2.236586	llegar esa
-2.236586	llegar lo
-2.236586	llegar m'as
-2.236586	llegar muy
-2.236586	llegar para
-1.299356	llegar por	-0.2883024
-2.236586	llegar pues
-1.773628	llegar sobre	-0.006078452
-0.5205824	llegar'ia </s>
-0.8216125	llegara a
-0.8216125	llegara un
-0.3586547	llegaran a
-0.5205824	llegase antes	0.2930952
-1.136806	llegue a	-0.08637163
-1.599764	llegue al
-1.599764	llegue all'i
-1.599764	llegue antes	-0.4857696
-1.599764	llegue de
-1.136806	llegue el
-1.599764	llegue entre
-1.599764	llegue m'as
-1.599764	llegue por
-1.599764	llegue sobre
-1.122642	lleguen a
-1.122642	lleguen antes	0.01938039
-1.122642	lleguen el	-0.1436215
-1.122642	lleguen este
-0.5833527	lleida </s>
-1.520582	lleida a	-0.2543598
-1.520582	lleida el
-1.520582	lleida en
-1.520582	lleida pirineos
-1.057625	lleida y
-1.122642	llevar a
-1.122642	llevar el	-0.2810679
-0.6596847	llevar mi	-0.2352256
-0.5205824	llevarme a
-0.5205824	lleve a
-1.66671	lo conozco
-1.203753	lo m'as	-0.2781092
-1.66671	lo menos
-1.66671	lo necesito
-1.66671	lo puede
-0.3259239	lo que	-0.2211277
-0.9027228	logro~no </s>
-1.36568	logro~no a
-1.36568	logro~no el	-0.1623191
-1.36568	logro~no hasta
-1.36568	logro~no la
-1.36568	logro~no ma~nana	-0.2077463
-2.48437	los autobuses
-2.021413	los billetes	-0.1413403
-1.214822	los d'ias	-0.1867073
-2.48437	los dos	-0.09832349
-2.48437	los hay
-2.48437	los horario
-0.4923488	los horarios	-0.5864707
-2.48437	los mismos
-2.48437	los modalidad
-2.48437	los otros
-2.48437	los posibles
-0.8299284	los precios	-0.2922431
-1.54714	los que	-0.3052002
-2.48437	los talgos
-1.54714	los tipos	-0.3669627
-0.7991364	los trenes	-0.5465007
-1.54714	los viajes	-0.2641545
-0.835776	luego </s>
-1.298734	luego a
-1.298734	luego gracias
-1.298734	luego para
-1.298734	luego saber
-0.8216125	lugo </s>
-0.8216125	lugo el
-1.270284	lunes </s>
-1.534746	lunes a	-0.05864665
-1.534746	lunes antes	0.1162904
-1.534746	lunes cinco	-0.2116758
-1.997704	lunes el
-1.060474	lunes o	-0.1888728
-1.997704	lunes ocho
-1.997704	lunes para
-1.997704	lunes por	-0.2883024
-1.997704	lunes pr'oximo
-1.997704	lunes que	-0.5440668
-1.997704	lunes quiero
-1.997704	lunes quince
-1.997704	lunes seis	-0.175435
-1.997704	lunes siguiente	-0.1736276
-1.997704	lunes sobre
-1.997704	lunes uno	-0.09555525
-1.997704	lunes veintid'os
-1.997704	lunes veintis'eis
-1.997704	lunes veintitr'es	-0.2621126
-1.534746	lunes y
-1.561975	m'alaga </s>
-1.561975	m'alaga a	-0.2806623
-1.561975	m'alaga antes
-1.561975	m'alaga desde
-1.099017	m'alaga el	-0.1284326
-1.099017	m'alaga para
-1.561975	m'alaga sabe
-1.561975	m'alaga saliendo
-1.561975	m'alaga y
-0.5205824	m'aquinas que
-2.143832	m'as </s>
-2.143832	m'as a
-0.9595445	m'as barato	-0.4858592
-2.143832	m'as baratos
-2.143832	m'as c'omoda
-1.680874	m'as c'omodo	-0.1337961
-2.143832	m'as cerca
-2.143832	m'as econ'omica
-2.143832	m'as el
-2.143832	m'as gracias	-1.352889
-2.143832	m'as hasta
-2.143832	m'as la
-2.143832	m'as muchas	-0.3969259
-2.143832	m'as no
-1.680874	m'as o	-0.2794654
-2.143832	m'as por
-1.680874	m'as pronto	-0.2102514
-1.206602	m'as r'apido	-0.2693656
-1.680874	m'as r'apidos
-0.8742833	m'as tarde	-0.2765877
-2.143832	m'as temprano	-0.2102514
-2.143832	m'as tipos
-2.143832	m'as trenes
-2.143832	m'as vale
-0.5205824	m'aximo una
-1.122642	m'erida </s>
-1.122642	m'erida durante
-1.122642	m'erida en
-1.122642	m'erida para
-0.5205824	m'i me
-0.5205824	m'ireme a
-0.8779082	madrid </s>
-1.396266	madrid a	-0.3474821
-2.333496	madrid antes	0.1162904
-2.333496	madrid aproximadamente
-2.333496	madrid barcelona
-2.333496	madrid de
-2.333496	madrid del
-2.333496	madrid desde
-1.870538	madrid despu'es	-0.07069977
-2.333496	madrid destino
-1.149209	madrid el	-0.3319965
-1.870538	madrid en
-2.333496	madrid entre
-2.333496	madrid eso
-2.333496	madrid este
-2.333496	madrid hacia
-1.870538	madrid hasta
-2.333496	madrid ja'en
-2.333496	madrid la
-2.333496	madrid le
-2.333496	madrid llegando
-2.333496	madrid ma~nana	-0.2077463
-1.396266	madrid para	-0.4257647
-2.333496	madrid pasado
-2.333496	madrid pero
-1.870538	madrid por
-2.333496	madrid que
-2.333496	madrid quer'ia
-2.333496	madrid quiero
-2.333496	madrid s'olo
-2.333496	madrid sobre	-0.1615428
-2.333496	madrid viajar
-0.9927092	madrid y	-0.03211958
-2.333496	madrid zaragoza
-0.5205824	manera que
-0.3586547	mare_nostrum </s>
-0.9812927	martes </s>
-1.918522	martes a
-1.455565	martes d'ia	-0.1586596
-1.455565	martes de	-0.1999202
-1.918522	martes del
-1.455565	martes diecis'eis
-1.918522	martes dos
-1.918522	martes mismamente
-1.918522	martes nueve
-1.918522	martes para
-1.455565	martes por	-0.5435749
-1.918522	martes que	-0.623248
-1.455565	martes seis	-0.05049625
-1.918522	martes veinticuatro
-1.918522	martes veintisiete
-1.455565	martes y
-1.724702	marzo </s>
-1.724702	marzo a	-0.2972903
-1.724702	marzo de	-0.3073695
-1.724702	marzo del
-1.724702	marzo el
-1.724702	marzo en	-0.1255563
-1.724702	marzo entre
-1.724702	marzo lunes
-1.724702	marzo martes
-1.724702	marzo o	-0.1913329
-1.724702	marzo por	-0.4924224
-1.724702	marzo querr'ia
-1.724702	marzo quiero
-1.724702	marzo saliendo
-1.724702	marzo si
-1.724702	marzo y	-0.1202998
-1.474825	mayo </s>
-1.474825	mayo a	-0.1433839
-1.474825	mayo de
-1.474825	mayo del	-0.2413832
-1.474825	mayo en	-0.1075771
-1.474825	mayo o
-1.474825	mayo perd'on
-1.474825	mayo por	-0.199466
-1.474825	mayo y
-0.8077685	ma~nana </s>
-1.350973	ma~nana a	-0.1285345
-2.429067	ma~nana cinco
-1.701648	ma~nana de
-2.429067	ma~nana del	-0.1566125
-2.429067	ma~nana desde
-2.429067	ma~nana dime
-2.429067	ma~nana el
-1.491838	ma~nana en	-0.1278749
-2.429067	ma~nana entonces
-1.96611	ma~nana entre	-0.1000745
-2.429067	ma~nana es
-2.429067	ma~nana hacia
-2.429067	ma~nana la
-2.429067	ma~nana m'as
-1.96611	ma~nana martes
-2.429067	ma~nana ma~nana
-1.96611	ma~nana me
-2.429067	ma~nana no
-1.088281	ma~nana o	-0.2663792
-2.429067	ma~nana para
-2.429067	ma~nana pero
-1.159519	ma~nana por	-0.1051548
-2.429067	ma~nana porque
-2.429067	ma~nana qu'e
-2.429067	ma~nana que
-1.96611	ma~nana s'abado	-0.09496342
-2.429067	ma~nana s'i
-2.429067	ma~nana s'olo
-1.96611	ma~nana si	-0.1827649
-2.429067	ma~nana sobre
-2.429067	ma~nana temprano
-2.429067	ma~nana todos
-2.429067	ma~nana viajando
-1.96611	ma~nana viernes
-1.350973	ma~nana y	-0.1302209
-0.5205824	ma~nanas </s>
-0.5205824	ma~nanita antes
-2.588768	me buscar'e
-2.588768	me confirme
-2.125811	me costar'ia	-0.04899728
-2.588768	me cuesta
-2.588768	me d'e
-1.510674	me da	-0.399064
-2.588768	me deis
-2.588768	me des
-2.125811	me dice
-2.125811	me dices	-0.1253491
-2.125811	me diera
-2.588768	me dieras
-2.588768	me diga
-2.588768	me digas	-0.07222764
-2.588768	me dijese
-2.588768	me dir'ia	-0.1253491
-2.588768	me ense~nara
-2.125811	me est'a	-0.2717811
-2.588768	me estoy
-0.5967469	me gustar'ia	-0.9869345
-1.651539	me ha	-0.2609602
-2.588768	me hab'ia
-2.588768	me hab'ias
-2.588768	me habr'ia
-2.125811	me has	-0.1520919
-2.588768	me importa
-2.588768	me importar'ia
-1.651539	me interesa
-2.588768	me interesar'ia
-2.588768	me lo
-2.588768	me parece
-1.861349	me pod'ia	-0.1015521
-1.404481	me podr'ia	-0.9597917
-2.125811	me podr'ias	-0.1253491
-2.588768	me pregunta
-2.588768	me pueda
-1.247982	me puede	-0.6706107
-1.404481	me puedes	-0.4294004
-2.125811	me quer'ia
-2.588768	me repitas
-2.588768	me saldr'ia
-2.588768	me sirve
-2.125811	me va	-0.2542198
-2.588768	me vale
-2.588768	me vendr'ia
-1.861349	me viene	-0.3117251
-2.588768	me voy
-1.520582	media </s>
-1.520582	media a
-1.520582	media de	-1.008916
-1.520582	media en
-1.520582	media m'as
-1.520582	media ma~nana
-1.520582	media por
-1.520582	media porque
-1.520582	media viaje
-1.520582	media y
-0.5205824	mediados del
-0.6625339	mediod'ia </s>
-1.599764	mediod'ia con
-1.599764	mediod'ia el
-1.599764	mediod'ia en
-1.599764	mediod'ia hay
-1.599764	mediod'ia perd'on
-1.599764	mediod'ia por
-1.136806	mediod'ia y
-0.4424879	mejor </s>
-1.520582	mejor el
-1.520582	mejor equipada
-1.520582	mejor la	-0.2323267
-1.520582	mejor prefiero
-1.520582	mejor veintinueve
-0.5205824	men'u principal
-0.534746	menos </s>
-0.9977037	menos d'igame
-0.6382611	mes </s>
-0.6382611	mes de
-1.36568	mes que
-0.9977037	mi casa
-0.9977037	mi coche
-0.9977037	mi novio
-1.099017	mi'ercoles </s>
-1.561975	mi'ercoles catorce
-1.561975	mi'ercoles el
-1.561975	mi'ercoles en	-0.2204566
-1.561975	mi'ercoles que
-1.099017	mi'ercoles siete	-0.1921446
-1.561975	mi'ercoles siguiente
-1.099017	mi'ercoles y
-0.5205824	miguel_de_unamuno </s>
-0.9977037	mil cinco
-0.9977037	mil cuatro	-0.752826
-0.9977037	mil tres
-0.5205824	minutos de
-1.66671	mira a
-1.203753	mira es	-0.2440815
-1.66671	mira me
-1.66671	mira para
-1.66671	mira que
-0.7294807	mira quer'ia	-0.1990644
-1.66671	mira querr'ia	-0.1690543
-1.66671	mira quiero
-1.66671	mira quisiera
-1.66671	mira vamos
-0.5205824	mirar los
-1.696674	mire como
-1.696674	mire el
-1.696674	mire las
-1.696674	mire necesito	-0.09804799
-1.696674	mire por
-1.696674	mire pues
-1.696674	mire que
-0.7594439	mire quer'ia	-0.1388756
-1.696674	mire quiero
-1.696674	mire quisiera
-1.233716	mire yo
-0.8216125	misma noche
-0.8216125	misma ruta
-0.5205824	mismamente por
-0.5205824	mismas condiciones
-1.136806	mismo d'ia	-0.5017313
-1.599764	mismo hoy
-1.599764	mismo jueves
-1.599764	mismo martes
-1.599764	mismo mes
-1.599764	mismo precio
-1.599764	mismo s'abado
-1.599764	mismo seis
-1.599764	mismo tiempo
-1.599764	mismo trayecto
-1.599764	mismo tren
-0.5205824	mismos horarios
-0.5205824	modalidad de
-0.5205824	momento </s>
-0.5205824	monumental </s>
-0.5205824	monz'on a
-0.3586547	much'isimas gracias	0.009109452
-0.06499479	muchas gracias	-0.8895757
-0.5205824	muestras desde
-0.9071065	murcia </s>
-0.9071065	murcia a	-0.2675752
-1.171568	murcia el
-1.634526	murcia hacia
-1.171568	murcia para
-1.634526	murcia por
-1.634526	murcia y
-0.5205824	museo thyssen
-1.298734	muy amable
-1.298734	muy bien
-1.298734	muy buenas	-0.29465
-1.298734	muy pronto
-0.835776	muy tarde
-1.261745	nada </s>
-1.724702	nada entonces
-1.724702	nada eso
-0.2691148	nada m'as	-1.065596
-1.724702	nada muchas	0.575759
-1.724702	nada pues
-0.5205824	navidad en
-0.5205824	navidades en
-0.9977037	necesitar'ia saber
-0.9977037	necesitar'ia salir
-0.9977037	necesitar'ia viajar
-1.775855	necesito </s>
-1.775855	necesito el
-1.775855	necesito estar
-1.775855	necesito horarios
-1.775855	necesito informaci'on
-0.8386252	necesito ir	-0.1331951
-1.775855	necesito llegar
-1.775855	necesito para
-1.775855	necesito precios
-1.775855	necesito saber
-1.775855	necesito salir
-0.8386252	necesito un	-0.07645095
-0.5205824	negocio </s>
-0.3586547	negocios y
-1.298734	ning'un d'ia
-0.835776	ning'un otro	0.03054306
-0.5713144	ning'un tren	-0.1046481
-0.5205824	ninguna de
-0.8216125	ninguno hasta
-0.8216125	ninguno que
-1.47931	no </s>
-2.200639	no a	-0.02822967
-2.663597	no adi'os	0.274729
-2.663597	no antes
-2.663597	no burgos
-2.663597	no c'omo
-2.200639	no creo	0.3539102
-2.663597	no d'igame
-1.936178	no de	-0.06226475
-2.663597	no del
-2.663597	no dentro
-1.726367	no desde	-0.04398882
-2.663597	no deseaba
-2.663597	no desear'ia
-1.585503	no deseo	-0.5319914
-2.663597	no despu'es
-2.663597	no dispone
-1.394049	no el	-0.1165178
-2.663597	no entiendo
-2.663597	no entre
-2.200639	no es	-0.1921363
-2.663597	no ese
-2.663597	no eso	-0.5568679
-2.663597	no est'a	-0.3814895
-2.663597	no estoy
-2.200639	no existe
-2.663597	no fumadores
-1.585503	no gracias	-0.8724409
-2.663597	no habr'ia
-2.663597	no hace	-0.2352256
-1.585503	no hay	-0.274934
-2.663597	no he
-2.663597	no la
-2.200639	no le	-0.1436854
-2.200639	no lo
-2.663597	no los
-1.585503	no me	-0.09389155
-2.200639	no mejor	-0.2542199
-2.663597	no much'isimas
-1.936178	no muchas	-0.9627737
-2.200639	no nada	-1.04897
-2.663597	no necesito
-2.663597	no no	-0.7557191
-2.663597	no perdone
-2.663597	no pero	-0.1618372
-2.663597	no podr'ian
-2.663597	no por
-2.663597	no porque
-2.663597	no precio	-0.1219031
-2.663597	no precios	-0.1966506
-2.663597	no preferente
-2.663597	no prefiero
-2.663597	no puede	-0.2132039
-2.663597	no puedo
-2.663597	no pues
-2.200639	no quer'ia	-0.04394881
-2.200639	no querr'ia	-0.08930124
-1.47931	no quiero	-0.3948285
-2.663597	no quisiera
-1.47931	no s'e
-2.663597	no s'i
-2.200639	no s'olo
-2.663597	no salgo
-2.663597	no salida
-2.663597	no saliendo
-2.663597	no se
-2.200639	no sea	-0.06661516
-2.663597	no sean
-2.663597	no si	-0.1495164
-2.663597	no solo
-2.663597	no son
-2.663597	no tengo
-2.200639	no tiene	-0.05590673
-2.663597	no un
-2.663597	no va
-2.663597	no vale
-2.200639	no viajar
-2.663597	no voy
-2.200639	no ya	-0.5368745
-2.663597	no yo
-1.071917	noche </s>
-1.799336	noche a
-1.799336	noche antes
-1.336378	noche de
-1.799336	noche del
-1.799336	noche durmiendo
-1.336378	noche el
-1.799336	noche en
-1.799336	noche o
-1.799336	noche para
-1.799336	noche por	-0.09620312
-1.799336	noche quer'ia
-1.799336	noche un
