
\data\
ngram 1=766
ngram 2=5407
ngram 3=3589
ngram 4=4138

\1-grams:
-2.954805	'avila	-0.4022769
-3.255835	'ultima	-0.3304523
-3.033986	'ultimo	-0.4589232
-3.431926	'ultimos	-0.4292283
-3.732956	'unicamente	-0.1546028
-3.732956	'unico	-0.1538772
-1.20921	</s>
-99	<s>	-1.197399
-1.489918	a	-0.8941429
-3.732956	abre	-0.1416012
-3.255835	abril	-0.05248573
-3.732956	acabado	-0.1546833
-3.732956	acceder	-0.151774
-3.431926	acerca	-0.4518299
-3.732956	acercara	-0.1538772
-3.732956	acudir	-0.1556488
-3.732956	acuerdo	-0.1281983
-2.778714	adem'as	-0.1600333
-3.033986	adi'os	-0.8271683
-3.732956	aeropuerto	-0.1413521
-3.255835	agosto	-0.06197698
-3.732956	agradecer'ia	-0.1281983
-3.732956	ah	-0.1541192
-3.431926	ahora	-0.2738655
-2.477684	al	-0.256553
-3.130896	alaris	-0.3610727
-2.887858	albacete	-0.1589313
-2.528836	alg'un	-0.4632624
-3.732956	algeciras	-0.1192024
-3.431926	algo	-0.119115
-3.255835	alguna	-0.1551663
-2.778714	alguno	-0.5130433
-2.887858	alicante	-0.3599495
-3.130896	all'i	-0.4198827
-3.130896	almer'ia	-0.1948637
-3.732956	almeria	-0.1281983
-2.829866	alrededor	-0.7381478
-3.431926	alta_velocidad	-0.1192024
-3.431926	altaria	-0.1238101
-3.732956	amable	-0.1281983
-3.732956	amigos	-0.1177141
-3.255835	anterior	-0.0703164
-2.060858	antes	-1.139584
-3.732956	aparte	-0.1413521
-3.732956	aprovechar	-0.1378497
-3.255835	aproximadamente	-0.3275408
-3.732956	aproximado	-0.1538772
-3.431926	aqu'i	-0.1355831
-3.732956	arco	-0.1281983
-3.255835	as'i	-0.1486001
-3.732956	asistir	-0.1416012
-3.732956	asunto	-0.1413521
-3.732956	atardecer	-0.1166604
-3.732956	atenci'on	-0.1281983
-3.431926	aunque	-0.1475369
-3.732956	autobuses	-0.1473732
-3.732956	autom'aticamente	-0.1558095
-2.691564	ave	-0.2411632
-3.732956	ay	-0.1281983
-3.732956	ayudar	-0.1281983
-3.431926	a~no	-0.1392708
-3.732956	b'usqueme	-0.1557292
-3.255835	badajoz	-0.1495955
-3.431926	bajar	-0.1417672
-3.431926	bar	-0.2046888
-3.130896	barato	-0.3409244
-3.732956	baratos	-0.1556488
-2.528836	barcelona	-0.2163182
-2.778714	bien	-0.3250315
-2.954805	bilbao	-0.1513931
-2.653775	billete	-0.3591253
-3.255835	billetes	-0.1902748
-3.732956	buena	-0.1550859
-3.130896	buenas	-0.3621213
-2.829866	bueno	-0.1535811
-3.130896	buenos	-0.7574676
-2.887858	burgos	-0.3849237
-3.732956	buscar	-0.1500679
-3.732956	buscar'e	-0.1508812
-3.732956	buscar'ia	-0.1500679
-2.954805	c'aceres	-0.4225361
-3.033986	c'adiz	-0.1641402
-3.255835	c'omo	-0.3281085
-3.732956	c'omoda	-0.1551663
-3.431926	c'omodo	-0.176884
-2.954805	c'ordoba	-0.2906955
-3.033986	cada	-0.374999
-3.732956	callado	-0.1281983
-3.431926	cama	-0.1691264
-2.887858	cambiar	-0.6096638
-3.732956	cambrils	-0.1416012
-3.732956	camino	-0.1413521
-3.732956	capital	-0.1281983
-3.431926	caracter'isticas	-0.1269981
-3.732956	carnavales	-0.1281983
-3.732956	caro	-0.1281983
-3.732956	casa	-0.1166604
-3.732956	castell'o	-0.1281983
-2.887858	castell'on	-0.2218283
-3.732956	catalu~na_expres	-0.1518551
-3.033986	catorce	-0.2753524
-3.732956	celebre	-0.1558095
-3.431926	cerca	-0.4423821
-3.732956	cercana	-0.1281983
-3.732956	cercano	-0.1416012
-3.732956	cero	-0.1550054
-3.732956	cierra	-0.1507999
-2.732956	cinco	-0.3393523
-3.255835	cincuenta	-0.2927516
-3.732956	citado	-0.1281983
-3.255835	ciudad	-0.132373
-3.033986	ciudad_real	-0.290788
-3.130896	claro	-0.2092411
-2.778714	clase	-0.3115826
-2.732956	coche	-0.6832991
-3.130896	coger	-0.3385091
-3.732956	cogi'endolo	-0.1416012
-3.732956	cogiendo	-0.1378497
-3.732956	cojo	-0.1413521
-2.732956	como	-0.1669655
-3.732956	compa~n'ia	-0.1281983
-3.732956	competici'on	-0.1558095
-3.732956	completo	-0.1507999
-3.255835	comprar	-0.6271891
-3.732956	compro	-0.1500679
-2.241595	con	-0.4345504
-3.732956	concierto	-0.1036315
-3.732956	concretar	-0.1378497
-3.732956	concretos	-0.1474551
-3.732956	condiciones	-0.1530695
-3.255835	confirmar	-0.129139
-3.732956	confirme	-0.1378497
-3.732956	confundida	-0.1558095
-3.732956	congreso	-0.1416012
-2.691564	conocer	-0.7728518
-3.732956	conozco	-0.1545222
-3.431926	conseguir	-0.1334739
-3.431926	consulta	-0.1262248
-2.778714	consultar	-0.3914903
-3.732956	contestan	-0.1558095
-3.732956	corresponde	-0.1544416
-3.732956	cosa	-0.1558095
-3.732956	cosita	-0.155488
-3.732956	costa	-0.1549249
-3.732956	costar	-0.1281983
-3.431926	costar'ia	-0.1770906
-3.732956	crem'a	-0.1281983
-2.954805	creo	-0.9255244
-2.528836	cu'al	-0.8554899
-3.033986	cu'ales	-0.5075812
-3.255835	cu'ando	-0.1514495
-2.691564	cu'anto	-0.447157
-3.431926	cu'antos	-0.1408535
-3.732956	cuales	-0.1552468
-2.619013	cualquier	-0.5591012
-3.431926	cualquiera	-0.1263968
-3.732956	cuando	-0.1545222
-3.732956	cuanto	-0.1520982
-2.954805	cuarenta	-0.5332986
-3.732956	cuarto	-0.1126861
-2.653775	cuatro	-0.4001005
-2.954805	cuenca	-0.4199177
-3.732956	cuento	-0.1281983
-3.130896	cuesta	-0.2336111
-3.732956	cullera	-0.1450736
-3.732956	cultural	-0.1450736
-3.732956	curso	-0.1413521
-3.732956	d'e	-0.1508812
-2.454203	d'ia	-0.2386414
-2.954805	d'ias	-0.08460228
-2.691564	d'igame	-0.320181
-3.732956	d'onde	-0.152665
-3.732956	da	-0.1556488
-3.431926	dado	-0.1043556
-3.732956	dame	-0.1516929
-3.130896	dar	-0.4251859
-3.431926	darme	-0.3095651
-1.482536	de	-0.6283692
-3.732956	debe	-0.1558095
-3.732956	deber'ian	-0.1550859
-3.732956	debido	-0.1281983
-2.887858	decir	-0.2771058
-3.130896	decirme	-0.2900177
-3.732956	decirte	-0.154361
-3.732956	deis	-0.1378497
-1.933616	del	-0.5331611
-3.431926	demasiado	-0.1553272
-3.431926	deme	-0.1334739
-3.431926	dentro	-0.4423821
-3.732956	deportiva	-0.1473732
-3.732956	des	-0.152746
-1.894107	desde	-0.6976518
-3.130896	deseaba	-0.2467336
-2.732956	desear'ia	-0.5253673
-2.829866	deseo	-0.3955065
-2.732956	despu'es	-0.3836895
-2.691564	destino	-0.2855716
-3.732956	dice	-0.136508
-3.732956	dices	-0.1378497
-2.954805	dicho	-0.1417008
-3.732956	dichos	-0.1537157
-3.732956	diciembre	-0.05741071
-3.431926	diciendo	-0.1472912
-2.778714	diecinueve	-0.4688652
-2.887858	dieciocho	-0.3633254
-2.829866	diecis'eis	-0.4364553
-2.778714	diecisiete	-0.4722755
-3.732956	diera	-0.134572
-3.732956	dieras	-0.1500679
-2.887858	diez	-0.3080401
-3.732956	diga	-0.1516929
-3.732956	digas	-0.1195519
-3.732956	dijese	-0.1330508
-3.033986	dime	-0.1285406
-3.732956	dir'ia	-0.1378497
-3.732956	direcci'on	-0.1416012
-3.732956	dispone	-0.1413521
-3.033986	disponible	-0.1868291
-3.431926	disponibles	-0.4292283
-3.732956	diurno	-0.137347
-2.829866	doce	-0.3842333
-2.829866	domingo	-0.160104
-3.255835	dormir	-0.3214118
-2.477684	dos	-0.4936815
-3.732956	dura	-0.1378497
-3.732956	duraci'on	-0.1507999
-3.130896	durante	-0.2282643
-3.732956	durar	-0.1550859
-3.431926	durmiendo	-0.4484851
-3.732956	e	-0.1539578
-3.431926	econ'omica	-0.1273414
-3.732956	efectivamente	-0.1450736
-3.732956	efecto	-0.1281983
-3.431926	eh	-0.4292283
-3.732956	ejemplo	-0.1084961
-1.390534	el	-1.014732
-3.732956	el_ferrol	-0.1525841
-3.431926	elegir	-0.4388797
-3.732956	ellos	-0.1042652
-1.715923	en	-0.5852994
-3.732956	enero	-0.05234306
-3.732956	ense~nara	-0.1516929
-3.732956	entendido	-0.1281983
-3.732956	enterar	-0.1474551
-3.732956	entiendo	-0.1556488
-2.502507	entonces	-0.2963211
-2.188888	entre	-0.6239661
-3.732956	enumerar	-0.1516929
-3.732956	equipada	-0.1281983
-3.732956	equivocado	-0.152665
-3.033986	era	-0.08484073
-3.732956	error	-0.1475369
-2.025386	es	-0.3861308
-2.954805	esa	-0.2331391
-2.176654	ese	-0.4582671
-2.691564	eso	-0.4484214
-2.954805	esos	-0.4493033
-3.732956	espec'ificamente	-0.1470454
-3.732956	especial	-0.1519362
-2.778714	est'a	-0.367194
-3.255835	esta	-0.1540385
-3.732956	estaba	-0.1557292
-3.732956	estado	-0.1546833
-3.732956	estamos	-0.1519362
-2.954805	estar	-0.5546804
-3.431926	estar'ia	-0.4561963
-3.732956	estas	-0.1280271
-2.317983	este	-0.5030503
-3.130896	esto	-0.2576508
-3.255835	estos	-0.2058563
-3.130896	estoy	-0.1554077
-3.431926	estrella	-0.1029062
-2.528836	euromed	-0.4578024
-3.033986	exactamente	-0.09806994
-3.255835	exacto	-0.2155877
-3.732956	examen	-0.1474551
-3.732956	excursi'on	-0.1378497
-3.255835	existe	-0.278493
-3.431926	exposici'on	-0.1509624
-3.732956	fallas	-0.1474551
-3.732956	falta	-0.1520172
-3.732956	favor	-0.03993379
-3.732956	febrero	-0.06894486
-3.255835	fecha	-0.1168362
-3.732956	fechas	-0.1507999
-3.732956	feria	-0.1413521
-2.887858	fin	-0.9864501
-3.255835	finales	-0.3121791
-3.732956	forma	-0.1508812
-3.732956	francia	-0.1416012
-3.732956	franja	-0.1558095
-3.732956	frecuencia	-0.155488
-2.954805	fuera	-0.1697021
-3.255835	fuese	-0.1129522
-3.732956	fumador	-0.1281983
-3.255835	fumadores	-0.3035184
-3.732956	fundamentalmente	-0.152665
-3.431926	galicia	-0.4292283
-3.431926	gasteiz	-0.298342
-3.130896	gerona	-0.228312
-3.033986	gij'on	-0.4071006
-3.431926	girona	-0.09410632
-2.556865	gracias	-0.5363197
-2.887858	granada	-0.1566408
-3.431926	guadalajara	-0.4292283
-3.732956	gustado	-0.1500679
-3.732956	gustar'ia	-0.02084795
-2.887858	ha	-0.2651265
-3.130896	hab'ia	-0.153635
-3.732956	hab'ias	-0.1554076
-3.255835	haber	-0.1512872
-3.732956	habido	-0.1500679
-3.033986	habr'ia	-0.1449912
-3.431926	hace	-0.1507999
-3.732956	hacen	-0.1529886
-2.653775	hacer	-0.548897
-3.431926	hacerlo	-0.3184389
-2.556865	hacia	-0.3456329
-3.732956	haga	-0.1326273
-3.732956	hagan	-0.1378497
-3.732956	has	-0.1552468
-2.270558	hasta	-0.3740872
-2.317983	hay	-0.2982578
-3.732956	haya	-0.1500679
-3.130896	he	-0.2342671
-3.732956	hendaya	-0.1238101
-3.732956	historia	-0.1413521
-3.431926	hola	-0.1550717
-2.732956	hora	-0.1909116
-3.732956	horaria	-0.1281983
-2.371228	horario	-0.2346382
-2.141892	horarios	-0.4843677
-2.691564	horas	-0.3134523
-2.829866	hoy	-0.3528338
-3.431926	hubiera	-0.1278557
-3.033986	huelva	-0.2636667
-3.732956	huesca	-0.09953561
-2.619013	ida	-0.1637138
-3.732956	idea	-0.151774
-3.255835	igual	-0.1217297
-3.732956	importa	-0.1473732
-3.732956	importancia	-0.1525841
-3.732956	importar'ia	-0.153635
-3.732956	imposible	-0.1557292
-2.619013	informaci'on	-0.7535825
-3.130896	informarme	-0.2670377
-3.732956	instrucciones	-0.1550859
-2.619013	intercity	-0.4487033
-3.732956	intercitys	-0.1281983
-3.732956	interesa	-0.1034502
-3.431926	interesado	-0.1461428
-3.732956	interesar'ia	-0.1548444
-3.732956	intermedio	-0.1473732
-3.431926	intervalo	-0.1391873
-2.352745	ir	-0.5376611
-3.732956	ir'un	-0.1129522
-3.431926	irme	-0.4426312
-3.732956	iru~nea	-0.1281983
-3.033986	ja'en	-0.2947865
-2.954805	jueves	-0.1956533
-3.732956	julio	-0.09862013
-3.732956	junio	-0.08710513
-3.732956	juntos	-0.1525841
-3.255835	l'erida	-0.2754439
-1.940565	la	-0.6475387
-3.033986	la_coru~na	-0.262187
-3.732956	laborable	-0.1126861
-3.732956	laborables	-0.1281983
-3.732956	lanzadera	-0.1529886
-2.556865	las	-0.5090262
-3.130896	le	-0.2338646
-3.033986	le'on	-0.195353
-3.732956	lentos	-0.1450736
-3.732956	lezama	-0.1281983
-2.954805	litera	-0.4108677
-3.130896	literas	-0.420145
-3.255835	llamaba	-0.6245763
-2.653775	llega	-0.4272977
-3.732956	llegaba	-0.1537964
-3.732956	llegaban	-0.1520982
-2.887858	llegada	-0.2790579
-2.829866	llegan	-0.6453898
-3.431926	llegando	-0.1229445
-2.431926	llegar	-0.5263266
-3.732956	llegar'ia	-0.1281983
-3.732956	llegara	-0.1355831
-3.431926	llegaran	-0.4426312
-3.732956	llegase	-0.1520982
-3.255835	llegue	-0.1626007
-3.431926	lleguen	-0.1165725
-2.887858	lleida	-0.2921652
-3.130896	llevar	-0.2476232
-3.732956	llevarme	-0.1416012
-3.732956	lleve	-0.1416012
-2.619013	lo	-0.5112349
-3.255835	logro~no	-0.1491307
-2.016953	los	-0.865712
-3.130896	luego	-0.1792652
-3.732956	lugo	-0.1089437
-2.829866	lunes	-0.1778276
-3.033986	m'alaga	-0.1431479
-3.732956	m'aquinas	-0.1473732
-2.335016	m'as	-0.2984288
-3.732956	m'aximo	-0.154361
-3.732956	m'erida	-0.1096591
-3.732956	m'i	-0.1519362
-3.732956	m'ireme	-0.1416012
-2.528836	madrid	-0.2285043
-3.732956	manera	-0.1473732
-3.431926	mare_nostrum	-0.4292283
-2.829866	martes	-0.232388
-3.732956	marzo	-0.008732438
-3.732956	mayo	-0.05203708
-2.352745	ma~nana	-0.2817563
-3.732956	ma~nanas	-0.1281983
-3.732956	ma~nanita	-0.1520982
-2.04276	me	-0.5385185
-3.431926	media	-0.05559317
-3.732956	mediados	-0.1507999
-3.033986	mediod'ia	-0.2470918
-2.778714	mejor	-0.3241192
-3.732956	men'u	-0.1558095
-3.431926	menos	-0.3033468
-2.954805	mes	-0.4712458
-3.255835	mi	-0.1549249
-3.130896	mi'ercoles	-0.2133858
-3.732956	miguel_de_unamuno	-0.1281983
-3.732956	mil	-0.1533119
-3.732956	minutos	-0.1413521
-2.887858	mira	-0.2508453
-3.732956	mirar	-0.1516929
-2.954805	mire	-0.2396868
-3.431926	misma	-0.1553272
-3.732956	mismamente	-0.1470454
-3.732956	mismas	-0.1558095
-2.887858	mismo	-0.1838491
-3.732956	mismos	-0.152746
-3.732956	modalidad	-0.1413521
-3.732956	momento	-0.1281983
-3.732956	monumental	-0.1281983
-3.732956	monz'on	-0.1416012
-3.431926	much'isimas	-0.4557133
-2.732956	muchas	-1.154683
-3.732956	muestras	-0.150312
-3.130896	murcia	-0.3269608
-3.732956	museo	-0.1558095
-3.033986	muy	-0.2333004
-2.691564	nada	-0.546393
-3.732956	navidad	-0.1474551
-3.732956	navidades	-0.1474551
-3.255835	necesitar'ia	-0.1493346
-2.778714	necesito	-0.2529123
-3.732956	negocio	-0.1281983
-3.431926	negocios	-0.4461036
-3.033986	ning'un	-0.4527229
-3.732956	ninguna	-0.1413521
-3.732956	ninguno	-0.1449912
-2.120173	no	-0.1556186
-3.033986	noche	-0.1333954
-3.732956	nochevieja	-0.1553272
-3.732956	nocturno	-0.1533119
-3.732956	normal	-0.1281983
-3.732956	norte	-0.1473732
-3.732956	noviembre	-0.07893576
-3.732956	novio	-0.1378497
-2.778714	nueve	-0.4839836
-2.025386	o	-0.3202278
-3.732956	obra	-0.1413521
-2.619013	obtener	-0.8048297
-2.619013	ocho	-0.4061569
-3.732956	octubre	-0.09742719
-3.732956	odio	-0.1416012
-3.732956	oiga	-0.1553272
-3.732956	olvidado	-0.1281983
-2.887858	once	-0.2993822
-3.732956	oposici'on	-0.1281983
-3.130896	orense	-0.2179324
-3.732956	origen	-0.1546028
-3.033986	otra	-0.2509485
-2.829866	otro	-0.615222
-3.255835	otros	-0.3276219
-2.887858	oviedo	-0.4033611
-3.130896	palencia	-0.3275002
-2.954805	pamplona	-0.2426967
-3.431926	par'is	-0.09953561
-1.715923	para	-0.6224708
-3.732956	parece	-0.1473732
-3.732956	parte	-0.1413521
-3.732956	partir	-0.1360878
-2.778714	pasado	-0.598764
-3.431926	pasar	-0.1305036
-3.732956	pascua	-0.1378497
-3.732956	paso	-0.1550054
-3.732956	pedir	-0.1548444
-3.255835	perd'on	-0.6053196
-3.431926	perdone	-0.1333047
-3.130896	perfecto	-0.4273408
-2.410737	pero	-0.09142749
-3.732956	pe~n'iscola	-0.1474551
-3.732956	pirineos	-0.1281983
-3.732956	plazas	-0.1474551
-3.732956	poco	-0.1495792
-3.732956	pocos	-0.1537157
-3.130896	pod'ia	-0.150312
-3.431926	poder	-0.1534735
-2.502507	podr'ia	-0.4402173
-3.732956	podr'iamos	-0.1553272
-3.732956	podr'ian	-0.1556488
-3.732956	podr'ias	-0.1553272
-3.732956	poquito	-0.1378497
-1.69553	por	-0.9782315
-2.653775	porque	-0.2501303
-3.732956	port_aventura	-0.1281983
-3.130896	posibilidad	-0.4402173
-3.732956	posibilidades	-0.1521792
-2.732956	posible	-0.1916171
-3.431926	posibles	-0.1418501
-3.431926	pr'oxima	-0.1274271
-2.778714	pr'oximo	-0.2959213
-2.619013	precio	-0.1448722
-2.556865	precios	-0.3843015
-2.954805	preferente	-0.4056568
-3.732956	preferentemente	-0.1378497
-3.431926	preferir'ia	-0.3273785
-3.130896	prefiero	-0.1461428
-3.732956	pregunta	-0.1557292
-3.732956	preguntado	-0.1470454
-3.130896	preguntar	-0.243529
-3.431926	pregunto	-0.1383518
-3.255835	primer	-0.2728849
-2.954805	primera	-0.1751238
-3.255835	primero	-0.1424489
-3.732956	primeros	-0.1413521
-3.732956	principal	-0.1281983
-3.732956	principio	-0.1529886
-3.732956	principios	-0.1413521
-3.431926	pronto	-0.1166604
-3.732956	pudiera	-0.1273414
-3.732956	pudiese	-0.1550859
-3.431926	pueda	-0.155488
-2.619013	puede	-0.2880465
-3.255835	puedes	-0.1458963
-2.778714	puedo	-0.4187331
-3.431926	puente	-0.3163623
-2.301593	pues	-0.1747495
-3.255835	punto	-0.6184733
-2.227806	qu'e	-0.6182809
-1.711767	que	-0.4363872
-3.732956	quedado	-0.155488
-2.227806	quer'ia	-0.5671713
-2.454203	querr'ia	-0.5839119
-3.732956	quieres	-0.1541998
-2.130897	quiero	-0.5179327
-2.829866	quince	-0.5888304
-3.431926	quincena	-0.2887774
-2.410737	quisiera	-0.5123203
-3.431926	quiz'a	-0.1463891
-2.887858	r'apido	-0.2137673
-3.033986	r'apidos	-0.1286475
-3.732956	realice	-0.1554076
-3.732956	realidad	-0.1519362
-3.732956	realizan	-0.1529886
-3.033986	realizar	-0.3052302
-3.732956	realmente	-0.1533119
-3.732956	reconfirmar	-0.1378497
-3.732956	recorrido	-0.1281983
-3.732956	refiriendo	-0.1544416
-2.887858	regional	-0.3443771
-3.732956	regionales	-0.109927
-3.732956	regresando	-0.1378497
-3.130896	regresar	-0.3352441
-3.732956	regreso	-0.1546028
-3.732956	rep'itame	-0.1516929
-3.431926	repetir	-0.1334739
-3.255835	repetirme	-0.3402639
-3.732956	repitas	-0.1378497
-3.732956	reservar	-0.1500679
-3.732956	respondido	-0.1558095
-3.732956	restaurante	-0.1281983
-3.732956	reuni'on	-0.1265687
-3.732956	reunirme	-0.1533927
-3.431926	ruta	-0.4292283
-2.477684	s'abado	-0.2704147
-3.732956	s'e	-0.09447652
-2.390534	s'i	0.0928852
-2.778714	s'olo	-0.3219396
-3.431926	sabe	-0.1504747
-2.352745	saber	-0.4068302
-3.732956	saberlo	-0.150312
-3.033986	salamanca	-0.2354649
-3.431926	saldr'ia	-0.1326273
-2.954805	sale	-0.2193049
-3.033986	salen	-0.2209622
-3.255835	salga	-0.1318498
-3.732956	salgan	-0.08351435
-3.431926	salgo	-0.1219034
-2.691564	salida	-0.1907344
-2.301593	saliendo	-0.7349917
-3.431926	saliera	-0.1272556
-3.732956	salieran	-0.1131295
-3.732956	saliese	-0.1338966
-2.270558	salir	-0.5177189
-3.732956	san_fermines	-0.1281983
-3.732956	san_jos'e	-0.1281983
-3.033986	san_sebasti'an	-0.3012582
-2.691564	santander	-0.3036137
-3.431926	santiago	-0.1259667
-3.255835	santiago_de_compostela	-0.3213844
-3.732956	satisfecho	-0.1558095
-2.829866	se	-0.2550407
-2.653775	sea	-0.1070492
-3.431926	sean	-0.1329662
-3.255835	segovia	-0.1698677
-3.431926	segunda	-0.1272556
-3.431926	segundo	-0.2316395
-2.691564	seis	-0.4878618
-2.778714	semana	-0.2021257
-3.255835	semana_santa	-0.09215735
-3.732956	semanas	-0.1450736
-3.431926	septiembre	-0.1351019
-2.732956	ser	-0.2115731
-3.732956	ser'a	-0.1551663
-2.528836	ser'ia	-0.401958
-3.255835	servicio	-0.1121535
-3.732956	servicios	-0.1548444
-3.732956	setiembre	-0.1450736
-2.653775	sevilla	-0.345104
-3.732956	se~nora	-0.1281983
-3.732956	se~norita	-0.1470454
-2.033986	si	-0.6347769
-3.732956	sido	-0.155488
-2.732956	siete	-0.4254623
-2.887858	siguiente	-0.3084831
-3.732956	sin	-0.1535542
-3.732956	sirve	-0.1529886
-2.431926	sobre	-0.5312001
-3.130896	solamente	-0.1077788
-2.887858	solo	-0.1273414
-2.619013	son	-0.2143521
-3.431926	soria	-0.1221639
-3.130896	su	-0.7569044
-3.732956	sueca	-0.1378497
-3.732956	suficiente	-0.1041747
-3.732956	supuesto	-0.1281983
-3.732956	sus	-0.1546833
-2.502507	talgo	-0.2902438
-3.431926	talgos	-0.1275986
-2.301593	tambi'en	-0.3445769
-3.732956	tampoco	-0.1537964
-3.255835	tanto	-0.3087186
-3.732956	tarda	-0.1281983
-3.732956	tardan	-0.1535542
-3.732956	tardar'ia	-0.1474551
-2.954805	tarde	-0.07952443
-3.732956	tardes	-0.1303332
-2.887858	tarragona	-0.1614875
-3.732956	te	-0.1558095
-3.732956	teatro	-0.1450736
-3.431926	temprano	-0.1273414
-3.732956	tendr'e	-0.1474551
-2.954805	tendr'ia	-0.2396784
-3.732956	tendr'ian	-0.1516929
-3.255835	tener	-0.1360878
-3.732956	tenerlo	-0.1281983
-3.732956	tenga	-0.1187652
-2.431926	tengo	-0.651045
-3.732956	tercer	-0.1538772
-3.732956	tercero	-0.1281983
-2.887858	teruel	-0.3507143
-3.732956	thyssen	-0.1551663
-3.732956	ticket	-0.150312
-3.431926	tiempo	-0.155488
-2.619013	tiene	-0.3501387
-2.887858	tienen	-0.2107783
-3.732956	tienes	-0.1557292
-2.586828	tipo	-0.615077
-3.255835	tipos	-0.6184733
-3.431926	toda	-0.4519112
-3.033986	todo	-0.3242487
-3.255835	todos	-0.2998149
-3.130896	toledo	-0.1331261
-3.732956	total	-0.1413521
-3.732956	totalmente	-0.1558095
-3.732956	trabajo	-0.1433408
-3.732956	trata	-0.1413521
-3.033986	trayecto	-0.346307
-3.732956	trayectos	-0.1474551
-3.255835	trece	-0.1829939
-2.586828	treinta	-0.612512
-2.335016	tren	-0.2831759
-3.255835	tren_hotel	-0.1961053
-2.301593	trenes	-0.2738206
-2.732956	tres	-0.4202434
-3.732956	triana	-0.1281983
-3.732956	tu	-0.1558095
-3.431926	turista	-0.188602
-3.431926	u	-0.3128511
-1.875624	un	-0.7680926
-2.454203	una	-0.2906889
-2.653775	uno	-0.5851592
-3.033986	unos	-0.3277031
-3.431926	usted	-0.153635
-3.732956	utilizar	-0.1548444
-3.732956	uy	-0.1378497
-3.732956	v'alido	-0.1281983
-3.255835	va	-0.2167238
-3.431926	vacaciones	-0.1226845
-3.732956	valdr'ia	-0.1378497
-2.887858	vale	-0.1167659
-3.431926	valen	-0.1249329
-2.619013	valencia	-0.2625551
-3.732956	valer	-0.1500679
-2.829866	valladolid	-0.2688682
-3.033986	vamos	-0.5108922
-3.431926	van	-0.1873898
-3.255835	vaya	-0.2108365
-3.732956	vayan	-0.1265687
-3.732956	veamos	-0.152665
-2.887858	veinte	-0.386438
-2.887858	veinticinco	-0.7147461
-2.887858	veinticuatro	-0.5778441
-2.887858	veintid'os	-0.4621988
-2.887858	veintinueve	-0.5852588
-3.130896	veintiocho	-0.4137161
-2.954805	veintis'eis	-0.4001081
-2.954805	veintisiete	-0.3729086
-3.033986	veintitr'es	-0.4761144
-3.130896	veintiuno	-0.4137161
-3.732956	vendr'ia	-0.1551663
-3.732956	venga	-0.1535542
-3.732956	vengan	-0.1413521
-3.732956	vente	-0.1413521
-3.130896	ver	-0.093972
-3.033986	ver'a	-0.2414892
-3.732956	verano	-0.1474551
-3.431926	verdad	-0.4292283
-3.431926	vez	-0.09715141
-3.732956	viaja	-0.150312
-2.887858	viajando	-0.5629803
-2.285798	viajar	-0.6665353
-3.732956	viajara	-0.1474551
-2.410737	viaje	-0.3793535
-2.732956	viajes	-0.3466307
-3.732956	vida	-0.1474551
-3.431926	viene	-0.03306103
-2.619013	viernes	-0.2499454
-3.431926	viernes_santo	-0.285035
-2.829866	vigo	-0.251954
-3.732956	visita	-0.1415182
-3.431926	visitar	-0.4426312
-3.732956	visitarlos	-0.1281983
-3.255835	vitoria	-0.1755306
-2.619013	volver	-0.3975806
-3.732956	volver'ia	-0.1508812
-3.130896	volviendo	-0.2919597
-3.130896	voy	-0.538544
-2.954805	vuelta	-0.1138516
-3.431926	vuelva	-0.1029061
-3.732956	vuelven	-0.1416012
-3.431926	vuelvo	-0.4388797
-1.609105	y	-0.3751839
-2.653775	ya	-0.3527915
-2.732956	yo	-0.4444535
-3.431926	zamora	-0.1383518
-2.691564	zaragoza	-0.3395979
-3.431926	zona	-0.1555684

\2-grams:
-0.5952201	'avila </s>
-0.7519153	'avila a	-0.1530108
-1.634526	'avila desde
-0.999469	'avila el	-0.3824077
-0.999469	'avila en	-0.3486066
-1.634526	'avila para
-0.3626469	'ultima hora
-0.9977037	'ultima semana	0
-0.512499	'ultimo </s>
-1.66671	'ultimo el
-1.66671	'ultimo es
-1.66671	'ultimo euromed
-1.031654	'ultimo que
-0.6274049	'ultimo tren	-0.2174694
-0.1865557	'ultimos </s>
-0.5205824	'unicamente cu'al
-0.5205824	'unico tren
-4.221373	<s> 'avila
-1.377948	<s> a	-0.2293986
-3.338762	<s> al	-0.1329828
-4.221373	<s> albacete
-3.586316	<s> alg'un	-0.2448223
-3.182067	<s> alguno	-0.2677858
-4.221373	<s> alrededor
-4.221373	<s> antes
-4.221373	<s> ay
-2.976384	<s> barcelona	-0.8271425
-2.781629	<s> bien	0.02619639
-2.315156	<s> buenas	-0.3664988
-2.545406	<s> bueno	-0.2161824
-2.248979	<s> buenos	-0.8141127
-4.221373	<s> burgos
-4.221373	<s> buscar'ia
-4.221373	<s> c'aceres
-3.586316	<s> c'adiz	-0.2834516
-3.586316	<s> cambiar
-3.586316	<s> catorce	-0.2122056
-4.221373	<s> ciudad_real
-4.221373	<s> con
-4.221373	<s> conocer
-3.586316	<s> creo	0.5233466
-2.372378	<s> cu'al	-0.3451724
-2.438301	<s> cu'anto	-0.5577499
-4.221373	<s> cuales
-3.067161	<s> cualquier	-0.3613178
-4.221373	<s> cualquiera
-4.221373	<s> cuenca
-3.586316	<s> d'igame	-0.2839949
-3.338762	<s> de
-3.338762	<s> del
-3.586316	<s> desde
-4.221373	<s> deseaba
-2.165476	<s> desear'ia	-0.2358914
-2.054371	<s> deseo	-0.4018805
-3.586316	<s> diecinueve
-3.586316	<s> dieciocho	-0.2557028
-4.221373	<s> diecis'eis
-3.338762	<s> diecisiete	-0.1795554
-4.221373	<s> dos
-4.221373	<s> durante
-1.224681	<s> el	-0.307233
-4.221373	<s> elegir
-2.976384	<s> en	-0.09522148
-4.221373	<s> entonces
-2.732233	<s> entre	-0.9654623
-4.221373	<s> era
-3.182067	<s> es
-3.586316	<s> ese
-3.067161	<s> eso	-0.09105821
-4.221373	<s> esos
-2.976384	<s> este	-0.07868092
-4.221373	<s> esto
-4.221373	<s> estoy
-4.221373	<s> exactamente
-3.586316	<s> exacto
-3.586316	<s> existe	-0.2397424
-4.221373	<s> finales
-4.221373	<s> gasteiz
-4.221373	<s> gerona
-3.182067	<s> gracias
-4.221373	<s> granada
-4.221373	<s> habr'ia
-2.415197	<s> hay	-0.2752678
-1.371796	<s> hola	-1.045619
-2.976384	<s> horario	-0.3814691
-2.781629	<s> horarios	-0.432493
-3.067161	<s> hoy	-0.3646958
-4.221373	<s> ir
-3.338762	<s> jueves
-4.221373	<s> l'erida
-2.837373	<s> la	-0.4281119
-3.586316	<s> la_coru~na	-0.2557028
-4.221373	<s> llega
-4.221373	<s> lleida
-4.221373	<s> lo
-3.586316	<s> los
-3.586316	<s> lunes
-2.90134	<s> madrid	-0.887692
-3.586316	<s> martes
-2.233899	<s> ma~nana	-0.6207049
-1.428249	<s> me	-1.134639
-3.338762	<s> mira
-3.182067	<s> mire
-4.221373	<s> muchas
-4.221373	<s> muy
-2.084823	<s> nada	-0.6816045
-4.221373	<s> necesitar'ia
-2.732233	<s> necesito	-0.107038
-0.7120968	<s> no	-1.012418
-4.221373	<s> o
-2.576887	<s> obtener	-0.3820497
-4.221373	<s> ocho
-4.221373	<s> oiga
-4.221373	<s> once
-4.221373	<s> otro
-3.586316	<s> oviedo	-0.236191
-3.338762	<s> pamplona	-0.4699769
-3.067161	<s> para	-0.06746995
-3.067161	<s> pasado	-0.2974682
-3.586316	<s> perdone
-4.221373	<s> pod'ia
-2.90134	<s> podr'ia
-2.90134	<s> por	0.0800519
-3.586316	<s> pr'oximo
-3.586316	<s> precios
-3.586316	<s> preferir'ia
-4.221373	<s> pregunto
-3.586316	<s> puede	-0.3780971
-3.338762	<s> puedo
-1.654289	<s> pues	-0.5426114
-2.333405	<s> qu'e	-0.4345947
-2.438301	<s> que	-0.1783752
-1.467029	<s> quer'ia	-0.6638387
-2.007929	<s> querr'ia	-0.4611692
-4.221373	<s> quieres
-1.348026	<s> quiero	-0.7302863
-3.586316	<s> quince	0.1124402
-1.606314	<s> quisiera	-0.4409475
-4.221373	<s> realmente
-4.221373	<s> s'abado
-0.4651856	<s> s'i	-1.048399
-2.48856	<s> saber	-0.3853815
-3.586316	<s> sale	-0.3780971
-4.221373	<s> salida
-3.067161	<s> salir	-0.1740993
-3.586316	<s> san_sebasti'an	-0.3182138
-3.586316	<s> santander	-0.2716418
-4.221373	<s> santiago_de_compostela
-2.90134	<s> sevilla	-0.862734
-2.976384	<s> si	0.03620319
-3.182067	<s> siete	-0.5651574
-4.221373	<s> solo
-4.221373	<s> son
-4.221373	<s> tambi'en
-4.221373	<s> tampoco
-2.90134	<s> tarragona	-0.8764076
-4.221373	<s> teruel
-3.586316	<s> tiene
-4.221373	<s> tienen
-3.338762	<s> tipo	-0.05461663
-4.221373	<s> todos
-4.221373	<s> toledo
-3.586316	<s> treinta
-4.221373	<s> trenes
-4.221373	<s> tres
-3.338762	<s> un	-0.2118437
-4.221373	<s> una
-4.221373	<s> uno
-4.221373	<s> utilizar
-3.586316	<s> vale	-0.398621
-3.586316	<s> valencia	-0.3472393
-4.221373	<s> valladolid
-4.221373	<s> vamos
-4.221373	<s> veamos
-3.338762	<s> veinte	-0.4273582
-4.221373	<s> veinticinco
-4.221373	<s> veinticuatro
-4.221373	<s> veintid'os
-4.221373	<s> veintinueve
-3.338762	<s> veintitr'es	-0.3097027
-4.221373	<s> ver'a
-2.781629	<s> viajar	-0.5210974
-4.221373	<s> viaje
-3.182067	<s> viernes
-3.182067	<s> vigo	-0.5369237
-4.221373	<s> volver
-2.48856	<s> y	-0.2610888
-3.067161	<s> ya	-0.3307176
-3.586316	<s> yo
-1.956126	a 'avila	-0.06558947
-3.340127	a 'ultima	0
-1.956126	a albacete	-0.2123616
-2.70507	a algeciras
-2.70507	a alguna	-0.3646811
-1.581458	a alicante	-0.342336
-2.300821	a almer'ia	-0.120849
-2.185915	a badajoz	-0.1617683
-1.367733	a barcelona	-0.370415
-1.634807	a bilbao	-0.3068969
-2.457516	a burgos	0
-1.850987	a c'aceres	-0.1524062
-1.850987	a c'adiz	-0.006065056
-1.80664	a c'ordoba	-0.4448731
-3.340127	a castell'o
-1.80664	a castell'on	-0.1371847
-2.095138	a ciudad_real	-0.3431196
-2.70507	a cualquier	-0.3780971
-3.340127	a cuatro
-2.185915	a cuenca	-0.3444777
-3.340127	a decir
-3.340127	a decirme
-2.70507	a diez
-3.340127	a dos
-3.340127	a esa
-3.340127	a ese
-3.340127	a eso
-2.70507	a finales	-0.1636157
-3.340127	a francia
-2.70507	a gasteiz
-2.300821	a gerona	-0.08227089
-2.457516	a gij'on	-0.2107822
-2.185915	a girona	-0.2213731
-1.850987	a granada	-0.2133093
-2.70507	a guadalajara	0.04622534
-3.340127	a haber
-2.457516	a huelva	-0.1381269
-2.300821	a huesca	-0.1124946
-3.340127	a ir
-2.457516	a ja'en	0.02549573
-2.300821	a l'erida	0.05162822
-1.729583	a la	-0.2482962
-1.956126	a la_coru~na	-0.1476002
-1.28423	a las	-0.3302157
-2.185915	a le'on	-0.1782998
-2.457516	a lleida	0.05218769
-2.020094	a logro~no	-0.4488514
-2.70507	a lugo
-1.900383	a m'alaga	-0.1942832
-2.095138	a m'erida	-0.1669769
-3.340127	a m'i
-1.214222	a madrid	-0.3009539
-3.340127	a mediados
-2.457516	a mediod'ia	-0.08772983
-3.340127	a mi
-2.020094	a murcia	-0.3875387
-3.340127	a noche
-3.340127	a once
-3.340127	a orense	0
-1.900383	a oviedo	-0.3262445
-2.70507	a palencia	-0.1381269
-1.729583	a pamplona	-0.3402954
-2.70507	a par'is	-0.1814578
-1.416396	a partir	-1.099903
-3.340127	a pe~n'iscola
-1.900383	a poder	-0.9929194
-3.340127	a port_aventura
-2.020094	a primera	-0.9469887
-3.340127	a primeros
-2.457516	a principios	-0.4308959
-3.340127	a pues
-1.533951	a qu'e	-1.126538
-2.70507	a que	0
-3.340127	a quer'ia
-1.900383	a salamanca	-0.2898624
-3.340127	a san_fermines
-1.956126	a san_sebasti'an	-0.248496
-1.66416	a santander	-0.1656897
-3.340127	a santiago
-2.185915	a santiago_de_compostela	-0.05164763
-1.900383	a segovia	-0.3056869
-2.70507	a seis	-0.09486184
-1.900383	a ser	-1.060149
-1.471208	a sevilla	-0.3790738
-3.340127	a siete
-2.185915	a soria	-0.4033066
-3.340127	a sueca
-1.766404	a tarragona	-0.2135681
-1.80664	a teruel	-0.1800002
-2.020094	a toledo	-0.0486363
-2.457516	a un	-0.2236863
-2.457516	a una
-2.70507	a unos	-0.2005582
-1.383356	a valencia	-0.353665
-1.956126	a valladolid	-0.2006737
-1.512014	a ver	-0.2306426
-3.340127	a viajar
-1.766404	a vigo	-0.2004143
-2.185915	a vitoria	-0.06428084
-1.900383	a zaragoza	-0.2847372
-0.5205824	abre a
-1.227948	abril </s>
-1.863005	abril a	0
-1.863005	abril al
-1.863005	abril con	0
-1.863005	abril de	0
-1.227948	abril del	-0.3681094
-1.863005	abril dentro
-1.863005	abril despu'es
-1.863005	abril diecis'eis
-1.863005	abril en	0
-1.863005	abril no
-1.863005	abril o
-1.863005	abril para	0
-1.863005	abril por	0
-1.863005	abril porque
-1.863005	abril que
-1.863005	abril quer'ia
-1.863005	abril quisiera
-1.863005	abril viernes_santo
-1.863005	abril y	0
-0.5205824	acabado gracias
-0.5205824	acceder o
-0.1865557	acerca del
-0.5205824	acercara m'as
-0.5205824	acudir esta
-0.5205824	acuerdo </s>
-1.66671	adem'as deseo
-1.66671	adem'as el
-1.66671	adem'as en
-1.66671	adem'as la
-1.66671	adem'as lo
-1.66671	adem'as los
-1.66671	adem'as me
-1.66671	adem'as que
-1.66671	adem'as quer'ia
-1.66671	adem'as querr'ia
-0.7841	adem'as quiero	-0.1879728
-1.66671	adem'as saber
-0.06534095	adi'os </s>
-0.5205824	aeropuerto de
-0.939002	agosto </s>
-1.821612	agosto a	0
-1.821612	agosto cualquier
-1.821612	agosto de
-1.821612	agosto del
-1.821612	agosto desde
-1.821612	agosto dos
-1.821612	agosto e
-1.821612	agosto en
-1.821612	agosto es
-1.821612	agosto hasta
-1.821612	agosto por	0
-1.821612	agosto quiero
-1.821612	agosto quisiera
-1.821612	agosto si
-1.821612	agosto tambi'en
-1.821612	agosto un
-1.821612	agosto y	0
-0.5205824	agradecer'ia </s>
-0.5205824	ah s'i
-1.122642	ahora dime
-0.4875856	ahora me	0
-1.122642	ahora quer'ia
-1.863005	al aeropuerto
-1.863005	al atardecer
-1.863005	al cuatro	0
-0.7087936	al d'ia	-0.7979831
-1.863005	al destino
-1.863005	al diecisiete
-1.863005	al euromed
-1.863005	al igual
-1.227948	al mediod'ia
-1.863005	al men'u
-1.863005	al mismo
-1.863005	al museo
-1.863005	al once	0
-1.863005	al principio
-1.863005	al s'abado
-1.863005	al treinta	0
-1.863005	al viernes
-0.4355193	alaris </s>
-1.474825	alaris me
-1.474825	alaris o	0
-1.474825	alaris que
-0.8397682	alaris si	-0.1060943
-0.6379719	albacete </s>
-1.520582	albacete a	0
-1.520582	albacete antes
-1.520582	albacete destino
-1.520582	albacete el
-1.520582	albacete para
-1.520582	albacete saliendo
-1.520582	albacete y	0
-1.88231	alg'un ave
-1.247254	alg'un billete
-1.247254	alg'un d'ia
-1.88231	alg'un euromed
-1.88231	alg'un fin
-1.247254	alg'un horario
-1.247254	alg'un otro
-1.88231	alg'un regional
-1.247254	alg'un talgo	0
-1.88231	alg'un tipo
-0.4983104	alg'un tren	-0.1109027
-0.8216125	algeciras </s>
-0.8216125	algeciras en
-0.8216125	algo </s>
-0.8216125	algo que
-0.9977037	alguna ciudad
-0.9977037	alguna historia
-0.9977037	alguna otra
-0.999469	alguno </s>
-0.7519153	alguno de	-0.2158573
-1.634526	alguno es
-0.3895372	alguno que	-0.3122136
-1.634526	alguno sale
-0.5308663	alicante </s>
-1.140798	alicante a	-0.209124
-1.775855	alicante antes
-1.140798	alicante el	-0.1078392
-1.775855	alicante ma~nana
-1.140798	alicante para	-0.03870992
-1.775855	alicante pero
-1.775855	alicante saber
-1.140798	alicante y	0
-1.298734	all'i a
-0.2594281	all'i antes	0.1464037
-1.298734	all'i el
-0.7886156	almer'ia </s>
-1.423672	almer'ia a	0
-0.7886156	almer'ia el
-1.423672	almer'ia en
-1.423672	almer'ia hasta
-1.423672	almer'ia por
-0.5205824	almeria </s>
-0.1786838	alrededor de	-0.8782858
-0.7886156	alrededor del	-0.3949741
-0.8216125	alta_velocidad </s>
-0.8216125	alta_velocidad en
-0.8216125	altaria </s>
-0.8216125	altaria o
-0.5205824	amable </s>
-0.9977037	amigos </s>
-0.9977037	amigos en
-0.9977037	amigos entonces
-1.219553	anterior </s>
-1.219553	anterior a
-1.219553	anterior el
-1.219553	anterior que
-1.219553	anterior y
-1.007988	antes </s>
-0.1270716	antes de	-1.202606
-1.098765	antes del	-0.2216786
-2.252976	antes estaba
-2.252976	antes mejor
-0.5205824	aparte de
-0.5205824	aprovechar el
-0.9977037	aproximadamente alrededor
-0.3626469	aproximadamente antes	0.1850291
-0.5205824	aproximado m'as
-0.8216125	aqu'i de
-0.8216125	aqu'i desde	0
-0.5205824	arco </s>
-0.9977037	as'i como
-0.9977037	as'i es	0
-0.9977037	as'i hasta
-0.5205824	asistir a
-0.5205824	asunto de
-0.8216125	atardecer </s>
-0.8216125	atardecer y
-0.5205824	atenci'on </s>
-0.9977037	aunque no
-0.9977037	aunque sea
-0.9977037	aunque si
-0.5205824	autobuses que
-0.5205824	autom'aticamente tienes
-0.5679463	ave </s>
-1.951946	ave a
-1.951946	ave d'igame
-1.069336	ave de	-0.2223269
-1.951946	ave desde
-1.951946	ave disponible
-1.951946	ave eh
-1.951946	ave la
-1.951946	ave o
-1.951946	ave pero
-1.951946	ave por
-1.951946	ave porque
-1.951946	ave puede
-1.951946	ave saliendo
-1.951946	ave sevilla
-1.951946	ave si	0
-1.316889	ave y
-0.5205824	ay </s>
-0.5205824	ayudar </s>
-1.122642	a~no dos
-1.122642	a~no entonces
-1.122642	a~no entre
-1.122642	a~no y
-0.5205824	b'usqueme usted
-0.6636769	badajoz </s>
-1.298734	badajoz a
-1.298734	badajoz el
-1.298734	badajoz para
-1.298734	badajoz y
-0.8216125	bajar desde
-0.8216125	bajar en
-1.219553	bar </s>
-1.219553	bar me
-1.219553	bar o
-0.5844957	bar y	-0.3975942
-0.3263749	barato </s>
-1.36568	barato para
-1.36568	barato que
-1.36568	barato y
-0.5205824	baratos tanto
-0.8847706	barcelona </s>
-1.633714	barcelona a	-0.09391881
-2.26877	barcelona antes	0
-2.26877	barcelona castell'on
-2.26877	barcelona desde	0
-1.114559	barcelona el	-0.08255454
-1.633714	barcelona en	-0.08006795
-2.26877	barcelona ese
-2.26877	barcelona este
-2.26877	barcelona ida
-2.26877	barcelona la
-2.26877	barcelona llegan
-2.26877	barcelona lleida
-2.26877	barcelona ma~nana	0
-2.26877	barcelona me
-2.26877	barcelona no
-1.023782	barcelona para	-0.09046575
-2.26877	barcelona pero
-2.26877	barcelona por
-2.26877	barcelona pues
-1.633714	barcelona que
-2.26877	barcelona quer'ia
-2.26877	barcelona quiero
-2.26877	barcelona quisiera
-2.26877	barcelona saldr'ia
-2.26877	barcelona saliendo
-2.26877	barcelona sobre
-2.26877	barcelona un
-2.26877	barcelona una
-1.633714	barcelona valencia	-0.3472393
-1.023782	barcelona y	-0.04708311
-0.5978131	bien </s>
-1.842802	bien b'usqueme
-0.9601912	bien el	-0.2146393
-1.842802	bien ese
-1.842802	bien est'a
-1.842802	bien estar'ia
-1.207745	bien gracias	-0.04117276
-1.842802	bien me
-1.842802	bien para
-1.842802	bien perfecto
-1.207745	bien s'i	-0.1941448
-1.842802	bien si
-1.169451	bilbao </s>
-1.417005	bilbao a	-0.06712902
-2.052061	bilbao al
-2.052061	bilbao alrededor
-2.052061	bilbao barcelona
-1.417005	bilbao de
-2.052061	bilbao desde
-1.417005	bilbao el	0
-2.052061	bilbao en
-2.052061	bilbao entonces
-2.052061	bilbao hasta	0
-2.052061	bilbao la
-2.052061	bilbao las
-2.052061	bilbao me
-1.012756	bilbao para	0
-2.052061	bilbao qu'e
-2.052061	bilbao que
-2.052061	bilbao quer'ia
-2.052061	bilbao quiero
-2.052061	bilbao saber
-2.052061	bilbao santander
-2.052061	bilbao sevilla
-1.012756	bilbao y	0
-0.9864268	billete </s>
-1.390676	billete a
-0.7056998	billete de	-0.3242867
-1.390676	billete del	0
-2.025733	billete desde
-2.025733	billete disponible
-1.143122	billete en	-0.1769276
-0.8715209	billete ida	-0.6982906
-2.025733	billete m'as
-2.025733	billete no
-2.025733	billete normal
-2.025733	billete para
-2.025733	billete por	0
-2.025733	billete tendr'ia
-2.025733	billete y
-1.219553	billetes </s>
-0.5844957	billetes de	0
-1.219553	billetes para
-1.219553	billetes por
-0.5205824	buena hora
-1.799336	buenas a
-1.799336	buenas desear'ia
-1.799336	buenas es
-1.799336	buenas he
-1.164279	buenas me	-0.2805198
-1.799336	buenas mira
-0.9167256	buenas quer'ia	-0.1370037
-1.164279	buenas querr'ia	-0.001963541
-0.9167256	buenas quisiera	-0.06233938
-0.9167256	buenas tardes	-0.1124947
-1.799336	buenas ver'a
-1.842802	bueno desear'ia
-1.842802	bueno el
-1.842802	bueno entre
-1.842802	bueno es
-1.207745	bueno me	-0.2805198
-1.842802	bueno mejor
-1.842802	bueno obtener
-0.9601912	bueno pues	0
-1.842802	bueno qu'e
-1.842802	bueno quer'ia
-1.842802	bueno quiero
-1.842802	bueno quisiera
-1.842802	bueno s'i
-1.842802	bueno saliendo
-1.842802	bueno ser'ia
-1.842802	bueno si
-1.842802	bueno y
-1.842802	bueno yo
-0.08333679	buenos d'ias	-0.1884192
-0.4455522	burgos </s>
-0.9647069	burgos a	-0.2814106
-0.9647069	burgos el
-1.599764	burgos la
-1.599764	burgos saliendo
-1.599764	burgos valladolid
-0.5205824	buscar un
-0.5205824	buscar'e la
-0.5205824	buscar'ia un
-0.570491	c'aceres </s>
-1.089646	c'aceres a	-0.2239686
-1.724702	c'aceres capital
-1.724702	c'aceres desde
-1.724702	c'aceres el	0
-1.089646	c'aceres para	-0.1443405
-0.6853968	c'aceres y	-0.08698949
-0.5952201	c'adiz </s>
-1.634526	c'adiz a
-1.634526	c'adiz el	0
-1.634526	c'adiz en
-1.634526	c'adiz ese
-1.634526	c'adiz la
-1.634526	c'adiz los	0
-1.634526	c'adiz me
-1.634526	c'adiz por
-1.634526	c'adiz saliendo
-0.9977037	c'omo ha
-0.3626469	c'omo no
-0.5205824	c'omoda mejor
-0.6636769	c'omodo </s>
-1.298734	c'omodo de
-1.298734	c'omodo no
-1.298734	c'omodo para
-1.298734	c'omodo pero
-1.520582	c'ordoba </s>
-0.8855256	c'ordoba a	-0.406528
-0.6379719	c'ordoba el	-0.09355382
-1.520582	c'ordoba para
-1.520582	c'ordoba ser'ia
-0.8855256	c'ordoba y
-1.219553	cada cu'anto
-1.219553	cada salida
-0.336942	cada uno	-0.1417831
-0.5205824	callado </s>
-0.7306237	cama </s>
-1.36568	cama adem'as
-1.36568	cama de
-1.36568	cama o
-1.36568	cama si
-1.36568	cama tienen
-0.4355193	cambiar el	-0.08376232
-0.4355193	cambiar la	-0.1326452
-1.474825	cambiar ninguna
-0.5205824	cambrils a
-0.5205824	camino de
-0.5205824	capital </s>
-0.8216125	caracter'isticas </s>
-0.8216125	caracter'isticas tipo
-0.5205824	carnavales </s>
-0.5205824	caro </s>
-0.8216125	casa </s>
-0.8216125	casa y
-0.5205824	castell'o </s>
-0.6885902	castell'on </s>
-1.207745	castell'on a	-0.09550726
-1.842802	castell'on de
-1.842802	castell'on desde
-1.842802	castell'on destino
-1.207745	castell'on el	-0.1893929
-1.842802	castell'on en
-1.842802	castell'on este
-1.842802	castell'on no
-0.9601912	castell'on para	-0.150295
-1.842802	castell'on por
-1.842802	castell'on viajando
-1.842802	castell'on y
-0.5205824	catalu~na_expres si
-1.474825	catorce </s>
-0.4355193	catorce de	-0.272846
-1.474825	catorce horas	0
-1.474825	catorce por	0
-1.474825	catorce tambi'en
-1.474825	catorce verdad
-0.5205824	celebre carnavales
-0.1865557	cerca de	-0.4011646
-0.5205824	cercana </s>
-0.5205824	cercano a
-0.5205824	cero horas
-0.5205824	cierra del
-0.6373217	cinco </s>
-1.88231	cinco a
-1.88231	cinco creo
-0.5622777	cinco de	-0.187868
-1.88231	cinco esto
-1.88231	cinco horas
-1.88231	cinco la
-1.88231	cinco llega
-1.88231	cinco o
-1.88231	cinco qu'e	0
-1.88231	cinco que
-1.88231	cinco y	0
-0.9977037	cincuenta </s>
-0.3626469	cincuenta y	-0.1550307
-0.5205824	citado </s>
-1.122642	ciudad cercana
-1.122642	ciudad de
-1.122642	ciudad monumental
-1.122642	ciudad que
-0.7171532	ciudad_real </s>
-0.9647069	ciudad_real a	0
-1.599764	ciudad_real el	0
-1.599764	ciudad_real hasta	0
-0.9647069	ciudad_real para
-1.599764	ciudad_real por
-0.9647069	ciudad_real y
-0.5844957	claro </s>
-1.219553	claro es
-1.219553	claro para
-1.219553	claro pues
-0.8932444	clase </s>
-1.775855	clase de
-1.140798	clase econ'omica	-0.3397069
-1.775855	clase especial
-1.775855	clase m'as
-1.775855	clase no
-1.775855	clase o	0
-0.8932444	clase preferente	-0.01117173
-1.775855	clase primera
-1.775855	clase qu'e
-0.8932444	clase turista	-0.01150216
-1.561975	coche </s>
-0.1779752	coche cama	-0.1903574
-0.9269183	coche en	-0.3689218
-1.219553	coger a
-0.5844957	coger el
-0.5844957	coger un	-0.3234422
-0.5205824	cogi'endolo a
-0.5205824	cogiendo el
-0.5205824	cojo de
-1.520582	como de
-0.8855256	como es
-1.520582	como horarios
-1.520582	como llegar
-1.520582	como m'aximo
-1.520582	como para
-1.520582	como precios
-1.520582	como servicio
-1.520582	como voy
-0.5205824	compa~n'ia </s>
-0.5205824	competici'on deportiva
-0.5205824	completo del
-0.1150932	comprar un	-0.1775062
-0.5205824	compro un
-2.143832	con arco	0
-2.143832	con bar
-2.143832	con coche
-0.8988431	con destino	-0.0925845
-2.143832	con direcci'on
-1.104526	con el	-0.1462597
-2.143832	con esto
-2.143832	con la
-2.143832	con las
-2.143832	con literas
-1.261221	con llegada	-0.4816114
-2.143832	con llegar
-1.261221	con punto	0.04622531
-1.508775	con qu'e	-0.4085419
-0.8988431	con salida	-0.1252542
-1.261221	con servicio	-0.5407724
-2.143832	con trenes
-1.261221	con un	-0.1402189
-2.143832	con unos
-2.143832	con vuelta
-0.9977037	concierto </s>
-0.9977037	concierto a
-0.9977037	concierto para
-0.5205824	concretar el
-0.5205824	concretos para
-0.5205824	condiciones entre
-0.9977037	confirmar el
-0.9977037	confirmar la
-0.9977037	confirmar no
-0.5205824	confirme el
-0.5205824	confundida se~norita
-0.5205824	congreso a
-0.5122024	conocer el	-0.6581866
-1.951946	conocer horario
-0.7977347	conocer horarios	-0.3214511
-0.5122024	conocer los	-0.5205959
-1.316889	conocer tambi'en	-0.3803995
-1.951946	conocer un
-0.5205824	conozco entonces
-0.8216125	conseguir el	0
-0.8216125	conseguir los
-0.8216125	consulta </s>
-0.8216125	consulta horario
-1.88231	consultar adem'as
-0.6373217	consultar el	-0.5447897
-1.88231	consultar ese	0
-1.247254	consultar horario	-0.109221
-0.9996998	consultar horarios	-0.2213475
-0.8430046	consultar los	0.01500583
-1.88231	consultar precio
-1.88231	consultar precios
-1.88231	consultar tambi'en
-1.88231	consultar trenes
-1.88231	consultar un
-1.88231	consultar viaje
-0.5205824	contestan autom'aticamente
-0.5205824	corresponde al
-0.5205824	cosa odio
-0.5205824	cosita dime
-0.5205824	costa porque
-0.5205824	costar </s>
-1.520582	costar'ia </s>
-0.8855256	costar'ia el	-0.1514769
-1.520582	costar'ia en
-1.520582	costar'ia ese
-1.520582	costar'ia ir
-1.520582	costar'ia la
-0.8855256	costar'ia un	-0.3607295
-1.520582	costar'ia volver
-0.5205824	crem'a </s>
-0.05374508	creo que	0
-0.9601912	cu'al de	-0.2158573
-1.842802	cu'al era
-0.166835	cu'al es	-0.6334152
-1.207745	cu'al ser'ia	-0.2095648
-0.7306237	cu'ales de	-0.4086559
-0.7306237	cu'ales llegan
-0.48307	cu'ales son	-0.2009855
-0.9977037	cu'ando hay
-0.9977037	cu'ando llega
-0.9977037	cu'ando podr'ia
-1.316889	cu'anto costar'ia	-0.09794788
-0.7069576	cu'anto cuesta	-0.2588937
-1.951946	cu'anto de
-1.316889	cu'anto dura	-0.2548047
-1.316889	cu'anto es
-0.9126406	cu'anto me	-0.3464179
-1.951946	cu'anto puede
-1.951946	cu'anto salen
-1.951946	cu'anto tarda
-1.951946	cu'anto tardar'ia
-1.951946	cu'anto tiempo
-0.9126406	cu'anto vale	-0.1183224
-1.951946	cu'anto valen
-0.8216125	cu'antos d'ias
-0.8216125	cu'antos de
-0.5205824	cuales llegan
-1.775855	cualquier clase
-1.775855	cualquier compa~n'ia
-0.7365493	cualquier d'ia	-0.2400563
-1.140798	cualquier hora	0
-1.775855	cualquier otro
-0.6216434	cualquier tipo	0.130623
-0.7365493	cualquier tren	-0.4306558
-0.8216125	cualquiera </s>
-0.8216125	cualquiera pero
-0.5205824	cuando podr'ia
-0.5205824	cuanto antes
-1.423672	cuarenta </s>
-1.423672	cuarenta que
-0.1786838	cuarenta y	-0.5250239
-0.8216125	cuarto </s>
-0.8216125	cuarto de
-0.7813443	cuatro </s>
-1.300499	cuatro a
-1.935556	cuatro cinco
-1.935556	cuatro cincuenta
-0.5515559	cuatro de	-0.1651766
-1.935556	cuatro deseo
-1.935556	cuatro necesitar'ia
-1.300499	cuatro o
-1.935556	cuatro por	0
-1.935556	cuatro s'i
-1.935556	cuatro u
-1.300499	cuatro y
-0.5226695	cuenca </s>
-0.9269183	cuenca a	-0.1401608
-1.561975	cuenca con
-0.6793646	cuenca el	-0.1204298
-1.561975	cuenca y
-0.5205824	cuento </s>
-1.561975	cuesta </s>
-1.561975	cuesta billete
-1.561975	cuesta cada
-1.561975	cuesta d'igame
-0.5226695	cuesta el	-0.2749357
-1.561975	cuesta este
-1.561975	cuesta ir
-1.561975	cuesta un	0
-0.5205824	cullera y
-0.5205824	cultural y
-0.5205824	curso de
-0.5205824	d'e la
-1.344095	d'ia </s>
-2.498306	d'ia a
-2.498306	d'ia anterior
-1.863249	d'ia antes	0
-1.615696	d'ia catorce	0.09947893
-1.863249	d'ia cinco	-0.0884185
-1.863249	d'ia cuatro	-0.08430253
-1.459	d'ia de	-0.1177903
-2.498306	d'ia diecinueve	0
-1.863249	d'ia dieciocho	-0.2557028
-1.615696	d'ia diecis'eis	0.05482045
-2.498306	d'ia diecisiete	0
-1.615696	d'ia diez	-0.3800976
-1.863249	d'ia doce	-0.05246694
-1.863249	d'ia dos	0
-1.863249	d'ia el
-2.498306	d'ia entre
-2.498306	d'ia est'a
-1.615696	d'ia laborable	-0.1564837
-2.498306	d'ia lunes	0
-2.498306	d'ia me	0
-2.498306	d'ia nueve	0
-2.498306	d'ia o
-1.615696	d'ia ocho	-0.000852257
-1.863249	d'ia once	0
-1.863249	d'ia para
-2.498306	d'ia pero
-1.615696	d'ia por	0.04307847
-2.498306	d'ia preferente
-2.498306	d'ia qu'e
-2.498306	d'ia que
-1.863249	d'ia quince	0.2956634
-2.498306	d'ia s'abado
-1.863249	d'ia seis	0.08836143
-2.498306	d'ia siete	0
-1.615696	d'ia siguiente	0.04799162
-1.615696	d'ia trece
-1.615696	d'ia treinta	-0.07106248
-2.498306	d'ia tres	0
-1.863249	d'ia uno	0
-1.863249	d'ia veinte	-0.05663121
-2.498306	d'ia veinticinco
-1.863249	d'ia veinticuatro	-0.02446696
-2.498306	d'ia veintid'os	0
-2.498306	d'ia veintinueve	0
-1.863249	d'ia veintiocho	-0.03867692
-1.863249	d'ia veintis'eis
-1.459	d'ia veintisiete	0
-2.498306	d'ia veintitr'es	0
-2.498306	d'ia veintiuno	0
-2.498306	d'ia y
-1.935556	d'ias </s>
-1.935556	d'ias desear'ia	0
-1.935556	d'ias diecinueve	0
-1.935556	d'ias diecis'eis
-1.935556	d'ias doce
-1.935556	d'ias el
-1.935556	d'ias laborables
-1.935556	d'ias llamaba	0
-1.935556	d'ias me	0
-1.935556	d'ias mira	0
-1.935556	d'ias mire	0
-1.935556	d'ias necesito
-1.935556	d'ias ocho
-1.935556	d'ias podr'ia
-1.935556	d'ias pues
-1.935556	d'ias quer'ia	0
-1.935556	d'ias querr'ia	0
-1.935556	d'ias quisiera	0
-1.935556	d'ias siete	0
-1.935556	d'ias son
-1.300499	d'ias tengo
-1.935556	d'ias uno
-1.935556	d'ias veinte	0
-1.935556	d'ias veintinueve	0
-1.935556	d'ias y
-1.751031	d'igame a
-1.751031	d'igame alguno
-0.8684209	d'igame cu'al	-0.09053814
-1.751031	d'igame cu'antos
-0.5968199	d'igame el	-0.7815562
-1.751031	d'igame en
-1.751031	d'igame los
-1.115975	d'igame por	-0.2224307
-1.751031	d'igame si
-1.751031	d'igame tambi'en
-0.5205824	d'onde quiero
-0.5205824	da igual	0
-0.9977037	dado </s>
-0.9977037	dado el
-0.9977037	dado es
-0.5205824	dame los
-0.2594281	dar el	-0.6846462
-1.298734	dar los
-1.298734	dar por
-0.3626469	darme el	-0.3836162
-0.9977037	darme los
-2.486161	de 'avila	-0.5021616
-2.486161	de </s>
-3.368772	de a
-1.412001	de abril	-0.4914519
-2.733715	de acuerdo	-0.2548047
-1.519777	de agosto	-0.3536889
-2.329466	de albacete	-0.698425
-3.368772	de alg'un	0
-2.123783	de alicante	-0.4959038
-3.368772	de almer'ia	0
-3.368772	de alta_velocidad
-3.368772	de aqu'i
-2.733715	de ave
-3.368772	de badajoz
-3.368772	de bar	0
-1.635959	de barcelona	-0.5433517
-1.519777	de bilbao	-0.3510743
-2.329466	de billete	-0.3540762
-2.486161	de billetes	-0.4558308
-2.329466	de burgos	-0.3025479
-2.21456	de c'aceres	-0.01179597
-3.368772	de c'adiz
-3.368772	de c'ordoba
-3.368772	de cambrils
-1.879632	de castell'on	-0.5286599
-2.486161	de ciudad_real	-0.1776092
-2.733715	de clase
-2.21456	de cualquier	-0.1368157
-3.368772	de cuatro
-2.329466	de cuenca	-0.1038159
-2.123783	de d'ia	-0.1651637
-2.733715	de de
-1.79505	de diciembre	-0.3837704
-2.733715	de diez	-0.4012366
-2.733715	de doce	-0.3798751
-3.368772	de dormir
-1.984772	de dos	-0.415175
-2.733715	de el	-0.1462597
-2.329466	de ellos	-0.05293597
-1.879632	de enero	-0.3204711
-3.368772	de entre
-3.368772	de esa
-2.21456	de ese	-0.1192269
-2.048739	de esos	-0.3122017
-3.368772	de esta
-3.368772	de estar
-2.733715	de estas
-2.123783	de este	-0.1407433
-2.123783	de estos	-0.1756156
-3.368772	de euromed
-1.635959	de febrero	-0.4282804
-3.368772	de fecha
-3.368772	de forma
-2.486161	de gij'on	-0.1503529
-3.368772	de girona
-2.733715	de granada	-0.1966519
-3.368772	de hora
-3.368772	de horario
-2.733715	de horarios	-0.1780141
-3.368772	de huelva
-1.5857	de ida	-0.2269619
-3.368772	de ja'en
-1.724286	de julio	-0.3842815
-1.499853	de junio	-0.5042568
-2.733715	de l'erida
-1.276462	de la	-0.5350396
-2.486161	de la_coru~na	-0.2153977
-1.663453	de las	-0.1291316
-3.368772	de le'on
-3.368772	de litera
-2.329466	de llegada	-0.05148596
-2.733715	de lleida	-0.397395
-2.733715	de logro~no	-0.3915681
-1.663453	de los	-0.4788716
-2.733715	de m'alaga	-0.398621
-1.519777	de madrid	-0.4508906
-3.368772	de manera
-1.381298	de marzo	-0.5783824
-1.562596	de mayo	-0.5745264
-3.368772	de ma~nana	0
-3.368772	de mediod'ia
-3.368772	de mes
-3.368772	de muestras
-2.048739	de murcia	-0.1393245
-3.368772	de navidad
-3.368772	de negocio
-3.368772	de negocios
-3.368772	de noche	0
-1.984772	de noviembre	-0.3555327
-3.368772	de nueve
-1.984772	de octubre	-0.4575136
-3.368772	de orense
-3.368772	de origen
-2.733715	de oviedo	-0.3648779
-2.329466	de palencia	-0.1792628
-2.329466	de pamplona	-0.1161293
-3.368772	de par'is
-3.368772	de pasar
-3.368772	de pascua
-3.368772	de paso
-2.733715	de primera	0
-3.368772	de r'apidos
-3.368772	de s'abado
-3.368772	de s'olo
-3.368772	de salamanca
-2.048739	de salida	-0.09595199
-3.368772	de san_jos'e
-2.329466	de san_sebasti'an	-0.4453237
-2.329466	de santander	-0.32711
-3.368772	de santiago
-3.368772	de segovia
-3.368772	de seis
-2.733715	de semana	0.02575373
-3.368772	de semana_santa
-1.879632	de septiembre	-0.3891736
-3.368772	de ser
-3.368772	de servicios
-3.368772	de setiembre
-1.929028	de sevilla	-0.4245035
-3.368772	de siete
-3.368772	de talgo
-2.21456	de tarragona	-0.8020356
-3.368772	de teatro
-3.368772	de teruel
-2.733715	de trabajo
-1.879632	de tren	-0.03893813
-1.758228	de trenes	-0.1251823
-3.368772	de tres
-2.123783	de un	-0.1731707
-3.368772	de una
-3.368772	de unos
-3.368772	de vacaciones
-1.540659	de valencia	-0.6056281
-2.486161	de valladolid	-0.5021616
-3.368772	de verano
-2.733715	de viajar	-0.1010596
-2.21456	de viaje	-0.3571406
-2.733715	de viajes	-0.2213037
-3.368772	de viernes
-2.486161	de vigo	-0.5499361
-2.486161	de vitoria	-0.2126686
-1.663453	de vuelta	-0.2883013
-2.329466	de zamora	-0.3063965
-1.692805	de zaragoza	-0.6719506
-0.5205824	debe durar
-0.5205824	deber'ian ser
-0.5205824	debido </s>
-1.951946	decir </s>
-1.316889	decir a
-1.951946	decir cu'anto
-0.7977347	decir el	-0.4487166
-1.951946	decir en
-1.069336	decir horarios	-0.2245411
-1.316889	decir la
-1.316889	decir los	-0.1226558
-1.951946	decir para
-1.069336	decir por	-0.398522
-1.316889	decir qu'e	0
-1.951946	decir que
-1.951946	decir si
-1.951946	decir trenes
-1.951946	decir ya
-1.474825	decirme cu'ales
-0.5922145	decirme el	-0.5597075
-1.474825	decirme la
-0.8397682	decirme los	-0.2371806
-1.474825	decirme por
-1.474825	decirme si
-0.5205824	decirte una
-0.5205824	deis el
-1.449156	del 'ultimo	-0.03081843
-1.720757	del ave
-2.603368	del a~no
-1.720757	del billete	0.006261304
-1.968311	del coche	0.06268319
-1.968311	del cuatro
-1.283335	del d'ia	-0.07275584
-1.968311	del de	-0.1489781
-2.603368	del diecinueve
-2.603368	del domingo
-1.029646	del dos	-0.5912663
-1.564062	del euromed	-0.1531861
-1.968311	del horario	-0.3460204
-1.968311	del intercity	-0.09759104
-2.603368	del jueves	0
-1.968311	del m'as	-0.3520924
-2.603368	del mare_nostrum
-1.219368	del mediod'ia	-0.08667451
-1.720757	del mes	-0.05432405
-1.968311	del mismo
-1.564062	del pr'oximo
-1.968311	del precio	0
-1.720757	del primer	-0.08013488
-2.603368	del primero
-2.603368	del que
-2.603368	del quince
-1.564062	del s'abado	-0.04446965
-1.968311	del segundo	0
-2.603368	del seis
-1.968311	del talgo	0
-2.603368	del tercer
-2.603368	del tercero
-2.603368	del ticket
-2.603368	del tipo
-2.603368	del trayecto	0
-1.114228	del tren	-0.1759425
-2.603368	del trenes
-2.603368	del tres
-2.603368	del triana
-1.449156	del uno	-0.3648158
-1.968311	del veinticinco	0.06128764
-1.720757	del veintis'eis	-0.5096675
-1.358379	del viaje	-0.1083412
-1.968311	del viernes
-0.8216125	demasiado caro
-0.8216125	demasiado tarde
-0.9977037	deme cualquier
-0.9977037	deme el	0
-0.9977037	deme horarios
-0.1865557	dentro de
-0.5205824	deportiva que
-0.5205824	des horarios
-1.795144	desde 'avila	-0.2677858
-2.83445	desde </s>
-1.680238	desde alicante	-0.1724935
-1.951839	desde almer'ia	-0.08138975
-2.83445	desde almeria
-2.199393	desde aqu'i	-0.3397069
-1.34531	desde barcelona	-0.2621605
-0.9655314	desde bilbao	-0.4380457
-1.951839	desde burgos	-0.1776092
-1.795144	desde c'aceres	-0.2236461
-2.83445	desde c'ordoba	0
-1.680238	desde castell'on	-0.02229641
-1.589461	desde ciudad_real	-0.1212708
-1.951839	desde cuenca
-2.83445	desde el
-2.83445	desde el_ferrol
-2.83445	desde gerona
-1.951839	desde gij'on	-0.1503529
-1.795144	desde granada	-0.1024295
-2.83445	desde guadalajara
-1.795144	desde hendaya	-0.2814224
-2.199393	desde huelva	-0.3213501
-2.199393	desde ir'un
-2.199393	desde iru~nea	-0.2548047
-2.199393	desde la_coru~na
-1.795144	desde las	-0.1389563
-1.680238	desde le'on	-0.4104786
-1.589461	desde lleida	-0.7137874
-1.795144	desde logro~no	-0.06916366
-2.83445	desde luego
-1.223906	desde madrid	-0.3941557
-2.83445	desde monz'on
-1.514417	desde murcia	-0.3169219
-2.83445	desde orense
-1.514417	desde oviedo	-0.2221521
-1.951839	desde palencia	-0.1381269
-2.199393	desde pamplona	-0.3683158
-2.83445	desde salamanca
-1.680238	desde san_sebasti'an	-0.1393516
-2.199393	desde santander
-1.951839	desde segovia
-1.951839	desde sevilla	-0.1668151
-2.83445	desde tarragona	0
-2.199393	desde teruel
-2.83445	desde toledo
-1.101637	desde valencia	-0.3293005
-2.199393	desde valladolid
-2.199393	desde vigo
-2.83445	desde vitoria
-1.075781	desde zaragoza	-0.4389373
-1.219553	deseaba nada
-0.5844957	deseaba obtener
-1.219553	deseaba saber
-1.219553	deseaba tambi'en
-1.035912	desear'ia conocer	0.04348093
-1.918522	desear'ia hacer
-1.918522	desear'ia ir
-1.918522	desear'ia m'as
-1.035912	desear'ia obtener	-0.141545
-1.918522	desear'ia que
-0.5345225	desear'ia saber	-0.2121789
-1.035912	desear'ia salir	-0.1638348
-1.918522	desear'ia un	0
-1.035912	desear'ia viajar	-0.1227517
-1.465309	deseo cambiar	0
-1.465309	deseo conocer	0.001051068
-2.100366	deseo consultar
-1.217756	deseo el	-0.2134698
-2.100366	deseo horarios
-2.100366	deseo informaci'on
-2.100366	deseo ir	0
-1.465309	deseo llegar	-0.3351568
-2.100366	deseo los	0
-2.100366	deseo nada	0
-1.465309	deseo obtener	-0.04463498
-1.465309	deseo que	-0.3936064
-2.100366	deseo realizar
-2.100366	deseo regresar
-0.9461545	deseo saber	-0.1837149
-0.9461545	deseo salir	-0.3905586
-1.465309	deseo tambi'en	-0.1875672
-1.465309	deseo un	-0.06411833
-1.217756	deseo viajar	-0.09864534
-0.9647069	despu'es </s>
-0.3547751	despu'es de	-0.3920162
-1.599764	despu'es del
-1.599764	despu'es en
-1.599764	despu'es saliendo
-1.599764	despu'es y
-1.900794	destino a	0
-1.265737	destino alicante	-0.2591713
-1.900794	destino antes
-0.7465822	destino barcelona	-0.1729822
-1.900794	destino bilbao
-1.900794	destino castell'on
-1.900794	destino en
-1.900794	destino ja'en
-0.861488	destino madrid	-0.05477004
-1.900794	destino por
-1.900794	destino santander
-1.900794	destino sevilla
-1.900794	destino tarragona
-1.900794	destino teruel
-1.900794	destino valladolid
-1.900794	destino zaragoza
-0.8216125	dice cu'al
-0.8216125	dice el
-0.5205824	dices el	0
-0.7171532	dicho </s>
-1.599764	dicho al
-1.599764	dicho antes
-1.599764	dicho cu'al
-1.599764	dicho de
-1.599764	dicho el
-1.599764	dicho es
-1.599764	dicho los
-1.599764	dicho que
-1.599764	dicho tren
-0.5205824	dichos trenes
-1.423672	diciembre </s>
-1.423672	diciembre a
-1.423672	diciembre con
-1.423672	diciembre de
-1.423672	diciembre por	0
-1.423672	diciembre qu'e
-1.423672	diciembre que
-1.423672	diciembre y
-0.8216125	diciendo que	0
-0.8216125	diciendo se~nora
-0.5968199	diecinueve </s>
-0.5060428	diecinueve de	-0.2879703
-1.751031	diecinueve horas	0
-1.115975	diecinueve o
-1.751031	diecinueve por
-1.751031	diecinueve treinta
-1.751031	diecinueve y	0
-0.9269183	dieciocho a
-1.561975	dieciocho cuarenta
-0.5226695	dieciocho de	-0.2202699
-1.561975	dieciocho o
-0.9269183	dieciocho por	-0.1401448
-1.561975	dieciocho y	0
-0.7365493	diecis'eis </s>
-1.775855	diecis'eis cuarenta	0
-0.5308663	diecis'eis de	-0.4180017
-1.775855	diecis'eis habr'ia
-1.775855	diecis'eis horas
-0.8932444	diecis'eis o	-0.08003701
-1.775855	diecis'eis para
-1.775855	diecis'eis y
-1.599764	diecisiete </s>
-1.599764	diecisiete a
-0.2157638	diecisiete de	-0.3611168
-1.599764	diecisiete horas
-1.599764	diecisiete no
-0.8216125	diera el
-0.8216125	diera horarios
-0.5205824	dieras un
-1.66671	diez </s>
-1.66671	diez a	0
-0.4217219	diez de	-0.1934918
-1.66671	diez o
-1.66671	diez por
-1.66671	diez pues
-1.66671	diez treinta
-1.031654	diez y	0
-0.5205824	diga los
-0.9977037	digas a
-0.9977037	digas el
-0.9977037	digas horarios
-0.9977037	dijese cu'ales
-0.9977037	dijese el
-0.9977037	dijese los
-1.219553	dime alg'un
-1.219553	dime cu'ando
-1.219553	dime el	0
-1.219553	dime horarios
-1.219553	dime los
-0.5205824	dir'ia el	0
-0.5205824	direcci'on a
-0.5205824	dispone de
-0.5844957	disponible </s>
-1.219553	disponible el
-1.219553	disponible en
-1.219553	disponible para
-0.1865557	disponibles </s>
-0.8216125	diurno a
-0.8216125	diurno es
-1.164279	doce </s>
-1.164279	doce a	0
-0.4793034	doce de	-0.2530898
-1.164279	doce del	0
-1.799336	doce ese
-1.799336	doce no
-1.799336	doce por
-1.799336	doce vamos
-1.164279	doce y	0
-0.8792168	domingo </s>
-1.918522	domingo a	0
-1.918522	domingo cualquiera
-1.283466	domingo d'ia	0
-1.283466	domingo de	0
-1.918522	domingo del
-1.918522	domingo desde
-1.918522	domingo en	0
-1.918522	domingo para
-1.035912	domingo por	0.04307847
-1.918522	domingo que
-1.918522	domingo si
-1.918522	domingo veinticinco
-1.918522	domingo veintid'os
-1.918522	domingo veintinueve
-1.918522	domingo veintiocho	0
-1.918522	domingo veintisiete
-1.918522	domingo y
-0.3626469	dormir en
-0.9977037	dormir hay
-2.052061	dos 'ultimos
-0.8070728	dos </s>
-2.052061	dos cuarenta
-0.6123176	dos de	-0.2505988
-1.417005	dos del
-2.052061	dos es
-2.052061	dos horarios
-2.052061	dos la
-1.012756	dos mil	-0.2885859
-2.052061	dos semanas
-0.8978499	dos trenes	-0.07931046
-2.052061	dos tres
-2.052061	dos y	0
-0.5205824	dura el
-0.5205824	duraci'on del	0
-1.219553	durante cualquier
-1.219553	durante el
-0.5844957	durante la	-0.3932081
-1.219553	durante toda
-0.5205824	durar como
-0.1865557	durmiendo en	-0.4052497
-0.5205824	e ir
-0.8216125	econ'omica </s>
-0.8216125	econ'omica posible
-0.5205824	efectivamente y
-0.5205824	efecto </s>
-0.1865557	eh </s>
-0.9977037	ejemplo </s>
-0.9977037	ejemplo c'adiz
-0.9977037	ejemplo el
-1.915672	el 'ultimo	0.08474588
-3.404811	el 'unico
-2.769754	el </s>
-3.404811	el anterior
-2.365505	el ave	-0.004466519
-1.794268	el billete	-0.4984763
-3.404811	el camino
-2.159823	el catorce	-0.6893269
-1.760325	el cinco	-0.5934865
-3.404811	el coche	0
-2.365505	el cuatro	-0.2092412
-1.076007	el d'ia	-0.511191
-1.699492	el de	-0.6503829
-2.522201	el del
-3.404811	el destino
-1.794268	el diecinueve	-0.7341559
-1.871325	el dieciocho	-0.2072597
-2.2506	el diecis'eis	-0.1140379
-2.020811	el diecisiete	-0.2973621
-1.965068	el diez	-0.5436618
-2.020811	el doce	-0.3814438
-1.498594	el domingo	-0.2647073
-2.2506	el dos	-0.6870618
-2.2506	el euromed	-0.1353755
-2.2506	el fin	0.1923534
-1.498594	el horario	-0.2509789
-2.522201	el intercity	-0.2736823
-3.404811	el intervalo	0
-1.671999	el jueves	-0.1858944
-1.535893	el lunes	-0.2762346
-2.159823	el m'as	-0.3606764
-3.404811	el mare_nostrum
-1.699492	el martes	-0.2361064
-3.404811	el mediod'ia
-3.404811	el mes
-2.159823	el mi'ercoles	0
-1.965068	el mismo	-0.5305504
-3.404811	el momento
-3.404811	el norte
-1.965068	el nueve	-0.4399123
-1.760325	el ocho	-0.3987923
-2.2506	el once	-0.6336302
-3.404811	el otro
-1.200267	el pr'oximo	-0.7194737
-1.218633	el precio	-0.4619055
-1.915672	el primer	-0.2089242
-2.159823	el primero	-0.08083896
-2.769754	el puente
-2.522201	el punto	0.04622531
-1.915672	el que	-0.2610907
-1.915672	el quince	-0.5865298
-3.404811	el regreso
-1.646143	el s'abado	-0.1360368
-2.769754	el segundo
-1.871325	el seis	-0.8352246
-2.159823	el siete	-0.2549791
-2.365505	el siguiente
-2.365505	el talgo	-0.01215546
-1.794268	el tipo	-0.6914388
-2.522201	el trayecto	-0.05432405
-2.769754	el trece	-0.3044941
-1.871325	el treinta	-0.1560329
-1.555817	el tren	-0.2159812
-3.404811	el tren_hotel
-2.020811	el tres	-0.2974322
-1.760325	el uno	-0.7069817
-2.769754	el valencia	-0.3959529
-1.871325	el veinte	-0.6323151
-1.965068	el veinticinco	-0.5919249
-2.084779	el veinticuatro	-0.07331052
-2.522201	el veintid'os	-0.2005582
-2.084779	el veintinueve	-0.7562737
-1.965068	el veintiocho	-0.6918895
-2.084779	el veintis'eis	-0.4223008
-2.365505	el veintisiete	-0.002208501
-2.159823	el veintitr'es	-0.121323
-2.365505	el veintiuno	-0.3397069
-1.555817	el viaje	-0.1958812
-1.289819	el viernes	-0.2236209
-2.769754	el viernes_santo
-0.5205824	el_ferrol no
-0.1865557	elegir el
-1.36568	ellos </s>
-1.36568	ellos a
-1.36568	ellos es	0
-1.36568	ellos llega
-1.36568	ellos llegan
-1.36568	ellos son
-1.36568	ellos tiene
-2.943828	en </s>
-2.943828	en agosto	0
-2.308772	en alaris
-2.943828	en albacete	0
-2.943828	en alg'un
-2.308772	en alicante
-2.943828	en alta_velocidad
-2.943828	en altaria
-1.504085	en ave	-0.2771842
-1.789617	en barcelona	-0.07864691
-2.943828	en c'aceres
-2.061218	en cama	-0.4974414
-2.308772	en castell'on	-0.2211889
-2.943828	en ciudad_real
-1.370106	en clase	-0.4971404
-1.333285	en coche	-0.7502302
-2.061218	en cualquier	-0.03990567
-2.943828	en cullera
-2.943828	en d'ia
-2.943828	en d'ias
-2.943828	en efecto
-1.037611	en el	-0.4012464
-2.943828	en en
-2.943828	en esa
-2.308772	en ese
-2.943828	en este
-1.333285	en euromed	-0.1950445
-2.943828	en fin
-2.943828	en fumadores
-2.943828	en galicia
-2.943828	en horario
-2.943828	en huelva
-1.623796	en intercity	0.04513478
-2.308772	en la
-2.943828	en le'on
-1.904523	en litera	0.176567
-2.943828	en llegar
-2.943828	en m'alaga
-2.061218	en madrid
-2.308772	en mi	-0.3646811
-2.943828	en nochevieja
-1.789617	en preferente	-0.09035295
-1.267861	en primera	-0.3084136
-2.308772	en qu'e	-0.3128794
-2.943828	en que
-2.943828	en realidad
-1.904523	en regional	-0.1464346
-2.943828	en saber
-2.943828	en segunda	0
-2.061218	en semana_santa	-0.1934262
-2.943828	en septiembre
-2.308772	en sevilla
-2.943828	en si
-1.160757	en talgo	-0.3302393
-2.308772	en tarragona	0
-2.308772	en teruel	0
-2.943828	en tipo
-1.333285	en tren	-0.1138125
-2.943828	en tren_hotel
-2.308772	en trenes
-2.061218	en turista
-0.8754516	en un	-0.3521711
-2.943828	en una
-2.308772	en valencia	0
-2.943828	en valladolid
-2.061218	en vez	-0.1934262
-1.69884	en viaje	-0.3410854
-2.943828	en vigo
-2.943828	en zaragoza	0
-2.943828	en zona
-1.36568	enero </s>
-1.36568	enero a	0
-1.36568	enero de
-1.36568	enero el
-1.36568	enero en
-1.36568	enero para
-1.36568	enero quer'ia
-0.5205824	ense~nara los
-0.5205824	entendido </s>
-0.5205824	enterar para
-0.5205824	entiendo c'omo
-1.842802	entonces </s>
-1.842802	entonces bueno
-1.842802	entonces claro
-1.207745	entonces cu'anto	-0.3540499
-1.842802	entonces deme
-1.842802	entonces el
-0.5978131	entonces me	-0.757641
-1.842802	entonces necesito
-1.207745	entonces no
-1.207745	entonces quer'ia	-0.3687906
-1.842802	entonces quiero
-1.842802	entonces tengo
-1.842802	entonces ya
-2.122643	entre </s>
-2.122643	entre bilbao	0
-2.122643	entre c'ordoba
-2.122643	entre cada
-0.5489205	entre el	-0.2752574
-2.122643	entre esos
-2.122643	entre granada
-0.363974	entre las	-0.2881655
-2.122643	entre lleida
-2.122643	entre lunes
-2.122643	entre madrid
-2.122643	entre zaragoza
-0.5205824	enumerar los
-0.5205824	equipada </s>
-0.5205824	equivocado quiero
-1.298734	era </s>
-1.298734	era de
-1.298734	era el
-1.298734	era solo
-1.298734	era todo
-1.298734	era un
-0.8216125	error la
-0.8216125	error no	0
-1.221739	es </s>
-1.906715	es a
-2.541772	es buena
-2.541772	es bueno
-1.906715	es cada	-0.1428323
-2.541772	es coche
-1.659161	es de
-2.541772	es debido
-1.906715	es demasiado	-0.3397069
-2.541772	es desde
-1.008285	es el	-0.130587
-1.906715	es en
-2.541772	es este
-1.502466	es euromed	-0.5125006
-2.541772	es exactamente
-2.541772	es horario
-2.541772	es imposible
-1.906715	es intercity
-2.541772	es ir
-1.906715	es la	0
-2.541772	es llegar
-2.541772	es lo	0
-1.906715	es m'as	-0.3751383
-1.906715	es muy
-2.541772	es oviedo
-2.541772	es palencia
-1.38756	es para
-2.541772	es pero
-1.296783	es posible	0.01686288
-1.052632	es que	-0.1398052
-2.541772	es s'abado
-2.541772	es saber
-2.541772	es salir
-2.541772	es su	0
-1.659161	es suficiente	-0.1564836
-2.541772	es talgo
-1.296783	es todo	-0.2145082
-0.9680498	es un	-0.03157234
-2.541772	es volver
-2.541772	es y
-1.298734	esa franja
-1.298734	esa hora
-1.298734	esa misma
-1.298734	esa ruta
-0.6636769	esa semana	-0.3479993
-1.557624	ese 'ultimo	0
-2.19268	ese </s>
-2.19268	ese billete	0
-0.7529365	ese d'ia	-0.2314081
-2.19268	ese de
-1.557624	ese diurno
-2.19268	ese domingo
-2.19268	ese es
-1.557624	ese horario	-0.3861141
-2.19268	ese intercity
-1.153375	ese mismo	-0.3025479
-2.19268	ese no
-1.557624	ese primer	-0.2633581
-2.19268	ese recorrido
-1.31007	ese talgo	0
-2.19268	ese tipo
-1.557624	ese trayecto	-0.2375473
-0.8086804	ese tren	-0.1515886
-1.31007	ese viaje	-0.2070051
-2.19268	ese viernes
-0.7823068	eso </s>
-1.186556	eso era	-0.3882969
-0.5015798	eso es	-0.1849267
-1.821612	eso est'a
-1.821612	eso me
-1.821612	eso por
-1.186556	eso quiero	-0.4029366
-1.821612	eso s'i
-1.821612	eso ser'ia
-0.7886156	esos dos	-0.3519488
-0.7886156	esos horarios
-0.5410619	esos trenes	-0.09404276
-1.423672	esos viajes
-0.5205824	espec'ificamente por
-0.5205824	especial me
-1.66671	est'a </s>
-0.4217219	est'a bien	-0.2396097
-1.66671	est'a diciendo	0
-1.66671	est'a disponible
-1.66671	est'a gracias	0
-1.66671	est'a muchas	0
-1.031654	est'a todo	0
-1.66671	est'a totalmente
-0.9977037	esta bien
-0.9977037	esta noche
-0.9977037	esta semana
-0.5205824	estaba interesado
-0.5205824	estado las
-0.5205824	estamos me
-0.5410619	estar all'i	-0.2050736
-0.7886156	estar el
-0.5410619	estar en
-0.1865557	estar'ia bien
-0.8216125	estas </s>
-0.8216125	estas caracter'isticas
-1.487586	este 'ultimo	-0.06804369
-1.487586	este a~no
-2.122643	este billete	0
-2.122643	este domingo
-1.083337	este fin	0.2892634
-2.122643	este jueves
-2.122643	este mes	0
-2.122643	este mi'ercoles
-1.487586	este mismo
-2.122643	este pr'oximo	0
-1.083337	este s'abado
-2.122643	este servicio
-2.122643	este talgo
-0.8776538	este tren	-0.33615
-1.487586	este viaje	-0.1787933
-0.6828987	este viernes	-0.1570751
-2.122643	este y
-1.122642	esto el
-0.4875856	esto es
-1.122642	esto muchas
-1.423672	estos 'ultimos
-1.423672	estos dos
-1.423672	estos horarios
-1.423672	estos talgos
-1.423672	estos trayectos
-1.423672	estos trenes	0
-0.7886156	estos viajes	0
-1.122642	estoy diciendo
-1.122642	estoy interesado
-1.122642	estoy refiriendo
-1.122642	estoy satisfecho
-1.122642	estrella </s>
-1.122642	estrella en	0
-1.122642	estrella si
-1.122642	estrella y	0
-0.4342538	euromed </s>
-1.967741	euromed disponibles
-1.967741	euromed el
-1.967741	euromed en
-1.967741	euromed entre
-1.967741	euromed es
-1.967741	euromed por
-1.08513	euromed que	-0.2253489
-1.08513	euromed si	-0.2171968
-1.967741	euromed vale
-0.9284348	euromed y	0
-1.298734	exactamente </s>
-1.298734	exactamente antes
-1.298734	exactamente cu'al
-1.298734	exactamente el
-1.298734	exactamente entre
-1.298734	exactamente s'i
-0.5844957	exacto </s>
-1.219553	exacto del
-1.219553	exacto ese
-1.219553	exacto eso
-0.5205824	examen en
-0.5205824	excursi'on el
-0.4875856	existe alg'un	-0.2448223
-1.122642	existe ning'un
-1.122642	existe otro
-1.122642	exposici'on abre
-1.122642	exposici'on al
-1.122642	exposici'on cierra
-1.122642	exposici'on no
-0.5205824	fallas para
-0.8216125	falta llegar
-0.8216125	falta viajar
-1.88231	favor </s>
-1.88231	favor adem'as
-1.88231	favor cu'al	0
-1.88231	favor dime
-1.88231	favor el	0
-1.88231	favor en
-1.88231	favor horarios	0
-1.88231	favor la
-1.88231	favor los
-1.88231	favor me
-1.88231	favor mire
-1.88231	favor otra
-1.88231	favor podr'ia	0
-1.88231	favor qu'e	0
-1.88231	favor quer'ia
-1.88231	favor querr'ia
-1.88231	favor quisiera
-1.88231	favor s'i
-1.88231	favor se
-1.88231	favor si	0
-1.88231	favor tambi'en
-1.88231	favor ver'a
-1.88231	favor y
-1.561975	febrero </s>
-1.561975	febrero bueno
-1.561975	febrero de	0
-1.561975	febrero del	0
-1.561975	febrero durante
-1.561975	febrero para
-1.561975	febrero por	0
-1.561975	febrero preferentemente
-1.561975	febrero pues
-1.561975	febrero sobre	0
-1.561975	febrero y
-1.298734	fecha </s>
-1.298734	fecha como
-1.298734	fecha del
-1.298734	fecha entre	0
-1.298734	fecha posible
-1.298734	fecha tiene
-0.5205824	fechas del
-0.5205824	feria de
-0.04564787	fin de	-0.6526374
-0.3626469	finales de	-0.213511
-0.9977037	finales del
-0.5205824	forma la
-0.5205824	francia a
-0.5205824	franja horaria
-0.5205824	frecuencia salen	0
-1.634526	fuera antes	0
-1.634526	fuera demasiado
-1.634526	fuera desde
-1.634526	fuera el
-1.634526	fuera en	0
-1.634526	fuera euromed	0
-1.634526	fuera por
-1.634526	fuera posible
-1.634526	fuera r'apido
-0.7519153	fuera un	-0.04733603
-1.634526	fuera viajar
-1.36568	fuese a
-1.36568	fuese barato
-1.36568	fuese el
-1.36568	fuese posible	0
-1.36568	fuese r'apido
-1.36568	fuese un
-1.36568	fuese viaje
-0.5205824	fumador </s>
-0.3626469	fumadores </s>
-0.9977037	fumadores clase
-0.5205824	fundamentalmente quiero
-0.1865557	galicia </s>
-0.3626469	gasteiz </s>
-0.9977037	gasteiz desde
-0.48307	gerona </s>
-1.36568	gerona a
-1.36568	gerona el
-1.36568	gerona para
-1.36568	gerona salida
-0.3843668	gij'on </s>
-0.7886156	gij'on a	-0.2172839
-1.423672	gij'on alrededor
-1.423672	gij'on desde	0
-1.122642	girona </s>
-1.122642	girona a
-1.122642	girona en
-1.122642	girona para
-0.4573995	gracias </s>
-1.498309	gracias adi'os	0.4441653
-2.133366	gracias buenos
-2.133366	gracias eh	0
-2.133366	gracias es	0
-1.094061	gracias eso	-0.2849601
-1.498309	gracias est'a	0
-2.133366	gracias ha
-1.250756	gracias hasta	-0.5503249
-2.133366	gracias muchas	0
-2.133366	gracias nada	0
-1.250756	gracias no
-1.498309	gracias por
-2.133366	gracias s'i
-1.250756	gracias ya	-0.2338076
-0.9167256	granada </s>
-1.164279	granada a	-0.2001077
-1.799336	granada de
-1.799336	granada el
-1.799336	granada en
-1.799336	granada entre
-1.799336	granada este
-1.799336	granada hacia
-1.799336	granada hasta
-1.799336	granada para	0
-1.164279	granada saliendo	-0.1384311
-1.799336	granada ser'ia
-1.799336	granada sobre
-1.164279	granada y
-0.1865557	guadalajara </s>
-0.5205824	gustado un
-2.011944	gustar'ia </s>
-2.011944	gustar'ia cambiar
-2.011944	gustar'ia como
-2.011944	gustar'ia comprar
-2.011944	gustar'ia conocer	0
-2.011944	gustar'ia consultar
-2.011944	gustar'ia de
-2.011944	gustar'ia desde
-2.011944	gustar'ia el	0
-2.011944	gustar'ia en
-2.011944	gustar'ia granada
-2.011944	gustar'ia hacer	0
-2.011944	gustar'ia hacerlo
-2.011944	gustar'ia informaci'on
-2.011944	gustar'ia informarme
-2.011944	gustar'ia ir	0
-2.011944	gustar'ia llegar	0
-2.011944	gustar'ia no
-2.011944	gustar'ia obtener	0
-2.011944	gustar'ia preguntar	0
-2.011944	gustar'ia que	0
-2.011944	gustar'ia realizar
-2.011944	gustar'ia regresar
-2.011944	gustar'ia saber	0
-2.011944	gustar'ia salir	0
-2.011944	gustar'ia si
-2.011944	gustar'ia tambi'en	0
-2.011944	gustar'ia tener
-2.011944	gustar'ia un	0
-2.011944	gustar'ia viajar	0
-2.011944	gustar'ia volver	0
-1.599764	ha citado
-1.599764	ha dado
-1.599764	ha de
-0.9647069	ha dicho	0
-1.599764	ha equivocado
-0.9647069	ha habido	-0.2548047
-0.9647069	ha quedado
-1.599764	ha respondido
-1.599764	ha sido
-1.122642	hab'ia alguno
-1.122642	hab'ia dicho
-1.122642	hab'ia olvidado
-1.122642	hab'ia uno
-0.5205824	hab'ias dicho
-0.9977037	haber ning'un
-0.9977037	haber tren
-0.9977037	haber trenes
-0.5205824	habido un	0
-1.219553	habr'ia alg'un
-1.219553	habr'ia alguno
-1.219553	habr'ia gustado
-1.219553	habr'ia para
-1.219553	habr'ia posibilidad
-0.9977037	hace ese
-0.9977037	hace este
-0.9977037	hace falta
-0.5205824	hacen ese
-1.751031	hacer a
-1.751031	hacer de
-0.7117257	hacer el	-0.3401616
-1.115975	hacer este	-0.3963276
-0.3670315	hacer un	-0.5590502
-1.751031	hacer una
-0.3626469	hacerlo en
-0.9977037	hacerlo la
-1.164279	hacia 'avila
-0.7600304	hacia barcelona	-0.09783478
-1.799336	hacia cuenca
-1.164279	hacia las
-1.799336	hacia m'alaga
-0.9167256	hacia madrid
-1.799336	hacia oviedo	0
-1.799336	hacia santander
-1.799336	hacia sevilla
-1.799336	hacia tarragona
-1.799336	hacia teruel
-1.799336	hacia valencia
-0.8216125	haga el
-0.8216125	haga la
-0.5205824	hagan el
-0.8216125	has dado
-0.8216125	has dicho
-2.133366	hasta albacete
-2.133366	hasta alicante
-2.133366	hasta badajoz
-1.498309	hasta barcelona
-2.133366	hasta bilbao
-1.498309	hasta castell'on	0
-2.133366	hasta cuenca
-2.133366	hasta el
-1.250756	hasta las	-0.5549473
-2.133366	hasta le'on
-2.133366	hasta lleida
-1.094061	hasta luego	-0.2462096
-0.8883777	hasta madrid	-0.2418997
-2.133366	hasta media
-2.133366	hasta orense
-2.133366	hasta oviedo
-2.133366	hasta salamanca
-1.498309	hasta santander	-0.2716418
-1.250756	hasta sevilla
-2.133366	hasta soria
-2.133366	hasta valencia
-1.250756	hasta vigo	-0.1776092
-1.498309	hasta zaragoza	-0.3382556
-1.29419	hay </s>
-1.088507	hay alg'un	-0.131138
-2.333496	hay alguna
-0.9494959	hay alguno	-0.4037452
-2.333496	hay alrededor
-2.333496	hay claro
-1.698439	hay de	0
-1.698439	hay desde
-2.333496	hay disponible
-2.333496	hay dos
-2.333496	hay el
-2.333496	hay en
-2.333496	hay entre
-2.333496	hay intercitys
-2.333496	hay ir
-2.333496	hay m'as
-2.333496	hay nada
-2.333496	hay ning'un	0
-2.333496	hay ninguno	0
-1.450885	hay otro	-0.5189443
-1.698439	hay otros	-0.1636157
-1.450885	hay para	-0.2980393
-1.698439	hay plazas	-0.2548047
-1.698439	hay por	-0.1401448
-1.698439	hay posibilidad	-0.03867692
-2.333496	hay pr'oximo
-2.333496	hay pues
-2.333496	hay talgo
-2.333496	hay tanto
-1.698439	hay trenes	0
-1.088507	hay un	-0.4412489
-2.333496	hay viajes
-1.698439	hay y	0
-0.5205824	haya un
-1.298734	he acabado
-0.6636769	he dicho
-1.298734	he entendido
-1.298734	he estado
-1.298734	he preguntado
-0.8216125	hendaya </s>
-0.8216125	hendaya es
-0.5205824	historia de
-1.775855	hola buenas	0
-1.140798	hola buenos	0.3472553
-1.775855	hola deseaba
-1.775855	hola desear'ia	0
-1.775855	hola deseo	0
-1.775855	hola me	0
-1.775855	hola mira	0
-1.775855	hola mire
-1.775855	hola muy	0
-1.775855	hola necesito
-1.775855	hola quer'ia	0
-1.775855	hola querr'ia	0
-1.775855	hola quiero	0
-1.775855	hola quisiera	0
-1.775855	hola s'i	0
-1.775855	hola si
-1.775855	hola tengo
-0.7190638	hora </s>
-2.039096	hora a
-2.039096	hora cu'al
-1.156486	hora de	-0.1348993
-2.039096	hora del
-2.039096	hora el
-2.039096	hora es
-1.40404	hora llega	-0.07712485
-2.039096	hora llegaba
-2.039096	hora llegan	0
-2.039096	hora llegar'ia
-2.039096	hora ma~nana
-2.039096	hora podr'ia
-2.039096	hora porque
-2.039096	hora posible
-2.039096	hora puede
-2.039096	hora puedo
-1.40404	hora sale	0
-2.039096	hora salen
-2.039096	hora se
-2.039096	hora tendr'ia
-2.039096	hora tengo
-2.039096	hora y
-0.5205824	horaria </s>
-1.259428	horario </s>
-2.298734	horario a
-2.298734	horario con
-0.6227669	horario de	-0.3395653
-2.298734	horario del	0
-2.298734	horario desde
-2.298734	horario el	0
-2.298734	horario en
-2.298734	horario entre
-2.298734	horario exacto
-2.298734	horario hay
-2.298734	horario ida
-2.298734	horario los
-2.298734	horario otra
-1.259428	horario para	-0.03386755
-2.298734	horario pero
-2.298734	horario podr'ia
-1.663677	horario por
-2.298734	horario que	0
-2.298734	horario s'i
-2.298734	horario saber
-2.298734	horario saliendo
-2.298734	horario ser'ia
-2.298734	horario sobre
-2.298734	horario tambi'en
-2.298734	horario tengo
-2.298734	horario tienen
-2.298734	horario tren
-2.298734	horario un
-2.298734	horario uy
-0.85899	horario y	-0.324786
-0.9680498	horarios </s>
-1.659161	horarios a	-0.1435794
-2.541772	horarios antes
-2.541772	horarios as'i
-2.541772	horarios bueno
-1.659161	horarios con	-0.5281837
-2.541772	horarios concretos
-2.541772	horarios corresponde
-0.7355962	horarios de	-0.4253422
-1.906715	horarios del	-0.06394918
-1.906715	horarios desde
-1.906715	horarios el
-2.541772	horarios en
-2.541772	horarios habr'ia
-1.906715	horarios hay	-0.1130558
-2.541772	horarios ir
-2.541772	horarios mejor
-2.541772	horarios o
-0.9680498	horarios para	-0.08834678
-1.906715	horarios pero
-1.502466	horarios por	-0.08186024
-2.541772	horarios puedo
-1.659161	horarios que	0
-2.541772	horarios quiero
-1.659161	horarios son
-2.541772	horarios talgo
-2.541772	horarios tambi'en
-2.541772	horarios tendr'e
-2.541772	horarios tendr'ia
-2.541772	horarios un
-0.7831033	horarios y	-0.4699343
-0.6274049	horas </s>
-1.031654	horas a
-1.031654	horas de
-1.66671	horas del
-1.66671	horas puede
-1.66671	horas si
-1.66671	horas tengo
-1.031654	horas y
-0.7519153	hoy </s>
-0.999469	hoy de
-1.634526	hoy es
-1.634526	hoy mismo
-0.7519153	hoy por	-0.316236
-1.634526	hoy tiene
-0.999469	hoy y	0
-0.8216125	hubiera </s>
-0.8216125	hubiera literas	0
-0.7306237	huelva </s>
-1.36568	huelva destino
-1.36568	huelva madrid
-0.7306237	huelva ma~nana	-0.3755208
-1.36568	huelva un
-0.9977037	huesca </s>
-0.9977037	huesca el
-0.9977037	huesca para
-1.206174	ida </s>
-1.453727	ida a	-0.004698684
-2.088784	ida como
-2.088784	ida con	0
-2.088784	ida de	0
-2.088784	ida del
-1.453727	ida desde	-0.001605362
-2.088784	ida el
-2.088784	ida en
-2.088784	ida entre
-2.088784	ida esto
-2.088784	ida hacia
-2.088784	ida nada
-2.088784	ida o
-2.088784	ida para	0
-2.088784	ida por	0
-2.088784	ida que
-2.088784	ida saber
-2.088784	ida salida
-2.088784	ida saliendo
-2.088784	ida solamente
-2.088784	ida valencia
-1.453727	ida vuelta	0
-0.6490404	ida y	-0.3129999
-0.5205824	idea es
-1.298734	igual cualquier
-1.298734	igual el
-1.298734	igual qu'e
-1.298734	igual que
-1.298734	igual salir
-1.298734	igual yo
-0.5205824	importa que
-0.5205824	importancia no
-0.5205824	importar'ia viajar
-0.5205824	imposible usted
-1.842802	informaci'on acerca
-1.842802	informaci'on adi'os
-0.5978131	informaci'on de	-0.2859563
-0.9601912	informaci'on para	0
-0.3536621	informaci'on sobre	-0.4016154
-1.122642	informarme acerca
-0.4875856	informarme del
-1.122642	informarme para
-0.5205824	instrucciones como
-0.2892831	intercity </s>
-1.863005	intercity de
-1.863005	intercity el
-1.863005	intercity ese
-1.863005	intercity por
-1.863005	intercity que
-1.863005	intercity quer'ia
-0.9803947	intercity si	-0.4515726
-1.863005	intercity verdad
-0.5205824	intercitys </s>
-1.219553	interesa </s>
-1.219553	interesa el
-1.219553	interesa ese
-1.219553	interesa ir
-1.219553	interesa tenerlo
-0.8216125	interesado en
-0.8216125	interesado euromed
-0.5205824	interesar'ia informaci'on
-0.5205824	intermedio que
-0.8216125	intervalo de
-0.8216125	intervalo hay
-1.730624	ir </s>
-0.7551368	ir a	-0.06287488
-2.36568	ir al
-2.36568	ir como
-1.730624	ir con	-0.4075647
-0.8765408	ir de	-0.2043307
-1.48307	ir desde	-0.01447183
-0.9259368	ir el	-0.1638728
-0.7211944	ir en	-0.05056632
-2.36568	ir entre
-1.48307	ir este
-1.730624	ir hacia
-2.36568	ir hasta
-2.36568	ir ma~nana
-2.36568	ir o
-2.36568	ir ocho
-2.36568	ir por	0
-2.36568	ir quiero
-2.36568	ir un
-1.730624	ir y	0
-0.8216125	ir'un </s>
-0.8216125	ir'un a
-0.1865557	irme a	-0.2246314
-0.5205824	iru~nea </s>
-0.5410619	ja'en </s>
-1.423672	ja'en desde
-1.423672	ja'en el
-0.7886156	ja'en para
-1.423672	ja'en saliendo
-0.7669555	jueves </s>
-1.376887	jueves a	-0.3937179
-2.011944	jueves adem'as
-2.011944	jueves antes	0
-2.011944	jueves d'ia
-1.376887	jueves de	0
-2.011944	jueves despu'es	0
-2.011944	jueves dieciocho
-2.011944	jueves diecisiete
-2.011944	jueves entonces
-2.011944	jueves no
-1.129334	jueves o	-0.2536445
-2.011944	jueves ocho	0
-2.011944	jueves para
-2.011944	jueves por	0
-2.011944	jueves que	0
-2.011944	jueves uno	0
-2.011944	jueves veinticinco
-2.011944	jueves veintid'os	0
-2.011944	jueves veintis'eis
-1.376887	jueves y
-1.474825	julio </s>
-1.474825	julio antes
-1.474825	julio cu'ales
-1.474825	julio del
-1.474825	julio horarios
-1.474825	julio martes
-1.474825	julio pues
-1.474825	julio y
-1.474825	julio ya
-1.474825	junio </s>
-1.474825	junio antes
-1.474825	junio del
-1.474825	junio en
-1.474825	junio es
-1.474825	junio o
-1.474825	junio pero
-1.474825	junio por
-1.474825	junio porque
-0.5205824	juntos no
-0.4161232	l'erida </s>
-1.298734	l'erida a
-1.298734	l'erida antes
-1.298734	l'erida en
-1.31302	la 'ultima	-0.8418024
-2.558009	la ciudad	0
-1.922952	la clase
-2.558009	la costa
-2.558009	la crem'a
-2.558009	la del
-1.922952	la duraci'on	-0.2548047
-1.675398	la exposici'on
-1.403797	la fecha	-0.09944302
-2.558009	la feria
-1.237976	la hora	-0.2723817
-1.922952	la ida	-0.3003506
-2.558009	la idea
-2.558009	la informaci'on
-2.558009	la la
-1.518703	la llegada	0
-2.558009	la m'as
-1.31302	la ma~nana	0.1212642
-2.558009	la ma~nanita
-2.558009	la misma
-1.675398	la noche	-0.07615835
-1.922952	la posibilidad	-0.03867692
-1.675398	la pr'oxima	-0.5157982
-1.237976	la primera	-0.5876741
-1.403797	la salida
-1.403797	la segunda	-0.4101185
-0.9474652	la semana	-0.6030894
-2.558009	la semana_santa
-2.558009	la siete
-1.403797	la tarde	-0.1557574
-1.675398	la una	-0.2018648
-2.558009	la vida
-0.9842869	la vuelta	-0.2446458
-0.5226695	la_coru~na </s>
-1.561975	la_coru~na a	0
-1.561975	la_coru~na el
-1.561975	la_coru~na entonces
-1.561975	la_coru~na hasta
-1.561975	la_coru~na para
-0.9269183	la_coru~na y
-0.8216125	laborable </s>
-0.8216125	laborable de	0
-0.5205824	laborables </s>
-0.5205824	lanzadera ese
-2.395644	las </s>
-2.395644	las caracter'isticas
-2.395644	las catorce	0
-2.395644	las cero
-1.241432	las cinco	-0.1027651
-1.356338	las cuatro	-0.08492935
-1.760587	las diecinueve	0
-2.395644	las dieciocho
-1.760587	las diecis'eis	-0.2201329
-2.395644	las diecisiete	0
-1.150655	las diez	-0.2085159
-1.150655	las doce	-0.008809328
-1.513033	las dos	-0.01982645
-2.395644	las fechas
-2.395644	las horas
-2.395644	las instrucciones
-2.395644	las m'aquinas
-2.395644	las ma~nanas
-2.395644	las mismas
-2.395644	las navidades
-1.075611	las nueve	0.0007436275
-1.241432	las ocho	0.07393219
-1.513033	las once	0.008162528
-2.395644	las quince
-1.356338	las seis	0.1265657
-1.150655	las siete	-0.03574765
-1.241432	las tres	-0.01641443
-2.395644	las vacaciones
-2.395644	las veintid'os	0
-2.395644	las vuelta
-1.298734	le agradecer'ia
-1.298734	le estoy
-1.298734	le hab'ia
-1.298734	le he
-0.6636769	le pregunto	-0.3397069
-0.7886156	le'on </s>
-1.423672	le'on a
-0.7886156	le'on el
-1.423672	le'on en
-1.423672	le'on hasta	0
-1.423672	le'on para
-0.5205824	lentos y
-0.5205824	lezama </s>
-0.2694609	litera </s>
-1.423672	litera o
-1.423672	litera por	0
-1.423672	litera si
-0.240032	literas </s>
-1.122642	literas que
-0.1150932	llamaba para	-0.2908745
-1.842802	llega </s>
-0.5978131	llega a	-0.1276661
-0.4588018	llega antes	-0.4170308
-1.842802	llega el	0
-1.842802	llega entre
-1.842802	llega ese	0
-1.842802	llega este
-1.842802	llega un
-1.842802	llega y
-0.5205824	llegaba este
-0.5205824	llegaban antes	0
-1.821612	llegada </s>
-0.7823068	llegada a	-0.08684079
-1.186556	llegada antes	0.1850291
-1.821612	llegada de	0
-1.821612	llegada del
-0.667401	llegada en	-0.1070581
-1.821612	llegada es
-1.821612	llegada fuera	0
-1.821612	llegada ha
-1.821612	llegada podr'ia
-1.821612	llegada que
-1.821612	llegada sea
-0.4812768	llegan a	-0.03626527
-0.3663709	llegan antes	-0.2129108
-1.520582	llegan de
-0.8216125	llegando a
-0.8216125	llegando el
-1.601529	llegar </s>
-0.7030991	llegar a	-0.17167
-1.601529	llegar all'i	0.1195722
-0.6628638	llegar antes	-0.163165
-2.236586	llegar aproximadamente
-2.236586	llegar del
-2.236586	llegar desde
-0.796842	llegar el	-0.3467745
-2.236586	llegar entre
-2.236586	llegar esa
-2.236586	llegar lo
-2.236586	llegar m'as
-2.236586	llegar muy
-2.236586	llegar para
-1.19728	llegar por	-0.4411748
-2.236586	llegar pues
-1.601529	llegar sobre	-0.1155668
-0.5205824	llegar'ia </s>
-0.8216125	llegara a
-0.8216125	llegara un
-0.1865557	llegaran a
-0.5205824	llegase antes	0
-0.9647069	llegue a	0
-1.599764	llegue al
-1.599764	llegue all'i
-1.599764	llegue antes	0
-1.599764	llegue de
-0.9647069	llegue el
-1.599764	llegue entre
-1.599764	llegue m'as
-1.599764	llegue por
-1.599764	llegue sobre
-1.122642	lleguen a
-1.122642	lleguen antes	0
-1.122642	lleguen el	0
-1.122642	lleguen este
-0.4812768	lleida </s>
-1.520582	lleida a	0
-1.520582	lleida el
-1.520582	lleida en
-1.520582	lleida pirineos
-0.8855256	lleida y
-1.122642	llevar a
-1.122642	llevar el	0
-0.4875856	llevar mi	-0.3646811
-0.5205824	llevarme a
-0.5205824	lleve a
-1.66671	lo conozco
-1.031654	lo m'as	-0.4075647
-1.66671	lo menos
-1.66671	lo necesito
-1.66671	lo puede
-0.2827106	lo que	-0.1971139
-0.7306237	logro~no </s>
-1.36568	logro~no a
-1.36568	logro~no el	0
-1.36568	logro~no hasta
-1.36568	logro~no la
-1.36568	logro~no ma~nana	0
-2.48437	los autobuses
-1.849313	los billetes	0
-1.164338	los d'ias	-0.1530393
-2.48437	los dos	0
-2.48437	los hay
-2.48437	los horario
-0.4823224	los horarios	-0.2106173
-2.48437	los mismos
-2.48437	los modalidad
-2.48437	los otros
-2.48437	los posibles
-0.8084035	los precios	-0.126946
-1.445065	los que	-0.3453561
-2.48437	los talgos
-1.445065	los tipos	-0.07871342
-0.7790512	los trenes	-0.1714025
-1.445065	los viajes	-0.06602733
-0.6636769	luego </s>
-1.298734	luego a
-1.298734	luego gracias
-1.298734	luego para
-1.298734	luego saber
-0.8216125	lugo </s>
-0.8216125	lugo el
-1.115093	lunes </s>
-1.362647	lunes a	0
-1.362647	lunes antes	0.1850291
-1.362647	lunes cinco	-0.2716418
-1.997704	lunes el
-0.958398	lunes o	-0.3506363
-1.997704	lunes ocho
-1.997704	lunes para
-1.997704	lunes por	0
-1.997704	lunes pr'oximo
-1.997704	lunes que	0
-1.997704	lunes quiero
-1.997704	lunes quince
-1.997704	lunes seis	0
-1.997704	lunes siguiente	0
-1.997704	lunes sobre
-1.997704	lunes uno	0
-1.997704	lunes veintid'os
-1.997704	lunes veintis'eis
-1.997704	lunes veintitr'es	0
-1.362647	lunes y
-1.561975	m'alaga </s>
-1.561975	m'alaga a	0
-1.561975	m'alaga antes
-1.561975	m'alaga desde
-0.9269183	m'alaga el	-0.1893929
-0.9269183	m'alaga para
-1.561975	m'alaga sabe
-1.561975	m'alaga saliendo
-1.561975	m'alaga y
-0.5205824	m'aquinas que
-2.143832	m'as </s>
-2.143832	m'as a
-0.8988431	m'as barato	-0.1352943
-2.143832	m'as baratos
-2.143832	m'as c'omoda
-1.508775	m'as c'omodo	-0.01564023
-2.143832	m'as cerca
-2.143832	m'as econ'omica
-2.143832	m'as el
-2.143832	m'as gracias	0
-2.143832	m'as hasta
-2.143832	m'as la
-2.143832	m'as muchas	0
-2.143832	m'as no
-1.508775	m'as o	-0.4089209
-2.143832	m'as por
-1.508775	m'as pronto	-0.3397069
-1.104526	m'as r'apido	-0.05517872
-1.508775	m'as r'apidos
-0.8237991	m'as tarde	-0.3577459
-2.143832	m'as temprano	0
-2.143832	m'as tipos
-2.143832	m'as trenes
-2.143832	m'as vale
-0.5205824	m'aximo una
-1.122642	m'erida </s>
-1.122642	m'erida durante
-1.122642	m'erida en
-1.122642	m'erida para
-0.5205824	m'i me
-0.5205824	m'ireme a
-0.8443561	madrid </s>
-1.29419	madrid a	-0.07342443
-2.333496	madrid antes	0
-2.333496	madrid aproximadamente
-2.333496	madrid barcelona
-2.333496	madrid de
-2.333496	madrid del
-2.333496	madrid desde
-1.698439	madrid despu'es	-0.1574849
-2.333496	madrid destino
-1.088507	madrid el	-0.1512127
-1.698439	madrid en
-2.333496	madrid entre
-2.333496	madrid eso
-2.333496	madrid este
-2.333496	madrid hacia
-1.698439	madrid hasta
-2.333496	madrid ja'en
-2.333496	madrid la
-2.333496	madrid le
-2.333496	madrid llegando
-2.333496	madrid ma~nana	0
-1.29419	madrid para	-0.08706206
-2.333496	madrid pasado
-2.333496	madrid pero
-1.698439	madrid por
-2.333496	madrid que
-2.333496	madrid quer'ia
-2.333496	madrid quiero
-2.333496	madrid s'olo
-2.333496	madrid sobre	0
-2.333496	madrid viajar
-0.9494959	madrid y	-0.04640874
-2.333496	madrid zaragoza
-0.5205824	manera que
-0.1865557	mare_nostrum </s>
-0.8792168	martes </s>
-1.918522	martes a
-1.283466	martes d'ia	0
-1.283466	martes de	-0.2038624
-1.918522	martes del
-1.283466	martes diecis'eis
-1.918522	martes dos
-1.918522	martes mismamente
-1.918522	martes nueve
-1.918522	martes para
-1.283466	martes por	-0.1401448
-1.918522	martes que	0
-1.283466	martes seis	-0.09486184
-1.918522	martes veinticuatro
-1.918522	martes veintisiete
-1.283466	martes y
-1.724702	marzo </s>
-1.724702	marzo a	0
-1.724702	marzo de	0
-1.724702	marzo del
-1.724702	marzo el
-1.724702	marzo en	0
-1.724702	marzo entre
-1.724702	marzo lunes
-1.724702	marzo martes
-1.724702	marzo o	0
-1.724702	marzo por	0
-1.724702	marzo querr'ia
-1.724702	marzo quiero
-1.724702	marzo saliendo
-1.724702	marzo si
-1.724702	marzo y	0
-1.474825	mayo </s>
-1.474825	mayo a	0
-1.474825	mayo de
-1.474825	mayo del	0
-1.474825	mayo en	0
-1.474825	mayo o
-1.474825	mayo perd'on
-1.474825	mayo por	0
-1.474825	mayo y
-0.7845814	ma~nana </s>
-1.274856	ma~nana a	-0.07245195
-2.429067	ma~nana cinco
-1.546457	ma~nana de
-2.429067	ma~nana del	0
-2.429067	ma~nana desde
-2.429067	ma~nana dime
-2.429067	ma~nana el
-1.389762	ma~nana en	-0.1290735
-2.429067	ma~nana entonces
-1.794011	ma~nana entre	-0.1646299
-2.429067	ma~nana es
-2.429067	ma~nana hacia
-2.429067	ma~nana la
-2.429067	ma~nana m'as
-1.794011	ma~nana martes
-2.429067	ma~nana ma~nana
-1.794011	ma~nana me
-2.429067	ma~nana no
-1.045068	ma~nana o	-0.3190851
-2.429067	ma~nana para
-2.429067	ma~nana pero
-1.109035	ma~nana por	-0.3248983
-2.429067	ma~nana porque
-2.429067	ma~nana qu'e
-2.429067	ma~nana que
-1.794011	ma~nana s'abado	0
-2.429067	ma~nana s'i
-2.429067	ma~nana s'olo
-1.794011	ma~nana si	-0.02329493
-2.429067	ma~nana sobre
-2.429067	ma~nana temprano
-2.429067	ma~nana todos
-2.429067	ma~nana viajando
-1.794011	ma~nana viernes
-1.274856	ma~nana y	-0.05600872
-0.5205824	ma~nanas </s>
-0.5205824	ma~nanita antes
-2.588768	me buscar'e
-2.588768	me confirme
-1.953712	me costar'ia	-0.05876283
-2.588768	me cuesta
-2.588768	me d'e
-1.434557	me da	-0.6527447
-2.588768	me deis
-2.588768	me des
-1.953712	me dice
-1.953712	me dices	-0.2548047
-1.953712	me diera
-2.588768	me dieras
-2.588768	me diga
-2.588768	me digas	0
-2.588768	me dijese
-2.588768	me dir'ia	0
-2.588768	me ense~nara
-1.953712	me est'a	-0.4012366
-2.588768	me estoy
-0.5867205	me gustar'ia	-0.4911348
-1.549463	me ha	-0.1244534
-2.588768	me hab'ia
-2.588768	me hab'ias
-2.588768	me habr'ia
-1.953712	me has	-0.1564837
-2.588768	me importa
-2.588768	me importar'ia
-1.549463	me interesa
-2.588768	me interesar'ia
-2.588768	me lo
-2.588768	me parece
-1.706158	me pod'ia	-0.1418191
-1.34378	me podr'ia	-0.397158
-1.953712	me podr'ias	-0.2548047
-2.588768	me pregunta
-2.588768	me pueda
-1.204768	me puede	-0.3803045
-1.34378	me puedes	-0.3438949
-1.953712	me quer'ia
-2.588768	me repitas
-2.588768	me saldr'ia
-2.588768	me sirve
-1.953712	me va	-0.3836753
-2.588768	me vale
-2.588768	me vendr'ia
-1.706158	me viene	-0.2192069
-2.588768	me voy
-1.520582	media </s>
-1.520582	media a
-1.520582	media de	0
-1.520582	media en
-1.520582	media m'as
-1.520582	media ma~nana
-1.520582	media por
-1.520582	media porque
-1.520582	media viaje
-1.520582	media y
-0.5205824	mediados del
-0.5604581	mediod'ia </s>
-1.599764	mediod'ia con
-1.599764	mediod'ia el
-1.599764	mediod'ia en
-1.599764	mediod'ia hay
-1.599764	mediod'ia perd'on
-1.599764	mediod'ia por
-0.9647069	mediod'ia y
-0.3663709	mejor </s>
-1.520582	mejor el
-1.520582	mejor equipada
-1.520582	mejor la	0
-1.520582	mejor prefiero
-1.520582	mejor veintinueve
-0.5205824	men'u principal
-0.3626469	menos </s>
-0.9977037	menos d'igame
-0.48307	mes </s>
-0.48307	mes de
-1.36568	mes que
-0.9977037	mi casa
-0.9977037	mi coche
-0.9977037	mi novio
-0.9269183	mi'ercoles </s>
-1.561975	mi'ercoles catorce
-1.561975	mi'ercoles el
-1.561975	mi'ercoles en	0
-1.561975	mi'ercoles que
-0.9269183	mi'ercoles siete	-0.08090419
-1.561975	mi'ercoles siguiente
-0.9269183	mi'ercoles y
-0.5205824	miguel_de_unamuno </s>
-0.9977037	mil cinco
-0.9977037	mil cuatro	0
-0.9977037	mil tres
-0.5205824	minutos de
-1.66671	mira a
-1.031654	mira es	-0.3704099
-1.66671	mira me
-1.66671	mira para
-1.66671	mira que
-0.6274049	mira quer'ia	-0.2260648
-1.66671	mira querr'ia	0
-1.66671	mira quiero
-1.66671	mira quisiera
-1.66671	mira vamos
-0.5205824	mirar los
-1.696674	mire como
-1.696674	mire el
-1.696674	mire las
-1.696674	mire necesito	0
-1.696674	mire por
-1.696674	mire pues
-1.696674	mire que
-0.6573681	mire quer'ia	-0.2155321
-1.696674	mire quiero
-1.696674	mire quisiera
-1.061617	mire yo
-0.8216125	misma noche
-0.8216125	misma ruta
-0.5205824	mismamente por
-0.5205824	mismas condiciones
-0.9647069	mismo d'ia	-0.2010697
-1.599764	mismo hoy
-1.599764	mismo jueves
-1.599764	mismo martes
-1.599764	mismo mes
-1.599764	mismo precio
-1.599764	mismo s'abado
-1.599764	mismo seis
-1.599764	mismo tiempo
-1.599764	mismo trayecto
-1.599764	mismo tren
-0.5205824	mismos horarios
-0.5205824	modalidad de
-0.5205824	momento </s>
-0.5205824	monumental </s>
-0.5205824	monz'on a
-0.1865557	much'isimas gracias	0
-0.03144279	muchas gracias	-0.149504
-0.5205824	muestras desde
-0.7519153	murcia </s>
-0.7519153	murcia a	-0.1150085
-0.999469	murcia el
-1.634526	murcia hacia
-0.999469	murcia para
-1.634526	murcia por
-1.634526	murcia y
-0.5205824	museo thyssen
-1.298734	muy amable
-1.298734	muy bien
-1.298734	muy buenas	0
-1.298734	muy pronto
-0.6636769	muy tarde
-1.089646	nada </s>
-1.724702	nada entonces
-1.724702	nada eso
-0.2355628	nada m'as	-0.3708989
-1.724702	nada muchas	0
-1.724702	nada pues
-0.5205824	navidad en
-0.5205824	navidades en
-0.9977037	necesitar'ia saber
-0.9977037	necesitar'ia salir
-0.9977037	necesitar'ia viajar
-1.775855	necesito </s>
-1.775855	necesito el
-1.775855	necesito estar
-1.775855	necesito horarios
-1.775855	necesito informaci'on
-0.7365493	necesito ir	-0.2504132
-1.775855	necesito llegar
-1.775855	necesito para
-1.775855	necesito precios
-1.775855	necesito saber
-1.775855	necesito salir
-0.7365493	necesito un	-0.06411833
-0.5205824	negocio </s>
-0.1865557	negocios y
-1.298734	ning'un d'ia
-0.6636769	ning'un otro	-0.02446696
-0.4161232	ning'un tren	-0.1684002
-0.5205824	ninguna de
-0.8216125	ninguno hasta
-0.8216125	ninguno que
-1.418609	no </s>
-2.02854	no a	-0.04469875
-2.663597	no adi'os	0
-2.663597	no antes
-2.663597	no burgos
-2.663597	no c'omo
-2.02854	no creo	0.5233466
-2.663597	no d'igame
-1.780987	no de	0
-2.663597	no del
-2.663597	no dentro
-1.624292	no desde	-0.01294069
-2.663597	no deseaba
-2.663597	no desear'ia
-1.509386	no deseo	-0.2407323
-2.663597	no despu'es
-2.663597	no dispone
-1.343565	no el	-0.04733043
-2.663597	no entiendo
-2.663597	no entre
-2.02854	no es	0
-2.663597	no ese
-2.663597	no eso	0
-2.663597	no est'a	0
-2.663597	no estoy
-2.02854	no existe
-2.663597	no fumadores
-1.509386	no gracias	0.07372592
-2.663597	no habr'ia
-2.663597	no hace	0
-1.509386	no hay	-0.2918297
-2.663597	no he
-2.663597	no la
-2.02854	no le	-0.2050736
-2.02854	no lo
-2.663597	no los
-1.509386	no me	-0.09661131
-2.02854	no mejor	-0.2141717
-2.663597	no much'isimas
-1.780987	no muchas	0.5691041
-2.02854	no nada	0.1506771
-2.663597	no necesito
-2.663597	no no	0
-2.663597	no perdone
-2.663597	no pero	0
-2.663597	no podr'ian
-2.663597	no por
-2.663597	no porque
-2.663597	no precio	0
-2.663597	no precios	0
-2.663597	no preferente
-2.663597	no prefiero
-2.663597	no puede	0
-2.663597	no puedo
-2.663597	no pues
-2.02854	no quer'ia	0
-2.02854	no querr'ia	-0.1192648
-1.418609	no quiero	-0.02184066
-2.663597	no quisiera
-1.418609	no s'e
-2.663597	no s'i
-2.02854	no s'olo
-2.663597	no salgo
-2.663597	no salida
-2.663597	no saliendo
-2.663597	no se
-2.02854	no sea	0
-2.663597	no sean
-2.663597	no si	0
-2.663597	no solo
-2.663597	no son
-2.663597	no tengo
-2.02854	no tiene	-0.0831397
-2.663597	no un
-2.663597	no va
-2.663597	no vale
-2.02854	no viajar
-2.663597	no voy
-2.02854	no ya	-0.003238238
-2.663597	no yo
-0.9167256	noche </s>
-1.799336	noche a
-1.799336	noche antes
-1.164279	noche de
-1.799336	noche del
-1.799336	noche durmiendo
-1.164279	noche el
-1.799336	noche en
-1.799336	noche o
-1.799336	noche para
-1.799336	noche por	0
-1.799336	noche quer'ia
-1.799336	noche un
-1.164279	noche y
-0.5205824	nochevieja viajando
-0.5205824	nocturno qu'e
-0.5205824	normal </s>
-0.5205824	norte que
-1.298734	noviembre </s>
-1.298734	noviembre a	0
-1.298734	noviembre de
-1.298734	noviembre quiero
-1.298734	noviembre s'abado
-1.298734	noviembre y	0
-0.5205824	novio el
-1.089646	nueve </s>
-1.089646	nueve a
-0.3407025	nueve de	-0.4261652
-1.724702	nueve el
-1.724702	nueve o
-1.089646	nueve y	0
-2.389814	o 'ultima
-1.507204	o a	-0.2042923
-2.389814	o alguna
-2.389814	o alrededor
-2.389814	o altaria
-2.389814	o antes
-2.389814	o as'i
-1.754757	o bien	-0.3602799
-2.389814	o cinco
-2.389814	o clase
-2.389814	o diecisiete
-2.389814	o domingo	0
-2.389814	o dos	0
-0.5408197	o el	-0.08872898
-1.754757	o en
-2.389814	o hasta
-2.389814	o ida
-2.389814	o intercity
-2.389814	o litera
-2.389814	o martes
-2.389814	o menos	0
-1.754757	o no
-2.389814	o nueve	0
-2.389814	o pasado	0
-2.389814	o pr'oximo
-2.389814	o qu'e
-2.389814	o que
-2.389814	o quince
-2.389814	o restaurante
-2.389814	o s'abado	0
-0.9500704	o sea	-0.06051851
-2.389814	o seis
-2.389814	o si
-2.389814	o siete	0
-2.389814	o tiene
-2.389814	o treinta	0
-2.389814	o un	0
-2.389814	o veinte
-2.389814	o veinticuatro	0
-2.389814	o viernes	0
-0.5205824	obra de
-2.210778	obtener alg'un
-0.6370565	obtener el	-0.9977689
-0.8907459	obtener horario	-0.242872
-0.8907459	obtener horarios	-0.09886834
-1.171473	obtener informaci'on	0.2244541
-0.8907459	obtener los	-0.259035
-1.171473	obtener precio	-0.3024591
-1.575722	obtener precios	0
-2.210778	obtener tambi'en
-1.171473	obtener un	-0.2397906
-0.9726385	ocho </s>
-2.011944	ocho al	0
-2.011944	ocho cuarenta
-0.5228045	ocho de	-0.3904034
-2.011944	ocho destino
-2.011944	ocho el
-2.011944	ocho horas
-2.011944	ocho la
-2.011944	ocho nueve
-0.9726385	ocho o	-0.1567344
-2.011944	ocho quince
-2.011944	ocho tienen
-2.011944	ocho treinta
-1.129334	ocho y	0
-1.122642	octubre </s>
-1.122642	octubre a
-1.122642	octubre del	0
-1.122642	octubre por
-0.5205824	odio a
-0.5205824	oiga mira
-0.5205824	olvidado </s>
-1.164279	once </s>
-1.164279	once a
-1.799336	once adem'as
-1.799336	once cincuenta	0
-0.4793034	once de	-0.2265921
-1.799336	once la
-1.799336	once once
-1.799336	once por
-1.799336	once saliendo
-1.799336	once treinta
-1.799336	once y	0
-0.5205824	oposici'on </s>
-0.4875856	orense </s>
-1.122642	orense a
-1.122642	orense el	0
-0.5205824	origen madrid
-1.219553	otra clase
-1.219553	otra consulta
-1.219553	otra hora
-0.5844957	otra vez
-1.474825	otro de	0
-0.8397682	otro tipo	0.1214746
-0.2298363	otro tren	-0.3609805
-0.9977037	otros tambi'en
-0.3626469	otros trenes	-0.1736722
-0.4803143	oviedo </s>
-0.999469	oviedo a	-0.2814106
-0.7519153	oviedo el	-0.1278784
-1.634526	oviedo hasta
-1.634526	oviedo para
-1.634526	oviedo y
-0.7306237	palencia </s>
-0.48307	palencia a	-0.1489938
