
\data\
ngram 1=766
ngram 2=5407
ngram 3=4092
ngram 4=4138

\1-grams:
-3.153549	'avila	-0.6621312
-3.530968	'ultima	-0.8428691
-3.139761	'ultimo	-0.6893935
-4.16779	'ultimos	-0.4246757
-4.343881	'unicamente	-0.3001437
-4.343881	'unico	-0.2950473
-0.9440343	</s>
-99	<s>	-1.026821
-1.480261	a	-1.119748
-4.343881	abre	-0.2864146
-2.392058	abril	-0.8182287
-4.343881	acabado	-0.2962226
-4.343881	acceder	-0.299769
-4.16779	acerca	-0.474061
-4.343881	acercara	-0.2990482
-4.343881	acudir	-0.3009906
-4.16779	acuerdo	-0.4246757
-3.440791	adem'as	-0.2727178
-3.690669	adi'os	-0.9017969
-4.343881	aeropuerto	-0.271248
-2.720632	agosto	-0.5843318
-4.343881	agradecer'ia	-0.2485844
-4.343881	ah	-0.2831159
-3.799813	ahora	-0.4666573
-3.088609	al	-0.4741321
-3.283183	alaris	-0.6624163
-3.283183	albacete	-0.453737
-2.86676	alg'un	-0.7839318
-4.16779	algeciras	-0.2434707
-4.16779	algo	-0.241963
-3.945941	alguna	-0.3678391
-3.197753	alguno	-0.7076758
-2.799813	alicante	-0.8019015
-3.690669	all'i	-0.5219629
-3.440791	almer'ia	-0.4336781
-4.343881	almeria	-0.2485844
-3.690669	alrededor	-0.6659096
-4.16779	alta_velocidad	-0.2434707
-4.16779	altaria	-0.2471613
-4.343881	amable	-0.2485844
-3.86676	amigos	-0.3681622
-3.86676	anterior	-0.1842641
-2.46022	antes	-1.40681
-4.343881	aparte	-0.271248
-4.343881	aprovechar	-0.2758799
-4.042851	aproximadamente	-0.3963434
-4.343881	aproximado	-0.2990482
-4.042851	aqu'i	-0.3650707
-4.16779	arco	-0.4246757
-3.644911	as'i	-0.5979285
-4.343881	asistir	-0.2864146
-4.343881	asunto	-0.271248
-4.16779	atardecer	-0.2390568
-4.343881	atenci'on	-0.2485844
-4.042851	aunque	-0.2872785
-4.343881	autobuses	-0.2951669
-4.343881	autom'aticamente	-0.3010103
-2.889036	ave	-0.491304
-4.343881	ay	-0.2485844
-4.343881	ayudar	-0.2485844
-3.945941	a~no	-0.2906768
-4.343881	b'usqueme	-0.3010005
-3.56573	badajoz	-0.3878559
-4.16779	bajar	-0.2935887
-3.741821	bar	-0.3688928
-3.100843	barato	-0.9016242
-4.343881	baratos	-0.3009906
-2.304467	barcelona	-0.6790394
-3.113432	bien	-0.4446231
-2.50819	bilbao	-0.5952616
-2.409383	billete	-0.9277837
-3.603518	billetes	-0.444897
-4.343881	buena	-0.3000451
-2.76985	buenas	-0.8532109
-3.153549	bueno	-0.3347587
-2.690669	buenos	-1.953179
-3.389638	burgos	-0.4760439
-4.343881	buscar	-0.2959738
-4.343881	buscar'e	-0.2946581
-4.343881	buscar'ia	-0.2959738
-3.126397	c'aceres	-0.624867
-3.213547	c'adiz	-0.4231946
-4.042851	c'omo	-0.3869517
-4.343881	c'omoda	-0.3009021
-3.644911	c'omodo	-0.3394362
-3.113432	c'ordoba	-0.6953614
-3.741821	cada	-0.5207882
-4.343881	callado	-0.2485844
-3.16779	cama	-0.675204
-3.56573	cambiar	-0.6370808
-4.343881	cambrils	-0.2864146
-4.343881	camino	-0.271248
-4.343881	capital	-0.2485844
-4.16779	caracter'isticas	-0.2469496
-4.343881	carnavales	-0.2485844
-4.343881	caro	-0.2485844
-4.16779	casa	-0.2390568
-4.343881	castell'o	-0.2485844
-2.86676	castell'on	-0.5518423
-4.343881	catalu~na_expres	-0.29889
-3.16779	catorce	-0.6734914
-4.343881	celebre	-0.3010103
-4.16779	cerca	-0.4473393
-4.343881	cercana	-0.2485844
-4.343881	cercano	-0.2864146
-4.343881	cero	-0.3008529
-4.343881	cierra	-0.2979697
-2.667187	cinco	-0.8095952
-3.741821	cincuenta	-0.5912394
-4.343881	citado	-0.2485844
-3.86676	ciudad	-0.3160755
-3.246971	ciudad_real	-0.5226869
-3.690669	claro	-0.4117309
-2.972813	clase	-0.6072013
-3.153549	coche	-0.9834963
-3.799813	coger	-0.4309132
-4.343881	cogi'endolo	-0.2864146
-4.343881	cogiendo	-0.2758799
-4.343881	cojo	-0.271248
-3.603518	como	-0.2769771
-4.343881	compa~n'ia	-0.2485844
-4.343881	competici'on	-0.3010103
-4.343881	completo	-0.2979697
-4.042851	comprar	-0.5970039
-4.343881	compro	-0.2959738
-2.764097	con	-0.6219442
-3.945941	concierto	-0.291643
-4.343881	concretar	-0.2758799
-4.343881	concretos	-0.2947579
-4.343881	condiciones	-0.3003901
-4.042851	confirmar	-0.2575053
-4.343881	confirme	-0.2758799
-4.343881	confundida	-0.3010103
-4.343881	congreso	-0.2864146
-2.904548	conocer	-0.9561054
-4.343881	conozco	-0.3008135
-4.042851	conseguir	-0.3684108
-4.16779	consulta	-0.2441889
-3.113432	consultar	-0.5130441
-4.343881	contestan	-0.3010103
-4.343881	corresponde	-0.3006757
-4.343881	cosa	-0.3010103
-4.343881	cosita	-0.3009611
-4.343881	costa	-0.3009021
-4.343881	costar	-0.2485844
-3.440791	costar'ia	-0.3518983
-4.343881	crem'a	-0.2485844
-3.690669	creo	-0.9483795
-2.690669	cu'al	-1.332576
-3.741821	cu'ales	-0.4925486
-4.042851	cu'ando	-0.2985241
-2.818836	cu'anto	-0.741592
-4.16779	cu'antos	-0.2701087
-4.343881	cuales	-0.3008037
-3.197753	cualquier	-0.6739879
-4.16779	cualquiera	-0.2482068
-4.343881	cuando	-0.3003704
-4.343881	cuanto	-0.2995223
-3.603518	cuarenta	-0.5680796
-4.042851	cuarto	-0.3117375
-2.653685	cuatro	-0.8091005
-3.283183	cuenca	-0.6222194
-4.343881	cuento	-0.2485844
-3.100843	cuesta	-0.6259046
-4.343881	cullera	-0.2925968
-4.343881	cultural	-0.2925968
-4.343881	curso	-0.271248
-4.343881	d'e	-0.2946581
-2.129037	d'ia	-0.6507893
-2.611487	d'ias	-0.6016773
-3.302488	d'igame	-0.431855
-4.343881	d'onde	-0.2953763
-3.86676	da	-0.7780726
-4.042851	dado	-0.21587
-4.343881	dame	-0.2968984
-3.56573	dar	-0.6349049
-4.042851	darme	-0.3684108
-1.178637	de	-1.012898
-4.343881	debe	-0.3010103
-4.343881	deber'ian	-0.3002423
-4.343881	debido	-0.2485844
-2.806062	decir	-0.5856243
-3.603518	decirme	-0.3825309
-4.343881	decirte	-0.300656
-4.343881	deis	-0.2758799
-2.153549	del	-0.8118114
-4.042851	demasiado	-0.3957704
-3.86676	deme	-0.3965974
-4.16779	dentro	-0.4473393
-4.343881	deportiva	-0.2951669
-4.343881	des	-0.2973253
-2.179528	desde	-0.7237874
-3.86676	deseaba	-0.3392426
-2.84557	desear'ia	-0.8236348
-2.569364	deseo	-0.7855558
-3.302488	despu'es	-0.5465861
-3.126397	destino	-0.4395043
-4.16779	dice	-0.2749408
-4.16779	dices	-0.4519712
-3.440791	dicho	-0.2508981
-4.343881	dichos	-0.297355
-3.042851	diciembre	-0.6372212
-4.042851	diciendo	-0.392057
-2.945941	diecinueve	-0.7985335
-3.139761	dieciocho	-0.7288029
-3.032127	diecis'eis	-0.671751
-3.100843	diecisiete	-0.7740138
-4.16779	diera	-0.2719533
-4.343881	dieras	-0.2959738
-2.611487	diez	-1.032498
-4.343881	diga	-0.2968984
-3.945941	digas	-0.3232543
-4.042851	dijese	-0.2714165
-3.799813	dime	-0.3082463
-4.16779	dir'ia	-0.4519712
-4.343881	direcci'on	-0.2864146
-4.343881	dispone	-0.271248
-3.86676	disponible	-0.2581233
-4.16779	disponibles	-0.4246757
-4.16779	diurno	-0.2827877
-2.764097	doce	-0.8299771
-2.874059	domingo	-0.4652146
-4.042851	dormir	-0.3921368
-2.627878	dos	-0.8263622
-4.16779	dura	-0.4519712
-4.042851	duraci'on	-0.5989997
-3.86676	durante	-0.3199494
-4.343881	durar	-0.3009218
-4.16779	durmiendo	-0.4725923
-4.343881	e	-0.2977418
-4.042851	econ'omica	-0.3441827
-4.343881	efectivamente	-0.2925968
-4.343881	efecto	-0.2485844
-3.799813	eh	-0.7926524
-3.86676	ejemplo	-0.3447167
-1.249759	el	-1.326814
-4.343881	el_ferrol	-0.2902434
-4.16779	elegir	-0.4519712
-3.603518	ellos	-0.3104103
-1.984046	en	-0.6846608
-3.229938	enero	-0.5027176
-4.343881	ense~nara	-0.2968984
-4.343881	entendido	-0.2485844
-4.343881	enterar	-0.2947579
-4.343881	entiendo	-0.3009906
-3.302488	entonces	-0.3005636
-2.831998	entre	-0.7068763
-4.343881	enumerar	-0.2968984
-4.343881	equipada	-0.2485844
-4.343881	equivocado	-0.2953763
-3.690669	era	-0.2433789
-4.042851	error	-0.3806201
-2.094683	es	-0.7488732
-3.799813	esa	-0.3401146
-2.747284	ese	-0.5544338
-2.806062	eso	-0.835075
-3.302488	esos	-0.787176
-4.343881	espec'ificamente	-0.2967594
-4.343881	especial	-0.2949775
-2.972813	est'a	-0.7685769
-4.042851	esta	-0.2987615
-4.343881	estaba	-0.3010005
-4.343881	estado	-0.2969481
-4.343881	estamos	-0.2949775
-3.690669	estar	-0.5342259
-4.16779	estar'ia	-0.4767867
-4.16779	estas	-0.2485511
-2.859581	este	-0.6258804
-3.945941	esto	-0.3375517
-3.530968	estos	-0.4248712
-3.945941	estoy	-0.3009218
-3.799813	estrella	-0.3282399
-2.764097	euromed	-0.7752572
-3.799813	exactamente	-0.1945671
-3.799813	exacto	-0.3403807
-4.343881	examen	-0.296501
-4.343881	excursi'on	-0.2758799
-3.86676	existe	-0.4251416
-3.945941	exposici'on	-0.2898398
-4.343881	fallas	-0.2947579
-4.16779	falta	-0.2974542
-2.438085	favor	-0.7323829
-2.982153	febrero	-0.589759
-3.741821	fecha	-0.2771758
-4.343881	fechas	-0.2979697
-4.343881	feria	-0.271248
-2.96367	fin	-1.651459
-3.799813	finales	-0.5689997
-4.343881	forma	-0.2946581
-4.343881	francia	-0.2864146
-4.343881	franja	-0.3010103
-4.16779	frecuencia	-0.4767473
-3.197753	fuera	-0.4880161
-3.644911	fuese	-0.3069314
-4.343881	fumador	-0.2485844
-4.042851	fumadores	-0.3449724
-4.343881	fundamentalmente	-0.2953763
-4.16779	galicia	-0.4246757
-4.042851	gasteiz	-0.3422411
-3.644911	gerona	-0.3399276
-3.46882	gij'on	-0.5807548
-3.741821	girona	-0.3575941
-1.958275	gracias	-1.420196
-3.065127	granada	-0.3935365
-4.042851	guadalajara	-0.5496144
-4.343881	gustado	-0.2959738
-2.001458	gustar'ia	-0.9845007
-3.343881	ha	-0.4627647
-3.945941	hab'ia	-0.2997295
-4.343881	hab'ias	-0.3008726
-4.042851	haber	-0.2912205
-4.042851	habido	-0.5970039
-3.86676	habr'ia	-0.2937888
-3.945941	hace	-0.3665678
-4.343881	hacen	-0.3002521
-3.182513	hacer	-0.6726919
-4.042851	hacerlo	-0.3869719
-3.302488	hacia	-0.424819
-4.16779	haga	-0.2691252
-4.343881	hagan	-0.2758799
-3.945941	has	-0.4769244
-2.928908	hasta	-0.4623559
-2.537701	hay	-0.4973647
-4.343881	haya	-0.2959738
-3.799813	he	-0.3421865
-3.945941	hendaya	-0.4207172
-4.343881	historia	-0.271248
-2.306455	hola	-1.092198
-2.644911	hora	-0.5539809
-4.343881	horaria	-0.2485844
-2.049415	horario	-0.8626596
-2.07088	horarios	-0.8938541
-3.389638	horas	-0.3718351
-3.343881	hoy	-0.4626323
-4.042851	hubiera	-0.3454278
-3.644911	huelva	-0.3817791
-3.86676	huesca	-0.3374687
-2.145224	ida	-0.9332123
-4.343881	idea	-0.2975236
-3.741821	igual	-0.2993536
-4.343881	importa	-0.2951669
-4.343881	importancia	-0.2902434
-4.343881	importar'ia	-0.298712
-4.343881	imposible	-0.3010005
-2.96367	informaci'on	-0.9797918
-3.945941	informarme	-0.3585696
-4.343881	instrucciones	-0.3009218
-3.001458	intercity	-0.6214566
-4.343881	intercitys	-0.2485844
-3.86676	interesa	-0.2151633
-4.16779	interesado	-0.2957449
-4.343881	interesar'ia	-0.3005575
-4.343881	intermedio	-0.2951669
-4.042851	intervalo	-0.3668074
-2.122467	ir	-1.052281
-4.16779	ir'un	-0.2320569
-4.042851	irme	-0.5874446
-4.16779	iru~nea	-0.4246757
-3.603518	ja'en	-0.3845254
-2.747284	jueves	-0.508368
-2.954715	julio	-0.7269605
-2.852519	junio	-0.8169892
-4.343881	juntos	-0.2902434
-3.741821	l'erida	-0.3632568
-1.8367	la	-1.2799
-3.322692	la_coru~na	-0.468017
-3.741821	laborable	-0.5670101
-4.343881	laborables	-0.2485844
-4.343881	lanzadera	-0.3002521
-2.028961	las	-1.099455
-3.741821	le	-0.3799849
-3.414462	le'on	-0.4513244
-4.343881	lentos	-0.2925968
-4.343881	lezama	-0.2485844
-3.56573	litera	-0.5128742
-3.86676	literas	-0.4850011
-3.86676	llamaba	-0.7718793
-2.874059	llega	-0.7514862
-4.343881	llegaba	-0.3004295
-4.16779	llegaban	-0.4756136
-3.021662	llegada	-0.5144656
-3.283183	llegan	-0.8736906
-4.16779	llegando	-0.2603774
-2.541107	llegar	-0.7962337
-4.343881	llegar'ia	-0.2485844
-4.16779	llegara	-0.2811843
-4.16779	llegaran	-0.4625059
-4.16779	llegase	-0.4756136
-3.113432	llegue	-0.5487511
-3.56573	lleguen	-0.5310608
-3.343881	lleida	-0.5047185
-3.86676	llevar	-0.3852513
-4.343881	llevarme	-0.2864146
-4.343881	lleve	-0.2864146
-3.366157	lo	-0.5932154
-3.440791	logro~no	-0.4327384
-2.023735	los	-1.383981
-3.498783	luego	-0.4632926
-4.16779	lugo	-0.2200981
-2.66264	lunes	-0.5892913
-3.229938	m'alaga	-0.4535289
-4.343881	m'aquinas	-0.2951669
-2.341715	m'as	-0.8226497
-4.343881	m'aximo	-0.300656
-3.56573	m'erida	-0.5092351
-4.343881	m'i	-0.2949775
-4.343881	m'ireme	-0.2864146
-2.193125	madrid	-0.7305181
-4.343881	manera	-0.2951669
-4.16779	mare_nostrum	-0.4246757
-2.96367	martes	-0.4454791
-2.562126	marzo	-0.7455559
-2.787579	mayo	-0.8165942
-2.138406	ma~nana	-0.700213
-4.343881	ma~nanas	-0.2485844
-4.343881	ma~nanita	-0.2995223
-1.85887	me	-1.131848
-3.113432	media	-0.4958194
-4.343881	mediados	-0.2979697
-3.246971	mediod'ia	-0.4974159
-3.530968	mejor	-0.3880541
-4.343881	men'u	-0.3010103
-3.945941	menos	-0.4244314
-3.644911	mes	-0.5086965
-3.86676	mi	-0.4256144
-3.213547	mi'ercoles	-0.5225539
-4.343881	miguel_de_unamuno	-0.2485844
-2.96367	mil	-1.219343
-4.343881	minutos	-0.271248
-3.302488	mira	-0.4383607
-4.343881	mirar	-0.2968984
-3.302488	mire	-0.4068937
-4.16779	misma	-0.3003113
-4.343881	mismamente	-0.2967594
-4.343881	mismas	-0.3010103
-3.197753	mismo	-0.5186071
-4.343881	mismos	-0.2973253
-4.343881	modalidad	-0.271248
-4.343881	momento	-0.2485844
-4.343881	monumental	-0.2485844
-4.343881	monz'on	-0.2864146
-4.042851	much'isimas	-0.5972526
-2.474649	muchas	-2.165454
-4.343881	muestras	-0.298148
-3.076709	murcia	-0.6651857
-4.343881	museo	-0.3010103
-3.690669	muy	-0.4116851
-2.530968	nada	-1.293014
-4.343881	navidad	-0.296501
-4.343881	navidades	-0.296501
-4.042851	necesitar'ia	-0.2872379
-3.302488	necesito	-0.3171006
-4.343881	negocio	-0.2485844
-4.16779	negocios	-0.4686881
-3.644911	ning'un	-0.5926528
-4.343881	ninguna	-0.271248
-4.042851	ninguno	-0.3915582
-1.610283	no	-0.8339511
-2.799813	noche	-0.5805155
-4.343881	nochevieja	-0.3009218
-4.343881	nocturno	-0.2990877
-4.343881	normal	-0.2485844
-4.343881	norte	-0.2951669
-3.197753	noviembre	-0.6159614
-4.343881	novio	-0.2758799
-2.881483	nueve	-0.8715172
-2.537701	o	-0.5189191
-4.343881	obra	-0.271248
-2.354877	obtener	-1.25614
-2.75842	ocho	-0.6658627
-3.322692	octubre	-0.7005373
-4.343881	odio	-0.2864146
-4.343881	oiga	-0.3008135
-4.343881	olvidado	-0.2485844
-2.825367	once	-0.707834
-4.343881	oposici'on	-0.2485844
-3.86676	orense	-0.3273658
-4.343881	origen	-0.2982371
-3.86676	otra	-0.3506353
-3.498783	otro	-0.6892316
-3.945941	otros	-0.4728307
-3.139761	oviedo	-0.6720858
-3.530968	palencia	-0.4872204
-3.100843	pamplona	-0.5406305
-3.945941	par'is	-0.2815824
-1.843507	para	-0.8194434
-4.343881	parece	-0.2951669
-4.343881	parte	-0.271248
-2.928908	partir	-1.390186
-3.302488	pasado	-0.7386238
-4.042851	pasar	-0.26614
-4.343881	pascua	-0.2758799
-4.343881	paso	-0.3008135
-4.16779	pedir	-0.4766488
-4.042851	perd'on	-0.5496144
-3.945941	perdone	-0.2639063
-3.741821	perfecto	-0.5804991
-3.113432	pero	-0.1766392
-4.343881	pe~n'iscola	-0.296501
-4.343881	pirineos	-0.2485844
-4.16779	plazas	-0.4725923
-3.86676	poco	-0.420305
-4.343881	pocos	-0.297355
-3.644911	pod'ia	-0.322979
-3.46882	poder	-0.9010489
-2.818836	podr'ia	-0.7129906
-4.343881	podr'iamos	-0.3009119
-4.343881	podr'ian	-0.3009906
-4.16779	podr'ias	-0.4764419
-4.343881	poquito	-0.2758799
-2.009427	por	-1.273083
-3.530968	porque	-0.3284678
-4.343881	port_aventura	-0.2485844
-3.799813	posibilidad	-0.5709274
-4.16779	posibilidades	-0.2994038
-2.573029	posible	-0.5150439
-4.16779	posibles	-0.2888191
-3.603518	pr'oxima	-0.7243049
-2.234978	pr'oximo	-1.087391
-1.85182	precio	-1.00719
-2.489575	precios	-0.7669463
-3.283183	preferente	-0.6647217
-4.343881	preferentemente	-0.2758799
-4.042851	preferir'ia	-0.3932818
-3.945941	prefiero	-0.2916027
-4.343881	pregunta	-0.3010005
-4.343881	preguntado	-0.2967594
-3.644911	preguntar	-0.35912
-4.042851	pregunto	-0.387748
-3.229938	primer	-0.7005643
-2.874059	primera	-0.6224627
-3.46882	primero	-0.3349579
-4.343881	primeros	-0.271248
-4.343881	principal	-0.2485844
-4.343881	principio	-0.3002521
-3.690669	principios	-0.9244605
-4.042851	pronto	-0.3359669
-4.16779	pudiera	-0.2476955
-4.343881	pudiese	-0.3002423
-4.16779	pueda	-0.3009513
-2.812402	puede	-0.7819654
-3.366157	puedes	-0.5456107
-3.389638	puedo	-0.484517
-4.042851	puente	-0.367346
-2.438085	pues	-0.3860788
-3.603518	punto	-1.011611
-2.350445	qu'e	-0.9960964
-1.872589	que	-0.6043773
-4.16779	quedado	-0.3009218
-2.008423	quer'ia	-1.016795
-2.548001	querr'ia	-0.8646007
-4.343881	quieres	-0.2982371
-1.888275	quiero	-0.9595652
-3.053846	quince	-1.049244
-4.042851	quincena	-0.3117375
-2.193125	quisiera	-0.9762383
-4.16779	quiz'a	-0.2944085
-2.787579	r'apido	-0.5897189
-3.603518	r'apidos	-0.2370354
-4.343881	realice	-0.3009611
-4.343881	realidad	-0.2949775
-4.343881	realizan	-0.3002521
-3.46882	realizar	-0.6219953
-4.343881	realmente	-0.2967494
-4.343881	reconfirmar	-0.2758799
-4.343881	recorrido	-0.2485844
-4.343881	refiriendo	-0.3006757
-3.389638	regional	-0.4785944
-4.042851	regionales	-0.2347696
-4.343881	regresando	-0.2758799
-3.690669	regresar	-0.5189269
-4.343881	regreso	-0.3008332
-4.343881	rep'itame	-0.2968984
-4.16779	repetir	-0.2715008
-3.799813	repetirme	-0.4319296
-4.343881	repitas	-0.2758799
-4.343881	reservar	-0.2959738
-4.343881	respondido	-0.3010103
-4.343881	restaurante	-0.2485844
-4.042851	reuni'on	-0.3524863
-4.343881	reunirme	-0.3002817
-4.16779	ruta	-0.4246757
-2.422195	s'abado	-0.6019707
-3.799813	s'e	-0.2219668
-1.393516	s'i	-0.7471071
-3.498783	s'olo	-0.342643
-4.16779	sabe	-0.2986725
-1.686347	saber	-1.015328
-4.343881	saberlo	-0.298148
-3.182513	salamanca	-0.5879708
-4.16779	saldr'ia	-0.2691252
-2.838731	sale	-0.6791415
-3.065127	salen	-0.6623335
-2.945941	salga	-0.6058264
-3.603518	salgan	-0.2644176
-4.042851	salgo	-0.2440094
-2.874059	salida	-0.3605746
-2.982153	saliendo	-0.7486353
-3.799813	saliera	-0.3776101
-4.042851	salieran	-0.2393858
-4.042851	saliese	-0.2749617
-2.271999	salir	-0.7936657
-4.343881	san_fermines	-0.2485844
-4.343881	san_jos'e	-0.2485844
-3.182513	san_sebasti'an	-0.5831298
-2.920635	santander	-0.5402116
-4.16779	santiago	-0.2479068
-3.644911	santiago_de_compostela	-0.51356
-4.343881	satisfecho	-0.3010103
-3.644911	se	-0.3457068
-2.764097	sea	-0.2950806
-3.945941	sean	-0.2738216
-3.343881	segovia	-0.4481252
-3.690669	segunda	-0.5103804
-3.741821	segundo	-0.4347284
-2.76985	seis	-0.945848
-2.54454	semana	-0.659003
-3.86676	semana_santa	-0.2595137
-4.343881	semanas	-0.2925968
-3.011443	septiembre	-0.7352152
-2.741821	ser	-0.4547696
-4.343881	ser'a	-0.3009021
-3.343881	ser'ia	-0.3944971
-3.690669	servicio	-0.477925
-4.343881	servicios	-0.3005575
-4.343881	setiembre	-0.2925968
-2.584213	sevilla	-0.7703201
-4.343881	se~nora	-0.2485844
-4.343881	se~norita	-0.2967594
-2.308451	si	-0.8045447
-4.343881	sido	-0.3009414
-2.715492	siete	-0.8585958
-3.197753	siguiente	-0.5021219
-4.343881	sin	-0.2987022
-4.343881	sirve	-0.3002521
-2.889036	sobre	-0.7230946
-3.945941	solamente	-0.2332084
-3.690669	solo	-0.2668217
-3.182513	son	-0.3227083
-3.799813	soria	-0.4174566
-3.644911	su	-0.9938477
-4.343881	sueca	-0.2758799
-3.56573	suficiente	-0.3644966
-4.343881	supuesto	-0.2485844
-4.343881	sus	-0.299621
-2.615527	talgo	-0.5605088
-4.16779	talgos	-0.2484401
-2.852519	tambi'en	-0.3577462
-4.343881	tampoco	-0.299769
-4.042851	tanto	-0.3614373
-4.343881	tarda	-0.2485844
-4.343881	tardan	-0.3005182
-4.343881	tardar'ia	-0.296501
-2.306455	tarde	-0.8530694
-3.113432	tardes	-0.6172377
-2.912517	tarragona	-0.4927057
-4.343881	te	-0.3010103
-4.343881	teatro	-0.2925968
-4.042851	temprano	-0.3441827
-4.343881	tendr'e	-0.2947579
-3.741821	tendr'ia	-0.2802484
-4.343881	tendr'ian	-0.2968984
-4.042851	tener	-0.2751705
-4.343881	tenerlo	-0.2485844
-4.042851	tenga	-0.3406726
-3.076709	tengo	-0.709378
-4.343881	tercer	-0.2950473
-4.343881	tercero	-0.2485844
-3.126397	teruel	-0.5679953
-4.343881	thyssen	-0.3008726
-4.343881	ticket	-0.298148
-4.16779	tiempo	-0.3009119
-2.96367	tiene	-0.5233231
-3.530968	tienen	-0.3466485
-4.343881	tienes	-0.3010005
-2.477594	tipo	-1.392086
-3.498783	tipos	-1.116346
-4.16779	toda	-0.4707494
-2.874059	todo	-0.8493448
-4.042851	todos	-0.3408297
-3.389638	toledo	-0.3289308
-4.343881	total	-0.271248
-4.343881	totalmente	-0.3010103
-4.16779	trabajo	-0.2943386
-4.343881	trata	-0.271248
-3.603518	trayecto	-0.4523116
-4.343881	trayectos	-0.296501
-3.741821	trece	-0.2906003
-2.793653	treinta	-0.9209427
-1.863874	tren	-0.7103121
-3.741821	tren_hotel	-0.3198124
-2.074368	trenes	-0.7075757
-2.859581	tres	-0.803377
-4.343881	triana	-0.2485844
-4.343881	tu	-0.3010103
-3.389638	turista	-0.41509
-4.042851	u	-0.3719866
-1.93649	un	-1.133126
-3.065127	una	-0.391031
-2.710413	uno	-1.074992
-3.690669	unos	-0.4729997
-4.16779	usted	-0.300193
-4.343881	utilizar	-0.3007545
-4.343881	uy	-0.2758799
-4.343881	v'alido	-0.2485844
-3.690669	va	-0.428092
-4.16779	vacaciones	-0.2442561
-4.343881	valdr'ia	-0.2758799
-3.46882	vale	-0.2716693
-4.042851	valen	-0.2461467
-2.417024	valencia	-0.7712948
-4.343881	valer	-0.2959738
-3.213547	valladolid	-0.5050867
-3.741821	vamos	-0.5842395
-3.343881	van	-0.6519083
-3.644911	vaya	-0.4608119
-4.042851	vayan	-0.3524863
-4.343881	veamos	-0.2953763
-2.954715	veinte	-0.7917082
-3.283183	veinticinco	-0.9929789
-3.2647	veinticuatro	-0.8413427
-3.389638	veintid'os	-0.6304637
-3.16779	veintinueve	-0.9402879
-3.440791	veintiocho	-0.8432164
-3.343881	veintis'eis	-0.662716
-3.389638	veintisiete	-0.459411
-3.197753	veintitr'es	-0.9122592
-3.644911	veintiuno	-0.6541603
-4.343881	vendr'ia	-0.3006954
-4.343881	venga	-0.3005182
-4.343881	vengan	-0.271248
-4.343881	vente	-0.271248
-3.001458	ver	-0.3497617
-3.799813	ver'a	-0.3866993
-4.343881	verano	-0.296501
-4.16779	verdad	-0.4246757
-3.799813	vez	-0.3027432
-4.343881	viaja	-0.298148
-3.603518	viajando	-0.6269019
-2.273843	viajar	-1.037505
-4.343881	viajara	-0.296501
-2.154953	viaje	-0.9983544
-3.246971	viajes	-0.4840308
-4.343881	vida	-0.2947579
-2.859581	viene	-0.538869
-2.343881	viernes	-0.5982962
-4.042851	viernes_santo	-0.3170081
-3.021662	vigo	-0.5686362
-4.16779	visita	-0.2863942
-4.16779	visitar	-0.4625059
-4.343881	visitarlos	-0.2485844
-3.46882	vitoria	-0.3559437
-2.690669	volver	-0.6210616
-4.343881	volver'ia	-0.2946581
-3.440791	volviendo	-0.6302447
-3.799813	voy	-0.5871494
-2.223307	vuelta	-0.6191094
-3.799813	vuelva	-0.2591972
-4.343881	vuelven	-0.2864146
-4.16779	vuelvo	-0.4519712
-1.716003	y	-0.4749967
-2.96367	ya	-0.6628284
-3.440791	yo	-0.4847291
-3.86676	zamora	-0.4103041
-2.658139	zaragoza	-0.7456759
-4.16779	zona	-0.3009709

\2-grams:
-0.4101745	'avila </s>
-0.7112045	'avila a	-0.2945792
-1.556303	'avila desde
-0.8573325	'avila el	-0.7354519
-1.255273	'avila en	-0.4046455
-1.556303	'avila para
-0.6690068	'ultima hora
-0.1918855	'ultima semana	-0.4856888
-0.4220737	'ultimo </s>
-1.568202	'ultimo el
-1.568202	'ultimo es
-1.568202	'ultimo euromed
-1.267172	'ultimo que
-0.4890205	'ultimo tren	-0.251812
-0.1760913	'ultimos </s>
-0.30103	'unicamente cu'al
-0.30103	'unico tren
-3.715418	<s> 'avila
-1.391136	<s> a	-0.01766378
-3.238297	<s> al	-0.1186293
-3.715418	<s> albacete
-3.414388	<s> alg'un	-0.06338698
-3.113358	<s> alguno	-0.1760913
-3.715418	<s> alrededor
-3.715418	<s> antes
-3.715418	<s> ay
-2.937267	<s> barcelona	-0.6716151
-2.761176	<s> bien	0.08111573
-2.317478	<s> buenas	0.02632898
-2.539327	<s> bueno	-0.09066106
-2.25302	<s> buenos	0.4771212
-3.715418	<s> burgos
-3.715418	<s> buscar'ia
-3.715418	<s> c'aceres
-3.414388	<s> c'adiz	-0.2825466
-3.414388	<s> cambiar
-3.414388	<s> catorce	-0.1091445
-3.715418	<s> ciudad_real
-3.715418	<s> con
-3.715418	<s> conocer
-3.414388	<s> creo	0.4771213
-2.372996	<s> cu'al	0.0934217
-2.436665	<s> cu'anto	-0.2564924
-3.715418	<s> cuales
-3.016448	<s> cualquier	-0.2678616
-3.715418	<s> cualquiera
-3.715418	<s> cuenca
-3.414388	<s> d'igame	-0.3474874
-3.238297	<s> de
-3.238297	<s> del
-3.414388	<s> desde
-3.715418	<s> deseaba
-2.17135	<s> desear'ia	0.04777282
-2.062206	<s> deseo	-0.191251
-3.414388	<s> diecinueve
-3.414388	<s> dieciocho	-0.164192
-3.715418	<s> diecis'eis
-3.238297	<s> diecisiete	-0.01099539
-3.715418	<s> dos
-3.715418	<s> durante
-1.238297	<s> el	0.07502782
-3.715418	<s> elegir
-2.937267	<s> en	-0.08384125
-3.715418	<s> entonces
-2.715418	<s> entre	-0.8418204
-3.715418	<s> era
-3.113358	<s> es
-3.414388	<s> ese
-3.016448	<s> eso	0.3206429
-3.715418	<s> esos
-2.937267	<s> este	-0.09878601
-3.715418	<s> esto
-3.715418	<s> estoy
-3.715418	<s> exactamente
-3.414388	<s> exacto
-3.414388	<s> existe	-0.2730013
-3.715418	<s> finales
-3.715418	<s> gasteiz
-3.715418	<s> gerona
-3.113358	<s> gracias
-3.715418	<s> granada
-3.715418	<s> habr'ia
-2.414388	<s> hay	-0.118616
-1.385005	<s> hola	0.005604029
-2.937267	<s> horario	-0.2534477
-2.761176	<s> horarios	-0.2952005
-3.016448	<s> hoy	-0.231757
-3.715418	<s> ir
-3.238297	<s> jueves
-3.715418	<s> l'erida
-2.812328	<s> la	-0.5294557
-3.414388	<s> la_coru~na	-0.2762064
-3.715418	<s> llega
-3.715418	<s> lleida
-3.715418	<s> lo
-3.414388	<s> los
-3.414388	<s> lunes
-2.87032	<s> madrid	-0.7235492
-3.414388	<s> martes
-2.238297	<s> ma~nana	-0.2237962
-1.44126	<s> me	-0.4799918
-3.238297	<s> mira
-3.113358	<s> mire
-3.715418	<s> muchas
-3.715418	<s> muy
-2.092169	<s> nada	0.1665459
-3.715418	<s> necesitar'ia
-2.715418	<s> necesito	-0.05302853
-0.7264137	<s> no	-0.1571814
-3.715418	<s> o
-2.56929	<s> obtener	-0.06621626
-3.715418	<s> ocho
-3.715418	<s> oiga
-3.715418	<s> once
-3.715418	<s> otro
-3.414388	<s> oviedo	-0.3068596
-3.238297	<s> pamplona	-0.3999553
-3.016448	<s> para	-0.01037718
-3.016448	<s> pasado	-0.2833013
-3.414388	<s> perdone
-3.715418	<s> pod'ia
-2.87032	<s> podr'ia
-2.87032	<s> por	0.3655654
-3.414388	<s> pr'oximo
-3.414388	<s> precios
-3.414388	<s> preferir'ia
-3.715418	<s> pregunto
-3.414388	<s> puede	-0.4548449
-3.238297	<s> puedo
-1.6662	<s> pues	-0.1707374
-2.335207	<s> qu'e	-0.2697723
-2.436665	<s> que	-0.1293926
-1.47989	<s> quer'ia	-0.139394
-2.016448	<s> querr'ia	-0.1484573
-3.715418	<s> quieres
-1.36131	<s> quiero	-0.1981801
-3.414388	<s> quince	0.2905646
-1.618508	<s> quisiera	0.08307791
-3.715418	<s> realmente
-3.715418	<s> s'abado
-0.4796374	<s> s'i	-0.01333916
-2.484969	<s> saber	-0.06941107
-3.414388	<s> sale	-0.4596305
-3.715418	<s> salida
-3.016448	<s> salir	-0.001660794
-3.414388	<s> san_sebasti'an	-0.3132645
-3.414388	<s> santander	-0.2150093
-3.715418	<s> santiago_de_compostela
-2.87032	<s> sevilla	-0.7185656
-2.937267	<s> si	0.09068175
-3.113358	<s> siete	-0.3886
-3.715418	<s> solo
-3.715418	<s> son
-3.715418	<s> tambi'en
-3.715418	<s> tampoco
-2.87032	<s> tarragona	-0.7582564
-3.715418	<s> teruel
-3.414388	<s> tiene
-3.715418	<s> tienen
-3.238297	<s> tipo	0.5769169
-3.715418	<s> todos
-3.715418	<s> toledo
-3.414388	<s> treinta
-3.715418	<s> trenes
-3.715418	<s> tres
-3.238297	<s> un	-0.2153907
-3.715418	<s> una
-3.715418	<s> uno
-3.715418	<s> utilizar
-3.414388	<s> vale	-0.4393327
-3.414388	<s> valencia	-0.3853509
-3.715418	<s> valladolid
-3.715418	<s> vamos
-3.715418	<s> veamos
-3.238297	<s> veinte	-0.1627273
-3.715418	<s> veinticinco
-3.715418	<s> veinticuatro
-3.715418	<s> veintid'os
-3.715418	<s> veintinueve
-3.238297	<s> veintitr'es	-0.1249388
-3.715418	<s> ver'a
-2.761176	<s> viajar	-0.4123492
-3.715418	<s> viaje
-3.113358	<s> viernes
-3.113358	<s> vigo	-0.3893398
-3.715418	<s> volver
-2.484969	<s> y	-0.1719353
-3.016448	<s> ya	-0.02707529
-3.414388	<s> yo
-1.962676	a 'avila	-0.03587425
-2.892095	a 'ultima	-0.3723859
-2.113943	a albacete	-0.1606543
-2.892095	a algeciras
-2.892095	a alguna	-0.3309932
-1.530367	a alicante	-0.1413291
-2.348027	a almer'ia	-0.1171134
-2.238882	a badajoz	-0.01896784
-1.069273	a barcelona	-0.274854
-1.624923	a bilbao	-0.213183
-2.494155	a burgos	0.02213444
-2.079181	a c'aceres	-0.07586916
-1.870905	a c'adiz	0.02482361
-1.761761	a c'ordoba	-0.1481686
-3.193125	a castell'o
-1.850702	a castell'on	-0.19382
-2.113943	a ciudad_real	-0.165056
-2.892095	a cualquier	-0.437004
-3.193125	a cuatro
-2.193125	a cuenca	-0.4259688
-3.193125	a decir
-3.193125	a decirme
-2.892095	a diez
-2.892095	a dos
-3.193125	a esa
-3.193125	a ese
-3.193125	a eso
-2.591065	a finales	-0.2730013
-3.193125	a francia
-2.892095	a gasteiz
-2.494155	a gerona	-0.01223446
-2.716003	a gij'on	-0.1706962
-2.414973	a girona	-0.05897786
-1.795185	a granada	-0.09177038
-2.892095	a guadalajara	0.1249388
-3.193125	a haber
-2.716003	a huelva	-0.07572071
-2.494155	a huesca	0
-2.892095	a ir
-2.414973	a ja'en	0.0211893
-2.591065	a l'erida	0.05016661
-2.017033	a la	-0.009545341
-2.113943	a la_coru~na	-0.009938538
-1.248642	a las	0.06279081
-2.290035	a le'on	-0.146128
-2.414973	a lleida	0.1290947
-2.238882	a logro~no	-0.2798406
-2.892095	a lugo
-1.892095	a m'alaga	-0.0759761
-2.151732	a m'erida	0
-3.193125	a m'i
-0.9862987	a madrid	0.035909
-3.193125	a mediados
-2.716003	a mediod'ia	0.0528523
-3.193125	a mi
-1.989005	a murcia	-0.2116295
-3.193125	a noche
-3.193125	a once
-2.892095	a orense	-0.3521825
-2.079181	a oviedo	-0.2643071
-2.716003	a palencia	-0.09691003
-1.831397	a pamplona	-0.1198592
-2.716003	a par'is	-0.07572071
-1.485554	a partir	0
-3.193125	a pe~n'iscola
-2.079181	a poder	-0.4191293
-3.193125	a port_aventura
-2.079181	a primera	-1.058298
-3.193125	a primeros
-2.290035	a principios	0
-3.193125	a pues
-1.380211	a qu'e	-1.369568
-2.494155	a que	-0.365437
-3.193125	a quer'ia
-1.831397	a salamanca	-0.1371731
-3.193125	a san_fermines
-2.193125	a san_sebasti'an	-0.1026623
-1.649057	a santander	-0.0231238
-3.193125	a santiago
-2.348027	a santiago_de_compostela	0.07918122
-2.017033	a segovia	-0.149298
-2.716003	a seis	-0.091515
-1.989005	a ser	-1.154728
-1.312311	a sevilla	-0.1477577
-3.193125	a siete
-2.494155	a soria	-0.1127043
-3.193125	a sueca
-1.674611	a tarragona	-0.02805257
-1.831397	a teruel	-0.03063089
-2.046997	a toledo	0.01455872
-2.591065	a un	-0.297813
-2.716003	a una
-2.716003	a unos	-0.3679768
-1.407795	a valencia	-0.3628033
-1.989005	a valladolid	-0.1760913
-1.624923	a ver	0.01223448
-2.892095	a viajar
-1.831397	a vigo	-0.02918839
-2.193125	a vitoria	0.004155979
-1.937852	a zaragoza	-0.2419085
-0.30103	abre a
-0.2435867	abril </s>
-1.518514	abril a	-0.1332113
-2.296665	abril al
-1.995635	abril con	-0.4536402
-1.092545	abril de	-0.3637106
-1.694605	abril del	-0.6749418
-2.296665	abril dentro
-2.296665	abril despu'es
-2.296665	abril diecis'eis
-1.995635	abril en	-0.4046455
-2.296665	abril no
-2.296665	abril o
-1.819544	abril para	-0.5818272
-1.342423	abril por	0.2784153
-2.296665	abril porque
-2.296665	abril que
-1.995635	abril quer'ia
-2.296665	abril quisiera
-2.296665	abril viernes_santo
-1.255273	abril y	-0.06567878
-0.30103	acabado gracias
-0.30103	acceder o
-0.1760913	acerca del
-0.30103	acercara m'as
-0.30103	acudir esta
-0.1760913	acuerdo </s>
-1.431364	adem'as deseo
-1.431364	adem'as el
-1.431364	adem'as en
-1.431364	adem'as la
-1.431364	adem'as lo
-1.431364	adem'as los
-1.431364	adem'as me
-1.130334	adem'as que
-1.431364	adem'as quer'ia
-1.431364	adem'as querr'ia
-0.9542425	adem'as quiero	-0.06008965
-1.431364	adem'as saber
-0.05115252	adi'os </s>
-0.30103	aeropuerto de
-0.2800455	agosto </s>
-1.5272	agosto a	-0.2074134
-2.004321	agosto cualquier
-2.004321	agosto de
-2.004321	agosto del
-2.004321	agosto desde
-2.004321	agosto dos
-2.004321	agosto e
-2.004321	agosto en
-2.004321	agosto es
-2.004321	agosto hasta
-1.101231	agosto por	-0.6094922
-2.004321	agosto quiero
-2.004321	agosto quisiera
-2.004321	agosto si
-2.004321	agosto tambi'en
-2.004321	agosto un
-1.305351	agosto y	-0.09720752
-0.30103	agradecer'ia </s>
-0.30103	ah s'i
-0.9542425	ahora dime
-0.3521825	ahora me	0.1780789
-0.9542425	ahora quer'ia
-1.716003	al aeropuerto
-1.414973	al atardecer
-1.238882	al cuatro	-0.05948353
-0.6746107	al d'ia	-1.062791
-1.716003	al destino
-1.716003	al diecisiete
-1.716003	al euromed
-1.716003	al igual
-1.414973	al mediod'ia
-1.716003	al men'u
-1.716003	al mismo
-1.716003	al museo
-1.414973	al once	-0.1645094
-1.716003	al principio
-1.716003	al s'abado
-1.113943	al treinta	-0.5026754
-1.716003	al viernes
-0.4771213	alaris </s>
-1.431364	alaris me
-0.8293038	alaris o	-0.6884412
-1.431364	alaris que
-0.5862657	alaris si	-0.1553361
-0.4357286	albacete </s>
-0.8750613	albacete a	-0.1331293
-1.477121	albacete antes
-1.477121	albacete destino
-1.477121	albacete el
-1.477121	albacete para
-1.477121	albacete saliendo
-1.176091	albacete y	-0.4730263
-1.845098	alg'un ave
-1.544068	alg'un billete
-1.544068	alg'un d'ia
-1.845098	alg'un euromed
-1.845098	alg'un fin
-1.544068	alg'un horario
-1.544068	alg'un otro
-1.845098	alg'un regional
-1.367977	alg'un talgo	0.08956328
-1.845098	alg'un tipo
-0.2116296	alg'un tren	-0.02592325
-0.60206	algeciras </s>
-0.60206	algeciras en
-0.60206	algo </s>
-0.60206	algo que
-0.544068	alguna ciudad
-0.845098	alguna historia
-0.845098	alguna otra
-1.028029	alguno </s>
-0.60206	alguno de	-0.2845906
-1.50515	alguno es
-0.3590219	alguno que	-0.426127
-1.50515	alguno sale
-0.4149733	alicante </s>
-0.8507019	alicante a	-0.7552395
-1.892095	alicante antes
-0.9378521	alicante el	-0.2851688
-1.892095	alicante ma~nana
-1.046997	alicante para	-0.124707
-1.892095	alicante pero
-1.892095	alicante saber
-0.9890046	alicante y	-0.06078719
-1.041393	all'i a
-0.3424227	all'i antes	0.5491692
-0.7403627	all'i el
-0.4771213	almer'ia </s>
-1.021189	almer'ia a	-0.4554306
-0.845098	almer'ia el
-1.322219	almer'ia en
-1.322219	almer'ia hasta
-1.322219	almer'ia por
-0.30103	almeria </s>
-0.2218488	alrededor de	-0.8103477
-0.69897	alrededor del	-0.469676
-0.60206	alta_velocidad </s>
-0.60206	alta_velocidad en
-0.60206	altaria </s>
-0.60206	altaria o
-0.30103	amable </s>
-0.4259687	amigos </s>
-0.90309	amigos en
-0.90309	amigos entonces
-1	anterior </s>
-1	anterior a
-1	anterior el
-1	anterior que
-1	anterior y
-1.417748	antes </s>
-0.05602057	antes de	-1.468741
-1.417748	antes del	-0.2156533
-2.1959	antes estaba
-2.1959	antes mejor
-0.30103	aparte de
-0.30103	aprovechar el
-0.69897	aproximadamente alrededor
-0.39794	aproximadamente antes	0.4400248
-0.30103	aproximado m'as
-0.69897	aqu'i de
-0.39794	aqu'i desde	-0.4112345
-0.1760913	arco </s>
-1.079181	as'i como
-0.2340832	as'i es	-0.2654404
-1.079181	as'i hasta
-0.30103	asistir a
-0.30103	asunto de
-0.60206	atardecer </s>
-0.60206	atardecer y
-0.30103	atenci'on </s>
-0.7781513	aunque no
-0.7781513	aunque sea
-0.7781513	aunque si
-0.30103	autobuses que
-0.30103	autom'aticamente tienes
-0.3719612	ave </s>
-1.863323	ave a
-1.863323	ave d'igame
-1.386202	ave de	-0.2201473
-1.863323	ave desde
-1.863323	ave disponible
-1.863323	ave eh
-1.863323	ave la
-1.863323	ave o
-1.863323	ave pero
-1.863323	ave por
-1.863323	ave porque
-1.863323	ave puede
-1.863323	ave saliendo
-1.863323	ave sevilla
-1.018225	ave si	-0.4106086
-1.562293	ave y
-0.30103	ay </s>
-0.30103	ayudar </s>
-0.90309	a~no dos
-0.90309	a~no entonces
-0.90309	a~no entre
-0.90309	a~no y
-0.30103	b'usqueme usted
-0.3590219	badajoz </s>
-1.20412	badajoz a
-1.20412	badajoz el
-1.20412	badajoz para
-1.20412	badajoz y
-0.60206	bajar desde
-0.60206	bajar en
-0.5642715	bar </s>
-1.041393	bar me
-1.041393	bar o
-0.7403627	bar y	-0.4707345
-0.1484198	barato </s>
-1.278754	barato para
-1.278754	barato que
-1.102662	barato y
-0.30103	baratos tanto
-0.4823855	barcelona </s>
-0.8647204	barcelona a	-0.3609317
-1.794139	barcelona antes	0.616116
-2.396199	barcelona castell'on
-1.794139	barcelona desde	-0.09194016
-0.9338014	barcelona el	-0.362443
-1.618048	barcelona en	-0.1739801
-2.396199	barcelona ese
-2.396199	barcelona este
-2.396199	barcelona ida
-2.396199	barcelona la
-2.396199	barcelona llegan
-2.396199	barcelona lleida
-2.095169	barcelona ma~nana	-0.1509806
-2.396199	barcelona me
-2.396199	barcelona no
-1.07398	barcelona para	-0.1700183
-2.396199	barcelona pero
-2.095169	barcelona por
-2.396199	barcelona pues
-1.794139	barcelona que
-2.396199	barcelona quer'ia
-2.396199	barcelona quiero
-2.396199	barcelona quisiera
-2.396199	barcelona saldr'ia
-2.396199	barcelona saliendo
-2.396199	barcelona sobre
-2.396199	barcelona un
-2.396199	barcelona una
-2.095169	barcelona valencia	-0.3853509
-1.441957	barcelona y	-0.04520465
-0.5070845	bien </s>
-1.653213	bien b'usqueme
-1.051152	bien el	-0.2931646
-1.653213	bien ese
-1.653213	bien est'a
-1.653213	bien estar'ia
-1.051152	bien gracias	0.5003129
-1.653213	bien me
-1.653213	bien para
-1.653213	bien perfecto
-1.176091	bien s'i	-0.09230451
-1.653213	bien si
-0.5993372	bilbao </s>
-0.5201559	bilbao a	-0.2392032
-2.201397	bilbao al
-2.201397	bilbao alrededor
-2.201397	bilbao barcelona
-1.900367	bilbao de
-1.900367	bilbao desde
-1.247155	bilbao el	-0.03923588
-2.201397	bilbao en
-2.201397	bilbao entonces
-1.599337	bilbao hasta	-0.09644026
-2.201397	bilbao la
-2.201397	bilbao las
-2.201397	bilbao me
-1.298307	bilbao para	0.007420152
-2.201397	bilbao qu'e
-2.201397	bilbao que
-2.201397	bilbao quer'ia
-2.201397	bilbao quiero
-2.201397	bilbao saber
-2.201397	bilbao santander
-2.201397	bilbao sevilla
-1.298307	bilbao y	-0.06124124
-0.7132105	billete </s>
-1.667453	billete a
-0.2872417	billete de	-0.8809888
-1.667453	billete del	-0.0725696
-2.269513	billete desde
-2.269513	billete disponible
-1.31527	billete en	-0.3024013
-1.424415	billete ida	-0.6760864
-2.269513	billete m'as
-2.269513	billete no
-2.269513	billete normal
-1.570543	billete para
-1.792392	billete por	-0.4107115
-2.269513	billete tendr'ia
-2.269513	billete y
-0.6690068	billetes </s>
-0.447158	billetes de	-0.3459163
-1.146128	billetes para
-1.146128	billetes por
-0.30103	buena hora
-1.929419	buenas a
-1.628389	buenas desear'ia
-1.929419	buenas es
-1.929419	buenas he
-1.084321	buenas me	-0.4239811
-1.929419	buenas mira
-0.7832909	buenas quer'ia	-0.06428158
-1.151268	buenas querr'ia	0.0547979
-1.084321	buenas quisiera	-0.05162075
-0.410905	buenas tardes	0
-1.929419	buenas ver'a
-1.681241	bueno desear'ia
-1.681241	bueno el
-1.681241	bueno entre
-1.681241	bueno es
-1.20412	bueno me	-0.1229511
-1.681241	bueno mejor
-1.681241	bueno obtener
-0.7269987	bueno pues	-0.0391177
-1.681241	bueno qu'e
-1.681241	bueno quer'ia
-1.681241	bueno quiero
-1.380211	bueno quisiera
-1.681241	bueno s'i
-1.681241	bueno saliendo
-1.681241	bueno ser'ia
-1.380211	bueno si
-1.681241	bueno y
-1.681241	bueno yo
-0.004852503	buenos d'ias	-0.2814293
-0.5835766	burgos </s>
-0.5835766	burgos a	-0.3411871
-1.060698	burgos el
-1.361728	burgos la
-1.361728	burgos saliendo
-1.361728	burgos valladolid
-0.30103	buscar un
-0.30103	buscar'e la
-0.30103	buscar'ia un
-0.5910646	c'aceres </s>
-0.7459666	c'aceres a	-0.4740481
-1.591065	c'aceres capital
-1.591065	c'aceres desde
-1.113943	c'aceres el	-0.5593606
-0.9890046	c'aceres para	-0.3585197
-0.8129134	c'aceres y	-0.07938246
-0.4423591	c'adiz </s>
-1.556303	c'adiz a
-0.9542425	c'adiz el	-0.1073371
-1.556303	c'adiz en
-1.556303	c'adiz ese
-1.556303	c'adiz la
-1.255273	c'adiz los	-0.4628808
-1.556303	c'adiz me
-1.556303	c'adiz por
-1.556303	c'adiz saliendo
-0.69897	c'omo ha
-0.39794	c'omo no
-0.30103	c'omoda mejor
-0.447158	c'omodo </s>
-1.146128	c'omodo de
-1.146128	c'omodo no
-1.146128	c'omodo para
-1.146128	c'omodo pero
-0.4771213	c'ordoba </s>
-1.113943	c'ordoba a	-0.5975827
-0.5910646	c'ordoba el	-0.3173535
-0.9890046	c'ordoba para
-1.591065	c'ordoba ser'ia
-1.290035	c'ordoba y
-1	cada cu'anto
-1	cada salida
-0.30103	cada uno	0.2108533
-0.30103	callado </s>
-0.1638568	cama </s>
-1.544068	cama adem'as
-1.544068	cama de
-1.544068	cama o
-1.544068	cama si
-1.544068	cama tienen
-0.3679768	cambiar el	-0.182687
-0.544068	cambiar la	-0.1402985
-1.146128	cambiar ninguna
-0.30103	cambrils a
-0.30103	camino de
-0.30103	capital </s>
-0.60206	caracter'isticas </s>
-0.60206	caracter'isticas tipo
-0.30103	carnavales </s>
-0.30103	caro </s>
-0.60206	casa </s>
-0.60206	casa y
-0.30103	castell'o </s>
-0.60206	castell'on </s>
-0.4956047	castell'on a	-0.6690068
-1.857332	castell'on de
-1.857332	castell'on desde
-1.857332	castell'on destino
-1.380211	castell'on el	-0.1830578
-1.857332	castell'on en
-1.857332	castell'on este
-1.857332	castell'on no
-1.255273	castell'on para	-0.1411575
-1.556303	castell'on por
-1.857332	castell'on viajando
-1.556303	castell'on y
-0.30103	catalu~na_expres si
-1.544068	catorce </s>
-0.243038	catorce de	-0.3754089
-0.9420081	catorce horas	-0.1583625
-1.243038	catorce por	-0.1323709
-1.544068	catorce tambi'en
-1.544068	catorce verdad
-0.30103	celebre carnavales
-0.1760913	cerca de	-0.442371
-0.30103	cercana </s>
-0.30103	cercano a
-0.30103	cero horas
-0.30103	cierra del
-0.7700334	cinco </s>
-2.025306	cinco a
-2.025306	cinco creo
-0.2329142	cinco de	-0.5928689
-2.025306	cinco esto
-2.025306	cinco horas
-2.025306	cinco la
-2.025306	cinco llega
-2.025306	cinco o
-1.724276	cinco qu'e	-0.365384
-2.025306	cinco que
-1.423246	cinco y	-0.4637856
-0.9542425	cincuenta </s>
-0.1760913	cincuenta y	-0.2488857
-0.30103	citado </s>
-0.9542425	ciudad cercana
-0.6532125	ciudad de
-0.9542425	ciudad monumental
-0.9542425	ciudad que
-0.449969	ciudad_real </s>
-1.01424	ciudad_real a	-0.2001581
-1.01424	ciudad_real el	-0.2172494
-1.190332	ciudad_real hasta	-0.4274335
-1.190332	ciudad_real para
-1.491362	ciudad_real por
-1.190332	ciudad_real y
-0.3802112	claro </s>
-1.079181	claro es
-1.079181	claro para
-1.079181	claro pues
-0.6766936	clase </s>
-1.755875	clase de
-1.454845	clase econ'omica	-0.2552725
-1.755875	clase especial
-1.755875	clase m'as
-1.755875	clase no
-1.454845	clase o	-0.4718888
-0.7558749	clase preferente	0.01639041
-1.755875	clase primera
-1.755875	clase qu'e
-0.6097468	clase turista	-0.0211893
-1.518514	coche </s>
-0.1035406	coche cama	0.03891805
-1.041393	coche en	-0.5560278
-0.9542425	coger a
-0.6532125	coger el
-0.4771213	coger un	-0.4580103
-0.30103	cogi'endolo a
-0.30103	cogiendo el
-0.30103	cojo de
-1.278754	como de
-0.9777236	como es
-1.278754	como horarios
-1.278754	como llegar
-1.278754	como m'aximo
-1.278754	como para
-1.278754	como precios
-1.278754	como servicio
-1.278754	como voy
-0.30103	compa~n'ia </s>
-0.30103	competici'on deportiva
-0.30103	completo del
-0.1249387	comprar un	-0.1771583
-0.30103	compro un
-1.676694	con arco	0
-1.977724	con bar
-1.977724	con coche
-0.8315955	con destino	-0.05238806
-1.977724	con direcci'on
-1.278754	con el	-0.1915707
-1.977724	con esto
-1.977724	con la
-1.977724	con las
-1.977724	con literas
-1.500602	con llegada	-0.5112526
-1.977724	con llegar
-1.278754	con punto	0.2632414
-1.676694	con qu'e	-0.4730813
-0.5975124	con salida	-0.2069975
-1.199572	con servicio	-0.5026754
-1.977724	con trenes
-1.500602	con un	-0.07779908
-1.977724	con unos
-1.977724	con vuelta
-0.544068	concierto </s>
-0.845098	concierto a
-0.845098	concierto para
-0.30103	concretar el
-0.30103	concretos para
-0.30103	condiciones entre
-0.7781513	confirmar el
-0.7781513	confirmar la
-0.7781513	confirmar no
-0.30103	confirme el
-0.30103	confundida se~norita
-0.30103	congreso a
-0.3157533	conocer el	-0.6295934
-1.778151	conocer horario
-1.079181	conocer horarios	-0.2153666
-0.5740313	conocer los	-0.611219
-1.477121	conocer tambi'en	-0.4449366
-1.778151	conocer un
-0.30103	conozco entonces
-0.39794	conseguir el	-0.3769371
-0.69897	conseguir los
-0.60206	consulta </s>
-0.60206	consulta horario
-1.653213	consultar adem'as
-0.69897	consultar el	-0.5676472
-1.352183	consultar ese	-0.4590231
-1.176091	consultar horario	-0.02745219
-0.8750613	consultar horarios	-0.01424044
-0.8750613	consultar los	-0.02261649
-1.653213	consultar precio
-1.653213	consultar precios
-1.653213	consultar tambi'en
-1.653213	consultar trenes
-1.653213	consultar un
-1.653213	consultar viaje
-0.30103	contestan autom'aticamente
-0.30103	corresponde al
-0.30103	cosa odio
-0.30103	cosita dime
-0.30103	costa porque
-0.30103	costar </s>
-1.060698	costar'ia </s>
-0.6627578	costar'ia el	-0.2877825
-1.361728	costar'ia en
-1.361728	costar'ia ese
-1.361728	costar'ia ir
-1.361728	costar'ia la
-0.8846066	costar'ia un	-0.5573696
-1.361728	costar'ia volver
-0.30103	crem'a </s>
-0.05115252	creo que	-0.05189859
-1.123385	cu'al de	-0.3236254
-1.968483	cu'al era
-0.07638834	cu'al es	-0.9483058
-1.491362	cu'al ser'ia	-0.4259688
-0.69897	cu'ales de	-0.4757039
-0.69897	cu'ales llegan
-0.5228788	cu'ales son	-0.1911799
-0.7781513	cu'ando hay
-0.7781513	cu'ando llega
-0.7781513	cu'ando podr'ia
-1.119476	cu'anto costar'ia	-0.1488172
-0.4352291	cu'anto cuesta	-0.08051962
-1.897627	cu'anto de
-1.596597	cu'anto dura	0
-1.596597	cu'anto es
-0.7836837	cu'anto me	-0.444292
-1.897627	cu'anto puede
-1.897627	cu'anto salen
-1.897627	cu'anto tarda
-1.897627	cu'anto tardar'ia
-1.897627	cu'anto tiempo
-1.052529	cu'anto vale	-0.07463361
-1.897627	cu'anto valen
-0.60206	cu'antos d'ias
-0.60206	cu'antos de
-0.30103	cuales llegan
-1.531479	cualquier clase
-1.531479	cualquier compa~n'ia
-0.6863809	cualquier d'ia	-0.2882043
-1.054358	cualquier hora	-0.1689127
-1.531479	cualquier otro
-0.5772364	cualquier tipo	0.7987657
-0.8325089	cualquier tren	-0.3699113
-0.60206	cualquiera </s>
-0.60206	cualquiera pero
-0.30103	cuando podr'ia
-0.30103	cuanto antes
-1.113943	cuarenta </s>
-1.113943	cuarenta que
-0.2108534	cuarenta y	-0.5164919
-0.39794	cuarto </s>
-0.69897	cuarto de
-0.3653286	cuatro </s>
-1.560305	cuatro a
-2.037426	cuatro cinco
-2.037426	cuatro cincuenta
-0.5059476	cuatro de	-0.5197087
-2.037426	cuatro deseo
-2.037426	cuatro necesitar'ia
-1.736397	cuatro o
-1.736397	cuatro por	-0.1323709
-2.037426	cuatro s'i
-2.037426	cuatro u
-1.560305	cuatro y
-0.5282738	cuenca </s>
-0.7323937	cuenca a	-0.2784604
-1.431364	cuenca con
-0.5862657	cuenca el	-0.3122371
-1.431364	cuenca y
-0.30103	cuento </s>
-0.5818566	cuesta </s>
-1.623249	cuesta billete
-1.623249	cuesta cada
-1.623249	cuesta d'igame
-0.4771213	cuesta el	-0.5301112
-1.623249	cuesta este
-1.623249	cuesta ir
-1.021189	cuesta un	-0.2563396
-0.30103	cullera y
-0.30103	cultural y
-0.30103	curso de
-0.30103	d'e la
-1.215764	d'ia </s>
-2.577492	d'ia a
-2.577492	d'ia anterior
-2.100371	d'ia antes	0.6952972
-1.577492	d'ia catorce	0.1571234
-1.498311	d'ia cinco	-0.2871536
-1.878522	d'ia cuatro	-0.2056116
-1.536099	d'ia de	-0.1489071
-1.623249	d'ia diecinueve	-0.1383027
-2.100371	d'ia dieciocho	-0.2891308
-1.498311	d'ia diecis'eis	-0.0234811
-1.463548	d'ia diecisiete	-0.1079054
-1.878522	d'ia diez	-0.4956047
-1.623249	d'ia doce	-0.2932046
-1.975432	d'ia dos	-0.3157532
-2.276462	d'ia el
-2.577492	d'ia entre
-2.577492	d'ia est'a
-1.732394	d'ia laborable	0
-2.276462	d'ia lunes	-0.4657417
-2.276462	d'ia me	-0.4738035
-1.732394	d'ia nueve	-0.1091445
-2.577492	d'ia o
-1.674402	d'ia ocho	0.09691003
-1.674402	d'ia once	0.152911
-2.276462	d'ia para
-2.276462	d'ia pero
-1.975432	d'ia por	0.04372033
-2.577492	d'ia preferente
-2.577492	d'ia qu'e
-2.577492	d'ia que
-1.498311	d'ia quince	0.1656259
-2.577492	d'ia s'abado
-1.322219	d'ia seis	-0.3702685
-1.431364	d'ia siete	0.2607187
-1.431364	d'ia siguiente	0.02482361
-2.100371	d'ia trece
-1.536099	d'ia treinta	-0.2486419
-1.878522	d'ia tres	-0.4771213
-1.431364	d'ia uno	0.1986189
-1.347043	d'ia veinte	0.2016454
-2.276462	d'ia veinticinco
-1.799341	d'ia veinticuatro	-0.2082759
-2.276462	d'ia veintid'os	-0.154902
-1.577492	d'ia veintinueve	0.1359341
-2.100371	d'ia veintiocho	0.1512676
-2.276462	d'ia veintis'eis
-1.799341	d'ia veintisiete	0.1398791
-1.536099	d'ia veintitr'es	-0.03476208
-2.276462	d'ia veintiuno	0.08715019
-2.100371	d'ia y
-2.120574	d'ias </s>
-1.819544	d'ias desear'ia	-0.3756636
-1.643453	d'ias diecinueve	-0.5781479
-1.819544	d'ias diecis'eis
-2.120574	d'ias doce
-2.120574	d'ias el
-2.120574	d'ias laborables
-1.643453	d'ias llamaba	0.1760913
-0.8653014	d'ias me	-0.3447999
-1.217484	d'ias mira	-0.3537363
-1.217484	d'ias mire	-0.256402
-2.120574	d'ias necesito
-2.120574	d'ias ocho
-2.120574	d'ias podr'ia
-2.120574	d'ias pues
-0.819544	d'ias quer'ia	0.1762076
-0.890125	d'ias querr'ia	0.1228902
-1.275476	d'ias quisiera	-0.3535858
-1.819544	d'ias siete	-0.4677812
-2.120574	d'ias son
-1.819544	d'ias tengo
-2.120574	d'ias uno
-1.819544	d'ias veinte	-0.4269547
-1.819544	d'ias veintinueve	-0.4191293
-2.120574	d'ias y
-1.491362	d'igame a
-1.491362	d'igame alguno
-0.8893017	d'igame cu'al	0.0934217
-1.491362	d'igame cu'antos
-0.5882717	d'igame el	-0.8540583
-1.491362	d'igame en
-1.491362	d'igame los
-1.190332	d'igame por	-0.2857727
-1.491362	d'igame si
-1.491362	d'igame tambi'en
-0.30103	d'onde quiero
-0.07918125	da igual	-0.03659381
-0.7781513	dado </s>
-0.7781513	dado el
-0.7781513	dado es
-0.30103	dame los
-0.1918855	dar el	-0.8998158
-1.146128	dar los
-1.146128	dar por
-0.39794	darme el	-0.3769371
-0.69897	darme los
-3.009876	de 'avila	-0.5081555
-2.884937	de </s>
-3.486997	de a
-1.243959	de abril	0.006630599
-3.185967	de acuerdo	0
-1.583907	de agosto	0.01309529
-2.884937	de albacete	-0.6368221
-3.185967	de alg'un	-0.06338698
-2.532754	de alicante	-0.4982516
-3.185967	de almer'ia	-0.4336556
-3.486997	de alta_velocidad
-3.486997	de aqu'i
-3.185967	de ave
-3.486997	de badajoz
-2.708846	de bar	-0.01659927
-1.942929	de barcelona	-0.5304517
-1.814899	de bilbao	-0.1410256
-2.788027	de billete	-0.05270633
-2.884937	de billetes	-0.5070845
-2.788027	de burgos	-0.2366979
-2.583907	de c'aceres	-0.1773268
-3.486997	de c'adiz
-3.486997	de c'ordoba
-3.486997	de cambrils
-2.106786	de castell'on	-0.5652573
-3.009876	de ciudad_real	-0.1776451
-3.185967	de clase
-2.708846	de cualquier	-0.1217336
-3.486997	de cuatro
-2.708846	de cuenca	-0.1663314
-2.583907	de d'ia	-0.1799042
-3.185967	de de
-1.895932	de diciembre	0
-3.009876	de diez	-0.5905802
-3.185967	de doce	-0.461327
-3.486997	de dormir
-2.009876	de dos	-0.5939351
-2.884937	de el	-0.1382627
-2.486997	de ellos	0
-2.089057	de enero	0
-3.486997	de entre
-3.486997	de esa
-2.039839	de ese	-0.3713402
-2.282877	de esos	-0.1360861
-3.486997	de esta
-3.486997	de estar
-3.185967	de estas
-2.256548	de este	-0.4213618
-2.486997	de estos	-0.01251654
-3.486997	de euromed
-1.833784	de febrero	0
-3.486997	de fecha
-3.486997	de forma
-2.788027	de gij'on	-0.1918855
-3.486997	de girona
-2.884937	de granada	-0.2655577
-3.486997	de hora
-3.486997	de horario
-2.884937	de horarios	-0.3624266
-3.185967	de huelva
-1.017175	de ida	0.02640909
-3.486997	de ja'en
-1.805756	de julio	0
-1.701667	de junio	0
-3.185967	de l'erida
-1.054028	de la	-0.4021659
-3.009876	de la_coru~na	-0.188425
-1.114085	de las	-0.03581899
-3.486997	de le'on
-3.486997	de litera
-2.445604	de llegada	-0.02235831
-3.185967	de lleida	-0.4409091
-3.185967	de logro~no	-0.4336556
-1.469964	de los	-0.8672258
-3.185967	de m'alaga	-0.4507923
-1.754603	de madrid	-0.259912
-3.486997	de manera
-1.407816	de marzo	0
-1.635738	de mayo	0
-2.788027	de ma~nana	0.1220207
-3.486997	de mediod'ia
-3.486997	de mes
-3.486997	de muestras
-2.445604	de murcia	-0.1478879
-3.486997	de navidad
-3.486997	de negocio
-3.486997	de negocios
-2.788027	de noche	0.2078736
-2.055633	de noviembre	0
-3.486997	de nueve
-2.185967	de octubre	0
-3.486997	de orense
-3.486997	de origen
-2.884937	de oviedo	-0.5931663
-2.788027	de palencia	-0.1638568
-2.884937	de pamplona	-0.1147196
-3.486997	de par'is
-3.486997	de pasar
-3.486997	de pascua
-3.486997	de paso
-2.884937	de primera	-0.06572171
-3.486997	de r'apidos
-3.486997	de s'abado
-3.486997	de s'olo
-3.486997	de salamanca
-2.208243	de salida	0.02377908
-3.486997	de san_jos'e
-2.708846	de san_sebasti'an	-0.4893557
-2.884937	de santander	-0.2730013
-3.486997	de santiago
-3.486997	de segovia
-3.486997	de seis
-1.796801	de semana	0.07098171
-3.486997	de semana_santa
-1.874213	de septiembre	0.008954883
-3.486997	de ser
-3.486997	de servicios
-3.486997	de setiembre
-2.407816	de sevilla	-0.3113462
-3.486997	de siete
-3.486997	de talgo
-2.788027	de tarragona	-0.7444682
-3.486997	de teatro
-3.486997	de teruel
-3.185967	de trabajo
-1.305153	de tren	-0.2076949
-1.243959	de trenes	-0.02632892
-3.486997	de tres
-1.390087	de un	-0.6040335
-3.486997	de una
-3.185967	de unos
-3.486997	de vacaciones
-1.694605	de valencia	-0.6311884
-3.009876	de valladolid	-0.5329791
-3.486997	de verano
-2.884937	de viajar	-0.1001767
-2.486997	de viaje	-0.06713539
-3.009876	de viajes	-0.327359
-3.486997	de viernes
-3.009876	de vigo	-0.5665877
-3.009876	de vitoria	-0.1783831
-1.47416	de vuelta	-0.04833457
-2.884937	de zamora	-0.09691
-2.106786	de zaragoza	-0.5940911
-0.30103	debe durar
-0.30103	deber'ian ser
-0.30103	debido </s>
-1.919078	decir </s>
-1.618048	decir a
-1.919078	decir cu'anto
-0.37501	decir el	-0.6401979
-1.919078	decir en
-1.220108	decir horarios	-0.2153666
-1.618048	decir la
-1.140927	decir los	-0.2590365
-1.618048	decir para
-1.441957	decir por	-0.4107115
-1.140927	decir qu'e	-0.04316467
-1.919078	decir que
-1.919078	decir si
-1.919078	decir trenes
-1.919078	decir ya
-1.20412	decirme cu'ales
-0.7269987	decirme el	-0.5018758
-1.20412	decirme la
-0.90309	decirme los	-0.2444652
-1.20412	decirme por
-0.90309	decirme si
-0.30103	decirte una
-0.30103	deis el
-1.506382	del 'ultimo	-0.017259
-1.945715	del ave
-2.547775	del a~no
-0.7348614	del billete	0.009100914
-2.246745	del coche	0.1962946
-2.246745	del cuatro
-1.702677	del d'ia	-0.05616026
-1.945715	del de	-0.1113777
-2.547775	del diecinueve
-2.547775	del domingo
-1.269021	del dos	-0.4178438
-1.769623	del euromed	-0.04777279
-2.246745	del horario	-0.3850495
-2.246745	del intercity	-0.08333722
-2.246745	del jueves	-0.3791131
-2.070653	del m'as	-0.5396137
-2.547775	del mare_nostrum
-1.317326	del mediod'ia	-0.002705872
-2.070653	del mes	-0.0457575
-2.246745	del mismo
-1.945715	del pr'oximo
-2.070653	del precio	-0.08255187
-1.644685	del primer	-0.2619659
-2.070653	del primero
-2.547775	del que
-2.547775	del quince
-1.848805	del s'abado	0.07030043
-1.848805	del segundo	-0.146128
-2.547775	del seis
-1.769623	del talgo	-0.07676814
-2.547775	del tercer
-2.547775	del tercero
-2.547775	del ticket
-2.547775	del tipo
-2.070653	del trayecto	0.02118929
-0.807412	del tren	-0.1709571
-2.547775	del trenes
-2.547775	del tres
-2.547775	del triana
-1.769623	del uno	0.03476214
-2.070653	del veinticinco	0.1760913
-2.070653	del veintis'eis	-0.5190858
-0.9679911	del viaje	-0.04533494
-2.246745	del viernes
-0.69897	demasiado caro
-0.39794	demasiado tarde
-0.90309	deme cualquier
-0.60206	deme el	-0.4205552
-0.60206	deme horarios
-0.1760913	dentro de
-0.30103	deportiva que
-0.30103	des horarios
-1.833784	desde 'avila	-0.1638568
-2.532754	desde </s>
-1.754603	desde alicante	-0.02828968
-1.833784	desde almer'ia	-0.02802873
-2.532754	desde almeria
-2.231725	desde aqu'i	-0.2552725
-1.302305	desde barcelona	-0.08938012
-0.8515131	desde bilbao	-0.07761043
-2.055633	desde burgos	-0.09056984
-1.754603	desde c'aceres	-0.1760913
-2.231725	desde c'ordoba	-0.4423591
-1.833784	desde castell'on	0.01579425
-1.687656	desde ciudad_real	-0.02715223
-2.055633	desde cuenca
-2.532754	desde el
-2.532754	desde el_ferrol
-2.532754	desde gerona
-2.055633	desde gij'on	-0.0457575
-1.930694	desde granada	-0.006759584
-2.532754	desde guadalajara
-1.930694	desde hendaya	0
-2.231725	desde huelva	-0.3309932
-2.231725	desde ir'un
-2.231725	desde iru~nea	0
-2.231725	desde la_coru~na
-1.930694	desde las	-0.1239551
-1.833784	desde le'on	-0.2430381
-1.687656	desde lleida	-0.6190933
-1.930694	desde logro~no	0
-2.532754	desde luego
-1.231724	desde madrid	-0.19656
-2.532754	desde monz'on
-1.629664	desde murcia	-0.1239276
-2.532754	desde orense
-1.687656	desde oviedo	-0.09049092
-2.055633	desde palencia	-0.09691003
-2.231725	desde pamplona	-0.4457128
-2.532754	desde salamanca
-1.578512	desde san_sebasti'an	-0.04699653
-2.231725	desde santander
-2.055633	desde segovia
-1.930694	desde sevilla	-0.2144362
-2.231725	desde tarragona	-0.3322877
-2.231725	desde teruel
-2.532754	desde toledo
-1.134814	desde valencia	-0.02263367
-2.231725	desde valladolid
-2.231725	desde vigo
-2.532754	desde vitoria
-0.9306944	desde zaragoza	-0.1678243
-0.9542425	deseaba nada
-0.6532125	deseaba obtener
-0.9542425	deseaba saber
-0.9542425	deseaba tambi'en
-0.90309	desear'ia conocer	0.1249387
-1.857332	desear'ia hacer
-1.857332	desear'ia ir
-1.857332	desear'ia m'as
-0.6812412	desear'ia obtener	-0.2243959
-1.556303	desear'ia que
-0.6812412	desear'ia saber	0.1587997
-0.90309	desear'ia salir	-0.1065855
-1.556303	desear'ia un	-0.4324308
-1.012234	desear'ia viajar	-0.1447555
-1.534661	deseo cambiar	-0.05799194
-1.437751	deseo conocer	0.08266959
-2.136721	deseo consultar
-1.534661	deseo el	-0.2444639
-2.136721	deseo horarios
-1.835691	deseo informaci'on
-1.437751	deseo ir	-0.09559196
-1.534661	deseo llegar	-0.592852
-1.659599	deseo los	-0.1607004
-0.9062716	deseo nada	-0.2710668
-1.291623	deseo obtener	0.03087658
-1.659599	deseo que	-0.5859374
-2.136721	deseo realizar
-2.136721	deseo regresar
-0.7942979	deseo saber	-0.1355812
-0.7942979	deseo salir	-0.5533963
-1.659599	deseo tambi'en	-0.1668012
-1.534661	deseo un	0.02916268
-1.182478	deseo viajar	-0.03516439
-0.7323937	despu'es </s>
-0.3521825	despu'es de	-0.442371
-1.431364	despu'es del
-1.431364	despu'es en
-1.431364	despu'es saliendo
-1.431364	despu'es y
-0.9822713	destino a	-0.07044385
-1.20412	destino alicante	-0.3912067
-1.681241	destino antes
-0.90309	destino barcelona	-0.1758974
-1.681241	destino bilbao
-1.681241	destino castell'on
-1.681241	destino en
-1.681241	destino ja'en
-0.9822713	destino madrid	0.07039632
-1.681241	destino por
-1.681241	destino santander
-1.681241	destino sevilla
-1.681241	destino tarragona
-1.681241	destino teruel
-1.681241	destino valladolid
-1.380211	destino zaragoza
-0.60206	dice cu'al
-0.60206	dice el
-0.1760913	dices el	-0.3769371
-0.6197888	dicho </s>
-1.39794	dicho al
-1.39794	dicho antes
-1.39794	dicho cu'al
-1.39794	dicho de
-1.39794	dicho el
-1.39794	dicho es
-1.39794	dicho los
-1.39794	dicho que
-1.39794	dicho tren
-0.30103	dichos trenes
-0.2741579	diciembre </s>
-1.672098	diciembre a
-1.672098	diciembre con
-1.672098	diciembre de
-0.8939466	diciembre por	-0.5003477
-1.672098	diciembre qu'e
-1.672098	diciembre que
-1.194977	diciembre y
-0.39794	diciendo que	-0.4668719
-0.69897	diciendo se~nora
-1.049218	diecinueve </s>
-0.20412	diecinueve de	-0.626367
-1.447158	diecinueve horas	-0.3344538
-1.447158	diecinueve o
-1.748188	diecinueve por
-1.748188	diecinueve treinta
-1.271067	diecinueve y	-0.5975076
-1.267172	dieciocho a
-1.568202	dieciocho cuarenta
-0.2894481	dieciocho de	-0.5564439
-1.568202	dieciocho o
-1.267172	dieciocho por	-0.1323709
-0.7900504	dieciocho y	-0.5434853
-0.9822713	diecis'eis </s>
-1.380211	diecis'eis cuarenta	-0.06214792
-0.30103	diecis'eis de	-0.702617
-1.681241	diecis'eis habr'ia
-1.681241	diecis'eis horas
-0.9822713	diecis'eis o	-0.2208073
-1.681241	diecis'eis para
-1.681241	diecis'eis y
-1.591065	diecisiete </s>
-1.591065	diecisiete a
-0.1286666	diecisiete de	-0.5677885
-1.290035	diecisiete horas
-1.591065	diecisiete no
-0.60206	diera el
-0.60206	diera horarios
-0.30103	dieras un
-0.9145698	diez </s>
-1.583577	diez a	-0.2210128
-0.3203351	diez de	-0.719829
-2.060698	diez o
-2.060698	diez por
-2.060698	diez pues
-2.060698	diez treinta
-0.5693362	diez y	-0.6266004
-0.30103	diga los
-0.845098	digas a
-0.544068	digas el
-0.845098	digas horarios
-0.7781513	dijese cu'ales
-0.7781513	dijese el
-0.7781513	dijese los
-1.041393	dime alg'un
-1.041393	dime cu'ando
-0.7403627	dime el	-0.3769371
-1.041393	dime horarios
-1.041393	dime los
-0.1760913	dir'ia el	-0.4205552
-0.30103	direcci'on a
-0.30103	dispone de
-0.6532125	disponible </s>
-0.9542425	disponible el
-0.9542425	disponible en
-0.9542425	disponible para
-0.1760913	disponibles </s>
-0.60206	diurno a
-0.60206	diurno es
-0.8828866	doce </s>
-1.447158	doce a	-0.2212916
-0.2908108	doce de	-0.5234727
-1.146128	doce del	-0.4045333
-1.924279	doce ese
-1.924279	doce no
-1.924279	doce por
-1.924279	doce vamos
-1.021189	doce y	-0.5051782
-0.6503647	domingo </s>
-1.278754	domingo a	-0.6953357
-1.880814	domingo cualquiera
-1.181844	domingo d'ia	-0.2870193
-1.181844	domingo de	-0.09767351
-1.880814	domingo del
-1.880814	domingo desde
-1.579784	domingo en	-0.4046455
-1.880814	domingo para
-0.8394209	domingo por	-0.2920718
-1.880814	domingo que
-1.880814	domingo si
-1.880814	domingo veinticinco
-1.880814	domingo veintid'os
-1.880814	domingo veintinueve
-1.579784	domingo veintiocho	0.2762064
-1.880814	domingo veintisiete
-1.579784	domingo y
-0.39794	dormir en
-0.69897	dormir hay
-2.064458	dos 'ultimos
-1.064458	dos </s>
-2.064458	dos cuarenta
-0.6494846	dos de	-0.4529381
-1.763428	dos del
-1.763428	dos es
-2.064458	dos horarios
-2.064458	dos la
-0.3923601	dos mil	0
-2.064458	dos semanas
-1.286307	dos trenes	-0.078717
-2.064458	dos tres
-1.462398	dos y	-0.2862911
-0.1760913	dura el
-0.1249387	duraci'on del	-0.5983534
-0.9542425	durante cualquier
-0.9542425	durante el
-0.6532125	durante la	-0.4732436
-0.9542425	durante toda
-0.30103	durar como
-0.1760913	durmiendo en	-0.4729812
-0.30103	e ir
-0.39794	econ'omica </s>
-0.69897	econ'omica posible
-0.30103	efectivamente y
-0.30103	efecto </s>
-0.06694679	eh </s>
-0.60206	ejemplo </s>
-0.90309	ejemplo c'adiz
-0.60206	ejemplo el
-2.294805	el 'ultimo	0.2480555
-3.408749	el 'unico
-3.107719	el </s>
-3.408749	el anterior
-2.232657	el ave	-0.04075307
-1.917387	el billete	-0.2287976
-3.408749	el camino
-2.329567	el catorce	-0.7459666
-2.107719	el cinco	-0.2809046
-3.107719	el coche	-0.4357286
-2.630597	el cuatro	-0.2636035
-1.068305	el d'ia	-0.2166792
-2.066326	el de	-0.6155055
-2.931627	el del
-3.408749	el destino
-2.086529	el diecinueve	-0.4586379
-2.086529	el dieciocho	-0.02286288
-2.294805	el diecis'eis	-0.04981008
-2.408749	el diecisiete	-0.01099539
-2.129995	el diez	-0.5625514
-2.047021	el doce	-0.407148
-1.785499	el domingo	-0.02227646
-2.709779	el dos	-0.6679358
-2.294805	el euromed	-0.126954
-2.709779	el fin	0.90309
-0.9132043	el horario	-0.09397376
-2.931627	el intercity	-0.208276
-3.107719	el intervalo	-0.2552725
-1.736651	el jueves	-0.0431174
-1.745991	el lunes	0.01450202
-2.232657	el m'as	-0.4574222
-3.408749	el mare_nostrum
-1.961591	el martes	-0.02456817
-3.408749	el mediod'ia
-3.408749	el mes
-2.367356	el mi'ercoles	0.09691001
-2.204629	el mismo	-0.39794
-3.408749	el momento
-3.408749	el norte
-2.262621	el nueve	-0.2700809
-2.107719	el ocho	-0.2606014
-2.454506	el once	-0.6873882
-3.408749	el otro
-1.028537	el pr'oximo	-0.1379321
-0.6861147	el precio	-0.259164
-2.232657	el primer	0.08118728
-2.408749	el primero	-0.03144839
-3.107719	el puente
-2.931627	el punto	0.4393327
-2.129995	el que	-0.2088032
-2.129995	el quince	-0.5333442
-3.408749	el regreso
-1.589205	el s'abado	0.02853382
-3.107719	el segundo
-2.129995	el seis	-0.790485
-2.294805	el siete	-0.1688442
-2.806689	el siguiente
-2.709779	el talgo	0.1072921
-1.582674	el tipo	-0.653532
-2.931627	el trayecto	0.02118929
-3.107719	el trece	-0.3521825
-1.903599	el treinta	-0.146933
-1.545426	el tren	-0.1313784
-3.107719	el tren_hotel
-2.129995	el tres	-0.3992154
-1.977385	el uno	-0.4810801
-3.107719	el valencia	-0.4701724
-2.262621	el veinte	-0.2876661
-2.367356	el veinticinco	-0.3010299
-2.367356	el veinticuatro	0.1896641
-2.931627	el veintid'os	-0.2798407
-2.329567	el veintinueve	-0.5630358
-2.454506	el veintiocho	-0.2466723
-2.367356	el veintis'eis	-0.405428
-2.709779	el veintisiete	0.0436645
-2.408749	el veintitr'es	5.960464e-08
-2.806689	el veintiuno	-0.1346986
-1.745991	el viaje	0.2104135
-1.325963	el viernes	0.03327084
-3.107719	el viernes_santo
-0.30103	el_ferrol no
-0.1760913	elegir el
-1.230449	ellos </s>
-1.230449	ellos a
-0.6283889	ellos es	-0.284173
-1.230449	ellos llega
-1.230449	ellos llegan
-1.230449	ellos son
-1.230449	ellos tiene
-2.721811	en </s>
-2.420781	en agosto	-0.1540411
-2.420781	en alaris
-2.420781	en albacete	-0.447158
-2.721811	en alg'un
-2.420781	en alicante
-2.721811	en alta_velocidad
-2.721811	en altaria
-1.443057	en ave	-0.1578664
-2.02284	en barcelona	-0.09315637
-2.721811	en c'aceres
-2.244689	en cama	-0.09938467
-2.244689	en castell'on	-0.2096143
-2.721811	en ciudad_real
-1.379388	en clase	-0.3994612
-1.491362	en coche	-0.5818566
-2.02284	en cualquier	-0.07058106
-2.721811	en cullera
-2.721811	en d'ia
-2.721811	en d'ias
-2.721811	en efecto
-0.9975348	en el	-0.3838065
-2.721811	en en
-2.721811	en esa
-2.420781	en ese
-2.721811	en este
-1.379388	en euromed	0.08940041
-2.721811	en fin
-2.721811	en fumadores
-2.721811	en galicia
-2.721811	en horario
-2.721811	en huelva
-1.607867	en intercity	0.008433163
-2.420781	en la
-2.721811	en le'on
-2.02284	en litera	0.0688813
-2.721811	en llegar
-2.721811	en m'alaga
-2.244689	en madrid
-2.420781	en mi	-0.3521825
-2.721811	en nochevieja
-1.876713	en preferente	0.1303338
-1.230449	en primera	-0.1979596
-2.244689	en qu'e	-0.4903227
-2.721811	en que
-2.721811	en realidad
-2.119751	en regional	-0.1066195
-2.721811	en saber
-2.420781	en segunda	-0.3899711
-2.244689	en semana_santa	-0.1127043
-2.721811	en septiembre
-2.420781	en sevilla
-2.721811	en si
-1.031615	en talgo	-0.2449878
-2.119751	en tarragona	-0.001294479
-2.244689	en teruel	-0.1760913
-2.721811	en tipo
-1.323871	en tren	-0.09691001
-2.721811	en tren_hotel
-2.420781	en trenes
-2.244689	en turista
-0.8133256	en un	-0.1511734
-2.721811	en una
-2.02284	en valencia	-0.1731708
-2.721811	en valladolid
-2.119751	en vez	-0.146128
-1.818721	en viaje	-0.08486408
-2.721811	en vigo
-2.119751	en zaragoza	-0.1217687
-2.721811	en zona
-0.2498775	enero </s>
-1.20412	enero a	-0.4626859
-1.50515	enero de
-1.50515	enero el
-1.50515	enero en
-1.50515	enero para
-1.50515	enero quer'ia
-0.30103	ense~nara los
-0.30103	entendido </s>
-0.30103	enterar para
-0.30103	entiendo c'omo
-1.531479	entonces </s>
-1.531479	entonces bueno
-1.531479	entonces claro
-1.230449	entonces cu'anto	-0.3990381
-1.531479	entonces deme
-1.531479	entonces el
-0.7533277	entonces me	-0.3659891
-1.531479	entonces necesito
-1.230449	entonces no
-1.230449	entonces quer'ia	-0.4412728
-1.531479	entonces quiero
-1.531479	entonces tengo
-1.531479	entonces ya
-1.880814	entre </s>
-1.579784	entre bilbao	-0.4547011
-1.880814	entre c'ordoba
-1.880814	entre cada
-0.4336556	entre el	-0.3574411
-1.880814	entre esos
-1.880814	entre granada
-0.4828736	entre las	-0.2035054
-1.880814	entre lleida
-1.880814	entre lunes
-1.880814	entre madrid
-1.880814	entre zaragoza
-0.30103	enumerar los
-0.30103	equipada </s>
-0.30103	equivocado quiero
-1.146128	era </s>
-1.146128	era de
-1.146128	era el
-1.146128	era solo
-0.6690068	era todo
-1.146128	era un
-0.69897	error la
-0.39794	error no	-0.4461424
-1.104135	es </s>
-2.294466	es a
-2.595496	es buena
-2.595496	es bueno
-2.118375	es cada	-0.30103
-2.595496	es coche
-1.993436	es de
-2.595496	es debido
-2.294466	es demasiado	-0.2552725
-2.595496	es desde
-0.6364548	es el	-0.4056014
-2.294466	es en
-2.595496	es este
-1.896526	es euromed	-0.3999553
-2.595496	es exactamente
-2.595496	es horario
-2.595496	es imposible
-2.294466	es intercity
-2.595496	es ir
-1.993436	es la	-0.1441935
-2.595496	es llegar
-1.993436	es lo	-0.4327021
-2.294466	es m'as	-0.4407405
-2.294466	es muy
-2.595496	es oviedo
-2.595496	es palencia
-1.896526	es para
-2.595496	es pero
-0.6510136	es posible	-0.0537726
-1.449368	es que	-0.1028622
-2.595496	es s'abado
-2.595496	es saber
-2.595496	es salir
-1.993436	es su	0.30103
-1.554103	es suficiente	0
-2.595496	es talgo
-0.9620278	es todo	-0.3296752
-1.419405	es un	0.04755117
-2.595496	es volver
-2.595496	es y
-1.041393	esa franja
-1.041393	esa hora
-1.041393	esa misma
-1.041393	esa ruta
-0.7403627	esa semana	-0.349177
-1.514105	ese 'ultimo	-0.01537487
-1.991226	ese </s>
-1.292256	ese billete	-0.2745551
-0.8772827	ese d'ia	-0.2249709
-1.991226	ese de
-1.690196	ese diurno
-1.991226	ese domingo
-1.991226	ese es
-1.690196	ese horario	-0.4550605
-1.991226	ese intercity
-1.389166	ese mismo	-0.08297423
-1.991226	ese no
-1.690196	ese primer	-0.2162085
-1.991226	ese recorrido
-1.389166	ese talgo	0.165284
-1.991226	ese tipo
-1.690196	ese trayecto	-0.2340832
-0.544068	ese tren	-0.4116798
-1.389166	ese viaje	-0.456855
-1.991226	ese viernes
-1.284431	eso </s>
-1.409369	eso era	-0.4973247
-0.154097	eso es	-0.5826392
-1.886491	eso est'a
-1.886491	eso me
-1.886491	eso por
-1.585461	eso quiero	-0.4706765
-1.886491	eso s'i
-1.886491	eso ser'ia
-1.09691	esos dos	-0.454056
-1.09691	esos horarios
-0.19382	esos trenes	-0.2328272
-1.39794	esos viajes
-0.30103	espec'ificamente por
-0.30103	especial me
-1.255273	est'a </s>
-0.6910011	est'a bien	-0.1760913
-1.431364	est'a diciendo	-0.2552725
-1.732394	est'a disponible
-0.8872957	est'a gracias	-0.1017471
-0.6910011	est'a muchas	1.09108
-0.7323937	est'a todo	-0.06126966
-1.732394	est'a totalmente
-0.7781513	esta bien
-0.7781513	esta noche
-0.7781513	esta semana
-0.30103	estaba interesado
-0.30103	estado las
-0.30103	estamos me
-0.5642715	estar all'i	-0.1346986
-0.7403627	estar el
-0.5642715	estar en
-0.1760913	estar'ia bien
-0.60206	estas </s>
-0.60206	estas caracter'isticas
-1.409369	este 'ultimo	-0.01537487
-1.409369	este a~no
-1.409369	este billete	-0.5086383
-1.886491	este domingo
-1.187521	este fin	0.90309
-1.886491	este jueves
-1.585461	este mes	-0.30103
-1.886491	este mi'ercoles
-1.585461	este mismo
-1.585461	este pr'oximo	-0.357434
-1.187521	este s'abado
-1.886491	este servicio
-1.886491	este talgo
-0.845098	este tren	-0.2525868
-1.284431	este viaje	-0.2793784
-0.7403627	este viernes	0.008191988
-1.886491	este y
-0.845098	esto el
-0.544068	esto es
-0.845098	esto muchas
-1.278754	estos 'ultimos
-0.9777236	estos dos
-1.278754	estos horarios
-1.278754	estos talgos
-1.278754	estos trayectos
-0.8016323	estos trenes	-0.1813946
-0.8016323	estos viajes	0.0528523
-0.90309	estoy diciendo
-0.90309	estoy interesado
-0.90309	estoy refiriendo
-0.90309	estoy satisfecho
-1	estrella </s>
-0.69897	estrella en	-0.4507923
-1	estrella si
-0.69897	estrella y	-0.4661143
-0.2355285	euromed </s>
-1.934498	euromed disponibles
-1.633469	euromed el
-1.934498	euromed en
-1.934498	euromed entre
-1.934498	euromed es
-1.934498	euromed por
-1.457377	euromed que	-0.2199453
-1.0894	euromed si	-0.2992893
-1.934498	euromed vale
-1.0894	euromed y	-0.116248
-1.079181	exactamente </s>
-1.079181	exactamente antes
-1.079181	exactamente cu'al
-1.079181	exactamente el
-1.079181	exactamente entre
-1.079181	exactamente s'i
-0.5228788	exacto </s>
-1	exacto del
-1	exacto ese
-1	exacto eso
-0.30103	examen en
-0.30103	excursi'on el
-0.4259687	existe alg'un	-0.1883257
-0.90309	existe ning'un
-0.90309	existe otro
-0.90309	exposici'on abre
-0.90309	exposici'on al
-0.90309	exposici'on cierra
-0.90309	exposici'on no
-0.30103	fallas para
-0.60206	falta llegar
-0.60206	falta viajar
-0.1942652	favor </s>
-2.262451	favor adem'as
-1.78533	favor cu'al	0.5705429
-2.262451	favor dime
-1.78533	favor el	-0.1216646
-1.961421	favor en
-1.961421	favor horarios	-0.2879675
-2.262451	favor la
-1.961421	favor los
-1.660391	favor me
-2.262451	favor mire
-2.262451	favor otra
-1.660391	favor podr'ia	-0.2617767
-1.961421	favor qu'e	-0.365384
-1.961421	favor quer'ia
-2.262451	favor querr'ia
-2.262451	favor quisiera
-2.262451	favor s'i
-2.262451	favor se
-1.78533	favor si	-0.1986571
-2.262451	favor tambi'en
-2.262451	favor ver'a
-1.563481	favor y
-0.4057654	febrero </s>
-1.748188	febrero bueno
-0.90309	febrero de	-0.8988238
-1.271067	febrero del	-0.5780318
-1.447158	febrero durante
-1.748188	febrero para
-1.271067	febrero por	-0.03050025
-1.748188	febrero preferentemente
-1.748188	febrero pues
-1.447158	febrero sobre	-0.3231443
-1.447158	febrero y
-1.113943	fecha </s>
-1.113943	fecha como
-1.113943	fecha del
-0.8129134	fecha entre	-0.2775489
-1.113943	fecha posible
-1.113943	fecha tiene
-0.30103	fechas del
-0.30103	feria de
-0.00914338	fin de	-1.206085
-0.20412	finales de	-0.5328876
-0.90309	finales del
-0.30103	forma la
-0.30103	francia a
-0.30103	franja horaria
-0.1760913	frecuencia salen	-0.447158
-1.278754	fuera antes	0.4400248
-1.579784	fuera demasiado
-1.579784	fuera desde
-1.579784	fuera el
-1.102662	fuera en	-0.149373
-1.278754	fuera euromed	-0.09892532
-1.579784	fuera por
-1.102662	fuera posible
-1.579784	fuera r'apido
-0.5383909	fuera un	-0.03738773
-1.579784	fuera viajar
-1.20412	fuese a
-1.20412	fuese barato
-0.90309	fuese el
-0.90309	fuese posible	-0.3130113
-1.20412	fuese r'apido
-1.20412	fuese un
-1.20412	fuese viaje
-0.30103	fumador </s>
-0.39794	fumadores </s>
-0.69897	fumadores clase
-0.30103	fundamentalmente quiero
-0.1760913	galicia </s>
-0.39794	gasteiz </s>
-0.69897	gasteiz desde
-0.447158	gerona </s>
-1.146128	gerona a
-1.146128	gerona el
-1.146128	gerona para
-1.146128	gerona salida
-0.5563025	gij'on </s>
-0.4771213	gij'on a	-0.415544
-1.255273	gij'on alrededor
-0.9542425	gij'on desde	-0.4112345
-0.4393327	girona </s>
-1.041393	girona a
-1.041393	girona en
-1.041393	girona para
-0.07468791	gracias </s>
-2.39794	gracias adi'os	0.4771213
-2.69897	gracias buenos
-2	gracias eh	0.06694674
-1.79588	gracias es	-0.6349527
-1.468521	gracias eso	-0.3922629
-2.221849	gracias est'a	-0.1229234
-2.69897	gracias ha
-1.920819	gracias hasta	-0.7887797
-2.39794	gracias muchas	1.69314
-2.39794	gracias nada	0.5070845
-2	gracias no
-2.221849	gracias por
-2.69897	gracias s'i
-1.79588	gracias ya	-0.1819772
-0.5614421	granada </s>
-1.10551	granada a	-0.2537231
-1.70757	granada de
-1.230449	granada el
-1.70757	granada en
-1.70757	granada entre
-1.40654	granada este
-1.70757	granada hacia
-1.70757	granada hasta
-1.40654	granada para	-0.3649658
-1.230449	granada saliendo	-0.3091479
-1.70757	granada ser'ia
-1.70757	granada sobre
-1.40654	granada y
-0.1249387	guadalajara </s>
-0.30103	gustado un
-2.194977	gustar'ia </s>
-2.672098	gustar'ia cambiar
-2.672098	gustar'ia como
-2.672098	gustar'ia comprar
-1.630705	gustar'ia conocer	0.05799192
-2.070038	gustar'ia consultar
-2.371068	gustar'ia de
-2.672098	gustar'ia desde
-2.371068	gustar'ia el	-0.3769371
-2.371068	gustar'ia en
-2.672098	gustar'ia granada
-2.070038	gustar'ia hacer	0
-2.672098	gustar'ia hacerlo
-2.672098	gustar'ia informaci'on
-2.672098	gustar'ia informarme
-1.329675	gustar'ia ir	0.01088691
-1.769008	gustar'ia llegar	-0.1290947
-2.672098	gustar'ia no
-1.018885	gustar'ia obtener	0.2946898
-2.194977	gustar'ia preguntar	-0.1249387
-1.31037	gustar'ia que	-0.3330337
-2.371068	gustar'ia realizar
-2.672098	gustar'ia regresar
-0.3416841	gustar'ia saber	0.022811
-1.153584	gustar'ia salir	-0.1185385
-2.371068	gustar'ia si
-2.371068	gustar'ia tambi'en	-0.455932
-2.672098	gustar'ia tener
-2.371068	gustar'ia un	-0.3018305
-1.070038	gustar'ia viajar	-0.04741919
-2.070038	gustar'ia volver	-0.5061731
-1.447158	ha citado
-1.146128	ha dado
-1.447158	ha de
-0.60206	ha dicho	-0.07710824
-1.447158	ha equivocado
-0.9700368	ha habido	0
-1.146128	ha quedado
-1.447158	ha respondido
-1.447158	ha sido
-0.90309	hab'ia alguno
-0.90309	hab'ia dicho
-0.90309	hab'ia olvidado
-0.90309	hab'ia uno
-0.30103	hab'ias dicho
-0.7781513	haber ning'un
-0.7781513	haber tren
-0.7781513	haber trenes
-0.1249387	habido un	-0.5996495
-1	habr'ia alg'un
-1	habr'ia alguno
-1	habr'ia gustado
-1	habr'ia para
-1	habr'ia posibilidad
-0.845098	hace ese
-0.845098	hace este
-0.544068	hace falta
-0.30103	hacen ese
-1.531479	hacer a
-1.531479	hacer de
-0.7533277	hacer el	-0.4181033
-1.230449	hacer este	-0.4539534
-0.30103	hacer un	-0.6263416
-1.531479	hacer una
-0.39794	hacerlo en
-0.69897	hacerlo la
-1.217484	hacia 'avila
-0.916454	hacia barcelona	0.02735484
-1.518514	hacia cuenca
-1.217484	hacia las
-1.518514	hacia m'alaga
-1.041393	hacia madrid
-1.041393	hacia oviedo	-0.05158703
-1.518514	hacia santander
-1.518514	hacia sevilla
-1.518514	hacia tarragona
-1.518514	hacia teruel
-1.518514	hacia valencia
-0.60206	haga el
-0.60206	haga la
-0.30103	hagan el
-0.7781513	has dado
-0.30103	has dicho
-1.869232	hasta albacete
-1.869232	hasta alicante
-1.869232	hasta badajoz
-1.568202	hasta barcelona
-1.869232	hasta bilbao
-1.39211	hasta castell'on	-0.09691003
-1.869232	hasta cuenca
-1.869232	hasta el
-1.39211	hasta las	-0.5201188
-1.869232	hasta le'on
-1.869232	hasta lleida
-0.9149892	hasta luego	-0.2632415
-0.9661418	hasta madrid	-0.03433901
-1.869232	hasta media
-1.869232	hasta orense
-1.869232	hasta oviedo
-1.869232	hasta salamanca
-1.568202	hasta santander	-0.2150093
-1.39211	hasta sevilla
-1.869232	hasta soria
-1.869232	hasta valencia
-1.170262	hasta vigo	-0.0583466
-1.568202	hasta zaragoza	-0.3995164
-1.090177	hay </s>
-0.6856061	hay alg'un	-0.1261778
-2.20412	hay alguna
-1.162727	hay alguno	-0.4838546
-2.20412	hay alrededor
-2.20412	hay claro
-1.50515	hay de	-0.100281
-1.90309	hay desde
-2.20412	hay disponible
-2.20412	hay dos
-1.90309	hay el
-2.20412	hay en
-2.20412	hay entre
-2.20412	hay intercitys
-2.20412	hay ir
-2.20412	hay m'as
-2.20412	hay nada
-1.50515	hay ning'un	-0.0669468
-1.726999	hay ninguno	0
-1.726999	hay otro	-0.4771213
-1.90309	hay otros	-0.1760913
-1.50515	hay para	-0.2692095
-1.90309	hay plazas	0
-1.726999	hay por	-0.2573097
-1.90309	hay posibilidad	-0.05115253
-2.20412	hay pr'oximo
-2.20412	hay pues
-2.20412	hay talgo
-2.20412	hay tanto
-1.60206	hay trenes	-0.05337399
-1.20412	hay un	-0.4580103
-1.90309	hay viajes
-1.50515	hay y	-0.1986514
-0.30103	haya un
-1.041393	he acabado
-0.7403627	he dicho
-1.041393	he entendido
-1.041393	he estado
-1.041393	he preguntado
-0.30103	hendaya </s>
-0.7781513	hendaya es
-0.30103	historia de
-0.756432	hola buenas	-0.01733553
-0.6057879	hola buenos	0.1833905
-2.369216	hola deseaba
-1.892095	hola desear'ia	-0.1638568
-1.892095	hola deseo	-0.2089798
-1.090462	hola me	-0.3659891
-1.892095	hola mira	-0.1928851
-2.369216	hola mire
-1.892095	hola muy	-0.4881167
-2.369216	hola necesito
-0.7459666	hola quer'ia	-0.07212496
-1.670246	hola querr'ia	0.1005554
-1.138767	hola quiero	-0.2047415
-1.369216	hola quisiera	-0.07391796
-1.466126	hola s'i	-0.2270401
-2.369216	hola si
-2.369216	hola tengo
-0.9402318	hora </s>
-2.08636	hora a
-2.08636	hora cu'al
-1.044967	hora de	-0.5022081
-2.08636	hora del
-2.08636	hora el
-1.78533	hora es
-0.5548809	hora llega	-0.1951144
-2.08636	hora llegaba
-1.609239	hora llegan	-0.3180633
-2.08636	hora llegar'ia
-2.08636	hora ma~nana
-2.08636	hora podr'ia
-2.08636	hora porque
-2.08636	hora posible
-2.08636	hora puede
-2.08636	hora puedo
-0.9102685	hora sale	-0.2114391
-2.08636	hora salen
-2.08636	hora se
-1.78533	hora tendr'ia
-1.609239	hora tengo
-2.08636	hora y
-0.30103	horaria </s>
-1.305147	horario </s>
-2.627366	horario a
-2.627366	horario con
-0.4426744	horario de	-0.6798401
-1.229426	horario del	-0.289498
-2.326336	horario desde
-2.150245	horario el	-0.1216646
-2.627366	horario en
-2.627366	horario entre
-2.627366	horario exacto
-2.627366	horario hay
-2.326336	horario ida
-2.627366	horario los
-2.627366	horario otra
-0.7352713	horario para	-0.2297256
-2.627366	horario pero
-2.627366	horario podr'ia
-2.326336	horario por
-2.150245	horario que	-0.2173944
-2.627366	horario s'i
-2.627366	horario saber
-2.627366	horario saliendo
-2.627366	horario ser'ia
-2.627366	horario sobre
-2.627366	horario tambi'en
-2.627366	horario tengo
-2.627366	horario tienen
-2.150245	horario tren
-2.627366	horario un
-2.627366	horario uy
-0.7188808	horario y	-0.9426674
-1.352183	horarios </s>
-1.908485	horarios a	-0.2294652
-2.607455	horarios antes
-2.607455	horarios as'i
-2.607455	horarios bueno
-2.130334	horarios con	-0.5328214
-2.607455	horarios concretos
-2.607455	horarios corresponde
-0.452119	horarios de	-0.6803285
-1.653213	horarios del	-0.118275
-2.306425	horarios desde
-2.306425	horarios el
-2.607455	horarios en
-2.607455	horarios habr'ia
-1.704365	horarios hay	-0.319106
-2.607455	horarios ir
-2.607455	horarios mejor
-2.607455	horarios o
-0.7266414	horarios para	-0.08531544
-2.306425	horarios pero
-2.005395	horarios por	0.04372033
-2.607455	horarios puedo
-1.607455	horarios que	-0.1197642
-2.607455	horarios quiero
-2.130334	horarios son
-2.607455	horarios talgo
-2.607455	horarios tambi'en
-2.607455	horarios tendr'e
-2.607455	horarios tendr'ia
-2.607455	horarios un
-0.7501225	horarios y	-0.5859064
-0.552842	horas </s>
-1.09691	horas a
-1.09691	horas de
-1.39794	horas del
-1.39794	horas puede
-1.39794	horas si
-1.39794	horas tengo
-1.09691	horas y
-0.5698753	hoy </s>
-1.113943	hoy de
-1.414973	hoy es
-1.414973	hoy mismo
-0.9378521	hoy por	-0.2573097
-1.414973	hoy tiene
-0.8129134	hoy y	-0.1341911
-0.69897	hubiera </s>
-0.39794	hubiera literas	-0.1091445
-0.544068	huelva </s>
-1.146128	huelva destino
-1.146128	huelva madrid
-0.845098	huelva ma~nana	-0.4571502
-1.146128	huelva un
-0.4259687	huesca </s>
-0.90309	huesca el
-0.90309	huesca para
-1.053078	ida </s>
-0.8581018	ida a	-0.1178538
-2.5302	ida como
-2.053078	ida con	-0.4755948
-0.9861317	ida de	-0.2250969
-2.22917	ida del
-1.149988	ida desde	-0.011088
-2.5302	ida el
-2.22917	ida en
-2.22917	ida entre
-2.5302	ida esto
-2.5302	ida hacia
-2.5302	ida nada
-2.5302	ida o
-1.62711	ida para	-0.2436554
-1.92814	ida por	0.5416567
-2.5302	ida que
-2.5302	ida saber
-2.5302	ida salida
-2.5302	ida saliendo
-2.5302	ida solamente
-2.5302	ida valencia
-1.62711	ida vuelta	-0.06583013
-0.3903206	ida y	-0.9845182
-0.30103	idea es
-1.113943	igual cualquier
-0.8129134	igual el
-1.113943	igual qu'e
-1.113943	igual que
-1.113943	igual salir
-1.113943	igual yo
-0.30103	importa que
-0.30103	importancia no
-0.30103	importar'ia viajar
-0.30103	imposible usted
-1.716003	informaci'on acerca
-1.716003	informaci'on adi'os
-0.6746107	informaci'on de	-0.371841
-0.9378521	informaci'on para	-0.1565052
-0.2688453	informaci'on sobre	-0.3016189
-0.845098	informarme acerca
-0.544068	informarme del
-0.845098	informarme para
-0.30103	instrucciones como
-0.2246417	intercity </s>
-1.716003	intercity de
-1.716003	intercity el
-1.716003	intercity ese
-1.716003	intercity por
-1.716003	intercity que
-1.716003	intercity quer'ia
-1.017033	intercity si	-0.6003194
-1.716003	intercity verdad
-0.30103	intercitys </s>
-1	interesa </s>
-1	interesa el
-1	interesa ese
-1	interesa ir
-1	interesa tenerlo
-0.60206	interesado en
-0.60206	interesado euromed
-0.30103	interesar'ia informaci'on
-0.30103	intermedio que
-0.39794	intervalo de
-0.69897	intervalo hay
-1.944483	ir </s>
-0.3316988	ir a	-0.1044359
-2.546543	ir al
-2.546543	ir como
-2.245513	ir con	-0.4678806
-0.6892102	ir de	-0.3533795
-1.245513	ir desde	-0.05270635
-1.184815	ir el	-0.1195803
-1.115179	ir en	-0.01813629
-2.546543	ir entre
-2.069421	ir este
-2.245513	ir hacia
-2.546543	ir hasta
-2.546543	ir ma~nana
-2.546543	ir o
-2.546543	ir ocho
-2.245513	ir por	-0.1323709
-2.546543	ir quiero
-2.546543	ir un
-1.944483	ir y	-0.1341911
-0.60206	ir'un </s>
-0.60206	ir'un a
-0.1249387	irme a	-0.2190559
-0.1760913	iru~nea </s>
-0.4771213	ja'en </s>
-1.176091	ja'en desde
-1.176091	ja'en el
-0.8750613	ja'en para
-1.176091	ja'en saliendo
-0.6946052	jueves </s>
-1.518514	jueves a	-0.5876247
-1.995635	jueves adem'as
-1.393575	jueves antes	0.218176
-1.995635	jueves d'ia
-1.150537	jueves de	-0.4369721
-1.217484	jueves despu'es	-0.5898255
-1.995635	jueves dieciocho
-1.694605	jueves diecisiete
-1.995635	jueves entonces
-1.995635	jueves no
-1.041393	jueves o	-0.3188627
-1.694605	jueves ocho	-0.1949766
-1.995635	jueves para
-1.296665	jueves por	-0.433401
-1.393575	jueves que	-0.6626753
-1.694605	jueves uno	0.1017089
-1.995635	jueves veinticinco
-1.518514	jueves veintid'os	-0.2798407
-1.995635	jueves veintis'eis
-1.518514	jueves y
-0.1648103	julio </s>
-1.755875	julio antes
-1.755875	julio cu'ales
-1.454845	julio del
-1.755875	julio horarios
-1.755875	julio martes
-1.755875	julio pues
-1.755875	julio y
-1.755875	julio ya
-0.1208222	junio </s>
-1.845098	junio antes
-1.845098	junio del
-1.845098	junio en
-1.845098	junio es
-1.845098	junio o
-1.845098	junio pero
-1.845098	junio por
-1.845098	junio porque
-0.30103	juntos no
-0.4393327	l'erida </s>
-1.041393	l'erida a
-1.041393	l'erida antes
-1.041393	l'erida en
-1.875061	la 'ultima	-0.552842
-2.528274	la ciudad	-0.3679768
-2.352183	la clase
-2.829304	la costa
-2.829304	la crem'a
-2.829304	la del
-2.352183	la duraci'on	0
-2.352183	la exposici'on
-2.130334	la fecha	-0.03659381
-2.829304	la feria
-1.875061	la hora	-0.236204
-2.528274	la ida	-0.2501176
-2.829304	la idea
-2.829304	la informaci'on
-2.829304	la la
-1.984206	la llegada	-0.05584498
-2.829304	la m'as
-0.4829508	la ma~nana	0.02041566
-2.829304	la ma~nanita
-2.829304	la misma
-1.043974	la noche	-0.07552367
-2.528274	la posibilidad	-0.05115253
-1.875061	la pr'oxima	-0.39794
-1.926214	la primera	-0.4778003
-2.051152	la salida
-2.051152	la segunda	-0.2596373
-1.285236	la semana	-0.692938
-2.829304	la semana_santa
-2.829304	la siete
-0.5239524	la tarde	-0.1246069
-1.787911	la una	-0.3107898
-2.829304	la vida
-1.449093	la vuelta	0.004750967
-0.4313638	la_coru~na </s>
-1.130334	la_coru~na a	-0.4706705
-1.431364	la_coru~na el
-1.431364	la_coru~na entonces
-1.431364	la_coru~na hasta
-1.431364	la_coru~na para
-0.8293038	la_coru~na y
-0.9542425	laborable </s>
-0.1760913	laborable de	-0.8049488
-0.30103	laborables </s>
-0.30103	lanzadera ese
-2.344392	las </s>
-2.645422	las caracter'isticas
-2.043362	las catorce	-0.6462637
-2.645422	las cero
-1.043362	las cinco	-0.02563214
-1.198264	las cuatro	-0.03392935
-2.043362	las diecinueve	-0.1303338
-2.645422	las dieciocho
-2.168301	las diecis'eis	-0.2033654
-2.344392	las diecisiete	-0.4542584
-0.7646087	las diez	-0.07496476
-1.183024	las doce	0.2865037
-1.39015	las dos	-0.2423243
-2.645422	las fechas
-2.645422	las horas
-2.645422	las instrucciones
-2.645422	las m'aquinas
-2.645422	las ma~nanas
-2.645422	las mismas
-2.645422	las navidades
-1.265211	las nueve	0.1625184
-1.113943	las ocho	0.08842191
-1.011954	las once	0.03218466
-2.645422	las quince
-1.303	las seis	0.446087
-1.043362	las siete	-0.01414114
-1.230449	las tres	-0.01787472
-2.645422	las vacaciones
-2.043362	las veintid'os	-0.6071997
-2.645422	las vuelta
-1.079181	le agradecer'ia
-1.079181	le estoy
-1.079181	le hab'ia
-0.7781513	le he
-0.7781513	le pregunto	-0.2552725
-0.4393327	le'on </s>
-1.342423	le'on a
-1.041393	le'on el
-1.342423	le'on en
-0.8653014	le'on hasta	-0.5716774
-1.342423	le'on para
-0.30103	lentos y
-0.30103	lezama </s>
-0.3309932	litera </s>
-1.176091	litera o
-0.8750613	litera por	-0.2857727
-1.176091	litera si
-0.243038	literas </s>
-0.845098	literas que
-0.07918125	llamaba para	-0.2985518
-1.047924	llega </s>
-0.4111015	llega a	-0.2878547
-0.9229848	llega antes	-0.0370965
-0.8260748	llega el	-0.3122961
-1.826075	llega entre
-1.224015	llega ese	-0.552842
-1.826075	llega este
-1.826075	llega un
-1.826075	llega y
-0.30103	llegaba este
-0.1760913	llegaban antes	0.4400248
-1.423246	llegada </s>
-0.5201559	llegada a	-0.1296631
-1.423246	llegada antes	0.4400248
-1.423246	llegada de	-0.4731408
-1.423246	llegada del
-0.7242759	llegada en	-0.07587232
-1.724276	llegada es
-1.423246	llegada fuera	-0.4536402
-1.724276	llegada ha
-1.724276	llegada podr'ia
-1.724276	llegada que
-1.724276	llegada sea
-0.3187588	llegan a	-0.0586758
-0.4436975	llegan antes	-0.08285397
-1.39794	llegan de
-0.60206	llegando a
-0.60206	llegando el
-1.854306	llegar </s>
-0.5532761	llegar a	-0.1656349
-1.678215	llegar all'i	0.04139265
-0.6368221	llegar antes	-0.1610818
-2.155336	llegar aproximadamente
-2.155336	llegar del
-2.155336	llegar desde
-0.6639743	llegar el	-0.3574353
-2.155336	llegar entre
-2.155336	llegar esa
-2.155336	llegar lo
-2.155336	llegar m'as
-2.155336	llegar muy
-2.155336	llegar para
-1.456366	llegar por	-0.433401
-2.155336	llegar pues
-1.854306	llegar sobre	-0.3231443
-0.30103	llegar'ia </s>
-0.60206	llegara a
-0.60206	llegara un
-0.1760913	llegaran a
-0.1760913	llegase antes	0.4400248
-0.7883704	llegue a	-0.07763185
-1.633469	llegue al
-1.633469	llegue all'i
-0.4293485	llegue antes	-0.3133029
-1.633469	llegue de
-1.156347	llegue el
-1.633469	llegue entre
-1.633469	llegue m'as
-1.633469	llegue por
-1.633469	llegue sobre
-0.8750613	lleguen a
-0.4771213	lleguen antes	0.1389948
-0.69897	lleguen el	-0.2008458
-1.176091	lleguen este
-0.3187588	lleida </s>
-1.09691	lleida a	-0.4298144
-1.39794	lleida el
-1.39794	lleida en
-1.39794	lleida pirineos
-1.09691	lleida y
-0.90309	llevar a
-0.60206	llevar el	-0.4767822
-0.60206	llevar mi	-0.3521825
-0.30103	llevarme a
-0.30103	lleve a
-1.380211	lo conozco
-1.079181	lo m'as	-0.4732262
-1.079181	lo menos
-1.380211	lo necesito
-1.380211	lo puede
-0.3388186	lo que	-0.2201996
-0.544068	logro~no </s>
-1.021189	logro~no a
-0.845098	logro~no el	-0.2179339
-1.322219	logro~no hasta
-1.322219	logro~no la
-1.021189	logro~no ma~nana	-0.1509806
-2.63749	los autobuses
-1.93852	los billetes	-0.09938463
-1.491362	los d'ias	-0.2632414
-1.859339	los dos	-0.1744241
-2.63749	los hay
-2.63749	los horario
-0.3822172	los horarios	-0.1129799
-2.63749	los mismos
-2.63749	los modalidad
-2.63749	los otros
-2.63749	los posibles
-0.8816149	los precios	0.1165389
-1.93852	los que	-0.5226571
-2.63749	los talgos
-1.792392	los tipos	0.2430381
-0.5371192	los trenes	-0.1981413
-1.683247	los viajes	-0.1055102
-0.30103	luego </s>
-1.255273	luego a
-1.255273	luego gracias
-1.255273	luego para
-1.255273	luego saber
-0.60206	lugo </s>
-0.60206	lugo el
-0.462398	lunes </s>
-1.286307	lunes a	-0.07271481
-1.462398	lunes antes	0.218176
-1.587337	lunes cinco	-0.2202068
-2.064458	lunes el
-1.286307	lunes o	-0.4438015
-2.064458	lunes ocho
-2.064458	lunes para
-1.365488	lunes por	-0.433401
-1.763428	lunes pr'oximo
-1.365488	lunes que	-0.7418565
-2.064458	lunes quiero
-2.064458	lunes quince
-1.462398	lunes seis	-0.188425
-1.587337	lunes siguiente	-0.3245111
-2.064458	lunes sobre
-1.763428	lunes uno	0.1017089
-1.587337	lunes veintid'os
-2.064458	lunes veintis'eis
-1.763428	lunes veintitr'es	-0.447158
-1.587337	lunes y
-0.4175356	m'alaga </s>
-1.230449	m'alaga a	-0.4762853
-1.531479	m'alaga antes
-1.531479	m'alaga desde
-1.054358	m'alaga el	-0.1830578
-1.230449	m'alaga para
-1.531479	m'alaga sabe
-1.531479	m'alaga saliendo
-1.531479	m'alaga y
-0.30103	m'aquinas que
-0.7167796	m'as </s>
-2.350248	m'as a
-0.8731267	m'as barato	0.04830468
-2.350248	m'as baratos
-2.350248	m'as c'omoda
-1.50515	m'as c'omodo	-0.004409134
-2.350248	m'as cerca
-2.350248	m'as econ'omica
-2.350248	m'as el
-0.6781502	m'as gracias	-0.8798984
-2.350248	m'as hasta
-2.350248	m'as la
-0.952308	m'as muchas	0.7552882
-2.350248	m'as no
-2.049218	m'as o	-0.4718888
-2.350248	m'as por
-2.049218	m'as pronto	-0.2552725
-1.094975	m'as r'apido	-0.001832485
-2.049218	m'as r'apidos
-1.396006	m'as tarde	0.1376949
-2.049218	m'as temprano	-0.2552725
-2.350248	m'as tipos
-2.350248	m'as trenes
-2.350248	m'as vale
-0.30103	m'aximo una
-0.2730013	m'erida </s>
-1.176091	m'erida durante
-1.176091	m'erida en
-1.176091	m'erida para
-0.30103	m'i me
-0.30103	m'ireme a
-0.4703033	madrid </s>
-0.8007171	madrid a	-0.3402385
-1.897627	madrid antes	0.218176
-2.499687	madrid aproximadamente
-2.499687	madrid barcelona
-2.499687	madrid de
-2.499687	madrid del
-2.022566	madrid desde
-2.198657	madrid despu'es	-0.2218488
-2.499687	madrid destino
-0.9199035	madrid el	-0.2734867
-1.897627	madrid en
-2.499687	madrid entre
-2.499687	madrid eso
-2.499687	madrid este
-2.499687	madrid hacia
-2.198657	madrid hasta
-2.499687	madrid ja'en
-2.499687	madrid la
-2.499687	madrid le
-2.499687	madrid llegando
-2.198657	madrid ma~nana	-0.1509806
-1.101747	madrid para	-0.382129
-2.499687	madrid pasado
-2.499687	madrid pero
-2.198657	madrid por
-2.198657	madrid que
-2.499687	madrid quer'ia
-2.499687	madrid quiero
-2.499687	madrid s'olo
-2.022566	madrid sobre	-0.2086873
-2.499687	madrid viajar
-1.269238	madrid y	-0.04184531
-2.198657	madrid zaragoza
-0.30103	manera que
-0.1760913	mare_nostrum </s>
-0.8962505	martes </s>
-1.799341	martes a
-1.322219	martes d'ia	-0.207838
-1.197281	martes de	-0.2608808
-1.799341	martes del
-1.498311	martes diecis'eis
-1.799341	martes dos
-1.799341	martes mismamente
-1.799341	martes nueve
-1.799341	martes para
-0.845098	martes por	-0.6552497
-1.021189	martes que	-0.8088033
-1.322219	martes seis	-0.091515
-1.799341	martes veinticuatro
-1.799341	martes veintisiete
-1.197281	martes y
-0.2643072	marzo </s>
-1.434569	marzo a	-0.34276
-1.179296	marzo de	-0.2645791
-2.133539	marzo del
-2.133539	marzo el
-1.656418	marzo en	-0.1758165
-2.133539	marzo entre
-2.133539	marzo lunes
-2.133539	marzo martes
-1.656418	marzo o	-0.4548905
-1.230449	marzo por	-0.6094922
-2.133539	marzo querr'ia
-2.133539	marzo quiero
-2.133539	marzo saliendo
-2.133539	marzo si
-1.179296	marzo y	-0.1594743
-0.2596373	mayo </s>
-1.425969	mayo a	-0.196632
-1.90309	mayo de
-1.60206	mayo del	-0.453093
-1.20412	mayo en	-0.1316442
-1.90309	mayo o
-1.90309	mayo perd'on
-1.057992	mayo por	-0.1323709
-1.057992	mayo y
-0.2772922	ma~nana </s>
-1.375359	ma~nana a	-0.1552581
-2.55145	ma~nana cinco
-1.94939	ma~nana de
-2.074329	ma~nana del	-0.2156533
-2.55145	ma~nana desde
-2.55145	ma~nana dime
-2.074329	ma~nana el
-1.55145	ma~nana en	-0.1785565
-2.55145	ma~nana entonces
-2.074329	ma~nana entre	-0.4288166
-2.25042	ma~nana es
-2.55145	ma~nana hacia
-2.55145	ma~nana la
-2.55145	ma~nana m'as
-2.25042	ma~nana martes
-2.55145	ma~nana ma~nana
-2.074329	ma~nana me
-2.55145	ma~nana no
-1.55145	ma~nana o	-0.2059582
-2.55145	ma~nana para
-2.55145	ma~nana pero
-1.34733	ma~nana por	0.0645355
-2.55145	ma~nana porque
-2.25042	ma~nana qu'e
-2.55145	ma~nana que
-2.074329	ma~nana s'abado	-0.04240385
-2.55145	ma~nana s'i
-2.55145	ma~nana s'olo
-1.706352	ma~nana si	-0.1231981
-2.55145	ma~nana sobre
-2.55145	ma~nana temprano
-2.55145	ma~nana todos
-2.55145	ma~nana viajando
-2.25042	ma~nana viernes
-1.104292	ma~nana y	-0.1325771
-0.30103	ma~nanas </s>
-0.30103	ma~nanita antes
-2.817565	me buscar'e
-2.817565	me confirme
-1.863323	me costar'ia	-0.0184834
-2.340444	me cuesta
-2.817565	me d'e
-2.118595	me da	0
-2.817565	me deis
-2.817565	me des
-2.516535	me dice
-2.516535	me dices	0
-2.516535	me diera
-2.817565	me dieras
-2.817565	me diga
-2.215505	me digas	0
-2.340444	me dijese
-2.516535	me dir'ia	0
-2.817565	me ense~nara
-2.516535	me est'a	-0.4607309
-2.817565	me estoy
-0.1751008	me gustar'ia	0
-1.776173	me ha	-0.1326256
-2.817565	me hab'ia
-2.817565	me hab'ias
-2.817565	me habr'ia
-2.215505	me has	0
-2.817565	me importa
-2.817565	me importar'ia
-2.118595	me interesa
-2.817565	me interesar'ia
-2.817565	me lo
-2.817565	me parece
-2.215505	me pod'ia	-0.09177038
-1.312415	me podr'ia	-0.732493
-2.516535	me podr'ias	0
-2.817565	me pregunta
-2.817565	me pueda
-1.355167	me puede	-0.4495748
-1.613445	me puedes	-0.1003706
-2.516535	me quer'ia
-2.817565	me repitas
-2.817565	me saldr'ia
-2.817565	me sirve
-2.516535	me va	-0.39794
-2.817565	me vale
-2.817565	me vendr'ia
-2.118595	me viene	-0.3444957
-2.817565	me voy
-0.6334684	media </s>
-1.633469	media a
-0.4573772	media de	-1.163971
-1.633469	media en
-1.633469	media m'as
-1.633469	media ma~nana
-1.633469	media por
-1.633469	media porque
-1.633469	media viaje
-1.633469	media y
-0.30103	mediados del
-0.3290587	mediod'ia </s>
-1.50515	mediod'ia con
-1.50515	mediod'ia el
-1.50515	mediod'ia en
-1.50515	mediod'ia hay
-1.50515	mediod'ia perd'on
-1.50515	mediod'ia por
-1.028029	mediod'ia y
-0.5563025	mejor </s>
-0.9542425	mejor el
-1.255273	mejor equipada
-0.9542425	mejor la	-0.4539975
-1.255273	mejor prefiero
-1.255273	mejor veintinueve
-0.30103	men'u principal
-0.30103	menos </s>
-0.7781513	menos d'igame
-0.4771213	mes </s>
-0.4771213	mes de
-1.079181	mes que
-0.60206	mi casa
-0.60206	mi coche
-0.90309	mi novio
-0.4175356	mi'ercoles </s>
-1.531479	mi'ercoles catorce
-1.531479	mi'ercoles el
-1.230449	mi'ercoles en	-0.4046455
-1.531479	mi'ercoles que
-0.8325089	mi'ercoles siete	-0.05760679
-1.531479	mi'ercoles siguiente
-1.230449	mi'ercoles y
-0.30103	miguel_de_unamuno </s>
-1.69897	mil cinco
-0.04575749	mil cuatro	-0.471776
-1.69897	mil tres
-0.30103	minutos de
-1.491362	mira a
-1.190332	mira es	-0.4614086
-1.491362	mira me
-1.491362	mira para
-1.491362	mira que
-0.4913617	mira quer'ia	-0.02499574
-1.190332	mira querr'ia	-0.2674214
-1.491362	mira quiero
-1.491362	mira quisiera
-1.491362	mira vamos
-0.30103	mirar los
-1.50515	mire como
-1.50515	mire el
-1.50515	mire las
-1.028029	mire necesito	-0.1504928
-1.50515	mire por
-1.50515	mire pues
-1.50515	mire que
-0.60206	mire quer'ia	-0.05919918
-1.50515	mire quiero
-1.50515	mire quisiera
-1.20412	mire yo
-0.60206	misma noche
-0.60206	misma ruta
-0.30103	mismamente por
-0.30103	mismas condiciones
-0.4036923	mismo d'ia	-0.5463598
-1.579784	mismo hoy
-1.579784	mismo jueves
-1.579784	mismo martes
-1.579784	mismo mes
-1.102662	mismo precio
-1.579784	mismo s'abado
-1.579784	mismo seis
-1.579784	mismo tiempo
-1.579784	mismo trayecto
-1.579784	mismo tren
-0.30103	mismos horarios
-0.30103	modalidad de
-0.30103	momento </s>
-0.30103	monumental </s>
-0.30103	monz'on a
-0.1249387	much'isimas gracias	0.5794941
-0.002944381	muchas gracias	-0.05559677
-0.30103	muestras desde
-0.4030195	murcia </s>
-0.6792259	murcia a	-0.4807254
-0.9344984	murcia el
-1.633469	murcia hacia
-1.332438	murcia para
-1.633469	murcia por
-1.633469	murcia y
-0.30103	museo thyssen
-1.113943	muy amable
-1.113943	muy bien
-0.6368221	muy buenas	-0.3886444
-1.113943	muy pronto
-0.8129134	muy tarde
-1.829304	nada </s>
-2.130334	nada entonces
-2.130334	nada eso
-0.0475484	nada m'as	-0.6250305
-1.829304	nada muchas	1.69314
-1.829304	nada pues
-0.30103	navidad en
-0.30103	navidades en
-0.7781513	necesitar'ia saber
-0.7781513	necesitar'ia salir
-0.7781513	necesitar'ia viajar
-1.518514	necesito </s>
-1.518514	necesito el
-1.518514	necesito estar
-1.217484	necesito horarios
-1.518514	necesito informaci'on
-0.916454	necesito ir	0.004963458
-1.518514	necesito llegar
-1.518514	necesito para
-1.518514	necesito precios
-1.217484	necesito saber
-1.518514	necesito salir
-0.819544	necesito un	-0.02882926
-0.30103	negocio </s>
-0.1760913	negocios y
-1.079181	ning'un d'ia
-0.7781513	ning'un otro	-0.2272438
-0.30103	ning'un tren	-0.07649554
-0.30103	ninguna de
-0.69897	ninguno hasta
-0.39794	ninguno que
-0.6485656	no </s>
-2.162116	no a	-0.01484102
-2.764176	no adi'os	0.4771213
-3.065206	no antes
-3.065206	no burgos
-3.065206	no c'omo
-2.764176	no creo	0.4771213
-3.065206	no d'igame
-2.287055	no de	-0.0794406
-3.065206	no del
-3.065206	no dentro
-1.252293	no desde	0.04347315
-3.065206	no deseaba
-2.764176	no desear'ia
-1.602808	no deseo	-0.3339185
-3.065206	no despu'es
-3.065206	no dispone
-1.618048	no el	-0.03199726
-3.065206	no entiendo
-2.764176	no entre
-2.110964	no es	-0.1790208
-3.065206	no ese
-1.834757	no eso	-0.07729709
-2.366236	no est'a	-0.679226
-3.065206	no estoy
-2.764176	no existe
-3.065206	no fumadores
-0.6760401	no gracias	0.02643752
-3.065206	no habr'ia
-2.764176	no hace	-0.3309932
-2.023813	no hay	-0.2787536
-3.065206	no he
-2.588085	no la
-2.588085	no le	-0.1426675
-2.764176	no lo
-3.065206	no los
-1.889115	no me	0.2644295
-2.463146	no mejor	-0.3679768
-3.065206	no much'isimas
-1.101418	no muchas	0.2017787
-1.301778	no nada	-0.3168243
-3.065206	no necesito
-1.919078	no no	-0.7160226
-2.764176	no perdone
-2.588085	no pero	-0.2066088
-3.065206	no podr'ian
-3.065206	no por
-3.065206	no porque
-2.588085	no precio	-0.1242762
-2.764176	no precios	-0.3401821
-3.065206	no preferente
-3.065206	no prefiero
-2.764176	no puede	-0.306425
-3.065206	no puedo
-2.764176	no pues
-2.463146	no quer'ia	0.1269895
-2.366236	no querr'ia	-0.1029402
-1.162116	no quiero	-0.06643879
-2.764176	no quisiera
-2.287055	no s'e
-3.065206	no s'i
-2.463146	no s'olo
-3.065206	no salgo
-2.764176	no salida
-2.764176	no saliendo
-3.065206	no se
-2.287055	no sea	-0.07060362
-2.764176	no sean
-2.764176	no si	-0.2992893
-2.764176	no solo
-3.065206	no son
-3.065206	no tengo
-2.463146	no tiene	-0.1011609
-3.065206	no un
-3.065206	no va
-3.065206	no vale
-2.764176	no viajar
-3.065206	no voy
-1.684995	no ya	-0.2710667
-3.065206	no yo
-0.2856096	noche </s>
-1.919078	noche a
-1.919078	noche antes
-1.618048	noche de
-1.618048	noche del
-1.919078	noche durmiendo
-1.618048	noche el
-1.441957	noche en
-1.618048	noche o
-1.618048	noche para
-1.618048	noche por	-0.2857727
-1.919078	noche quer'ia
-1.919078	noche un
-1.140927	noche y
-0.30103	nochevieja viajando
-0.30103	nocturno qu'e
-0.30103	normal </s>
-0.30103	norte que
-0.2632414	noviembre </s>
-1.217484	noviembre a	-0.4626859
-1.217484	noviembre de
-1.518514	noviembre quiero
-1.518514	noviembre s'abado
-1.041393	noviembre y	-0.2099118
-0.30103	novio el
-1.197281	nueve </s>
-1.498311	nueve a
-0.1865567	nueve de	-0.8792019
-1.799341	nueve el
-1.498311	nueve o
-0.9542425	nueve y	-0.06107894
-2.222717	o 'ultima
-1.745595	o a	-0.196632
-2.222717	o alguna
-2.222717	o alrededor
-2.222717	o altaria
-2.222717	o antes
-2.222717	o as'i
-1.921687	o bien	-0.4366926
-2.222717	o cinco
-1.921687	o clase
-2.222717	o diecisiete
-1.921687	o domingo	-0.3671597
-1.620656	o dos	-0.1908145
-0.5414752	o el	-0.2056833
-1.921687	o en
-2.222717	o hasta
-2.222717	o ida
-2.222717	o intercity
-2.222717	o litera
-1.745595	o martes
-1.921687	o menos	-0.1760913
-1.921687	o no
-1.921687	o nueve	-0.02020341
-1.444565	o pasado	0.39794
-2.222717	o pr'oximo
-2.222717	o qu'e
-2.222717	o que
-2.222717	o quince
-2.222717	o restaurante
-1.620656	o s'abado	-0.5195251
-1.268474	o sea	-0.04616318
-2.222717	o seis
-2.222717	o si
-1.745595	o siete	-0.29169
-2.222717	o tiene
-1.745595	o treinta	-0.3783271
-1.620656	o un	-0.6900653
