
\data\
ngram 1=766
ngram 2=5407
ngram 3=3589
ngram 4=4138

\1-grams:
-2.969034	'avila	-0.3060528
-3.284774	'ultima	-0.2164133
-3.051117	'ultimo	-0.3680198
-3.458782	'ultimos	-0.2501633
-3.643311	'unicamente	-0.1558898
-3.643311	'unico	-0.1558898
-1.209461	</s>
-99	<s>	-1.444667
-1.490399	a	-0.7544184
-3.643311	abre	-0.1558898
-3.284774	abril	-0.1715776
-3.643311	acabado	-0.1558898
-3.643311	acceder	-0.1558898
-3.458782	acerca	-0.2501633
-3.643311	acercara	-0.1558898
-3.643311	acudir	-0.1558898
-3.643311	acuerdo	-0.1558898
-2.788148	adem'as	-0.1884027
-3.051117	adi'os	-0.5559679
-3.643311	aeropuerto	-0.1558898
-3.284774	agosto	-0.1783908
-3.643311	agradecer'ia	-0.1558898
-3.643311	ah	-0.1558898
-3.458782	ahora	-0.2004735
-2.482375	al	-0.2288014
-3.152418	alaris	-0.2905936
-2.900026	albacete	-0.2021215
-2.534118	alg'un	-0.3404018
-3.643311	algeciras	-0.1558898
-3.458782	algo	-0.1558898
-3.284774	alguna	-0.1558898
-2.788148	alguno	-0.3895858
-2.900026	alicante	-0.316721
-3.152418	all'i	-0.3330488
-3.152418	almer'ia	-0.2004735
-3.643311	almeria	-0.1558898
-2.840494	alrededor	-0.5026869
-3.458782	alta_velocidad	-0.1558898
-3.458782	altaria	-0.1558898
-3.643311	amable	-0.1558898
-3.643311	amigos	-0.1558898
-3.284774	anterior	-0.1558898
-2.062649	antes	-0.9867961
-3.643311	aparte	-0.1558898
-3.643311	aprovechar	-0.1558898
-3.284774	aproximadamente	-0.2164133
-3.643311	aproximado	-0.1558898
-3.458782	aqu'i	-0.1558898
-3.643311	arco	-0.1558898
-3.284774	as'i	-0.1558898
-3.643311	asistir	-0.1558898
-3.643311	asunto	-0.1558898
-3.643311	atardecer	-0.1558898
-3.643311	atenci'on	-0.1558898
-3.458782	aunque	-0.1558898
-3.643311	autobuses	-0.1558898
-3.643311	autom'aticamente	-0.1558898
-2.699267	ave	-0.295217
-3.643311	ay	-0.1558898
-3.643311	ayudar	-0.1558898
-3.458782	a~no	-0.1558898
-3.643311	b'usqueme	-0.1558898
-3.284774	badajoz	-0.1850981
-3.458782	bajar	-0.1558898
-3.458782	bar	-0.1911831
-3.152418	barato	-0.3028719
-3.643311	baratos	-0.1558898
-2.534118	barcelona	-0.3312099
-2.788148	bien	-0.29627
-2.969034	bilbao	-0.2433277
-2.660831	billete	-0.3561144
-3.284774	billetes	-0.1911831
-3.643311	buena	-0.1558898
-3.152418	buenas	-0.2530851
-2.840494	bueno	-0.1858548
-3.152418	buenos	-0.4590579
-2.900026	burgos	-0.3207457
-3.643311	buscar	-0.1558898
-3.643311	buscar'e	-0.1558898
-3.643311	buscar'ia	-0.1558898
-2.969034	c'aceres	-0.3514164
-3.051117	c'adiz	-0.2288285
-3.284774	c'omo	-0.2164133
-3.643311	c'omoda	-0.1558898
-3.458782	c'omodo	-0.1850981
-2.969034	c'ordoba	-0.2415645
-3.051117	cada	-0.2538676
-3.643311	callado	-0.1558898
-3.458782	cama	-0.1808033
-2.900026	cambiar	-0.412872
-3.643311	cambrils	-0.1558898
-3.643311	camino	-0.1558898
-3.643311	capital	-0.1558898
-3.458782	caracter'isticas	-0.1558898
-3.643311	carnavales	-0.1558898
-3.643311	caro	-0.1558898
-3.643311	casa	-0.1558898
-3.643311	castell'o	-0.1558898
-2.900026	castell'on	-0.2685983
-3.643311	catalu~na_expres	-0.1558898
-3.051117	catorce	-0.2656441
-3.643311	celebre	-0.1558898
-3.458782	cerca	-0.2501633
-3.643311	cercana	-0.1558898
-3.643311	cercano	-0.1558898
-3.643311	cero	-0.1558898
-3.643311	cierra	-0.1558898
-2.741437	cinco	-0.3720995
-3.284774	cincuenta	-0.2164133
-3.643311	citado	-0.1558898
-3.284774	ciudad	-0.1558898
-3.051117	ciudad_real	-0.2429858
-3.152418	claro	-0.1911831
-2.788148	clase	-0.2473966
-2.741437	coche	-0.5345321
-3.152418	coger	-0.2296003
-3.643311	cogi'endolo	-0.1558898
-3.643311	cogiendo	-0.1558898
-3.643311	cojo	-0.1558898
-2.741437	como	-0.173178
-3.643311	compa~n'ia	-0.1558898
-3.643311	competici'on	-0.1558898
-3.643311	completo	-0.1558898
-3.284774	comprar	-0.3341192
-3.643311	compro	-0.1558898
-2.244313	con	-0.3391596
-3.643311	concierto	-0.1558898
-3.643311	concretar	-0.1558898
-3.643311	concretos	-0.1558898
-3.643311	condiciones	-0.1558898
-3.284774	confirmar	-0.1558898
-3.643311	confirme	-0.1558898
-3.643311	confundida	-0.1558898
-3.643311	congreso	-0.1558898
-2.699267	conocer	-0.6058756
-3.643311	conozco	-0.1558898
-3.458782	conseguir	-0.1558898
-3.458782	consulta	-0.1558898
-2.788148	consultar	-0.3250425
-3.643311	contestan	-0.1558898
-3.643311	corresponde	-0.1558898
-3.643311	cosa	-0.1558898
-3.643311	cosita	-0.1558898
-3.643311	costa	-0.1558898
-3.643311	costar	-0.1558898
-3.458782	costar'ia	-0.1911831
-3.643311	crem'a	-0.1558898
-2.969034	creo	-0.6351492
-2.534118	cu'al	-0.6592172
-3.051117	cu'ales	-0.2841782
-3.284774	cu'ando	-0.1558898
-2.699267	cu'anto	-0.3368394
-3.458782	cu'antos	-0.1558898
-3.643311	cuales	-0.1558898
-2.625522	cualquier	-0.3866653
-3.458782	cualquiera	-0.1558898
-3.643311	cuando	-0.1558898
-3.643311	cuanto	-0.1558898
-2.969034	cuarenta	-0.4579876
-3.643311	cuarto	-0.1558898
-2.660831	cuatro	-0.3719427
-2.969034	cuenca	-0.3170351
-3.643311	cuento	-0.1558898
-3.152418	cuesta	-0.2435142
-3.643311	cullera	-0.1558898
-3.643311	cultural	-0.1558898
-3.643311	curso	-0.1558898
-3.643311	d'e	-0.1558898
-2.458646	d'ia	-0.2724494
-2.969034	d'ias	-0.1624579
-2.699267	d'igame	-0.2863096
-3.643311	d'onde	-0.1558898
-3.643311	da	-0.1558898
-3.458782	dado	-0.1558898
-3.643311	dame	-0.1558898
-3.152418	dar	-0.3330489
-3.458782	darme	-0.2164133
-1.483009	de	-0.670419
-3.643311	debe	-0.1558898
-3.643311	deber'ian	-0.1558898
-3.643311	debido	-0.1558898
-2.900026	decir	-0.2774211
-3.152418	decirme	-0.2293232
-3.643311	decirte	-0.1558898
-3.643311	deis	-0.1558898
-1.934951	del	-0.4180168
-3.458782	demasiado	-0.1558898
-3.458782	deme	-0.1558898
-3.458782	dentro	-0.2501633
-3.643311	deportiva	-0.1558898
-3.643311	des	-0.1558898
-1.895326	desde	-0.5567805
-3.152418	deseaba	-0.1911831
-2.741437	desear'ia	-0.3791628
-2.840494	deseo	-0.3006431
-2.741437	despu'es	-0.354262
-2.699267	destino	-0.2668194
-3.643311	dice	-0.1558898
-3.643311	dices	-0.1558898
-2.969034	dicho	-0.1940663
-3.643311	dichos	-0.1558898
-3.643311	diciembre	-0.1558898
-3.458782	diciendo	-0.1558898
-2.788148	diecinueve	-0.4045157
-2.900026	dieciocho	-0.2829571
-2.840494	diecis'eis	-0.3709346
-2.788148	diecisiete	-0.4576313
-3.643311	diera	-0.1558898
-3.643311	dieras	-0.1558898
-2.900026	diez	-0.3197502
-3.643311	diga	-0.1558898
-3.643311	digas	-0.1558898
-3.643311	dijese	-0.1558898
-3.051117	dime	-0.1558898
-3.643311	dir'ia	-0.1558898
-3.643311	direcci'on	-0.1558898
-3.643311	dispone	-0.1558898
-3.051117	disponible	-0.1911831
-3.458782	disponibles	-0.2501633
-3.643311	diurno	-0.1558898
-2.840494	doce	-0.340202
-2.840494	domingo	-0.2274972
-3.284774	dormir	-0.2164133
-2.482375	dos	-0.4425858
-3.643311	dura	-0.1558898
-3.643311	duraci'on	-0.1558898
-3.152418	durante	-0.1911831
-3.643311	durar	-0.1558898
-3.458782	durmiendo	-0.2501633
-3.643311	e	-0.1558898
-3.458782	econ'omica	-0.1558898
-3.643311	efectivamente	-0.1558898
-3.643311	efecto	-0.1558898
-3.458782	eh	-0.2501633
-3.643311	ejemplo	-0.1558898
-1.390916	el	-0.8845727
-3.643311	el_ferrol	-0.1558898
-3.458782	elegir	-0.2501633
-3.643311	ellos	-0.1558898
-1.716731	en	-0.5874196
-3.643311	enero	-0.1558898
-3.643311	ense~nara	-0.1558898
-3.643311	entendido	-0.1558898
-3.643311	enterar	-0.1558898
-3.643311	entiendo	-0.1558898
-2.507476	entonces	-0.2789189
-2.191295	entre	-0.6124316
-3.643311	enumerar	-0.1558898
-3.643311	equipada	-0.1558898
-3.643311	equivocado	-0.1558898
-3.051117	era	-0.1558898
-3.643311	error	-0.1558898
-2.027036	es	-0.4384593
-2.969034	esa	-0.1850981
-2.178993	ese	-0.3808358
-2.699267	eso	-0.3705656
-2.969034	esos	-0.2659117
-3.643311	espec'ificamente	-0.1558898
-3.643311	especial	-0.1558898
-2.788148	est'a	-0.3197502
-3.284774	esta	-0.1558898
-3.643311	estaba	-0.1558898
-3.643311	estado	-0.1558898
-3.643311	estamos	-0.1558898
-2.969034	estar	-0.3115603
-3.458782	estar'ia	-0.2501633
-3.643311	estas	-0.1558898
-2.321225	este	-0.3887398
-3.152418	esto	-0.2004735
-3.284774	estos	-0.1776098
-3.152418	estoy	-0.1558898
-3.458782	estrella	-0.1558898
-2.534118	euromed	-0.4280956
-3.051117	exactamente	-0.1558898
-3.284774	exacto	-0.1911831
-3.643311	examen	-0.1558898
-3.643311	excursi'on	-0.1558898
-3.284774	existe	-0.2004735
-3.458782	exposici'on	-0.1558898
-3.643311	fallas	-0.1558898
-3.643311	falta	-0.1558898
-3.643311	favor	-0.1558898
-3.643311	febrero	-0.1558898
-3.284774	fecha	-0.1558898
-3.643311	fechas	-0.1558898
-3.643311	feria	-0.1558898
-2.900026	fin	-0.702096
-3.284774	finales	-0.2164133
-3.643311	forma	-0.1558898
-3.643311	francia	-0.1558898
-3.643311	franja	-0.1558898
-3.643311	frecuencia	-0.1558898
-2.969034	fuera	-0.1910075
-3.284774	fuese	-0.1558898
-3.643311	fumador	-0.1558898
-3.284774	fumadores	-0.2164133
-3.643311	fundamentalmente	-0.1558898
-3.458782	galicia	-0.2501633
-3.458782	gasteiz	-0.2164133
-3.152418	gerona	-0.2235481
-3.051117	gij'on	-0.3107979
-3.458782	girona	-0.1558898
-2.562501	gracias	-0.4306135
-2.900026	granada	-0.2088328
-3.458782	guadalajara	-0.2501633
-3.643311	gustado	-0.1558898
-3.643311	gustar'ia	-0.1558898
-2.900026	ha	-0.2004735
-3.152418	hab'ia	-0.1558898
-3.643311	hab'ias	-0.1558898
-3.284774	haber	-0.1558898
-3.643311	habido	-0.1558898
-3.051117	habr'ia	-0.1558898
-3.458782	hace	-0.1558898
-3.643311	hacen	-0.1558898
-2.660831	hacer	-0.4523406
-3.458782	hacerlo	-0.2164133
-2.562501	hacia	-0.2528044
-3.643311	haga	-0.1558898
-3.643311	hagan	-0.1558898
-3.643311	has	-0.1558898
-2.273464	hasta	-0.285945
-2.321225	hay	-0.3271406
-3.643311	haya	-0.1558898
-3.152418	he	-0.1850981
-3.643311	hendaya	-0.1558898
-3.643311	historia	-0.1558898
-3.458782	hola	-0.1654093
-2.741437	hora	-0.2561051
-3.643311	horaria	-0.1558898
-2.374896	horario	-0.3829516
-2.144051	horarios	-0.5440117
-2.699267	horas	-0.2678144
-2.840494	hoy	-0.2612397
-3.458782	hubiera	-0.1558898
-3.051117	huelva	-0.2072334
-3.643311	huesca	-0.1558898
-2.625522	ida	-0.279897
-3.643311	idea	-0.1558898
-3.284774	igual	-0.1558898
-3.643311	importa	-0.1558898
-3.643311	importancia	-0.1558898
-3.643311	importar'ia	-0.1558898
-3.643311	imposible	-0.1558898
-2.625522	informaci'on	-0.5766217
-3.152418	informarme	-0.2004735
-3.643311	instrucciones	-0.1558898
-2.625522	intercity	-0.4576961
-3.643311	intercitys	-0.1558898
-3.643311	interesa	-0.1558898
-3.458782	interesado	-0.1558898
-3.643311	interesar'ia	-0.1558898
-3.643311	intermedio	-0.1558898
-3.458782	intervalo	-0.1558898
-2.356259	ir	-0.5479749
-3.643311	ir'un	-0.1558898
-3.458782	irme	-0.2501633
-3.643311	iru~nea	-0.1558898
-3.051117	ja'en	-0.2394411
-2.969034	jueves	-0.252632
-3.643311	julio	-0.1558898
-3.643311	junio	-0.1558898
-3.643311	juntos	-0.1558898
-3.284774	l'erida	-0.235925
-1.941921	la	-0.4918205
-3.051117	la_coru~na	-0.2627881
-3.643311	laborable	-0.1558898
-3.643311	laborables	-0.1558898
-3.643311	lanzadera	-0.1558898
-2.562501	las	-0.406551
-3.152418	le	-0.1850981
-3.051117	le'on	-0.2004735
-3.643311	lentos	-0.1558898
-3.643311	lezama	-0.1558898
-2.969034	litera	-0.3608638
-3.152418	literas	-0.2822528
-3.284774	llamaba	-0.3341192
-2.660831	llega	-0.4374927
-3.643311	llegaba	-0.1558898
-3.643311	llegaban	-0.1558898
-2.900026	llegada	-0.2928616
-2.840494	llegan	-0.4586295
-3.458782	llegando	-0.1558898
-2.436146	llegar	-0.51415
-3.643311	llegar'ia	-0.1558898
-3.643311	llegara	-0.1558898
-3.458782	llegaran	-0.2501633
-3.643311	llegase	-0.1558898
-3.284774	llegue	-0.1850981
-3.458782	lleguen	-0.1558898
-2.900026	lleida	-0.2750807
-3.152418	llevar	-0.2004735
-3.643311	llevarme	-0.1558898
-3.643311	lleve	-0.1558898
-2.625522	lo	-0.4212088
-3.284774	logro~no	-0.1808033
-2.018571	los	-0.7297856
-3.152418	luego	-0.1850981
-3.643311	lugo	-0.1558898
-2.840494	lunes	-0.227847
-3.051117	m'alaga	-0.1878535
-3.643311	m'aquinas	-0.1558898
-2.338389	m'as	-0.3106514
-3.643311	m'aximo	-0.1558898
-3.643311	m'erida	-0.1558898
-3.643311	m'i	-0.1558898
-3.643311	m'ireme	-0.1558898
-2.534118	madrid	-0.3519092
-3.643311	manera	-0.1558898
-3.458782	mare_nostrum	-0.2501633
-2.840494	martes	-0.2389385
-3.643311	marzo	-0.1558898
-3.643311	mayo	-0.1558898
-2.356259	ma~nana	-0.3960849
-3.643311	ma~nanas	-0.1558898
-3.643311	ma~nanita	-0.1558898
-2.044478	me	-0.4359123
-3.458782	media	-0.1558898
-3.643311	mediados	-0.1558898
-3.051117	mediod'ia	-0.2528034
-2.788148	mejor	-0.3114016
-3.643311	men'u	-0.1558898
-3.458782	menos	-0.2164133
-2.969034	mes	-0.3037275
-3.284774	mi	-0.1558898
-3.152418	mi'ercoles	-0.204763
-3.643311	miguel_de_unamuno	-0.1558898
-3.643311	mil	-0.1558898
-3.643311	minutos	-0.1558898
-2.900026	mira	-0.2375628
-3.643311	mirar	-0.1558898
-2.969034	mire	-0.2316133
-3.458782	misma	-0.1558898
-3.643311	mismamente	-0.1558898
-3.643311	mismas	-0.1558898
-2.900026	mismo	-0.1702484
-3.643311	mismos	-0.1558898
-3.643311	modalidad	-0.1558898
-3.643311	momento	-0.1558898
-3.643311	monumental	-0.1558898
-3.643311	monz'on	-0.1558898
-3.458782	much'isimas	-0.2501633
-2.741437	muchas	-0.856998
-3.643311	muestras	-0.1558898
-3.152418	murcia	-0.2612398
-3.643311	museo	-0.1558898
-3.051117	muy	-0.1850981
-2.699267	nada	-0.4792008
-3.643311	navidad	-0.1558898
-3.643311	navidades	-0.1558898
-3.284774	necesitar'ia	-0.1558898
-2.788148	necesito	-0.2656441
-3.643311	negocio	-0.1558898
-3.458782	negocios	-0.2501633
-3.051117	ning'un	-0.2712907
-3.643311	ninguna	-0.1558898
-3.643311	ninguno	-0.1558898
-2.122226	no	-0.2987392
-3.051117	noche	-0.2088328
-3.643311	nochevieja	-0.1558898
-3.643311	nocturno	-0.1558898
-3.643311	normal	-0.1558898
-3.643311	norte	-0.1558898
-3.643311	noviembre	-0.1558898
-3.643311	novio	-0.1558898
-2.788148	nueve	-0.4145705
-2.027036	o	-0.3738458
-3.643311	obra	-0.1558898
-2.625522	obtener	-0.6020318
-2.625522	ocho	-0.392928
-3.643311	octubre	-0.1558898
-3.643311	odio	-0.1558898
-3.643311	oiga	-0.1558898
-3.643311	olvidado	-0.1558898
-2.900026	once	-0.3137516
-3.643311	oposici'on	-0.1558898
-3.152418	orense	-0.2004735
-3.643311	origen	-0.1558898
-3.051117	otra	-0.1911831
-2.840494	otro	-0.447382
-3.284774	otros	-0.2164133
-2.900026	oviedo	-0.335835
-3.152418	palencia	-0.252806
-2.969034	pamplona	-0.2524253
-3.458782	par'is	-0.1558898
-1.716731	para	-0.6098921
-3.643311	parece	-0.1558898
-3.643311	parte	-0.1558898
-3.643311	partir	-0.1558898
-2.788148	pasado	-0.536955
-3.458782	pasar	-0.1558898
-3.643311	pascua	-0.1558898
-3.643311	paso	-0.1558898
-3.643311	pedir	-0.1558898
-3.284774	perd'on	-0.3341192
-3.458782	perdone	-0.1558898
-3.152418	perfecto	-0.2501633
-2.414755	pero	-0.1899987
-3.643311	pe~n'iscola	-0.1558898
-3.643311	pirineos	-0.1558898
-3.643311	plazas	-0.1558898
-3.643311	poco	-0.1558898
-3.643311	pocos	-0.1558898
-3.152418	pod'ia	-0.1558898
-3.458782	poder	-0.1558898
-2.507476	podr'ia	-0.3363511
-3.643311	podr'iamos	-0.1558898
-3.643311	podr'ian	-0.1558898
-3.643311	podr'ias	-0.1558898
-3.643311	poquito	-0.1558898
-1.696301	por	-0.9306664
-2.660831	porque	-0.2354978
-3.643311	port_aventura	-0.1558898
-3.152418	posibilidad	-0.2822528
-3.643311	posibilidades	-0.1558898
-2.741437	posible	-0.2807045
-3.458782	posibles	-0.1558898
-3.458782	pr'oxima	-0.1558898
-2.788148	pr'oximo	-0.2418945
-2.625522	precio	-0.2819296
-2.562501	precios	-0.4201483
-2.969034	preferente	-0.3363511
-3.643311	preferentemente	-0.1558898
-3.458782	preferir'ia	-0.2164133
-3.152418	prefiero	-0.1558898
-3.643311	pregunta	-0.1558898
-3.643311	preguntado	-0.1558898
-3.152418	preguntar	-0.2004735
-3.458782	pregunto	-0.1558898
-3.284774	primer	-0.2144916
-2.969034	primera	-0.2042191
-3.284774	primero	-0.173178
-3.643311	primeros	-0.1558898
-3.643311	principal	-0.1558898
-3.643311	principio	-0.1558898
-3.643311	principios	-0.1558898
-3.458782	pronto	-0.1558898
-3.643311	pudiera	-0.1558898
-3.643311	pudiese	-0.1558898
-3.458782	pueda	-0.1558898
-2.625522	puede	-0.2290427
-3.284774	puedes	-0.1558898
-2.788148	puedo	-0.2827692
-3.458782	puente	-0.2164133
-2.304714	pues	-0.2540371
-3.284774	punto	-0.3341192
-2.230439	qu'e	-0.4940678
-1.712568	que	-0.457014
-3.643311	quedado	-0.1558898
-2.230439	quer'ia	-0.5001708
-2.458646	querr'ia	-0.4324187
-3.643311	quieres	-0.1558898
-2.133001	quiero	-0.495235
-2.840494	quince	-0.5091401
-3.458782	quincena	-0.2164133
-2.414755	quisiera	-0.4225999
-3.458782	quiz'a	-0.1558898
-2.900026	r'apido	-0.2667244
-3.051117	r'apidos	-0.1751421
-3.643311	realice	-0.1558898
-3.643311	realidad	-0.1558898
-3.643311	realizan	-0.1558898
-3.051117	realizar	-0.2164133
-3.643311	realmente	-0.1558898
-3.643311	reconfirmar	-0.1558898
-3.643311	recorrido	-0.1558898
-3.643311	refiriendo	-0.1558898
-2.900026	regional	-0.3164735
-3.643311	regionales	-0.1558898
-3.643311	regresando	-0.1558898
-3.152418	regresar	-0.2538676
-3.643311	regreso	-0.1558898
-3.643311	rep'itame	-0.1558898
-3.458782	repetir	-0.1558898
-3.284774	repetirme	-0.2296003
-3.643311	repitas	-0.1558898
-3.643311	reservar	-0.1558898
-3.643311	respondido	-0.1558898
-3.643311	restaurante	-0.1558898
-3.643311	reuni'on	-0.1558898
-3.643311	reunirme	-0.1558898
-3.458782	ruta	-0.2501633
-2.482375	s'abado	-0.3535296
-3.643311	s'e	-0.1558898
-2.394368	s'i	-0.2401119
-2.788148	s'olo	-0.2356297
-3.458782	sabe	-0.1558898
-2.356259	saber	-0.4871528
-3.643311	saberlo	-0.1558898
-3.051117	salamanca	-0.209967
-3.458782	saldr'ia	-0.1558898
-2.969034	sale	-0.2057221
-3.051117	salen	-0.204763
-3.284774	salga	-0.1808033
-3.643311	salgan	-0.1558898
-3.458782	salgo	-0.1558898
-2.699267	salida	-0.2407171
-2.304714	saliendo	-0.6139535
-3.458782	saliera	-0.1558898
-3.643311	salieran	-0.1558898
-3.643311	saliese	-0.1558898
-2.273464	salir	-0.5185314
-3.643311	san_fermines	-0.1558898
-3.643311	san_jos'e	-0.1558898
-3.051117	san_sebasti'an	-0.2429858
-2.699267	santander	-0.3186972
-3.458782	santiago	-0.1558898
-3.284774	santiago_de_compostela	-0.2538676
-3.643311	satisfecho	-0.1558898
-2.840494	se	-0.1952877
-2.660831	sea	-0.222189
-3.458782	sean	-0.1558898
-3.284774	segovia	-0.1952877
-3.458782	segunda	-0.1558898
-3.458782	segundo	-0.2004735
-2.699267	seis	-0.4469185
-2.788148	semana	-0.2625951
-3.284774	semana_santa	-0.1558898
-3.643311	semanas	-0.1558898
-3.458782	septiembre	-0.1776098
-2.741437	ser	-0.2598235
-3.643311	ser'a	-0.1558898
-2.534118	ser'ia	-0.3871927
-3.284774	servicio	-0.1558898
-3.643311	servicios	-0.1558898
-3.643311	setiembre	-0.1558898
-2.660831	sevilla	-0.3611599
-3.643311	se~nora	-0.1558898
-3.643311	se~norita	-0.1558898
-2.035669	si	-0.5433716
-3.643311	sido	-0.1558898
-2.741437	siete	-0.3853547
-2.900026	siguiente	-0.3066785
-3.643311	sin	-0.1558898
-3.643311	sirve	-0.1558898
-2.436146	sobre	-0.4850652
-3.152418	solamente	-0.1558898
-2.900026	solo	-0.1558898
-2.625522	son	-0.2098587
-3.458782	soria	-0.1558898
-3.152418	su	-0.4590579
-3.643311	sueca	-0.1558898
-3.643311	suficiente	-0.1558898
-3.643311	supuesto	-0.1558898
-3.643311	sus	-0.1558898
-2.507476	talgo	-0.3516128
-3.458782	talgos	-0.1558898
-2.304714	tambi'en	-0.3494325
-3.643311	tampoco	-0.1558898
-3.284774	tanto	-0.2164133
-3.643311	tarda	-0.1558898
-3.643311	tardan	-0.1558898
-3.643311	tardar'ia	-0.1558898
-2.969034	tarde	-0.1897713
-3.643311	tardes	-0.1558898
-2.900026	tarragona	-0.2370708
-3.643311	te	-0.1558898
-3.643311	teatro	-0.1558898
-3.458782	temprano	-0.1558898
-3.643311	tendr'e	-0.1558898
-2.969034	tendr'ia	-0.2235481
-3.643311	tendr'ian	-0.1558898
-3.284774	tener	-0.1558898
-3.643311	tenerlo	-0.1558898
-3.643311	tenga	-0.1558898
-2.436146	tengo	-0.4800516
-3.643311	tercer	-0.1558898
-3.643311	tercero	-0.1558898
-2.900026	teruel	-0.2659117
-3.643311	thyssen	-0.1558898
-3.643311	ticket	-0.1558898
-3.458782	tiempo	-0.1558898
-2.625522	tiene	-0.3131012
-2.900026	tienen	-0.2075759
-3.643311	tienes	-0.1558898
-2.592869	tipo	-0.5825701
-3.284774	tipos	-0.3341192
-3.458782	toda	-0.2501633
-3.051117	todo	-0.2608217
-3.284774	todos	-0.2164133
-3.152418	toledo	-0.1977093
-3.643311	total	-0.1558898
-3.643311	totalmente	-0.1558898
-3.643311	trabajo	-0.1558898
-3.643311	trata	-0.1558898
-3.051117	trayecto	-0.252806
-3.643311	trayectos	-0.1558898
-3.284774	trece	-0.1850981
-2.592869	treinta	-0.5373827
-2.338389	tren	-0.4018073
-3.284774	tren_hotel	-0.1850981
-2.304714	trenes	-0.3722465
-2.741437	tres	-0.3862623
-3.643311	triana	-0.1558898
-3.643311	tu	-0.1558898
-3.458782	turista	-0.1911831
-3.458782	u	-0.2164133
-1.876792	un	-0.6446136
-2.458646	una	-0.2974888
-2.660831	uno	-0.4264684
-3.051117	unos	-0.235925
-3.458782	usted	-0.1558898
-3.643311	utilizar	-0.1558898
-3.643311	uy	-0.1558898
-3.643311	v'alido	-0.1558898
-3.284774	va	-0.1911831
-3.458782	vacaciones	-0.1558898
-3.643311	valdr'ia	-0.1558898
-2.900026	vale	-0.1715776
-3.458782	valen	-0.1558898
-2.625522	valencia	-0.3092089
-3.643311	valer	-0.1558898
-2.840494	valladolid	-0.2449332
-3.051117	vamos	-0.3791628
-3.458782	van	-0.1911831
-3.284774	vaya	-0.1911831
-3.643311	vayan	-0.1558898
-3.643311	veamos	-0.1558898
-2.900026	veinte	-0.3201948
-2.900026	veinticinco	-0.5026869
-2.900026	veinticuatro	-0.447382
-2.900026	veintid'os	-0.4120163
-2.900026	veintinueve	-0.3627129
-3.152418	veintiocho	-0.2822528
-2.969034	veintis'eis	-0.3107979
-2.969034	veintisiete	-0.354262
-3.051117	veintitr'es	-0.3382375
-3.152418	veintiuno	-0.2822528
-3.643311	vendr'ia	-0.1558898
-3.643311	venga	-0.1558898
-3.643311	vengan	-0.1558898
-3.643311	vente	-0.1558898
-3.152418	ver	-0.1831655
-3.051117	ver'a	-0.1911831
-3.643311	verano	-0.1558898
-3.458782	verdad	-0.2501633
-3.458782	vez	-0.1558898
-3.643311	viaja	-0.1558898
-2.900026	viajando	-0.4579875
-2.288808	viajar	-0.6173999
-3.643311	viajara	-0.1558898
-2.414755	viaje	-0.4268881
-2.741437	viajes	-0.332835
-3.643311	vida	-0.1558898
-3.458782	viene	-0.1558898
-2.625522	viernes	-0.3016836
-3.458782	viernes_santo	-0.2164133
-2.840494	vigo	-0.2955548
-3.643311	visita	-0.1558898
-3.458782	visitar	-0.2501633
-3.643311	visitarlos	-0.1558898
-3.284774	vitoria	-0.2075759
-2.625522	volver	-0.3930168
-3.643311	volver'ia	-0.1558898
-3.152418	volviendo	-0.235925
-3.152418	voy	-0.2985669
-2.969034	vuelta	-0.2580006
-3.458782	vuelva	-0.1558898
-3.643311	vuelven	-0.1558898
-3.458782	vuelvo	-0.2501633
-1.609737	y	-0.5517831
-2.660831	ya	-0.2905936
-2.741437	yo	-0.3487243
-3.458782	zamora	-0.1558898
-2.699267	zaragoza	-0.3254183
-3.458782	zona	-0.1558898

\2-grams:
-0.6358517	'avila </s>
-0.854405	'avila a	-0.1033091
-1.530342	'avila desde
-1.058205	'avila el	-0.2411192
-1.114336	'avila en	-0.2411192
-1.48561	'avila para
-0.5331097	'ultima hora
-0.9934497	'ultima semana	0
-0.5461991	'ultimo </s>
-1.409349	'ultimo el
-1.592289	'ultimo es
-1.642162	'ultimo euromed
-1.149603	'ultimo que
-0.7249248	'ultimo tren	-0.1843815
-0.3255304	'ultimos </s>
-0.5176523	'unicamente cu'al
-0.5159927	'unico tren
-4.005946	<s> 'avila
-1.367462	<s> a	-0.4717874
-3.357581	<s> al	-0.1362052
-3.97764	<s> albacete
-3.55374	<s> alg'un	-0.2411192
-3.237825	<s> alguno	-0.2284555
-3.951066	<s> alrededor
-3.430613	<s> antes
-4.166011	<s> ay
-2.990057	<s> barcelona	-0.6548671
-2.802955	<s> bien	-0.06429477
-2.325364	<s> buenas	-0.4720913
-2.5587	<s> bueno	-0.2379812
-2.25773	<s> buenos	-1.339114
-3.97764	<s> burgos
-4.166011	<s> buscar'ia
-4.005946	<s> c'aceres
-3.685402	<s> c'adiz	-0.2411192
-3.658302	<s> cambiar
-3.685402	<s> catorce	-0.2411192
-4.036226	<s> ciudad_real
-3.577213	<s> con
-3.879899	<s> conocer
-3.671641	<s> creo	-0.2411192
-2.375741	<s> cu'al	-0.7426786
-2.44623	<s> cu'anto	-0.5726776
-4.166011	<s> cuales
-3.094709	<s> cualquier	-0.3248551
-4.13933	<s> cualquiera
-4.005946	<s> cuenca
-3.608701	<s> d'igame	-0.2411192
-2.823369	<s> de
-3.132004	<s> del
-3.199619	<s> desde
-4.068777	<s> deseaba
-2.170115	<s> desear'ia	-0.5299854
-2.058618	<s> deseo	-0.4673853
-3.632794	<s> diecinueve
-3.658302	<s> dieciocho	-0.2411192
-3.951066	<s> diecis'eis
-3.421171	<s> diecisiete	-0.3538371
-3.748706	<s> dos
-4.068777	<s> durante
-1.215151	<s> el	-0.6758277
-4.13933	<s> elegir
-2.793779	<s> en	-0.06605273
-3.765191	<s> entonces
-2.71085	<s> entre	-0.8767157
-4.036226	<s> era
-3.066845	<s> es
-3.384802	<s> ese
-3.101945	<s> eso	-0.1541916
-4.005946	<s> esos
-2.962737	<s> este	-0.1297719
-4.068777	<s> esto
-4.068777	<s> estoy
-4.036226	<s> exactamente
-3.714307	<s> exacto
-3.714307	<s> existe	-0.2411192
-4.103966	<s> finales
-4.13933	<s> gasteiz
-4.068777	<s> gerona
-3.208879	<s> gracias
-3.97764	<s> granada
-4.036226	<s> habr'ia
-2.411406	<s> hay	-0.3094948
-1.373078	<s> hola	-1.001374
-2.970754	<s> horario	-0.353837
-2.751183	<s> horarios	-0.4206497
-3.11303	<s> hoy	-0.3242149
-3.66111	<s> ir
-3.44462	<s> jueves
-4.103966	<s> l'erida
-2.762689	<s> la	-0.3227987
-3.685402	<s> la_coru~na	-0.2411192
-3.858552	<s> llega
-3.97764	<s> lleida
-3.838205	<s> lo
-3.285187	<s> los
-3.645361	<s> lunes
-2.912814	<s> madrid	-0.7218138
-3.645361	<s> martes
-2.232382	<s> ma~nana	-0.628809
-1.426083	<s> me	-1.231646
-3.436662	<s> mira
-3.253055	<s> mire
-3.90235	<s> muchas
-4.036226	<s> muy
-2.088319	<s> nada	-0.9302483
-4.103966	<s> necesitar'ia
-2.751215	<s> necesito	-0.07824483
-0.7117984	<s> no	-1.099714
-3.400571	<s> o
-2.585606	<s> obtener	-0.4675674
-3.838205	<s> ocho
-4.166011	<s> oiga
-3.97764	<s> once
-3.951066	<s> otro
-3.658302	<s> oviedo	-0.2411192
-3.44462	<s> pamplona	-0.353837
-2.851213	<s> para	-0.0720108
-3.109304	<s> pasado	-0.5756857
-3.728379	<s> perdone
-4.068777	<s> pod'ia
-2.91046	<s> podr'ia
-2.735149	<s> por	-0.4207839
-3.632794	<s> pr'oximo
-3.564189	<s> precios
-3.728379	<s> preferir'ia
-4.13933	<s> pregunto
-3.585876	<s> puede	-0.2411192
-3.421171	<s> puedo
-1.653499	<s> pues	-0.5531706
-2.326574	<s> qu'e	-0.5267565
-2.376386	<s> que	-0.169976
-1.466093	<s> quer'ia	-0.8554958
-2.008496	<s> querr'ia	-0.6091413
-4.166011	<s> quieres
-1.346801	<s> quiero	-0.9321407
-3.645361	<s> quince	-0.2411192
-1.606305	<s> quisiera	-0.6802812
-4.166011	<s> realmente
-3.748706	<s> s'abado
-0.4651766	<s> s'i	-1.081551
-2.485837	<s> saber	-0.3957137
-3.671641	<s> sale	-0.2411192
-3.879899	<s> salida
-3.040789	<s> salir	-0.1717859
-3.685402	<s> san_sebasti'an	-0.2411192
-3.608701	<s> santander	-0.2411192
-4.103966	<s> santiago_de_compostela
-2.92236	<s> sevilla	-0.7218138
-2.903428	<s> si	-0.04027428
-3.232865	<s> siete	-0.4787758
-3.97764	<s> solo
-3.838205	<s> son
-3.623154	<s> tambi'en
-4.166011	<s> tampoco
-2.934595	<s> tarragona	-0.7218139
-3.97764	<s> teruel
-3.585876	<s> tiene
-3.97764	<s> tienen
-3.384701	<s> tipo	-0.353837
-4.103966	<s> todos
-4.068777	<s> toledo
-3.574897	<s> treinta
-3.623154	<s> trenes
-3.90235	<s> tres
-3.098167	<s> un	-0.1436375
-3.732824	<s> una
-3.858552	<s> uno
-4.166011	<s> utilizar
-3.658302	<s> vale	-0.2411192
-3.585876	<s> valencia	-0.2411192
-3.951066	<s> valladolid
-4.036226	<s> vamos
-4.166011	<s> veamos
-3.436662	<s> veinte	-0.353837
-3.97764	<s> veinticinco
-3.97764	<s> veinticuatro
-3.97764	<s> veintid'os
-3.97764	<s> veintinueve
-3.452727	<s> veintitr'es	-0.353837
-4.036226	<s> ver'a
-2.769457	<s> viajar	-0.5604602
-3.702703	<s> viaje
-3.218315	<s> viernes
-3.242843	<s> vigo	-0.4787758
-3.838205	<s> volver
-2.398895	<s> y	-0.2234766
-3.098312	<s> ya	-0.3215657
-3.620581	<s> yo
-1.991219	a 'avila	-0.1615406
-3.260961	a 'ultima	0
-1.989836	a albacete	-0.2503231
-2.864264	a algeciras
-2.848247	a alguna	-0.2411192
-1.595366	a alicante	-0.5002803
-2.389496	a almer'ia	-0.1695246
-2.254837	a badajoz	-0.1936739
-1.373167	a barcelona	-0.4432325
-1.6512	a bilbao	-0.3508353
-2.574947	a burgos	0
-1.878291	a c'aceres	-0.2128588
-1.87936	a c'adiz	-0.07498588
-1.831217	a c'ordoba	-0.4403043
-3.303666	a castell'o
-1.830259	a castell'on	-0.2346389
-2.146217	a ciudad_real	-0.3371982
-2.758502	a cualquier	-0.2411192
-3.075036	a cuatro
-2.247276	a cuenca	-0.4207839
-3.168419	a decir
-3.235913	a decirme
-2.810097	a diez
-2.984364	a dos
-3.189772	a esa
-2.789773	a ese
-3.092175	a eso
-2.848247	a finales	-0.2411192
-3.303666	a francia
-2.857584	a gasteiz
-2.389496	a gerona	-0.1560509
-2.585706	a gij'on	-0.1430358
-2.257199	a girona	-0.1689922
-1.877224	a granada	-0.2070324
-2.857584	a guadalajara	-0.2411192
-3.260961	a haber
-2.585706	a huelva	-0.1363783
-2.398524	a huesca	-0.09382901
-2.909392	a ir
-2.585706	a ja'en	-0.05991578
-2.392977	a l'erida	-0.07791832
-1.707675	a la	-0.2067349
-1.992607	a la_coru~na	-0.2603779
-1.288983	a las	-0.5434924
-2.249782	a le'on	-0.1667224
-2.574947	a lleida	-0.05291978
-2.065934	a logro~no	-0.3739513
-2.864264	a lugo
-1.932303	a m'alaga	-0.1921073
-2.153358	a m'erida	-0.1328989
-3.303666	a m'i
-1.218031	a madrid	-0.4396014
-3.303666	a mediados
-2.585706	a mediod'ia	-0.130163
-3.260961	a mi
-2.064292	a murcia	-0.3976527
-3.21223	a noche
-3.168419	a once
-3.235913	a orense	0
-1.92989	a oviedo	-0.4572628
-2.838391	a palencia	-0.1366184
-1.750068	a pamplona	-0.3474072
-2.857584	a par'is	-0.1376002
-1.427966	a partir	-1.022844
-3.303666	a pe~n'iscola
-1.935858	a poder	-0.8309583
-3.303666	a port_aventura
-2.061025	a primera	-0.7218139
-3.303666	a primeros
-2.60564	a principios	-0.3538371
-2.87626	a pues
-1.534134	a qu'e	-0.9284369
-2.324321	a que	0
-2.826104	a quer'ia
-1.932303	a salamanca	-0.3244045
-3.303666	a san_fermines
-1.992607	a san_sebasti'an	-0.2713767
-1.678338	a santander	-0.2984348
-3.285535	a santiago
-2.254837	a santiago_de_compostela	-0.2157294
-1.934729	a segovia	-0.2602009
-2.775028	a seis	-0.2411192
-1.926295	a ser	-0.8309582
-1.47982	a sevilla	-0.479052
-3.110018	a siete
-2.257199	a soria	-0.3250111
-3.303666	a sueca
-1.787881	a tarragona	-0.2230688
-1.830259	a teruel	-0.2389272
-2.064292	a toledo	-0.1026688
-2.32083	a un	-0.1448364
-2.515456	a una
-2.828753	a unos	-0.2411192
-1.390031	a valencia	-0.4454811
-1.988456	a valladolid	-0.2442242
-1.525258	a ver	-0.2261078
-2.865754	a viajar
-1.787015	a vigo	-0.2860405
-2.254837	a vitoria	-0.1322184
-1.925104	a zaragoza	-0.3053654
-0.4892275	abre a
-1.089409	abril </s>
-1.449931	abril a	0
-1.797863	abril al
-1.755805	abril con	0
-1.445381	abril de	0
-1.322109	abril del	-0.2411192
-1.855647	abril dentro
-1.825928	abril despu'es
-1.833237	abril diecis'eis
-1.574443	abril en	0
-1.726014	abril no
-1.698137	abril o
-1.574443	abril para	0
-1.564405	abril por	0
-1.81874	abril porque
-1.572417	abril que
-1.752732	abril quer'ia
-1.78779	abril quisiera
-1.855647	abril viernes_santo
-1.519212	abril y	0
-0.5178371	acabado gracias
-0.5112336	acceder o
-0.3522263	acerca del
-0.5159927	acercara m'as
-0.5200607	acudir esta
-0.4625494	acuerdo </s>
-1.648246	adem'as deseo
-1.31979	adem'as el
-1.468732	adem'as en
-1.538355	adem'as la
-1.63682	adem'as lo
-1.556718	adem'as los
-1.562381	adem'as me
-1.467203	adem'as que
-1.59595	adem'as quer'ia
-1.623493	adem'as querr'ia
-0.9216383	adem'as quiero	-0.1410375
-1.612692	adem'as saber
-0.1312555	adi'os </s>
-0.4887086	aeropuerto de
-0.915631	agosto </s>
-1.437483	agosto a	0
-1.778581	agosto cualquier
-1.433129	agosto de
-1.642399	agosto del
-1.628593	agosto desde
-1.762873	agosto dos
-1.817292	agosto e
-1.555784	agosto en
-1.671402	agosto es
-1.730195	agosto hasta
-1.546312	agosto por	0
-1.699804	agosto quiero
-1.753714	agosto quisiera
-1.673908	agosto si
-1.735956	agosto tambi'en
-1.621851	agosto un
-1.503517	agosto y	0
-0.4625494	agradecer'ia </s>
-0.5165452	ah s'i
-1.119427	ahora dime
-0.6485435	ahora me	0
-1.101795	ahora quer'ia
-1.858773	al aeropuerto
-1.858773	al atardecer
-1.823967	al cuatro	0
-0.7795087	al d'ia	-0.5756858
-1.827141	al destino
-1.833559	al diecisiete
-1.811499	al euromed
-1.853402	al igual
-1.394358	al mediod'ia
-1.858773	al men'u
-1.840073	al mismo
-1.858773	al museo
-1.840073	al once	0
-1.858773	al principio
-1.805396	al s'abado
-1.817688	al treinta	0
-1.820816	al viernes
-0.4926525	alaris </s>
-1.418698	alaris me
-1.416546	alaris o	0
-1.362135	alaris que
-0.9913052	alaris si	-0.09661008
-0.6994762	albacete </s>
-1.297068	albacete a	0
-1.448618	albacete antes
-1.502877	albacete destino
-1.254271	albacete el
-1.374549	albacete para
-1.477922	albacete saliendo
-1.341215	albacete y	0
-1.853087	alg'un ave
-1.408125	alg'un billete
-1.401603	alg'un d'ia
-1.840204	alg'un euromed
-1.863676	alg'un fin
-1.39792	alg'un horario
-1.411897	alg'un otro
-1.863676	alg'un regional
-1.403457	alg'un talgo	0
-1.845311	alg'un tipo
-0.5383691	alg'un tren	-0.1394161
-0.7123948	algeciras </s>
-0.7846171	algeciras en
-0.7123948	algo </s>
-0.7842757	algo que
-0.9961404	alguna ciudad
-0.9970183	alguna historia
-0.9950298	alguna otra
-1.033677	alguno </s>
-0.8624605	alguno de	-0.1438761
-1.56814	alguno es
-0.440665	alguno que	-0.2312478
-1.626405	alguno sale
-0.543807	alicante </s>
-1.192171	alicante a	-0.1431918
-1.679236	alicante antes
-1.165852	alicante el	-0.07890242
-1.724036	alicante ma~nana
-1.23724	alicante para	-0.06584341
-1.730235	alicante pero
-1.724036	alicante saber
-1.218263	alicante y	0
-1.185213	all'i a
-0.3575083	all'i antes	-0.2286613
-1.16023	all'i el
-0.8286309	almer'ia </s>
-1.236009	almer'ia a	0
-0.8693787	almer'ia el
-1.302779	almer'ia en
-1.386616	almer'ia hasta
-1.297725	almer'ia por
-0.4625494	almeria </s>
-0.2316654	alrededor de	-0.6548671
-0.9464679	alrededor del	-0.2411192
-0.7123948	alta_velocidad </s>
-0.7846171	alta_velocidad en
-0.7123948	altaria </s>
-0.8031118	altaria o
-0.4625494	amable </s>
-0.842703	amigos </s>
-0.9433292	amigos en
-0.9884253	amigos entonces
-0.9853321	anterior </s>
-1.081459	anterior a
-1.052027	anterior el
-1.131616	anterior que
-1.110853	anterior y
-1.037464	antes </s>
-0.132586	antes de	-1.078219
-1.167172	antes del	-0.1446195
-2.251158	antes estaba
-2.240113	antes mejor
-0.4887086	aparte de
-0.4815093	aprovechar el
-0.9939306	aproximadamente alrededor
-0.526991	aproximadamente antes	-0.2411192
-0.5159927	aproximado m'as
-0.760045	aqu'i de
-0.7967418	aqu'i desde	0
-0.4625494	arco </s>
-0.9922657	as'i como
-0.9702401	as'i es	0
-0.9819197	as'i hasta
-0.4892275	asistir a
-0.4887086	asunto de
-0.7123948	atardecer </s>
-0.7748212	atardecer y
-0.4625494	atenci'on </s>
-0.9755101	aunque no
-0.991165	aunque sea
-0.9707642	aunque si
-0.5015129	autobuses que
-0.5203539	autom'aticamente tienes
-0.5589331	ave </s>
-1.559836	ave a
-1.914253	ave d'igame
-1.117504	ave de	-0.14459
-1.754031	ave desde
-1.934776	ave disponible
-1.945149	ave eh
-1.770511	ave la
-1.797742	ave o
-1.882067	ave pero
-1.670252	ave por
-1.910925	ave porque
-1.907622	ave puede
-1.863841	ave saliendo
-1.910925	ave sevilla
-1.800304	ave si	0
-1.347935	ave y
-0.4625494	ay </s>
-0.4625494	ayudar </s>
-1.109592	a~no dos
-1.110315	a~no entonces
-1.097489	a~no entre
-1.033615	a~no y
-0.5202329	b'usqueme usted
-0.7298588	badajoz </s>
-1.146449	badajoz a
-1.114581	badajoz el
-1.202031	badajoz para
-1.178463	badajoz y
-0.7967418	bajar desde
-0.7846171	bajar en
-0.9996971	bar </s>
-1.1796	bar me
-1.178038	bar o
-0.7190498	bar y	-0.2411192
-0.3940485	barato </s>
-1.278659	barato para
-1.2779	barato que
-1.25717	barato y
-0.5200607	baratos tanto
-0.8331787	barcelona </s>
-1.512609	barcelona a	-0.0944936
-2.025797	barcelona antes	0
-2.223828	barcelona castell'on
-1.94611	barcelona desde	0
-1.078696	barcelona el	-0.09257687
-1.609187	barcelona en	-0.07345419
-2.071891	barcelona ese
-2.118516	barcelona este
-2.187735	barcelona ida
-1.969916	barcelona la
-2.217601	barcelona llegan
-2.223828	barcelona lleida
-2.128473	barcelona ma~nana	0
-2.017917	barcelona me
-2.050331	barcelona no
-1.039639	barcelona para	-0.1308361
-2.14385	barcelona pero
-1.830569	barcelona por
-2.113621	barcelona pues
-1.607666	barcelona que
-2.089945	barcelona quer'ia
-2.054558	barcelona quiero
-2.14385	barcelona quisiera
-2.255885	barcelona saldr'ia
-2.113621	barcelona saliendo
-2.149099	barcelona sobre
-1.936294	barcelona un
-2.154413	barcelona una
-1.776167	barcelona valencia	-0.2411192
-1.027896	barcelona y	-0.04006933
-0.6007869	bien </s>
-1.83934	bien b'usqueme
-1.01225	bien el	-0.1437867
-1.751804	bien ese
-1.818591	bien est'a
-1.837519	bien estar'ia
-1.365662	bien gracias	-0.1209688
-1.722976	bien me
-1.618587	bien para
-1.832171	bien perfecto
-1.359115	bien s'i	-0.1398498
-1.720836	bien si
-1.082976	bilbao </s>
-1.354393	bilbao a	-0.07821014
-1.968555	bilbao al
-2.013462	bilbao alrededor
-1.977172	bilbao barcelona
-1.351292	bilbao de
-1.792173	bilbao desde
-1.310057	bilbao el	0
-1.702598	bilbao en
-1.972842	bilbao entonces
-1.923992	bilbao hasta	0
-1.812539	bilbao la
-1.981546	bilbao las
-1.8531	bilbao me
-1.056856	bilbao para	0
-1.912592	bilbao qu'e
-1.700292	bilbao que
-1.912592	bilbao quer'ia
-1.883579	bilbao quiero
-1.943683	bilbao saber
-1.999496	bilbao santander
-1.994938	bilbao sevilla
-1.041953	bilbao y	0
-0.9635519	billete </s>
-1.380843	billete a
-0.7217097	billete de	-0.2493734
-1.488345	billete del	0
-1.823056	billete desde
-2.008055	billete disponible
-1.230847	billete en	-0.1381955
-0.9436404	billete ida	-0.5756857
-1.94137	billete m'as
-1.894534	billete no
-2.021143	billete normal
-1.74762	billete para
-1.737839	billete por	0
-2.004466	billete tendr'ia
-1.69373	billete y
-0.9996971	billetes </s>
-0.7070304	billetes de	0
-1.138585	billetes para
-1.135042	billetes por
-0.5187622	buena hora
-1.469483	buenas a
-1.772477	buenas desear'ia
-1.67531	buenas es
-1.788712	buenas he
-1.29131	buenas me	-0.2411192
-1.780518	buenas mira
-1.055401	buenas quer'ia	-0.1507678
-1.318454	buenas querr'ia	-0.0607736
-1.061042	buenas quisiera	-0.08976549
-1.071267	buenas tardes	-0.09621394
-1.785964	buenas ver'a
-1.808446	bueno desear'ia
-1.388697	bueno el
-1.731478	bueno entre
-1.688532	bueno es
-1.322522	bueno me	-0.2411192
-1.811827	bueno mejor
-1.798456	bueno obtener
-1.097452	bueno pues	0
-1.740026	bueno qu'e
-1.740026	bueno quer'ia
-1.717596	bueno quiero
-1.77289	bueno quisiera
-1.769797	bueno s'i
-1.754656	bueno saliendo
-1.788692	bueno ser'ia
-1.691096	bueno si
-1.517525	bueno y
-1.808446	bueno yo
-0.1851644	buenos d'ias	-0.1393539
-0.4810457	burgos </s>
-1.053421	burgos a	-0.1803448
-1.034317	burgos el
-1.514359	burgos la
-1.560645	burgos saliendo
-1.588004	burgos valladolid
-0.5074275	buscar un
-0.5092357	buscar'e la
-0.5074275	buscar'ia un
-0.5966834	c'aceres </s>
-1.160347	c'aceres a	-0.1447845
-1.722376	c'aceres capital
-1.610565	c'aceres desde
-1.432398	c'aceres el	0
-1.198723	c'aceres para	-0.1351955
-0.7592929	c'aceres y	-0.06451561
-0.6248424	c'adiz </s>
-1.373785	c'adiz a
-1.326042	c'adiz el	0
-1.461744	c'adiz en
-1.566882	c'adiz ese
-1.523626	c'adiz la
-1.539757	c'adiz los	0
-1.544716	c'adiz me
-1.454931	c'adiz por
-1.582919	c'adiz saliendo
-0.9944121	c'omo ha
-0.5279773	c'omo no
-0.5189475	c'omoda mejor
-0.7298588	c'omodo </s>
-1.14425	c'omodo de
-1.258115	c'omodo no
-1.202031	c'omodo para
-1.277549	c'omodo pero
-1.183383	c'ordoba </s>
-0.9742399	c'ordoba a	-0.2411192
-0.7344443	c'ordoba el	-0.07650246
-1.385451	c'ordoba para
-1.497092	c'ordoba ser'ia
-0.9928622	c'ordoba y
-1.211605	cada cu'anto
-1.211605	cada salida
-0.4904948	cada uno	-0.2122025
-0.4625494	callado </s>
-0.7803659	cama </s>
-1.354986	cama adem'as
-1.188621	cama de
-1.30732	cama o
-1.308396	cama si
-1.357392	cama tienen
-0.5146821	cambiar el	-0.07480067
-0.5310292	cambiar la	-0.1006687
-1.473688	cambiar ninguna
-0.4892275	cambrils a
-0.4887086	camino de
-0.4625494	capital </s>
-0.7123948	caracter'isticas </s>
-0.8165064	caracter'isticas tipo
-0.4625494	carnavales </s>
-0.4625494	caro </s>
-0.7123948	casa </s>
-0.7748212	casa y
-0.4625494	castell'o </s>
-0.6878902	castell'on </s>
-1.228265	castell'on a	-0.06597835
-1.493785	castell'on de
-1.673305	castell'on desde
-1.811402	castell'on destino
-1.196515	castell'on el	-0.1410124
-1.607215	castell'on en
-1.771269	castell'on este
-1.734533	castell'on no
-1.06042	castell'on para	-0.1029495
-1.598544	castell'on por
-1.822762	castell'on viajando
-1.559175	castell'on y
-0.5114157	catalu~na_expres si
-1.173935	catorce </s>
-0.5116713	catorce de	-0.2086835
-1.460997	catorce horas	0
-1.352364	catorce por	0
-1.441299	catorce tambi'en
-1.472387	catorce verdad
-0.5203539	celebre carnavales
-0.3406968	cerca de	-0.2411192
-0.4625494	cercana </s>
-0.4892275	cercano a
-0.518577	cero horas
-0.5090546	cierra del
-0.6446541	cinco </s>
-1.571261	cinco a
-1.867467	cinco creo
-0.5885907	cinco de	-0.1655142
-1.872523	cinco esto
-1.855081	cinco horas
-1.745566	cinco la
-1.852645	cinco llega
-1.766963	cinco o
-1.806601	cinco qu'e	0
-1.670778	cinco que
-1.628198	cinco y	0
-0.8600006	cincuenta </s>
-0.5130935	cincuenta y	-0.1036144
-0.4625494	citado </s>
-1.121729	ciudad cercana
-1.007162	ciudad de
-1.121729	ciudad monumental
-1.050926	ciudad que
-0.7709532	ciudad_real </s>
-1.038794	ciudad_real a	0
-1.315467	ciudad_real el	0
-1.550101	ciudad_real hasta	0
-1.075978	ciudad_real para
-1.436128	ciudad_real por
-1.060404	ciudad_real y
-0.6677642	claro </s>
-1.178038	claro es
-1.138585	claro para
-1.197155	claro pues
-0.9052768	clase </s>
-1.451506	clase de
-1.311145	clase econ'omica	-0.2411192
-1.772534	clase especial
-1.713308	clase m'as
-1.677274	clase no
-1.656182	clase o	0
-1.045496	clase preferente	-0.1411068
-1.760386	clase primera
-1.697174	clase qu'e
-1.047482	clase turista	-0.03720051
-1.342488	coche </s>
-0.2211152	coche cama	-0.2251477
-1.069459	coche en	-0.2411192
-1.100329	coger a
-0.7009116	coger el
-0.7376077	coger un	-0.2411192
-0.4892275	cogi'endolo a
-0.4815093	cogiendo el
-0.4887086	cojo de
-1.282083	como de
-1.027425	como es
-1.45623	como horarios
-1.486548	como llegar
-1.518391	como m'aximo
-1.366085	como para
-1.494892	como precios
-1.515595	como servicio
-1.513831	como voy
-0.4625494	compa~n'ia </s>
-0.5203539	competici'on deportiva
-0.5090546	completo del
-0.2653335	comprar un	-0.1398666
-0.5074275	compro un
-2.13758	con arco	0
-2.134306	con bar
-2.096295	con coche
-0.9559379	con destino	-0.1021306
-2.13758	con direcci'on
-1.092796	con el	-0.1022986
-2.124757	con esto
-1.906027	con la
-2.073923	con las
-2.124757	con literas
-1.40993	con llegada	-0.353837
-2.052647	con llegar
-1.413728	con punto	-0.3538371
-1.628102	con qu'e	-0.2411192
-0.9559379	con salida	-0.1389946
-1.413728	con servicio	-0.353837
-2.024511	con trenes
-1.352457	con un	-0.1354126
-2.119882	con unos
-2.115061	con vuelta
-0.842703	concierto </s>
-0.9097084	concierto a
-0.9433292	concierto para
-0.4815093	concretar el
-0.501691	concretos para
-0.5141561	condiciones entre
-0.8896728	confirmar el
-0.964516	confirmar la
-0.9755101	confirmar no
-0.4815093	confirme el
-0.5203539	confundida se~norita
-0.4892275	congreso a
-0.534725	conocer el	-0.5304856
-1.913096	conocer horario
-0.8681126	conocer horarios	-0.3051876
-0.5463335	conocer los	-0.6062176
-1.472842	conocer tambi'en	-0.2411192
-1.8398	conocer un
-0.5174676	conozco entonces
-0.7466932	conseguir el	0
-0.8027554	conseguir los
-0.7123948	consulta </s>
-0.8132101	consulta horario
-1.857511	consultar adem'as
-0.6582306	consultar el	-0.3843688
-1.789263	consultar ese	0
-1.397168	consultar horario	-0.1310499
-1.13432	consultar horarios	-0.2256366
-0.92807	consultar los	-0.07558721
-1.846698	consultar precio
-1.841391	consultar precios
-1.810842	consultar tambi'en
-1.810842	consultar trenes
-1.712297	consultar un
-1.825848	consultar viaje
-0.5203539	contestan autom'aticamente
-0.517283	corresponde al
-0.5203539	cosa odio
-0.5196893	cosita dime
-0.5183919	costa porque
-0.4625494	costar </s>
-1.155456	costar'ia </s>
-0.944049	costar'ia el	-0.103072
-1.371397	costar'ia en
-1.46315	costar'ia ese
-1.481564	costar'ia ir
-1.425745	costar'ia la
-1.017163	costar'ia un	-0.2411192
-1.499158	costar'ia volver
-0.4625494	crem'a </s>
-0.1119157	creo que	0
-1.076363	cu'al de	-0.1438761
-1.836949	cu'al era
-0.186982	cu'al es	-0.5406945
-1.373222	cu'al ser'ia	-0.2411192
-0.8471048	cu'ales de	-0.2411192
-0.9001254	cu'ales llegan
-0.6359428	cu'ales son	-0.1429474
-0.983537	cu'ando hay
-0.991165	cu'ando llega
-0.9884253	cu'ando podr'ia
-1.48685	cu'anto costar'ia	-0.09620471
-0.7668353	cu'anto cuesta	-0.3200893
-1.579864	cu'anto de
-1.487589	cu'anto dura	-0.2411192
-1.43461	cu'anto es
-0.996435	cu'anto me	-0.2345886
-1.91149	cu'anto puede
-1.936317	cu'anto salen
-1.947895	cu'anto tarda
-1.947895	cu'anto tardar'ia
-1.945766	cu'anto tiempo
-1.01212	cu'anto vale	-0.1095927
-1.945766	cu'anto valen
-0.8194577	cu'antos d'ias
-0.760045	cu'antos de
-0.5191329	cuales llegan
-1.758861	cualquier clase
-1.773443	cualquier compa~n'ia
-0.8343695	cualquier d'ia	-0.1740146
-1.306301	cualquier hora	0
-1.760757	cualquier otro
-0.6954964	cualquier tipo	-0.2175775
-0.8330206	cualquier tren	-0.3051876
-0.7123948	cualquiera </s>
-0.8139404	cualquiera pero
-0.5174676	cuando podr'ia
-0.5119624	cuanto antes
-1.227646	cuarenta </s>
-1.352118	cuarenta que
-0.2329843	cuarenta y	-0.4108337
-0.7123948	cuarto </s>
-0.760045	cuarto de
-0.7823437	cuatro </s>
-1.324112	cuatro a
-1.907635	cuatro cinco
-1.92738	cuatro cincuenta
-0.5715451	cuatro de	-0.1382749
-1.913186	cuatro deseo
-1.92738	cuatro necesitar'ia
-1.423973	cuatro o
-1.695822	cuatro por	0
-1.875745	cuatro s'i
-1.930062	cuatro u
-1.355432	cuatro y
-0.5734439	cuenca </s>
-1.021396	cuenca a	-0.1014297
-1.520525	cuenca con
-0.7800018	cuenca el	-0.09846306
-1.406117	cuenca y
-0.4625494	cuento </s>
-1.203035	cuesta </s>
-1.542668	cuesta billete
-1.554011	cuesta cada
-1.54427	cuesta d'igame
-0.5842242	cuesta el	-0.1922562
-1.520833	cuesta este
-1.523886	cuesta ir
-1.45596	cuesta un	0
-0.496557	cullera y
-0.496557	cultural y
-0.4887086	curso de
-0.5092357	d'e la
-1.148936	d'ia </s>
-1.689539	d'ia a
-2.461951	d'ia anterior
-1.85883	d'ia antes	0
-1.758889	d'ia catorce	-0.03425643
-1.99196	d'ia cinco	-0.1297016
-1.98362	d'ia cuatro	-0.1288746
-1.346452	d'ia de	-0.09742493
-2.393146	d'ia diecinueve	0
-2.004779	d'ia dieciocho	-0.2411192
-1.751566	d'ia diecis'eis	-0.1108393
-2.393146	d'ia diecisiete	0
-1.753993	d'ia diez	-0.3538371
-2.000464	d'ia doce	-0.1252649
-1.959518	d'ia dos	0
-1.509661	d'ia el
-2.179651	d'ia entre
-2.393146	d'ia est'a
-1.767787	d'ia laborable	-0.1357168
-2.403883	d'ia lunes	0
-2.097186	d'ia me	0
-2.393146	d'ia nueve	0
-2.086586	d'ia o
-1.739628	d'ia ocho	-0.1159931
-2.004779	d'ia once	0
-1.710621	d'ia para
-2.281535	d'ia pero
-1.557616	d'ia por	-0.108253
-2.426187	d'ia preferente
-2.199561	d'ia qu'e
-1.868842	d'ia que
-2.000464	d'ia quince	-0.07337049
-2.306865	d'ia s'abado
-1.98777	d'ia seis	-0.1037689
-2.382668	d'ia siete	0
-1.753993	d'ia siguiente	-0.06440155
-1.763841	d'ia trece
-1.737279	d'ia treinta	-0.1493846
-2.382668	d'ia tres	0
-1.98362	d'ia uno	0
-2.004779	d'ia veinte	-0.05894809
-2.414892	d'ia veinticinco
-2.004779	d'ia veinticuatro	-0.2411192
-2.414892	d'ia veintid'os	0
-2.414892	d'ia veintinueve	0
-2.017988	d'ia veintiocho	-0.2411192
-2.009138	d'ia veintis'eis
-1.552104	d'ia veintisiete	0
-2.437784	d'ia veintitr'es	0
-2.4497	d'ia veintiuno	0
-1.788052	d'ia y
-1.267048	d'ias </s>
-1.891188	d'ias desear'ia	0
-1.89551	d'ias diecinueve	0
-1.899876	d'ias diecis'eis
-1.899876	d'ias doce
-1.402685	d'ias el
-1.929739	d'ias laborables
-1.922388	d'ias llamaba	0
-1.749355	d'ias me	0
-1.904286	d'ias mira	0
-1.908741	d'ias mire	0
-1.89551	d'ias necesito
-1.878473	d'ias ocho
-1.862079	d'ias podr'ia
-1.823613	d'ias pues
-1.805587	d'ias quer'ia	0
-1.854109	d'ias querr'ia	0
-1.846282	d'ias quisiera	0
-1.891188	d'ias siete	0
-1.878473	d'ias son
-1.441264	d'ias tengo
-1.88267	d'ias uno
-1.904286	d'ias veinte	0
-1.904286	d'ias veintinueve	0
-1.545209	d'ias y
-1.46265	d'igame a
-1.730883	d'igame alguno
-1.016733	d'igame cu'al	-0.353837
-1.746651	d'igame cu'antos
-0.6319323	d'igame el	-0.5756858
-1.557978	d'igame en
-1.644042	d'igame los
-1.20815	d'igame por	-0.2411192
-1.647718	d'igame si
-1.692398	d'igame tambi'en
-0.5132407	d'onde quiero
-0.5200607	da igual	0
-0.842703	dado </s>
-0.8896728	dado el
-0.9702401	dado es
-0.5110516	dame los
-0.343051	dar el	-0.4787758
-1.261891	dar los
-1.224669	dar por
-0.4994728	darme el	-0.2411192
-0.9732569	darme los
-2.599787	de 'avila	-0.353837
-1.810511	de </s>
-2.134713	de a
-1.42187	de abril	-0.478051
-2.88916	de acuerdo	-0.2411192
-1.532466	de agosto	-0.3577782
-2.401093	de albacete	-0.4787758
-2.977906	de alg'un	0
-2.166984	de alicante	-0.4082707
-3.237953	de almer'ia	0
-3.299248	de alta_velocidad
-3.299248	de aqu'i
-2.777525	de ave
-3.268688	de badajoz
-3.299248	de bar	0
-1.642707	de barcelona	-0.5109716
-1.530716	de bilbao	-0.3961555
-2.380012	de billete	-0.3222947
-2.620764	de billetes	-0.353837
-2.401093	de burgos	-0.2310088
-2.271646	de c'aceres	-0.1596116
-3.20925	de c'adiz
-3.182327	de c'ordoba
-3.322077	de cambrils
-1.903726	de castell'on	-0.4741383
-2.606667	de ciudad_real	-0.1405854
-2.798584	de clase
-2.24976	de cualquier	-0.1622901
-3.048576	de cuatro
-2.405435	de cuenca	-0.09760645
-2.137751	de d'ia	-0.1159465
-2.082705	de de
-1.821073	de diciembre	-0.3352574
-2.820718	de diez	-0.2411192
-2.80951	de doce	-0.2411192
-3.268688	de dormir
-1.996567	de dos	-0.3760512
-2.003265	de el	-0.1023049
-2.425883	de ellos	-0.04468132
-1.911461	de enero	-0.2909581
-2.744068	de entre
-3.182327	de esa
-2.184749	de ese	-0.1404111
-2.086882	de esos	-0.3662031
-3.268688	de esta
-3.182327	de estar
-2.88916	de estas
-2.121565	de este	-0.1021207
-2.177183	de estos	-0.1376879
-2.977906	de euromed
-1.653834	de febrero	-0.3827268
-3.268688	de fecha
-3.322077	de forma
-2.606667	de gij'on	-0.1386894
-3.299248	de girona
-2.820718	de granada	-0.1419228
-3.08875	de hora
-2.876571	de horario
-2.556715	de horarios	-0.1390693
-3.20925	de huelva
-1.593721	de ida	-0.3395592
-3.20925	de ja'en
-1.746295	de julio	-0.3657787
-1.512846	de junio	-0.4857541
-2.868685	de l'erida
-1.264635	de la	-0.5879703
-2.606667	de la_coru~na	-0.1429792
-1.67145	de las	-0.4080757
-3.20925	de le'on
-3.182327	de litera
-2.401093	de llegada	-0.07796183
-2.820718	de lleida	-0.2411192
-2.868685	de logro~no	-0.2411192
-1.642638	de los	-0.466538
-2.844039	de m'alaga	-0.2411192
-1.524932	de madrid	-0.5153178
-3.322077	de manera
-1.391151	de marzo	-0.5195042
-1.577644	de mayo	-0.5251834
-2.863848	de ma~nana	0
-3.20925	de mediod'ia
-3.182327	de mes
-3.322077	de muestras
-2.091093	de murcia	-0.164669
-3.322077	de navidad
-3.322077	de negocio
-3.299248	de negocios
-3.20925	de noche	0
-2.025742	de noviembre	-0.3230038
-3.110322	de nueve
-2.025742	de octubre	-0.4164706
-3.237953	de orense
-3.322077	de origen
-2.820718	de oviedo	-0.2411192
-2.414251	de palencia	-0.221508
-2.405435	de pamplona	-0.09866969
-3.299248	de par'is
-3.299248	de pasar
-3.322077	de pascua
-3.322077	de paso
-2.832222	de primera	0
-3.20925	de r'apidos
-2.946463	de s'abado
-3.110322	de s'olo
-3.20925	de salamanca
-2.076528	de salida	-0.11457
-3.322077	de san_jos'e
-2.409821	de san_sebasti'an	-0.3051876
-2.384147	de santander	-0.232677
-3.299248	de santiago
-3.268688	de segovia
-3.068198	de seis
-2.798584	de semana	-0.01037184
-3.268688	de semana_santa
-1.910551	de septiembre	-0.4001459
-3.08875	de ser
-3.322077	de servicios
-3.322077	de setiembre
-1.948432	de sevilla	-0.4459517
-3.08875	de siete
-2.9619	de talgo
-2.268451	de tarragona	-0.5756858
-3.322077	de teatro
-3.156976	de teruel
-2.88916	de trabajo
-1.879665	de tren	-0.1147383
-1.756291	de trenes	-0.2468016
-3.08875	de tres
-2.028001	de un	-0.2832703
-2.931556	de una
-3.20925	de unos
-3.299248	de vacaciones
-1.547883	de valencia	-0.5648477
-2.586344	de valladolid	-0.353837
-3.322077	de verano
-2.63067	de viajar	-0.09560173
-2.226028	de viaje	-0.3915692
-2.787927	de viajes	-0.2411192
-3.029801	de viernes
-2.586344	de vigo	-0.353837
-2.620764	de vitoria	-0.1425579
-1.678757	de vuelta	-0.3225251
-2.422916	de zamora	-0.229223
-1.704831	de zaragoza	-0.6290091
-0.5203539	debe durar
-0.5187622	deber'ian ser
-0.4625494	debido </s>
-1.358898	decir </s>
-1.305371	decir a
-1.912745	decir cu'anto
-0.809201	decir el	-0.3691722
-1.671507	decir en
-1.197773	decir horarios	-0.2411192
-1.414883	decir la
-1.426048	decir los	-0.2411191
-1.671507	decir para
-1.153323	decir por	-0.353837
-1.449278	decir qu'e	0
-1.669521	decir que
-1.794983	decir si
-1.860518	decir trenes
-1.909291	decir ya
-1.468083	decirme cu'ales
-0.6927853	decirme el	-0.353837
-1.395218	decirme la
-0.9873517	decirme los	-0.2411192
-1.343155	decirme por
-1.409575	decirme si
-0.5170984	decirte una
-0.4815093	deis el
-1.520359	del 'ultimo	-0.2127476
-1.851723	del ave
-2.580824	del a~no
-1.849548	del billete	-0.04580799
-2.100715	del coche	-0.2411192
-2.093046	del cuatro
-1.321551	del d'ia	-0.05495859
-1.703399	del de	-0.1026981
-2.506605	del diecinueve
-2.516568	del domingo
-1.050883	del dos	-0.5521424
-1.644221	del euromed	-0.2116146
-2.053131	del horario	-0.2411192
-2.089262	del intercity	-0.2411192
-2.537207	del jueves	0
-2.046252	del m'as	-0.2411192
-2.580824	del mare_nostrum
-1.25989	del mediod'ia	-0.2004496
-1.862764	del mes	-0.1306002
-2.112478	del mismo
-1.653791	del pr'oximo
-2.089262	del precio	0
-1.869526	del primer	-0.1336876
-2.57013	del primero
-2.004557	del que
-2.516568	del quince
-1.641525	del s'abado	-0.06617989
-2.132514	del segundo	0
-2.48734	del seis
-2.074447	del talgo	0
-2.588496	del tercer
-2.588496	del tercero
-2.588496	del ticket
-2.459955	del tipo
-2.547906	del trayecto	0
-1.137215	del tren	-0.190374
-2.357932	del trenes
-2.496866	del tres
-2.588496	del triana
-1.5133	del uno	-0.3538371
-2.112478	del veinticinco	-0.2411192
-1.862764	del veintis'eis	-0.353837
-1.402643	del viaje	-0.2047979
-2.089262	del viernes
-0.8211554	demasiado caro
-0.8194577	demasiado tarde
-0.9906157	deme cualquier
-0.8896728	deme el	0
-0.9765718	deme horarios
-0.3406968	dentro de
-0.5015129	deportiva que
-0.5134236	des horarios
-1.887124	desde 'avila	-0.2283136
-1.730626	desde </s>
-1.747784	desde alicante	-0.2222822
-2.096309	desde almer'ia	-0.09343904
-2.816129	desde almeria
-2.361746	desde aqu'i	-0.2411192
-1.370514	desde barcelona	-0.2435399
-0.9779798	desde bilbao	-0.4162215
-2.088042	desde burgos	-0.1407487
-1.887124	desde c'aceres	-0.2281813
-2.753992	desde c'ordoba	0
-1.747784	desde castell'on	-0.06341353
-1.645402	desde ciudad_real	-0.13413
-2.09078	desde cuenca
-1.894698	desde el
-2.816129	desde el_ferrol
-2.780055	desde gerona
-2.093536	desde gij'on	-0.1386894
-1.885409	desde granada	-0.09549286
-2.806733	desde guadalajara
-1.895063	desde hendaya	-0.2251283
-2.346997	desde huelva	-0.2411192
-2.365095	desde ir'un
-2.365095	desde iru~nea	-0.2411192
-2.346997	desde la_coru~na
-1.871926	desde las	-0.1017706
-1.750285	desde le'on	-0.3051876
-1.643436	desde lleida	-0.6548671
-1.892311	desde logro~no	-0.0919663
-2.780055	desde luego
-1.242827	desde madrid	-0.3797684
-2.816129	desde monz'on
-1.561797	desde murcia	-0.3121132
-2.780055	desde orense
-1.559366	desde oviedo	-0.2028028
-2.096309	desde palencia	-0.1366184
-2.34207	desde pamplona	-0.2411192
-2.766828	desde salamanca
-1.750285	desde san_sebasti'an	-0.1791672
-2.318241	desde santander
-2.0991	desde segovia
-2.074605	desde sevilla	-0.1387939
-2.741524	desde tarragona	0
-2.337198	desde teruel
-2.780055	desde toledo
-1.116713	desde valencia	-0.3782423
-2.332381	desde valladolid
-2.332381	desde vigo
-2.793698	desde vitoria
-1.09052	desde zaragoza	-0.4619593
-1.210384	deseaba nada
-0.7528296	deseaba obtener
-1.199605	deseaba saber
-1.197155	deseaba tambi'en
-1.18551	desear'ia conocer	-0.200714
-1.886871	desear'ia hacer
-1.856904	desear'ia ir
-1.854498	desear'ia m'as
-1.184483	desear'ia obtener	-0.1600071
-1.695518	desear'ia que
-0.5747257	desear'ia saber	-0.2158126
-1.176351	desear'ia salir	-0.1628829
-1.75423	desear'ia un	0
-1.176854	desear'ia viajar	-0.1676737
-1.625696	deseo cambiar	0
-1.618957	deseo conocer	-0.07936503
-2.057908	deseo consultar
-1.202637	deseo el	-0.1436447
-1.938233	deseo horarios
-2.039914	deseo informaci'on
-1.993961	deseo ir	0
-1.604167	deseo llegar	-0.2411192
-1.895118	deseo los	0
-2.048818	deseo nada	0
-1.615627	deseo obtener	-0.08635131
-1.484839	deseo que	-0.2411192
-2.07668	deseo realizar
-2.081502	deseo regresar
-1.012314	deseo saber	-0.1877794
-1.010251	deseo salir	-0.3545079
-1.593002	deseo tambi'en	-0.1405636
-1.527363	deseo un	-0.08968231
-1.347337	deseo viajar	-0.1527845
-0.9987618	despu'es </s>
-0.3993368	despu'es de	-0.3216142
-1.518981	despu'es del
-1.473345	despu'es en
-1.563433	despu'es saliendo
-1.443736	despu'es y
-1.522069	destino a	0
-1.429805	destino alicante	-0.2411192
-1.763227	destino antes
-0.8181568	destino barcelona	-0.1392254
-1.881166	destino bilbao
-1.877873	destino castell'on
-1.639174	destino en
-1.884483	destino ja'en
-0.9572939	destino madrid	-0.06799774
-1.62981	destino por
-1.864947	destino santander
-1.861775	destino sevilla
-1.877873	destino tarragona
-1.877873	destino teruel
-1.874606	destino valladolid
-1.864947	destino zaragoza
-0.8157718	dice cu'al
-0.7466932	dice el
-0.4815093	dices el	0
-0.7603034	dicho </s>
-1.564808	dicho al
-1.513291	dicho antes
-1.568597	dicho cu'al
-1.335671	dicho de
-1.29128	dicho el
-1.506642	dicho es
-1.504995	dicho los
-1.425611	dicho que
-1.551802	dicho tren
-0.5156248	dichos trenes
-1.092504	diciembre </s>
-1.21984	diciembre a
-1.380093	diciembre con
-1.217057	diciembre de
-1.286064	diciembre por	0
-1.378749	diciembre qu'e
-1.290421	diciembre que
-1.260799	diciembre y
-0.7842757	diciendo que	0
-0.8211554	diciendo se~nora
-0.6258409	diecinueve </s>
-0.5464752	diecinueve de	-0.219969
-1.73217	diecinueve horas	0
-1.257933	diecinueve o
-1.590592	diecinueve por
-1.727076	diecinueve treinta
-1.561968	diecinueve y	0
-1.015633	dieciocho a
-1.553198	dieciocho cuarenta
-0.5944533	dieciocho de	-0.1616573
-1.490594	dieciocho o
-1.045266	dieciocho por	-0.2411192
-1.395556	dieciocho y	0
-0.7662909	diecis'eis </s>
-1.764165	diecis'eis cuarenta	0
-0.5684576	diecis'eis de	-0.2897733
-1.766156	diecis'eis habr'ia
-1.754345	diecis'eis horas
-1.029437	diecis'eis o	-0.1265613
-1.603328	diecis'eis para
-1.565269	diecis'eis y
-1.331095	diecisiete </s>
-1.438854	diecisiete a
-0.2500309	diecisiete de	-0.2819193
-1.587887	diecisiete horas
-1.556523	diecisiete no
-0.7466932	diera el
-0.8074109	diera horarios
-0.5074275	dieras un
-1.291512	diez </s>
-1.431504	diez a	0
-0.4621341	diez de	-0.1634062
-1.584323	diez o
-1.506133	diez por
-1.621303	diez pues
-1.642732	diez treinta
-1.128919	diez y	0
-0.5110516	diga los
-0.9097084	digas a
-0.8896728	digas el
-0.9765718	digas horarios
-0.9950298	dijese cu'ales
-0.8896728	dijese el
-0.9697166	dijese los
-1.205095	dime alg'un
-1.21695	dime cu'ando
-1.052027	dime el	0
-1.184883	dime horarios
-1.173862	dime los
-0.4815093	dir'ia el	0
-0.4892275	direcci'on a
-0.4887086	dispone de
-0.6677642	disponible </s>
-1.063014	disponible el
-1.138585	disponible en
-1.138585	disponible para
-0.3255304	disponibles </s>
-0.7610146	diurno a
-0.8031118	diurno es
-1.129027	doce </s>
-1.215652	doce a	0
-0.508233	doce de	-0.2014753
-1.289049	doce del	0
-1.723567	doce ese
-1.713965	doce no
-1.600897	doce por
-1.788364	doce vamos
-1.241744	doce y	0
-0.85089	domingo </s>
-1.505695	domingo a	0
-1.911171	domingo cualquiera
-1.430748	domingo d'ia	0
-1.263561	domingo de	0
-1.72255	domingo del
-1.707739	domingo desde
-1.630155	domingo en	0
-1.630155	domingo para
-1.117364	domingo por	-0.108253
-1.62813	domingo que
-1.756488	domingo si
-1.892479	domingo veinticinco
-1.892479	domingo veintid'os
-1.892479	domingo veintinueve
-1.903766	domingo veintiocho	0
-1.896209	domingo veintisiete
-1.574949	domingo y
-0.5177303	dormir en
-0.9853539	dormir hay
-2.04596	dos 'ultimos
-0.8016967	dos </s>
-2.033487	dos cuarenta
-0.6276524	dos de	-0.2162268
-1.523611	dos del
-1.911449	dos es
-1.940789	dos horarios
-1.886192	dos la
-1.114368	dos mil	-0.2493646
-2.048062	dos semanas
-0.9667088	dos trenes	-0.06329545
-2.021139	dos tres
-1.751162	dos y	0
-0.4815093	dura el
-0.5090546	duraci'on del	0
-1.208708	durante cualquier
-1.063014	durante el
-0.7387173	durante la	-0.2411192
-1.217943	durante toda
-0.5187622	durar como
-0.3480806	durmiendo en	-0.2411192
-0.5161768	e ir
-0.7123948	econ'omica </s>
-0.8179796	econ'omica posible
-0.496557	efectivamente y
-0.4625494	efecto </s>
-0.3255304	eh </s>
-0.842703	ejemplo </s>
-0.9950298	ejemplo c'adiz
-0.8896728	ejemplo el
-1.944766	el 'ultimo	-0.1274501
-3.373272	el 'unico
-2.036381	el </s>
-3.335893	el anterior
-2.435562	el ave	-0.07354027
-1.811309	el billete	-0.5186931
-3.373272	el camino
-2.212236	el catorce	-0.6548671
-1.777315	el cinco	-0.6340945
-3.200447	el coche	0
-2.432715	el cuatro	-0.2200346
-1.078337	el d'ia	-0.5622806
-1.631475	el de	-0.5375726
-2.441639	el del
-3.184135	el destino
-1.813349	el diecinueve	-0.7628809
-1.895856	el dieciocho	-0.2906643
-2.309699	el diecis'eis	-0.2281255
-2.053461	el diecisiete	-0.5367803
-1.995722	el diez	-0.6115753
-2.054648	el doce	-0.4523423
-1.508486	el domingo	-0.3286413
-2.288831	el dos	-0.5756858
-2.292925	el euromed	-0.2235178
-2.311842	el fin	-0.5756858
-1.503448	el horario	-0.414547
-2.617831	el intercity	-0.353837
-3.357458	el intervalo	0
-1.68785	el jueves	-0.2573748
-1.546684	el lunes	-0.3085373
-2.179352	el m'as	-0.313532
-3.357458	el mare_nostrum
-1.71531	el martes	-0.2394958
-3.292701	el mediod'ia
-3.272616	el mes
-2.213947	el mi'ercoles	0
-1.995722	el mismo	-0.4339291
-3.373272	el momento
-3.373272	el norte
-1.993652	el nueve	-0.5573922
-1.775437	el ocho	-0.4995241
-2.311842	el once	-0.5756857
-3.235034	el otro
-1.205048	el pr'oximo	-0.7669584
-1.222921	el precio	-0.5396486
-1.946615	el primer	-0.2647105
-2.215665	el primero	-0.09060935
-2.924957	el puente
-2.663622	el punto	-0.3538371
-1.861106	el que	-0.2177447
-1.942007	el quince	-0.8767158
-3.373272	el regreso
-1.655338	el s'abado	-0.3128948
-2.924957	el segundo
-1.892571	el seis	-0.9181085
-2.203779	el siete	-0.3020092
-2.44714	el siguiente
-2.418753	el talgo	-0.07871675
-1.809954	el tipo	-0.9906591
-2.654069	el trayecto	-0.1291734
-2.916865	el trece	-0.2411192
-1.890123	el treinta	-0.3944336
-1.560596	el tren	-0.272716
-3.335893	el tren_hotel
-2.052278	el tres	-0.3474956
-1.776062	el uno	-0.8103375
-2.837966	el valencia	-0.2411192
-1.895856	el veinte	-0.6589593
-1.995722	el veinticinco	-0.8309584
-2.125633	el veinticuatro	-0.3210827
-2.644722	el veintid'os	-0.353837
-2.125633	el veintinueve	-0.7218139
-1.998846	el veintiocho	-0.8309582
-2.127034	el veintis'eis	-0.5149142
-2.450084	el veintisiete	-0.1397564
-2.212236	el veintitr'es	-0.3843688
-2.456031	el veintiuno	-0.4787758
-1.562122	el viaje	-0.3661818
-1.294875	el viernes	-0.3310249
-2.924957	el viernes_santo
-0.5130579	el_ferrol no
-0.3365611	elegir el
-1.064486	ellos </s>
-1.182675	ellos a
-1.304108	ellos es	0
-1.350574	ellos llega
-1.355633	ellos llegan
-1.349318	ellos son
-1.349318	ellos tiene
-1.766972	en </s>
-2.895413	en agosto	0
-2.457583	en alaris
-2.834584	en albacete	0
-2.722626	en alg'un
-2.440072	en alicante
-2.910807	en alta_velocidad
-2.910807	en altaria
-1.534113	en ave	-0.3059399
-1.842281	en barcelona	-0.07394627
-2.849011	en c'aceres
-2.210029	en cama	-0.353837
-2.440072	en castell'on	-0.1438251
-2.863934	en ciudad_real
-1.392985	en clase	-0.4990051
-1.353788	en coche	-0.9906591
-2.1747	en cualquier	-0.08876027
-2.921956	en cullera
-2.690915	en d'ia
-2.849011	en d'ias
-2.921956	en efecto
-1.001714	en el	-0.3649461
-2.214508	en en
-2.849011	en esa
-2.299555	en ese
-2.624851	en este
-1.350983	en euromed	-0.392799
-2.834584	en fin
-2.895413	en fumadores
-2.910807	en galicia
-2.651943	en horario
-2.863934	en huelva
-1.661894	en intercity	-0.1454371
-2.2034	en la
-2.863934	en le'on
-1.994524	en litera	-0.0509944
-2.68084	en llegar
-2.863934	en m'alaga
-2.165483	en madrid
-2.463581	en mi	-0.2411192
-2.921956	en nochevieja
-1.85697	en preferente	-0.220288
-1.287045	en primera	-0.3270618
-2.316438	en qu'e	-0.2411192
-2.211118	en que
-2.921956	en realidad
-1.992478	en regional	-0.1020149
-2.642723	en saber
-2.910807	en segunda	0
-2.206919	en semana_santa	-0.1399095
-2.910807	en septiembre
-2.412369	en sevilla
-2.453469	en si
-1.172264	en talgo	-0.4050845
-2.440072	en tarragona	0
-2.440072	en teruel	0
-2.74513	en tipo
-1.346809	en tren	-0.1220461
-2.895413	en tren_hotel
-2.338508	en trenes
-2.210029	en turista
-0.8727726	en un	-0.5317129
-2.690915	en una
-2.407034	en valencia	0
-2.82062	en valladolid
-2.210029	en vez	-0.1402089
-1.735386	en viaje	-0.3843688
-2.82062	en vigo
-2.781237	en zaragoza	0
-2.910807	en zona
-1.064486	enero </s>
-1.182675	enero a	0
-1.180119	enero de
-1.145838	enero el
-1.248007	enero en
-1.248007	enero para
-1.326125	enero quer'ia
-0.5110516	ense~nara los
-0.4625494	entendido </s>
-0.501691	enterar para
-0.5200607	entiendo c'omo
-1.329367	entonces </s>
-1.820418	entonces bueno
-1.831743	entonces claro
-1.369029	entonces cu'anto	-0.2411192
-1.837305	entonces deme
-1.446733	entonces el
-0.6492196	entonces me	-0.6548671
-1.817632	entonces necesito
-1.340345	entonces no
-1.348753	entonces quer'ia	-0.2411192
-1.7391	entonces quiero
-1.788114	entonces tengo
-1.809381	entonces ya
-1.645708	entre </s>
-2.1078	entre bilbao	0
-2.1078	entre c'ordoba
-2.11032	entre cada
-0.5603922	entre el	-0.228335
-2.1078	entre esos
-2.105294	entre granada
-0.3809907	entre las	-0.3458294
-2.105294	entre lleida
-2.102802	entre lunes
-2.083369	entre madrid
-2.095413	entre zaragoza
-0.5110516	enumerar los
-0.4625494	equipada </s>
-0.5132407	equivocado quiero
-1.029736	era </s>
-1.135299	era de
-1.104263	era el
-1.291203	era solo
-1.293402	era todo
-1.22519	era un
-0.799208	error la
-0.8066914	error no	0
-1.119623	es </s>
-1.696366	es a
-2.529424	es buena
-2.46873	es bueno
-2.062267	es cada	-0.2411192
-2.451839	es coche
-1.563586	es de
-2.529424	es debido
-2.072267	es demasiado	-0.2411192
-2.124415	es desde
-0.9733173	es el	-0.1152544
-1.814296	es en
-2.336172	es este
-1.58632	es euromed	-0.4787757
-2.495366	es exactamente
-2.355641	es horario
-2.529424	es imposible
-2.036052	es intercity
-2.349054	es ir
-1.902902	es la	0
-2.376025	es llegar
-2.427674	es lo	0
-1.999477	es m'as	-0.2411192
-2.062267	es muy
-2.477429	es oviedo
-2.504621	es palencia
-1.383244	es para
-2.369124	es pero
-1.350996	es posible	-0.05028892
-1.050302	es que	-0.1204971
-2.390166	es s'abado
-2.349054	es saber
-2.317538	es salir
-2.504621	es su	0
-1.812013	es suficiente	-0.1342108
-2.397413	es talgo
-1.354292	es todo	-0.3065763
-0.9751576	es un	-0.08929519
-2.427674	es volver
-1.927313	es y
-1.297453	esa franja
-1.28862	esa hora
-1.296776	esa misma
-1.296776	esa ruta
-0.8326229	esa semana	-0.2411192
-1.721186	ese 'ultimo	0
-1.493452	ese </s>
-2.135173	ese billete	0
-0.7868465	ese d'ia	-0.198464
-1.696825	ese de
-1.727523	ese diurno
-2.153816	ese domingo
-1.986052	ese es
-1.690631	ese horario	-0.2411192
-2.130634	ese intercity
-1.251374	ese mismo	-0.23165
-2.019684	ese no
-1.724718	ese primer	-0.2411192
-2.186325	ese recorrido
-1.449167	ese talgo	0
-2.126143	ese tipo
-1.721186	ese trayecto	-0.2411192
-0.8460388	ese tren	-0.1435561
-1.445423	ese viaje	-0.1424703
-2.130634	ese viernes
-0.8046454	eso </s>
-1.354915	eso era	-0.2411192
-0.5459099	eso es	-0.1764744
-1.802075	eso est'a
-1.722963	eso me
-1.626122	eso por
-1.32861	eso quiero	-0.2411192
-1.77475	eso s'i
-1.787148	eso ser'ia
-0.953689	esos dos	-0.2411192
-0.9455466	esos horarios
-0.6904917	esos trenes	-0.082022
-1.412491	esos viajes
-0.5008015	espec'ificamente por
-0.5115979	especial me
-1.291512	est'a </s>
-0.4813957	est'a bien	-0.2856818
-1.663366	est'a diciendo	0
-1.658211	est'a disponible
-1.641045	est'a gracias	0
-1.649543	est'a muchas	0
-1.200807	est'a todo	0
-1.664521	est'a totalmente
-0.9928172	esta bien
-0.9950298	esta noche
-0.9928172	esta semana
-0.5202329	estaba interesado
-0.5178371	estado las
-0.5115979	estamos me
-0.6955124	estar all'i	-0.1417648
-0.8883789	estar el
-0.6764913	estar en
-0.3577476	estar'ia bien
-0.7123948	estas </s>
-0.8209136	estas caracter'isticas
-1.652539	este 'ultimo	-0.1275391
-1.656876	este a~no
-2.074075	este billete	0
-2.089928	este domingo
-1.182003	este fin	-0.4787758
-2.098078	este jueves
-2.098078	este mes	0
-2.106383	este mi'ercoles
-1.6496	este mismo
-2.085911	este pr'oximo	0
-1.176548	este s'abado
-2.110595	este servicio
-2.055039	este talgo
-0.9313487	este tren	-0.3096702
-1.629567	este viaje	-0.1401528
-0.7184696	este viernes	-0.1702568
-1.755107	este y
-0.9955949	esto el
-0.6480929	esto es
-1.116107	esto muchas
-1.421019	estos 'ultimos
-1.399173	estos dos
-1.37195	estos horarios
-1.421019	estos talgos
-1.421936	estos trayectos
-1.387296	estos trenes	0
-0.9559606	estos viajes	0
-1.121246	estoy diciendo
-1.121246	estoy interesado
-1.121729	estoy refiriendo
-1.121729	estoy satisfecho
-0.926228	estrella </s>
-1.051557	estrella en	0
-1.087082	estrella si
-1.033615	estrella y	0
-0.4362181	euromed </s>
-1.96254	euromed disponibles
-1.58601	euromed el
-1.746289	euromed en
-1.880306	euromed entre
-1.845347	euromed es
-1.738013	euromed por
-1.188862	euromed que	-0.1449515
-1.215105	euromed si	-0.2203248
-1.949201	euromed vale
-0.9897786	euromed y	0
-1.029736	exactamente </s>
-1.249407	exactamente antes
-1.281442	exactamente cu'al
-1.104263	exactamente el
-1.261529	exactamente entre
-1.275055	exactamente s'i
-0.6677642	exacto </s>
-1.168787	exacto del
-1.189888	exacto ese
-1.210384	exacto eso
-0.501691	examen en
-0.4815093	excursi'on el
-0.6560451	existe alg'un	-0.2411192
-1.119427	existe ning'un
-1.117432	existe otro
-1.121729	exposici'on abre
-1.109592	exposici'on al
-1.121729	exposici'on cierra
-1.093296	exposici'on no
-0.501691	fallas para
-0.8143061	falta llegar
-0.8113895	falta viajar
-1.250035	favor </s>
-1.84618	favor adem'as
-1.819463	favor cu'al	0
-1.862219	favor dime
-1.381904	favor el	0
-1.576409	favor en
-1.741717	favor horarios	0
-1.675799	favor la
-1.703239	favor los
-1.711821	favor me
-1.858154	favor mire
-1.862219	favor otra
-1.815777	favor podr'ia	0
-1.763941	favor qu'e	0
-1.763941	favor quer'ia
-1.808498	favor querr'ia
-1.801338	favor quisiera
-1.797802	favor s'i
-1.850135	favor se
-1.708941	favor si	0
-1.780542	favor tambi'en
-1.862219	favor ver'a
-1.519031	favor y
-1.151599	febrero </s>
-1.546289	febrero bueno
-1.297706	febrero de	0
-1.449406	febrero del	0
-1.554256	febrero durante
-1.389066	febrero para
-1.382249	febrero por	0
-1.559467	febrero preferentemente
-1.510325	febrero pues
-1.523231	febrero sobre	0
-1.350941	febrero y
-1.029736	fecha </s>
-1.287925	fecha como
-1.233753	fecha del
-1.261529	fecha entre	0
-1.287925	fecha posible
-1.284671	fecha tiene
-0.5090546	fechas del
-0.4887086	feria de
-0.09260792	fin de	-0.5359915
-0.505995	finales de	-0.1436768
-0.9682387	finales del
-0.5092357	forma la
-0.4892275	francia a
-0.5203539	franja horaria
-0.5196893	frecuencia salen	0
-1.540977	fuera antes	0
-1.630353	fuera demasiado
-1.503119	fuera desde
-1.306399	fuera el
-1.448963	fuera en	0
-1.600631	fuera euromed	0
-1.441749	fuera por
-1.613188	fuera posible
-1.619605	fuera r'apido
-0.8780992	fuera un	-0.04452127
-1.576558	fuera viajar
-1.182675	fuese a
-1.360752	fuese barato
-1.145838	fuese el
-1.353096	fuese posible	0
-1.356907	fuese r'apido
-1.281005	fuese un
-1.339401	fuese viaje
-0.4625494	fumador </s>
-0.4822481	fumadores </s>
-0.9934497	fumadores clase
-0.5132407	fundamentalmente quiero
-0.3255304	galicia </s>
-0.4822481	gasteiz </s>
-0.9655256	gasteiz desde
-0.5736469	gerona </s>
-1.204771	gerona a
-1.171466	gerona el
-1.263138	gerona para
-1.353804	gerona salida
-0.4480177	gij'on </s>
-0.9021431	gij'on a	-0.1440745
-1.415616	gij'on alrededor
-1.357337	gij'on desde	0
-0.926228	girona </s>
-1.008876	girona a
-1.051557	girona en
-1.051557	girona para
-0.4499467	gracias </s>
-1.663754	gracias adi'os	-0.2411192
-2.118212	gracias buenos
-2.125816	gracias eh	0
-1.964889	gracias es	0
-1.191107	gracias eso	-0.315694
-1.658293	gracias est'a	0
-2.106632	gracias ha
-1.384619	gracias hasta	-0.353837
-2.095351	gracias muchas	0
-2.091655	gracias nada	0
-1.376035	gracias no
-1.540224	gracias por
-2.052951	gracias s'i
-1.397079	gracias ya	-0.2246557
-0.9104214	granada </s>
-1.179933	granada a	-0.1422062
-1.441241	granada de
-1.387146	granada el
-1.55685	granada en
-1.702172	granada entre
-1.725288	granada este
-1.755322	granada hacia
-1.717445	granada hasta
-1.55685	granada para	0
-1.308417	granada saliendo	-0.2411192
-1.752504	granada ser'ia
-1.741412	granada sobre
-1.212702	granada y
-0.3255304	guadalajara </s>
-0.5074275	gustado un
-1.27699	gustar'ia </s>
-1.97437	gustar'ia cambiar
-1.958788	gustar'ia como
-1.996055	gustar'ia comprar
-1.953716	gustar'ia conocer	0
-1.96392	gustar'ia consultar
-1.485511	gustar'ia de
-1.730106	gustar'ia desde
-1.41884	gustar'ia el	0
-1.635689	gustar'ia en
-1.97437	gustar'ia granada
-1.948703	gustar'ia hacer	0
-2.001237	gustar'ia hacerlo
-1.943746	gustar'ia informaci'on
-1.990532	gustar'ia informarme
-1.892662	gustar'ia ir	0
-1.910551	gustar'ia llegar	0
-1.82392	gustar'ia no
-1.943746	gustar'ia obtener	0
-1.990532	gustar'ia preguntar	0
-1.633272	gustar'ia que	0
-1.985077	gustar'ia realizar
-1.990532	gustar'ia regresar
-1.892662	gustar'ia saber	0
-1.87129	gustar'ia salir	0
-1.791502	gustar'ia si
-1.879713	gustar'ia tambi'en	0
-1.996055	gustar'ia tener
-1.721159	gustar'ia un	0
-1.875481	gustar'ia viajar	0
-1.943746	gustar'ia volver	0
-1.597295	ha citado
-1.595993	ha dado
-1.338579	ha de
-1.132797	ha dicho	0
-1.597295	ha equivocado
-1.135954	ha habido	-0.2411192
-1.135954	ha quedado
-1.597295	ha respondido
-1.597295	ha sido
-1.116139	hab'ia alguno
-1.118344	hab'ia dicho
-1.121729	hab'ia olvidado
-1.113946	hab'ia uno
-0.5195038	hab'ias dicho
-0.9950298	haber ning'un
-0.9840774	haber tren
-0.9829972	haber trenes
-0.5074275	habido un	0
-1.205095	habr'ia alg'un
-1.211438	habr'ia alguno
-1.218411	habr'ia gustado
-1.132376	habr'ia para
-1.216027	habr'ia posibilidad
-0.9781693	hace ese
-0.983537	hace este
-0.9970183	hace falta
-0.5139729	hacen ese
-1.535362	hacer a
-1.532454	hacer de
-0.7750056	hacer el	-0.2338565
-1.274101	hacer este	-0.2411192
-0.4050413	hacer un	-0.5263023
-1.721976	hacer una
-0.5177303	hacerlo en
-0.9686924	hacerlo la
-1.330761	hacia 'avila
-0.856973	hacia barcelona	-0.09356689
-1.783222	hacia cuenca
-1.322196	hacia las
-1.785955	hacia m'alaga
-1.063625	hacia madrid
-1.780506	hacia oviedo	0
-1.76981	hacia santander
-1.767177	hacia sevilla
-1.780506	hacia tarragona
-1.780506	hacia teruel
-1.764559	hacia valencia
-0.7466932	haga el
-0.799208	haga la
-0.4815093	hagan el
-0.8209136	has dado
-0.8194577	has dicho
-2.096501	hasta albacete
-2.096501	hasta alicante
-2.117785	hasta badajoz
-1.64068	hasta barcelona
-2.101725	hasta bilbao
-1.657357	hasta castell'on	0
-2.101725	hasta cuenca
-1.546676	hasta el
-1.390545	hasta las	-0.353837
-2.107013	hasta le'on
-2.096501	hasta lleida
-1.193657	hasta luego	-0.2256026
-0.9432728	hasta madrid	-0.2214472
-2.122867	hasta media
-2.112365	hasta orense
-2.096501	hasta oviedo
-2.107013	hasta salamanca
-1.649865	hasta santander	-0.2411192
-1.393622	hasta sevilla
-2.122867	hasta soria
-2.066412	hasta valencia
-1.397759	hasta vigo	-0.2159213
-1.649865	hasta zaragoza	-0.2411192
-1.15976	hay </s>
-1.140861	hay alg'un	-0.239464
-2.311203	hay alguna
-0.9894465	hay alguno	-0.5093076
-2.274119	hay alrededor
-2.303528	hay claro
-1.538265	hay de	0
-1.710759	hay desde
-2.295987	hay disponible
-2.208282	hay dos
-1.623789	hay el
-1.863945	hay en
-2.115165	hay entre
-2.323591	hay intercitys
-2.173093	hay ir
-2.167495	hay m'as
-2.253299	hay nada
-2.295987	hay ning'un	0
-2.323591	hay ninguno	0
-1.594319	hay otro	-0.353837
-1.862731	hay otros	-0.2411192
-1.470967	hay para	-0.2295835
-1.867101	hay plazas	-0.2411192
-1.639265	hay por	-0.2411192
-1.859983	hay posibilidad	-0.2411192
-2.267067	hay pr'oximo
-2.156512	hay pues
-2.214434	hay talgo
-2.311203	hay tanto
-1.801146	hay trenes	0
-1.112515	hay un	-0.4021711
-2.260128	hay viajes
-1.601412	hay y	0
-0.5074275	haya un
-1.297453	he acabado
-0.8336945	he dicho
-1.297453	he entendido
-1.297453	he estado
-1.297453	he preguntado
-0.7123948	hendaya </s>
-0.8031118	hendaya es
-0.4887086	historia de
-1.763562	hola buenas	0
-1.308624	hola buenos	-0.2411192
-1.763562	hola deseaba
-1.744866	hola desear'ia	0
-1.751009	hola deseo	0
-1.639737	hola me	0
-1.754114	hola mira	0
-1.75724	hola mire
-1.76039	hola muy	0
-1.747927	hola necesito
-1.682473	hola quer'ia	0
-1.71825	hola querr'ia	0
-1.661837	hola quiero	0
-1.71255	hola quisiera	0
-1.709728	hola s'i	0
-1.637349	hola si
-1.71539	hola tengo
-0.6898734	hora </s>
-1.567582	hora a
-1.968184	hora cu'al
-1.173774	hora de	-0.1005107
-1.807434	hora del
-1.499209	hora el
-1.843168	hora es
-1.556763	hora llega	-0.05400515
-2.033147	hora llegaba
-2.002628	hora llegan	0
-2.033147	hora llegar'ia
-1.936273	hora ma~nana
-1.964065	hora podr'ia
-1.985065	hora porque
-1.993757	hora posible
-1.980783	hora puede
-1.99817	hora puedo
-1.566501	hora sale	0
-2.016282	hora salen
-2.002628	hora se
-2.011683	hora tendr'ia
-1.951936	hora tengo
-1.642856	hora y
-0.4625494	horaria </s>
-1.16076	horario </s>
-1.734888	horario a
-2.131617	horario con
-0.6189758	horario de	-0.2938361
-2.007182	horario del	0
-1.987355	horario desde
-1.660382	horario el	0
-1.886873	horario en
-2.113969	horario entre
-2.28055	horario exacto
-2.154736	horario hay
-2.221329	horario ida
-2.046064	horario los
-2.268043	horario otra
-1.288617	horario para	-0.09351169
-2.179156	horario pero
-2.199731	horario podr'ia
-1.639641	horario por
-1.884317	horario que	0
-2.174161	horario s'i
-2.16434	horario saber
-2.150013	horario saliendo
-2.20503	horario ser'ia
-2.184209	horario sobre
-2.150013	horario tambi'en
-2.184209	horario tengo
-2.255885	horario tienen
-2.159512	horario tren
-1.977771	horario un
-2.290676	horario uy
-0.8632674	horario y	-0.2615082
-0.925589	horarios </s>
-1.60956	horarios a	-0.1019321
-2.271976	horarios antes
-2.519905	horarios as'i
-2.483484	horarios bueno
-1.770528	horarios con	-0.353837
-2.532058	horarios concretos
-2.532058	horarios corresponde
-0.7290062	horarios de	-0.3704287
-1.933316	horarios del	-0.05313478
-1.921663	horarios desde
-1.699909	horarios el
-2.077882	horarios en
-2.504968	horarios habr'ia
-2.013039	horarios hay	-0.07949673
-2.384005	horarios ir
-2.476552	horarios mejor
-2.255133	horarios o
-0.9725116	horarios para	-0.2386038
-2.025029	horarios pero
-1.514168	horarios por	-0.2009226
-2.476552	horarios puedo
-1.680424	horarios que	0
-2.303119	horarios quiero
-1.795594	horarios son
-2.424755	horarios talgo
-2.367646	horarios tambi'en
-2.532058	horarios tendr'e
-2.497688	horarios tendr'ia
-2.176059	horarios un
-0.781965	horarios y	-0.4118258
-0.6580653	horas </s>
-1.096896	horas a
-1.095274	horas de
-1.555773	horas del
-1.641674	horas puede
-1.576525	horas si
-1.628575	horas tengo
-1.120274	horas y
-0.802226	hoy </s>
-1.068621	hoy de
-1.547473	hoy es
-1.621801	hoy mismo
-0.8700643	hoy por	-0.353837
-1.610884	hoy tiene
-1.09246	hoy y	0
-0.7123948	hubiera </s>
-0.8201987	hubiera literas	0
-0.7867078	huelva </s>
-1.353356	huelva destino
-1.347769	huelva madrid
-0.8933403	huelva ma~nana	-0.2411192
-1.289669	huelva un
-0.842703	huesca </s>
-0.8896728	huesca el
-0.9433292	huesca para
-1.119633	ida </s>
-1.391051	ida a	-0.01235035
-2.040808	ida como
-1.95304	ida con	0
-1.59494	ida de	0
-1.846228	ida del
-1.517861	ida desde	-0.01952492
-1.530314	ida el
-1.739236	ida en
-1.938161	ida entre
-2.069527	ida esto
-2.018246	ida hacia
-2.036201	ida nada
-1.883273	ida o
-1.739236	ida para	0
-1.727823	ida por	0
-1.73693	ida que
-1.980372	ida saber
-2.036201	ida salida
-1.968447	ida saliendo
-2.069527	ida solamente
-2.027131	ida valencia
-1.615604	ida vuelta	0
-0.6604092	ida y	-0.2834816
-0.5112336	idea es
-1.284671	igual cualquier
-1.104263	igual el
-1.264613	igual qu'e
-1.195161	igual que
-1.267719	igual salir
-1.287925	igual yo
-0.5015129	importa que
-0.5130579	importancia no
-0.5154409	importar'ia viajar
-0.5202329	imposible usted
-1.840023	informaci'on acerca
-1.835734	informaci'on adi'os
-0.6416029	informaci'on de	-0.193294
-1.087471	informaci'on para	0
-0.3861867	informaci'on sobre	-0.3167733
-1.121382	informarme acerca
-0.6453997	informarme del
-1.058002	informarme para
-0.5187622	instrucciones como
-0.2977465	intercity </s>
-1.59909	intercity de
-1.554719	intercity el
-1.795417	intercity ese
-1.683542	intercity por
-1.68898	intercity que
-1.802466	intercity quer'ia
-1.116937	intercity si	-0.353837
-1.859182	intercity verdad
-0.4625494	intercitys </s>
-0.9853321	interesa </s>
-1.052027	interesa el
-1.187467	interesa ese
-1.197958	interesa ir
-1.218411	interesa tenerlo
-0.7846171	interesado en
-0.8157718	interesado euromed
-0.5182069	interesar'ia informaci'on
-0.5015129	intermedio que
-0.760045	intervalo de
-0.8121168	intervalo hay
-1.523002	ir </s>
-0.756932	ir a	-0.2128297
-2.280591	ir al
-2.316774	ir como
-1.850047	ir con	-0.2411192
-0.8784007	ir de	-0.1955538
-1.575055	ir desde	-0.01979904
-0.9200024	ir el	-0.177519
-0.7314697	ir en	-0.1833326
-2.212455	ir entre
-1.613465	ir este
-1.876607	ir hacia
-2.235302	ir hasta
-2.255304	ir ma~nana
-2.156824	ir o
-2.30285	ir ocho
-1.99972	ir por	0
-2.194293	ir quiero
-2.09319	ir un
-1.710736	ir y	0
-0.7123948	ir'un </s>
-0.7610146	ir'un a
-0.3409937	irme a	-0.1448514
-0.4625494	iru~nea </s>
-0.6255702	ja'en </s>
-1.346489	ja'en desde
-1.213804	ja'en el
-0.9189072	ja'en para
-1.391952	ja'en saliendo
-0.737032	jueves </s>
-1.33423	jueves a	-0.2411192
-1.973095	jueves adem'as
-1.836621	jueves antes	0
-1.932824	jueves d'ia
-1.331332	jueves de	0
-1.968896	jueves despu'es	0
-1.981618	jueves dieciocho
-1.973095	jueves diecisiete
-1.940585	jueves entonces
-1.855517	jueves no
-1.242688	jueves o	-0.1764552
-1.956536	jueves ocho	0
-1.689102	jueves para
-1.678267	jueves por	0
-1.686913	jueves que	0
-1.960617	jueves uno	0
-1.981618	jueves veinticinco
-1.981618	jueves veintid'os	0
-1.985943	jueves veintis'eis
-1.376974	jueves y
-1.115618	julio </s>
-1.402788	julio antes
-1.466852	julio cu'ales
-1.380671	julio del
-1.414284	julio horarios
-1.461949	julio martes
-1.43212	julio pues
-1.295297	julio y
-1.455497	julio ya
-1.115618	junio </s>
-1.402788	junio antes
-1.380671	junio del
-1.328656	junio en
-1.397152	junio es
-1.397152	junio o
-1.44132	junio pero
-1.322719	junio por
-1.455497	junio porque
-0.5130579	juntos no
-0.5168402	l'erida </s>
-1.160873	l'erida a
-1.257326	l'erida antes
-1.211713	l'erida en
-1.372008	la 'ultima	-0.654867
-2.532518	la ciudad	0
-2.067569	la clase
-2.546659	la costa
-2.546659	la crem'a
-2.186422	la del
-2.091109	la duraci'on	-0.2411192
-1.827308	la exposici'on
-1.477727	la fecha	-0.07709797
-2.546659	la feria
-1.283557	la hora	-0.2875086
-2.055638	la ida	-0.2411192
-2.546659	la idea
-2.452211	la informaci'on
-2.190416	la la
-1.613484	la llegada	0
-2.372094	la m'as
-1.359392	la ma~nana	-0.08167773
-2.546659	la ma~nanita
-2.540769	la misma
-1.822248	la noche	-0.1065312
-2.082958	la posibilidad	-0.2411192
-1.827308	la pr'oxima	-0.353837
-1.28555	la primera	-0.4772709
-1.47155	la salida
-1.478448	la segunda	-0.3051876
-0.970458	la semana	-0.5230025
-2.532518	la semana_santa
-2.474783	la siete
-1.4754	la tarde	-0.1675913
-1.798826	la una	-0.1412493
-2.546659	la vida
-1.010168	la vuelta	-0.2488076
-0.5670535	la_coru~na </s>
-1.346111	la_coru~na a	0
-1.304392	la_coru~na el
-1.53589	la_coru~na entonces
-1.51818	la_coru~na hasta
-1.421359	la_coru~na para
-1.031404	la_coru~na y
-0.7123948	laborable </s>
-0.760045	laborable de	0
-0.4625494	laborables </s>
-0.5139729	lanzadera ese
-1.549277	las </s>
-2.381161	las caracter'isticas
-2.359538	las catorce	0
-2.38612	las cero
-1.311179	las cinco	-0.2609826
-1.447857	las cuatro	-0.2098331
-1.909557	las diecinueve	0
-2.345356	las dieciocho
-1.912122	las diecis'eis	-0.1443141
-2.331622	las diecisiete	0
-1.207883	las diez	-0.3508049
-1.207374	las doce	-0.1619471
-1.642853	las dos	-0.07881195
-2.38612	las fechas
-2.31831	las horas
-2.38612	las instrucciones
-2.38612	las m'aquinas
-2.38612	las ma~nanas
-2.38612	las mismas
-2.38612	las navidades
-1.122403	las nueve	-0.2036526
-1.309249	las ocho	-0.06832662
-1.658351	las once	-0.1145309
-2.338435	las quince
-1.448742	las seis	-0.124159
-1.20636	las siete	-0.2656217
-1.311179	las tres	-0.2137977
-2.381161	las vacaciones
-2.345356	las veintid'os	0
-2.352389	las vuelta
-1.297453	le agradecer'ia
-1.29478	le estoy
-1.29478	le hab'ia
-1.29478	le he
-0.8351009	le pregunto	-0.2411192
-0.8286309	le'on </s>
-1.236009	le'on a
-0.8693787	le'on el
-1.302779	le'on en
-1.386616	le'on hasta	0
-1.302779	le'on para
-0.496557	lentos y
-0.4625494	lezama </s>
-0.3204356	litera </s>
-1.378903	litera o
-1.33287	litera por	0
-1.379741	litera si
-0.3617683	literas </s>
-1.067945	literas que
-0.2631453	llamaba para	-0.1809228
-1.4329	llega </s>
-0.6357644	llega a	-0.133821
-0.4976752	llega antes	-0.7798058
-1.534515	llega el	0
-1.776965	llega entre
-1.775214	llega ese	0
-1.793056	llega este
-1.716447	llega un
-1.632067	llega y
-0.5158087	llegaba este
-0.5119624	llegaban antes	0
-1.332233	llegada </s>
-0.8327601	llegada a	-0.08548063
-1.316975	llegada antes	-0.2411192
-1.497109	llegada de	0
-1.677828	llegada del
-0.7205987	llegada en	-0.07914887
-1.701869	llegada es
-1.806134	llegada fuera	0
-1.803523	llegada ha
-1.778242	llegada podr'ia
-1.602837	llegada que
-1.790698	llegada sea
-0.5650331	llegan a	-0.03208083
-0.4388805	llegan antes	-0.5756858
-1.380934	llegan de
-0.7610146	llegando a
-0.7466932	llegando el
-1.44687	llegar </s>
-0.7106245	llegar a	-0.2007016
-1.768106	llegar all'i	-0.111154
-0.6846827	llegar antes	-0.7201608
-2.224849	llegar aproximadamente
-2.028942	llegar del
-2.013454	llegar desde
-0.7991763	llegar el	-0.3308948
-2.109567	llegar entre
-2.212644	llegar esa
-2.185433	llegar lo
-2.142419	llegar m'as
-2.216674	llegar muy
-1.932694	llegar para
-1.249086	llegar por	-0.4787758
-2.135647	llegar pues
-1.745635	llegar sobre	-0.2411192
-0.4625494	llegar'ia </s>
-0.7610146	llegara a
-0.7956892	llegara un
-0.3409937	llegaran a
-0.5119624	llegase antes	0
-1.026461	llegue a	0
-1.564108	llegue al
-1.591892	llegue all'i
-1.511658	llegue antes	0
-1.331562	llegue de
-1.002074	llegue el
-1.532599	llegue entre
-1.550856	llegue m'as
-1.417111	llegue por
-1.56028	llegue sobre
-1.008876	lleguen a
-1.089144	lleguen antes	0
-0.9838465	lleguen el	0
-1.103854	lleguen este
-0.5319886	lleida </s>
-1.324963	lleida a	0
-1.286202	lleida el
-1.394163	lleida en
-1.518848	lleida pirineos
-0.9973539	lleida y
-1.018752	llevar a
-0.9955949	llevar el	0
-0.6590363	llevar mi	-0.2411192
-0.4892275	llevarme a
-0.4892275	lleve a
-1.664976	lo conozco
-1.191841	lo m'as	-0.2411192
-1.664061	lo menos
-1.654436	lo necesito
-1.648974	lo puede
-0.3192162	lo que	-0.1411583
-0.7803659	logro~no </s>
-1.191081	logro~no a
-1.155564	logro~no el	0
-1.331635	logro~no hasta
-1.295655	logro~no la
-1.337356	logro~no ma~nana	0
-2.478795	los autobuses
-2.017023	los billetes	0
-1.213399	los d'ias	-0.1114236
-2.409862	los dos	0
-2.380141	los hay
-2.39105	los horario
-0.4905483	los horarios	-0.4580823
-2.478795	los mismos
-2.478795	los modalidad
-2.471744	los otros
-2.475872	los posibles
-0.8284333	los precios	-0.3322353
-1.495106	los que	-0.2344445
-2.475872	los talgos
-1.545663	los tipos	-0.4787758
-0.7966178	los trenes	-0.2818292
-1.541999	los viajes	-0.1498655
-0.7298588	luego </s>
-1.146449	luego a
-1.283553	luego gracias
-1.202031	luego para
-1.274578	luego saber
-0.7123948	lugo </s>
-0.7466932	lugo el
-1.044786	lunes </s>
-1.315845	lunes a	0
-1.464527	lunes antes	-0.2411192
-1.519065	lunes cinco	-0.2411192
-1.467121	lunes el
-1.033568	lunes o	-0.2348319
-1.941019	lunes ocho
-1.669299	lunes para
-1.658341	lunes por	0
-1.957942	lunes pr'oximo
-1.667085	lunes que	0
-1.841346	lunes quiero
-1.962278	lunes quince
-1.949398	lunes seis	0
-1.966658	lunes siguiente	0
-1.912902	lunes sobre
-1.945188	lunes uno	0
-1.966658	lunes veintid'os
-1.971082	lunes veintis'eis
-1.975552	lunes veintitr'es	0
-1.359257	lunes y
-1.170858	m'alaga </s>
-1.315204	m'alaga a	0
-1.481036	m'alaga antes
-1.447645	m'alaga desde
-0.9747348	m'alaga el	-0.1410124
-1.035883	m'alaga para
-1.558416	m'alaga sabe
-1.513794	m'alaga saliendo
-1.362967	m'alaga y
-0.5015129	m'aquinas que
-1.427449	m'as </s>
-1.638435	m'as a
-0.9581844	m'as barato	-0.3141869
-2.137159	m'as baratos
-2.137159	m'as c'omoda
-1.677347	m'as c'omodo	-0.06538421
-2.133667	m'as cerca
-2.133667	m'as econ'omica
-1.567648	m'as el
-2.069564	m'as gracias	0
-2.009387	m'as hasta
-1.893778	m'as la
-2.09325	m'as muchas	0
-1.963709	m'as no
-1.594376	m'as o	-0.2411192
-1.768992	m'as por
-1.677347	m'as pronto	-0.2411192
-1.202321	m'as r'apido	-0.1114319
-1.671912	m'as r'apidos
-0.872579	m'as tarde	-0.2969972
-2.133667	m'as temprano	0
-2.128744	m'as tipos
-2.017489	m'as trenes
-2.108108	m'as vale
-0.5170984	m'aximo una
-0.926228	m'erida </s>
-1.11982	m'erida durante
-1.051557	m'erida en
-1.051557	m'erida para
-0.5115979	m'i me
-0.4892275	m'ireme a
-0.7961035	madrid </s>
-1.263346	madrid a	-0.07284026
-2.071109	madrid antes	0
-2.312409	madrid aproximadamente
-2.226218	madrid barcelona
-1.715245	madrid de
-2.008522	madrid del
-1.987198	madrid desde
-1.845286	madrid despu'es	-0.2411192
-2.257378	madrid destino
-1.050597	madrid el	-0.1629476
-1.65736	madrid en
-2.124783	madrid entre
-2.257378	madrid eso
-2.169897	madrid este
-2.232273	madrid hacia
-1.800183	madrid hasta
-2.297984	madrid ja'en
-2.012181	madrid la
-2.305136	madrid le
-2.319258	madrid llegando
-2.180592	madrid ma~nana	0
-1.312538	madrid para	-0.1232174
-2.270496	madrid pasado
-2.197145	madrid pero
-1.649321	madrid por
-1.877451	madrid que
-2.139307	madrid quer'ia
-2.101608	madrid quiero
-2.270496	madrid s'olo
-2.202806	madrid sobre	0
-2.159459	madrid viajar
-0.9483989	madrid y	-0.04185565
-2.257378	madrid zaragoza
-0.5015129	manera que
-0.3255304	mare_nostrum </s>
-0.8538287	martes </s>
-1.512679	martes a
-1.431376	martes d'ia	0
-1.267614	martes de	-0.1425171
-1.726671	martes del
-1.44536	martes diecis'eis
-1.855011	martes dos
-1.913827	martes mismamente
-1.885951	martes nueve
-1.635669	martes para
-1.331263	martes por	-0.2411192
-1.633671	martes que	0
-1.441501	martes seis	-0.2411192
-1.893137	martes veinticuatro
-1.896775	martes veintisiete
-1.308051	martes y
-1.207844	marzo </s>
-1.382698	marzo a	0
-1.378655	marzo de	0
-1.569248	marzo del
-1.325678	marzo el
-1.491364	marzo en	0
-1.631801	marzo entre
-1.70207	marzo lunes
-1.70207	marzo martes
-1.594962	marzo o	0
-1.482755	marzo por	0
-1.672057	marzo querr'ia
-1.619949	marzo quiero
-1.651463	marzo saliendo
-1.597175	marzo si
-1.443653	marzo y	0
-1.115618	mayo </s>
-1.251119	mayo a	0
-1.248129	mayo de
-1.380671	mayo del	0
-1.328656	mayo en	0
-1.397152	mayo o
-1.470152	mayo perd'on
-1.322719	mayo por	0
-1.295297	mayo y
-0.7435718	ma~nana </s>
-1.239912	ma~nana a	-0.06674986
-2.351453	ma~nana cinco
-1.48034	ma~nana de
-2.076262	ma~nana del	0
-2.053778	ma~nana desde
-2.389292	ma~nana dime
-1.697803	ma~nana el
-1.398646	ma~nana en	-0.1536799
-2.30347	ma~nana entonces
-1.872974	ma~nana entre	-0.2411192
-2.125054	ma~nana es
-2.316647	ma~nana hacia
-2.080125	ma~nana la
-2.25443	ma~nana m'as
-1.943415	ma~nana martes
-2.260266	ma~nana ma~nana
-1.840502	ma~nana me
-2.170371	ma~nana no
-1.068643	ma~nana o	-0.2730662
-1.94174	ma~nana para
-2.278258	ma~nana pero
-1.111576	ma~nana por	-0.4439606
-2.337194	ma~nana porque
-2.215639	ma~nana qu'e
-1.938927	ma~nana que
-1.915977	ma~nana s'abado	0
-2.272178	ma~nana s'i
-2.358762	ma~nana s'olo
-1.838273	ma~nana si	-0.08245982
-2.284425	ma~nana sobre
-2.413073	ma~nana temprano
-2.405402	ma~nana todos
-2.373759	ma~nana viajando
-1.929479	ma~nana viernes
-1.26412	ma~nana y	-0.05572343
-0.4625494	ma~nanas </s>
-0.5119624	ma~nanita antes
-2.574952	me buscar'e
-2.574952	me confirme
-2.118479	me costar'ia	-0.04283834
-2.547336	me cuesta
-2.574952	me d'e
-1.509503	me da	-0.5756858
-2.574952	me deis
-2.574952	me des
-2.121003	me dice
-2.121003	me dices	-0.2411192
-2.121003	me diera
-2.574952	me dieras
-2.574952	me diga
-2.574952	me digas	0
-2.574952	me dijese
-2.574952	me dir'ia	0
-2.574952	me ense~nara
-2.092486	me est'a	-0.2411192
-2.547336	me estoy
-0.5966039	me gustar'ia	-0.4398353
-1.642648	me ha	-0.1151723
-2.547336	me hab'ia
-2.574952	me hab'ias
-2.537077	me habr'ia
-2.121003	me has	-0.1371184
-2.574952	me importa
-2.574952	me importar'ia
-1.649919	me interesa
-2.574952	me interesar'ia
-2.462712	me lo
-2.574952	me parece
-1.853281	me pod'ia	-0.1015986
-1.392102	me podr'ia	-0.3222549
-2.121003	me podr'ias	-0.2411192
-2.574952	me pregunta
-2.567811	me pueda
-1.241359	me puede	-0.3369337
-1.402389	me puedes	-0.297851
-2.01588	me quer'ia
-2.574952	me repitas
-2.567811	me saldr'ia
-2.574952	me sirve
-2.11491	me va	-0.2411192
-2.517258	me vale
-2.574952	me vendr'ia
-1.857346	me viene	-0.1441844
-2.547336	me voy
-1.135038	media </s>
-1.277873	media a
-1.274694	media de	0
-1.360837	media en
-1.476732	media m'as
-1.478416	media ma~nana
-1.354447	media por
-1.499159	media porque
-1.48351	media viaje
-1.325016	media y
-0.5090546	mediados del
-0.5986051	mediod'ia </s>
-1.54797	mediod'ia con
-1.320156	mediod'ia el
-1.445399	mediod'ia en
-1.555967	mediod'ia hay
-1.594781	mediod'ia perd'on
-1.439186	mediod'ia por
-1.061972	mediod'ia y
-0.4076637	mejor </s>
-1.300982	mejor el
-1.518987	mejor equipada
-1.44685	mejor la	0
-1.515661	mejor prefiero
-1.511822	mejor veintinueve
-0.5203539	men'u principal
-0.4822481	menos </s>
-0.9924894	menos d'igame
-0.5838878	mes </s>
-0.608454	mes de
-1.278057	mes que
-0.9970183	mi casa
-0.9922657	mi coche
-0.9970183	mi novio
-0.9276006	mi'ercoles </s>
-1.553275	mi'ercoles catorce
-1.27747	mi'ercoles el
-1.404519	mi'ercoles en	0
-1.403248	mi'ercoles que
-1.092886	mi'ercoles siete	-0.1288466
-1.549706	mi'ercoles siguiente
-1.022545	mi'ercoles y
-0.4625494	miguel_de_unamuno </s>
-0.9922657	mil cinco
-0.991165	mil cuatro	0
-0.9922657	mil tres
-0.4887086	minutos de
-1.395227	mira a
-1.167552	mira es	-0.2411192
-1.572422	mira me
-1.486091	mira para
-1.48467	mira que
-0.7216225	mira quer'ia	-0.2024146
-1.627918	mira querr'ia	0
-1.588339	mira quiero
-1.623989	mira quisiera
-1.656461	mira vamos
-0.5110516	mirar los
-1.674278	mire como
-1.356991	mire el
-1.663289	mire las
-1.67651	mire necesito	0
-1.496052	mire por
-1.637998	mire pues
-1.501999	mire que
-0.7509148	mire quer'ia	-0.1859233
-1.612164	mire quiero
-1.650459	mire quisiera
-1.225872	mire yo
-0.819828	misma noche
-0.8209136	misma ruta
-0.5008015	mismamente por
-0.5203539	mismas condiciones
-1.12304	mismo d'ia	-0.1409424
-1.583225	mismo hoy
-1.587402	mismo jueves
-1.583225	mismo martes
-1.587402	mismo mes
-1.572953	mismo precio
-1.562919	mismo s'abado
-1.577033	mismo seis
-1.595723	mismo tiempo
-1.589506	mismo trayecto
-1.54925	mismo tren
-0.5134236	mismos horarios
-0.4887086	modalidad de
-0.4625494	momento </s>
-0.4625494	monumental </s>
-0.4892275	monz'on a
-0.3571306	much'isimas gracias	0
-0.06480284	muchas gracias	-0.2639692
-0.5079691	muestras desde
-0.802226	murcia </s>
-0.8490437	murcia a	-0.0800918
-1.047493	murcia el
-1.607306	murcia hacia
-1.108546	murcia para
-1.46564	murcia por
-1.435824	murcia y
-0.5203539	museo thyssen
-1.297453	muy amable
-1.289641	muy bien
-1.29478	muy buenas	0
-1.296776	muy pronto
-0.8336945	muy tarde
-1.123701	nada </s>
-1.701571	nada entonces
-1.709689	nada eso
-0.2678882	nada m'as	-0.298382
-1.711056	nada muchas	0
-1.688371	nada pues
-0.501691	navidad en
-0.501691	navidades en
-0.9846185	necesitar'ia saber
-0.9819197	necesitar'ia salir
-0.9824581	necesitar'ia viajar
-1.298921	necesito </s>
-1.411094	necesito el
-1.761012	necesito estar
-1.685118	necesito horarios
-1.743768	necesito informaci'on
-0.8315302	necesito ir	-0.2411192
-1.727182	necesito llegar
-1.565923	necesito para
-1.738964	necesito precios
-1.717982	necesito saber
-1.706748	necesito salir
-0.8175679	necesito un	-0.08968231
-0.4625494	negocio </s>
-0.3451719	negocios y
-1.282934	ning'un d'ia
-0.8334818	ning'un otro	-0.2411192
-0.5673567	ning'un tren	-0.136349
-0.4887086	ninguna de
-0.8110263	ninguno hasta
-0.7842757	ninguno que
-1.192485	no </s>
-1.646841	no a	-0.04370045
-2.582272	no adi'os	0
-2.18569	no antes
-2.552459	no burgos
-2.614282	no c'omo
-2.164939	no creo	-0.2411192
-2.49835	no d'igame
-1.551104	no de	0
-2.096458	no del
-2.629952	no dentro
-1.599054	no desde	-0.01833592
-2.597982	no deseaba
-2.511258	no desear'ia
-1.573534	no deseo	-0.2229892
-2.511258	no despu'es
-2.641306	no dispone
-1.216142	no el	-0.04032385
-2.641306	no entiendo
-2.267172	no entre
-1.957686	no es	0
-2.259767	no ese
-2.49835	no eso	0
-2.524562	no est'a	0
-2.597982	no estoy
-2.183017	no existe
-2.614282	no fumadores
-1.563075	no gracias	-0.05258013
-2.582272	no habr'ia
-2.629952	no hace	0
-1.547132	no hay	-0.2152393
-2.597982	no he
-2.101529	no la
-2.176907	no le	-0.1426993
-2.125471	no lo
-2.155787	no los
-1.515577	no me	-0.07783726
-2.147583	no mejor	-0.1434345
-2.629952	no much'isimas
-1.903275	no muchas	-0.353837
-2.136386	no nada	-0.0951924
-2.524562	no necesito
-2.224523	no no	0
-2.629952	no perdone
-2.3868	no pero	0
-2.641306	no podr'ian
-1.91064	no por
-2.485814	no porque
-2.47363	no precio	0
-2.450241	no precios	0
-2.56711	no preferente
-2.597982	no prefiero
-2.47363	no puede	0
-2.524562	no puedo
-2.331455	no pues
-2.033526	no quer'ia	0
-2.09428	no querr'ia	-0.08021223
-1.433371	no quiero	-0.1005634
-2.3868	no quisiera
-1.477816	no s'e
-2.377072	no s'i
-2.147583	no s'olo
-2.629952	no salgo
-2.49835	no salida
-2.331455	no saliendo
-2.538287	no se
-2.130894	no sea	0
-2.629952	no sean
-2.167502	no si	0
-2.552459	no solo
-2.47363	no son
-2.39675	no tengo
-2.125471	no tiene	-0.09387129
-2.053303	no un
-2.614282	no va
-2.552459	no vale
-2.051331	no viajar
-2.597982	no voy
-2.130894	no ya	-0.06381399
-2.511258	no yo
-0.9104214	noche </s>
-1.445376	noche a
-1.673148	noche antes
-1.177684	noche de
-1.637241	noche del
-1.793494	noche durmiendo
-1.147367	noche el
-1.55685	noche en
-1.663889	noche o
-1.55685	noche para
-1.547991	noche por	0
-1.709741	noche quer'ia
-1.618275	noche un
-1.212702	noche y
-0.5193182	nochevieja viajando
-0.5147063	nocturno qu'e
-0.4625494	normal </s>
-0.5015129	norte que
-1.029736	noviembre </s>
-1.137604	noviembre a	0
-1.135299	noviembre de
-1.256437	noviembre quiero
-1.279302	noviembre s'abado
-1.171215	noviembre y	0
-0.4815093	novio el
-1.105128	nueve </s>
-1.172761	nueve a
-0.3708074	nueve de	-0.3468124
-1.462189	nueve el
-1.648459	nueve o
-1.192536	nueve y	0
-2.367035	o 'ultima
-1.450667	o a	-0.1426653
-2.367035	o alguna
-2.329197	o alrededor
-2.374424	o altaria
-2.111498	o antes
-2.367035	o as'i
-1.902292	o bien	-0.2411192
-2.314939	o cinco
-2.322009	o clase
-2.322009	o diecisiete
-2.329197	o domingo	0
-2.262172	o dos	0
-0.5291449	o el	-0.1076011
-1.700017	o en
-2.198721	o hasta
-2.294393	o ida
-2.294393	o intercity
-2.343939	o litera
-2.329197	o martes
-2.374424	o menos	0
-1.823176	o no
-2.322009	o nueve	0
-2.322009	o pasado	0
-2.322009	o pr'oximo
-2.182913	o qu'e
-1.911111	o que
-2.329197	o quince
-2.37969	o restaurante
-2.262172	o s'abado	0
-0.9839631	o sea	-0.04094253
-2.307981	o seis
-2.098523	o si
-2.314939	o siete	0
-2.294393	o tiene
-2.287754	o treinta	0
-2.013644	o un	0
-2.336505	o veinte
-2.336505	o veinticuatro	0
-2.294393	o viernes	0
-0.4887086	obra de
-2.162046	obtener alg'un
-0.6445578	obtener el	-0.8145678
-0.9372481	obtener horario	-0.3430772
-0.9344762	obtener horarios	-0.2217177
-1.268747	obtener informaci'on	-0.1318018
-0.932237	obtener los	-0.3681374
-1.268747	obtener precio	-0.2289074
-1.731495	obtener precios	0
-2.131095	obtener tambi'en
-1.247288	obtener un	-0.1748506
-0.9618732	ocho </s>
-1.956193	ocho al	0
-1.992966	ocho cuarenta
-0.5360328	ocho de	-0.3285946
-1.977264	ocho destino
-1.582057	ocho el
-1.977264	ocho horas
-1.843023	ocho la
-1.983477	ocho nueve
-1.055532	ocho o	-0.103742
-1.986617	ocho quince
-1.98978	ocho tienen
-1.968108	ocho treinta
-1.20848	ocho y	0
-0.926228	octubre </s>
-1.008876	octubre a
-1.078261	octubre del	0
-1.04841	octubre por
-0.4892275	odio a
-0.5193182	oiga mira
-0.4625494	olvidado </s>
-1.118795	once </s>
-1.209083	once a
-1.77822	once adem'as
-1.792494	once cincuenta	0
-0.5069145	once de	-0.1853077
-1.669107	once la
-1.782926	once once
-1.591008	once por
-1.738012	once saliendo
-1.766672	once treinta
-1.555961	once y	0
-0.4625494	oposici'on </s>
-0.5886406	orense </s>
-1.018752	orense a
-0.9955949	orense el	0
-0.5176523	origen madrid
-1.212066	otra clase
-1.217943	otra consulta
-1.211224	otra hora
-0.75604	otra vez
-1.344396	otro de	0
-1.007818	otro tipo	-0.2411192
-0.2891514	otro tren	-0.297655
-0.9848824	otros tambi'en
-0.5302877	otros trenes	-0.1391311
-0.5140144	oviedo </s>
-1.084682	oviedo a	-0.1803156
-0.84585	oviedo el	-0.1119343
-1.590778	oviedo hasta
-1.494046	oviedo para
-1.461748	oviedo y
-0.7969702	palencia </s>
-0.6054274	palencia a	-0.1027196
-1.211425	palencia de
-1.245594	palencia y
-0.6556965	pamplona </s>
-1.093493	pamplona a	-0.1445674
-1.606806	pamplona con
