
\data\
ngram 1=766
ngram 2=5407
ngram 3=4092
ngram 4=4138

\1-grams:
-3.153549	'avila	-0.7781512
-3.530968	'ultima	-0.845098
-3.139761	'ultimo	-0.7900504
-4.16779	'ultimos	-0.4771212
-4.343881	'unicamente	-0.30103
-4.343881	'unico	-0.30103
-0.9440343	</s>
-99	<s>	-1.479889
-1.480261	a	-1.193125
-4.343881	abre	-0.30103
-2.392058	abril	-0.9956352
-4.343881	acabado	-0.30103
-4.343881	acceder	-0.30103
-4.16779	acerca	-0.4771212
-4.343881	acercara	-0.30103
-4.343881	acudir	-0.30103
-4.16779	acuerdo	-0.4771212
-3.440791	adem'as	-0.3521825
-3.690669	adi'os	-0.9542425
-4.343881	aeropuerto	-0.30103
-2.720632	agosto	-0.7490489
-4.343881	agradecer'ia	-0.30103
-4.343881	ah	-0.30103
-3.799813	ahora	-0.4771213
-3.088609	al	-0.4855545
-3.283183	alaris	-0.7323937
-3.283183	albacete	-0.5740312
-2.86676	alg'un	-0.8037054
-4.16779	algeciras	-0.30103
-4.16779	algo	-0.30103
-3.945941	alguna	-0.3679768
-3.197753	alguno	-0.8061799
-2.799813	alicante	-0.9378521
-3.690669	all'i	-0.5642715
-3.440791	almer'ia	-0.5440681
-4.343881	almeria	-0.30103
-3.690669	alrededor	-0.69897
-4.16779	alta_velocidad	-0.30103
-4.16779	altaria	-0.30103
-4.343881	amable	-0.30103
-3.86676	amigos	-0.4259687
-3.86676	anterior	-0.30103
-2.46022	antes	-1.49693
-4.343881	aparte	-0.30103
-4.343881	aprovechar	-0.30103
-4.042851	aproximadamente	-0.39794
-4.343881	aproximado	-0.30103
-4.042851	aqu'i	-0.39794
-4.16779	arco	-0.4771212
-3.644911	as'i	-0.60206
-4.343881	asistir	-0.30103
-4.343881	asunto	-0.30103
-4.16779	atardecer	-0.30103
-4.343881	atenci'on	-0.30103
-4.042851	aunque	-0.30103
-4.343881	autobuses	-0.30103
-4.343881	autom'aticamente	-0.30103
-2.889036	ave	-0.632874
-4.343881	ay	-0.30103
-4.343881	ayudar	-0.30103
-3.945941	a~no	-0.30103
-4.343881	b'usqueme	-0.30103
-3.56573	badajoz	-0.50515
-4.16779	bajar	-0.30103
-3.741821	bar	-0.4393327
-3.100843	barato	-0.9777236
-4.343881	baratos	-0.30103
-2.304467	barcelona	-0.9048376
-3.113432	bien	-0.5740312
-2.50819	bilbao	-0.8396692
-2.409383	billete	-1.093421
-3.603518	billetes	-0.544068
-4.343881	buena	-0.30103
-2.76985	buenas	-0.8880264
-3.153549	bueno	-0.4259688
-2.690669	buenos	-1.954242
-3.389638	burgos	-0.5835766
-4.343881	buscar	-0.30103
-4.343881	buscar'e	-0.30103
-4.343881	buscar'ia	-0.30103
-3.126397	c'aceres	-0.7459666
-3.213547	c'adiz	-0.5563025
-4.042851	c'omo	-0.39794
-4.343881	c'omoda	-0.30103
-3.644911	c'omodo	-0.447158
-3.113432	c'ordoba	-0.8129132
-3.741821	cada	-0.5228788
-4.343881	callado	-0.30103
-3.16779	cama	-0.7659168
-3.56573	cambiar	-0.6690068
-4.343881	cambrils	-0.30103
-4.343881	camino	-0.30103
-4.343881	capital	-0.30103
-4.16779	caracter'isticas	-0.30103
-4.343881	carnavales	-0.30103
-4.343881	caro	-0.30103
-4.16779	casa	-0.30103
-4.343881	castell'o	-0.30103
-2.86676	castell'on	-0.7433892
-4.343881	catalu~na_expres	-0.30103
-3.16779	catorce	-0.7659168
-4.343881	celebre	-0.30103
-4.16779	cerca	-0.4771213
-4.343881	cercana	-0.30103
-4.343881	cercano	-0.30103
-4.343881	cero	-0.30103
-4.343881	cierra	-0.30103
-2.667187	cinco	-0.9461247
-3.741821	cincuenta	-0.6532125
-4.343881	citado	-0.30103
-3.86676	ciudad	-0.3521825
-3.246971	ciudad_real	-0.6462637
-3.690669	claro	-0.4771213
-2.972813	clase	-0.7144822
-3.153549	coche	-1.041393
-3.799813	coger	-0.4771213
-4.343881	cogi'endolo	-0.30103
-4.343881	cogiendo	-0.30103
-4.343881	cojo	-0.30103
-3.603518	como	-0.3245111
-4.343881	compa~n'ia	-0.30103
-4.343881	competici'on	-0.30103
-4.343881	completo	-0.30103
-4.042851	comprar	-0.60206
-4.343881	compro	-0.30103
-2.764097	con	-0.6766936
-3.945941	concierto	-0.3679768
-4.343881	concretar	-0.30103
-4.343881	concretos	-0.30103
-4.343881	condiciones	-0.30103
-4.042851	confirmar	-0.30103
-4.343881	confirme	-0.30103
-4.343881	confundida	-0.30103
-4.343881	congreso	-0.30103
-2.904548	conocer	-1
-4.343881	conozco	-0.30103
-4.042851	conseguir	-0.39794
-4.16779	consulta	-0.30103
-3.113432	consultar	-0.5740312
-4.343881	contestan	-0.30103
-4.343881	corresponde	-0.30103
-4.343881	cosa	-0.30103
-4.343881	cosita	-0.30103
-4.343881	costa	-0.30103
-4.343881	costar	-0.30103
-3.440791	costar'ia	-0.4586379
-4.343881	crem'a	-0.30103
-3.690669	creo	-0.9542425
-2.690669	cu'al	-1.366423
-3.741821	cu'ales	-0.5228787
-4.042851	cu'ando	-0.30103
-2.818836	cu'anto	-0.7836838
-4.16779	cu'antos	-0.30103
-4.343881	cuales	-0.30103
-3.197753	cualquier	-0.6863809
-4.16779	cualquiera	-0.30103
-4.343881	cuando	-0.30103
-4.343881	cuanto	-0.30103
-3.603518	cuarenta	-0.6368221
-4.042851	cuarto	-0.39794
-2.653685	cuatro	-0.9582453
-3.283183	cuenca	-0.7323938
-4.343881	cuento	-0.30103
-3.100843	cuesta	-0.7201592
-4.343881	cullera	-0.30103
-4.343881	cultural	-0.30103
-4.343881	curso	-0.30103
-4.343881	d'e	-0.30103
-2.129037	d'ia	-0.8699215
-2.611487	d'ias	-0.7226338
-3.302488	d'igame	-0.4913617
-4.343881	d'onde	-0.30103
-3.86676	da	-0.7781513
-4.042851	dado	-0.30103
-4.343881	dame	-0.30103
-3.56573	dar	-0.6690068
-4.042851	darme	-0.39794
-1.178637	de	-1.328634
-4.343881	debe	-0.30103
-4.343881	deber'ian	-0.30103
-4.343881	debido	-0.30103
-2.806062	decir	-0.7429868
-3.603518	decirme	-0.4259688
-4.343881	decirte	-0.30103
-4.343881	deis	-0.30103
-2.153549	del	-0.904322
-4.042851	demasiado	-0.39794
-3.86676	deme	-0.4259688
-4.16779	dentro	-0.4771213
-4.343881	deportiva	-0.30103
-4.343881	des	-0.30103
-2.179528	desde	-0.8337845
-3.86676	deseaba	-0.3521825
-2.845571	desear'ia	-0.8573325
-2.569364	deseo	-0.8579669
-3.302488	despu'es	-0.6532125
-3.126397	destino	-0.4771213
-4.16779	dice	-0.30103
-4.16779	dices	-0.4771212
-3.440791	dicho	-0.39794
-4.343881	dichos	-0.30103
-3.042851	diciembre	-0.7690079
-4.042851	diciendo	-0.39794
-2.945941	diecinueve	-0.90309
-3.139761	dieciocho	-0.7900504
-3.032127	diecis'eis	-0.7781513
-3.100843	diecisiete	-0.8920946
-4.16779	diera	-0.30103
-4.343881	dieras	-0.30103
-2.611487	diez	-1.157608
-4.343881	diga	-0.30103
-3.945941	digas	-0.3679768
-4.042851	dijese	-0.30103
-3.799813	dime	-0.3424227
-4.16779	dir'ia	-0.4771212
-4.343881	direcci'on	-0.30103
-4.343881	dispone	-0.30103
-3.86676	disponible	-0.3521825
-4.16779	disponibles	-0.4771212
-4.16779	diurno	-0.30103
-2.764097	doce	-0.9700366
-2.874059	domingo	-0.6255411
-4.042851	dormir	-0.39794
-2.627878	dos	-0.9505146
-4.16779	dura	-0.4771212
-4.042851	duraci'on	-0.60206
-3.86676	durante	-0.3521825
-4.343881	durar	-0.30103
-4.16779	durmiendo	-0.4771212
-4.343881	e	-0.30103
-4.042851	econ'omica	-0.39794
-4.343881	efectivamente	-0.30103
-4.343881	efecto	-0.30103
-3.799813	eh	-0.845098
-3.86676	ejemplo	-0.4259687
-1.249759	el	-1.505659
-4.343881	el_ferrol	-0.30103
-4.16779	elegir	-0.4771212
-3.603518	ellos	-0.3853509
-1.984046	en	-0.8767126
-3.229938	enero	-0.660052
-4.343881	ense~nara	-0.30103
-4.343881	entendido	-0.30103
-4.343881	enterar	-0.30103
-4.343881	entiendo	-0.30103
-3.302488	entonces	-0.4175356
-2.831998	entre	-0.8016323
-4.343881	enumerar	-0.30103
-4.343881	equipada	-0.30103
-4.343881	equivocado	-0.30103
-3.690669	era	-0.3679768
-4.042851	error	-0.39794
-2.094683	es	-0.9934362
-3.799813	esa	-0.3424227
-2.747284	ese	-0.690196
-2.806062	eso	-0.9322481
-3.302488	esos	-0.79588
-4.343881	espec'ificamente	-0.30103
-4.343881	especial	-0.30103
-2.972813	est'a	-0.8293038
-4.042851	esta	-0.30103
-4.343881	estaba	-0.30103
-4.343881	estado	-0.30103
-4.343881	estamos	-0.30103
-3.690669	estar	-0.5642715
-4.16779	estar'ia	-0.4771213
-4.16779	estas	-0.30103
-2.859581	este	-0.6560418
-3.945941	esto	-0.3679768
-3.530968	estos	-0.4336556
-3.945941	estoy	-0.30103
-3.799813	estrella	-0.39794
-2.764097	euromed	-0.8931057
-3.799813	exactamente	-0.30103
-3.799813	exacto	-0.39794
-4.343881	examen	-0.30103
-4.343881	excursi'on	-0.30103
-3.86676	existe	-0.4259688
-3.945941	exposici'on	-0.30103
-4.343881	fallas	-0.30103
-4.16779	falta	-0.30103
-2.438085	favor	-0.9007232
-2.982153	febrero	-0.7067954
-3.741821	fecha	-0.3357921
-4.343881	fechas	-0.30103
-4.343881	feria	-0.30103
-2.96367	fin	-1.681241
-3.799813	finales	-0.60206
-4.343881	forma	-0.30103
-4.343881	francia	-0.30103
-4.343881	franja	-0.30103
-4.16779	frecuencia	-0.4771212
-3.197753	fuera	-0.5383909
-3.644911	fuese	-0.359022
-4.343881	fumador	-0.30103
-4.042851	fumadores	-0.39794
-4.343881	fundamentalmente	-0.30103
-4.16779	galicia	-0.4771212
-4.042851	gasteiz	-0.39794
-3.644911	gerona	-0.447158
-3.46882	gij'on	-0.6532125
-3.741821	girona	-0.4393327
-1.958275	gracias	-1.522879
-3.065127	granada	-0.5614422
-4.042851	guadalajara	-0.60206
-4.343881	gustado	-0.30103
-2.001458	gustar'ia	-1.180736
-3.343881	ha	-0.4929156
-3.945941	hab'ia	-0.30103
-4.343881	hab'ias	-0.30103
-4.042851	haber	-0.30103
-4.042851	habido	-0.60206
-3.86676	habr'ia	-0.30103
-3.945941	hace	-0.3679768
-4.343881	hacen	-0.30103
-3.182513	hacer	-0.7533277
-4.042851	hacerlo	-0.39794
-3.302488	hacia	-0.4393327
-4.16779	haga	-0.30103
-4.343881	hagan	-0.30103
-3.945941	has	-0.4771213
-2.928908	hasta	-0.5075039
-2.537701	hay	-0.6856061
-4.343881	haya	-0.30103
-3.799813	he	-0.3424227
-3.945941	hendaya	-0.4771213
-4.343881	historia	-0.30103
-2.306455	hola	-1.138767
-2.644911	hora	-0.724632
-4.343881	horaria	-0.30103
-2.049415	horario	-1.136004
-2.07088	horarios	-1.116094
-3.389638	horas	-0.49485
-3.343881	hoy	-0.5698754
-4.042851	hubiera	-0.39794
-3.644911	huelva	-0.447158
-3.86676	huesca	-0.4259687
-2.145224	ida	-1.149989
-4.343881	idea	-0.30103
-3.741821	igual	-0.3357921
-4.343881	importa	-0.30103
-4.343881	importancia	-0.30103
-4.343881	importar'ia	-0.30103
-4.343881	imposible	-0.30103
-2.96367	informaci'on	-1.017033
-3.945941	informarme	-0.3679768
-4.343881	instrucciones	-0.30103
-3.001458	intercity	-0.7617609
-4.343881	intercitys	-0.30103
-3.86676	interesa	-0.30103
-4.16779	interesado	-0.30103
-4.343881	interesar'ia	-0.30103
-4.343881	intermedio	-0.30103
-4.042851	intervalo	-0.39794
-2.122467	ir	-1.245512
-4.16779	ir'un	-0.30103
-4.042851	irme	-0.60206
-4.16779	iru~nea	-0.4771212
-3.603518	ja'en	-0.4771212
-2.747284	jueves	-0.6734159
-2.954715	julio	-0.8016323
-2.852519	junio	-0.8908556
-4.343881	juntos	-0.30103
-3.741821	l'erida	-0.4393327
-1.8367	la	-1.31079
-3.322692	la_coru~na	-0.5862657
-3.741821	laborable	-0.6532125
-4.343881	laborables	-0.30103
-4.343881	lanzadera	-0.30103
-2.028961	las	-1.168301
-3.741821	le	-0.3802113
-3.414462	le'on	-0.5642715
-4.343881	lentos	-0.30103
-4.343881	lezama	-0.30103
-3.56573	litera	-0.5740312
-3.86676	literas	-0.544068
-3.86676	llamaba	-0.7781513
-2.874059	llega	-0.8718323
-4.343881	llegaba	-0.30103
-4.16779	llegaban	-0.4771213
-3.021662	llegada	-0.6450946
-3.283183	llegan	-0.9208188
-4.16779	llegando	-0.30103
-2.541107	llegar	-0.9248872
-4.343881	llegar'ia	-0.30103
-4.16779	llegara	-0.30103
-4.16779	llegaran	-0.4771213
-4.16779	llegase	-0.4771213
-3.113432	llegue	-0.6334684
-3.56573	lleguen	-0.5740313
-3.343881	lleida	-0.6197888
-3.86676	llevar	-0.4259688
-4.343881	llevarme	-0.30103
-4.343881	lleve	-0.30103
-3.366158	lo	-0.60206
-3.440791	logro~no	-0.544068
-2.023735	los	-1.407041
-3.498783	luego	-0.5563025
-4.16779	lugo	-0.30103
-2.66264	lunes	-0.7422386
-3.229938	m'alaga	-0.5772364
-4.343881	m'aquinas	-0.30103
-2.341715	m'as	-0.9700367
-4.343881	m'aximo	-0.30103
-3.56573	m'erida	-0.5740312
-4.343881	m'i	-0.30103
-4.343881	m'ireme	-0.30103
-2.193125	madrid	-0.968208
-4.343881	manera	-0.30103
-4.16779	mare_nostrum	-0.4771212
-2.96367	martes	-0.5952206
-2.562126	marzo	-0.9294189
-2.787579	mayo	-0.9488475
-2.138406	ma~nana	-0.9951475
-4.343881	ma~nanas	-0.30103
-4.343881	ma~nanita	-0.30103
-1.85887	me	-1.145468
-3.113432	media	-0.6334685
-4.343881	mediados	-0.30103
-3.246971	mediod'ia	-0.60206
-3.530968	mejor	-0.4771213
-4.343881	men'u	-0.30103
-3.945941	menos	-0.4771213
-3.644911	mes	-0.60206
-3.86676	mi	-0.4259687
-3.213547	mi'ercoles	-0.6283889
-4.343881	miguel_de_unamuno	-0.30103
-2.96367	mil	-1.221849
-4.343881	minutos	-0.30103
-3.302488	mira	-0.4913617
-4.343881	mirar	-0.30103
-3.302488	mire	-0.4637573
-4.16779	misma	-0.30103
-4.343881	mismamente	-0.30103
-4.343881	mismas	-0.30103
-3.197753	mismo	-0.5383909
-4.343881	mismos	-0.30103
-4.343881	modalidad	-0.30103
-4.343881	momento	-0.30103
-4.343881	monumental	-0.30103
-4.343881	monz'on	-0.30103
-4.042851	much'isimas	-0.60206
-2.474649	muchas	-2.170262
-4.343881	muestras	-0.30103
-3.076709	murcia	-0.7883705
-4.343881	museo	-0.30103
-3.690669	muy	-0.4149733
-2.530968	nada	-1.352183
-4.343881	navidad	-0.30103
-4.343881	navidades	-0.30103
-4.042851	necesitar'ia	-0.30103
-3.302488	necesito	-0.4393327
-4.343881	negocio	-0.30103
-4.16779	negocios	-0.4771212
-3.644911	ning'un	-0.60206
-4.343881	ninguna	-0.30103
-4.042851	ninguno	-0.39794
-1.610283	no	-1.162116
-2.799813	noche	-0.7729499
-4.343881	nochevieja	-0.30103
-4.343881	nocturno	-0.30103
-4.343881	normal	-0.30103
-4.343881	norte	-0.30103
-3.197753	noviembre	-0.7403626
-4.343881	novio	-0.30103
-2.881483	nueve	-1.021189
-2.537701	o	-0.6206565
-4.343881	obra	-0.30103
-2.354877	obtener	-1.30963
-2.75842	ocho	-0.8081145
-3.322692	octubre	-0.7781512
-4.343881	odio	-0.30103
-4.343881	oiga	-0.30103
-4.343881	olvidado	-0.30103
-2.825367	once	-0.8394209
-4.343881	oposici'on	-0.30103
-3.86676	orense	-0.4259687
-4.343881	origen	-0.30103
-3.86676	otra	-0.3521825
-3.498783	otro	-0.7269987
-3.945941	otros	-0.4771213
-3.139761	oviedo	-0.7900504
-3.530968	palencia	-0.6020601
-3.100843	pamplona	-0.679226
-3.945941	par'is	-0.3679768
-1.843507	para	-0.995697
-4.343881	parece	-0.30103
-4.343881	parte	-0.30103
-2.928908	partir	-1.423246
-3.302488	pasado	-0.7958801
-4.042851	pasar	-0.30103
-4.343881	pascua	-0.30103
-4.343881	paso	-0.30103
-4.16779	pedir	-0.4771212
-4.042851	perd'on	-0.60206
-3.945941	perdone	-0.30103
-3.741821	perfecto	-0.6532125
-3.113432	pero	-0.365488
-4.343881	pe~n'iscola	-0.30103
-4.343881	pirineos	-0.30103
-4.16779	plazas	-0.4771212
-3.86676	poco	-0.4259687
-4.343881	pocos	-0.30103
-3.644911	pod'ia	-0.3273589
-3.46882	poder	-0.90309
-2.818836	podr'ia	-0.7323937
-4.343881	podr'iamos	-0.30103
-4.343881	podr'ian	-0.30103
-4.16779	podr'ias	-0.4771212
-4.343881	poquito	-0.30103
-2.009427	por	-1.396974
-3.530968	porque	-0.3679768
-4.343881	port_aventura	-0.30103
-3.799813	posibilidad	-0.60206
-4.16779	posibilidades	-0.30103
-2.573029	posible	-0.7403626
-4.16779	posibles	-0.30103
-3.603518	pr'oxima	-0.7781512
-2.234978	pr'oximo	-1.182478
-1.851819	precio	-1.260601
-2.489575	precios	-0.9709483
-3.283183	preferente	-0.7323938
-4.343881	preferentemente	-0.30103
-4.042851	preferir'ia	-0.39794
-3.945941	prefiero	-0.30103
-4.343881	pregunta	-0.30103
-4.343881	preguntado	-0.30103
-3.644911	preguntar	-0.39794
-4.042851	pregunto	-0.39794
-3.229938	primer	-0.7132105
-2.874059	primera	-0.7373151
-3.46882	primero	-0.4074854
-4.343881	primeros	-0.30103
-4.343881	principal	-0.30103
-4.343881	principio	-0.30103
-3.690669	principios	-0.9542425
-4.042851	pronto	-0.39794
-4.16779	pudiera	-0.30103
-4.343881	pudiese	-0.30103
-4.16779	pueda	-0.30103
-2.812402	puede	-0.7891467
-3.366158	puedes	-0.552842
-3.389638	puedo	-0.49485
-4.042851	puente	-0.39794
-2.438085	pues	-0.6740276
-3.603518	punto	-1.041393
-2.350445	qu'e	-1.033424
-1.872589	que	-0.8586006
-4.16779	quedado	-0.30103
-2.008423	quer'ia	-1.125249
-2.548001	querr'ia	-0.9187701
-4.343881	quieres	-0.30103
-1.888275	quiero	-1.173258
-3.053846	quince	-1.135663
-4.042851	quincena	-0.39794
-2.193125	quisiera	-1.058595
-4.16779	quiz'a	-0.30103
-2.787579	r'apido	-0.7584071
-3.603518	r'apidos	-0.3521826
-4.343881	realice	-0.30103
-4.343881	realidad	-0.30103
-4.343881	realizan	-0.30103
-3.46882	realizar	-0.6532125
-4.343881	realmente	-0.30103
-4.343881	reconfirmar	-0.30103
-4.343881	recorrido	-0.30103
-4.343881	refiriendo	-0.30103
-3.389638	regional	-0.5835765
-4.042851	regionales	-0.30103
-4.343881	regresando	-0.30103
-3.690669	regresar	-0.5642714
-4.343881	regreso	-0.30103
-4.343881	rep'itame	-0.30103
-4.16779	repetir	-0.30103
-3.799813	repetirme	-0.4771213
-4.343881	repitas	-0.30103
-4.343881	reservar	-0.30103
-4.343881	respondido	-0.30103
-4.343881	restaurante	-0.30103
-4.042851	reuni'on	-0.39794
-4.343881	reunirme	-0.30103
-4.16779	ruta	-0.4771212
-2.422194	s'abado	-0.8276366
-3.799813	s'e	-0.30103
-1.393516	s'i	-1.224759
-3.498783	s'olo	-0.4191293
-4.16779	sabe	-0.30103
-1.686347	saber	-1.316791
-4.343881	saberlo	-0.30103
-3.182513	salamanca	-0.69897
-4.16779	saldr'ia	-0.30103
-2.838731	sale	-0.7668702
-3.065127	salen	-0.7501224
-2.945941	salga	-0.7061487
-3.603518	salgan	-0.3521825
-4.042851	salgo	-0.30103
-2.874059	salida	-0.5467571
-2.982153	saliendo	-0.821186
-3.799813	saliera	-0.39794
-4.042851	salieran	-0.30103
-4.042851	saliese	-0.30103
-2.271999	salir	-1.001667
-4.343881	san_fermines	-0.30103
-4.343881	san_jos'e	-0.30103
-3.182513	san_sebasti'an	-0.69897
-2.920635	santander	-0.7269987
-4.16779	santiago	-0.30103
-3.644911	santiago_de_compostela	-0.60206
-4.343881	satisfecho	-0.30103
-3.644911	se	-0.359022
-2.764097	sea	-0.5242338
-3.945941	sean	-0.30103
-3.343881	segovia	-0.5698754
-3.690669	segunda	-0.5642715
-3.741821	segundo	-0.5228788
-2.76985	seis	-1.063387
-2.54454	semana	-0.8603379
-3.86676	semana_santa	-0.3521825
-4.343881	semanas	-0.30103
-3.011443	septiembre	-0.8450981
-2.741821	ser	-0.6777807
-4.343881	ser'a	-0.30103
-3.343881	ser'ia	-0.5282738
-3.690669	servicio	-0.5642715
-4.343881	servicios	-0.30103
-4.343881	setiembre	-0.30103
-2.584213	sevilla	-0.9098234
-4.343881	se~nora	-0.30103
-4.343881	se~norita	-0.30103
-2.308451	si	-0.866461
-4.343881	sido	-0.30103
-2.715492	siete	-0.9731278
-3.197753	siguiente	-0.60206
-4.343881	sin	-0.30103
-4.343881	sirve	-0.30103
-2.889036	sobre	-0.7846821
-3.945941	solamente	-0.30103
-3.690669	solo	-0.30103
-3.182513	son	-0.4393328
-3.799813	soria	-0.4771213
-3.644911	su	-1
-4.343881	sueca	-0.30103
-3.56573	suficiente	-0.4522977
-4.343881	supuesto	-0.30103
-4.343881	sus	-0.30103
-2.615527	talgo	-0.7815844
-4.16779	talgos	-0.30103
-2.852519	tambi'en	-0.5625514
-4.343881	tampoco	-0.30103
-4.042851	tanto	-0.39794
-4.343881	tarda	-0.30103
-4.343881	tardan	-0.30103
-4.343881	tardar'ia	-0.30103
-2.306455	tarde	-1.054358
-3.113432	tardes	-0.6690068
-2.912517	tarragona	-0.6799468
-4.343881	te	-0.30103
-4.343881	teatro	-0.30103
-4.042851	temprano	-0.39794
-4.343881	tendr'e	-0.30103
-3.741821	tendr'ia	-0.3802112
-4.343881	tendr'ian	-0.30103
-4.042851	tener	-0.30103
-4.343881	tenerlo	-0.30103
-4.042851	tenga	-0.39794
-3.076709	tengo	-0.7403626
-4.343881	tercer	-0.30103
-4.343881	tercero	-0.30103
-3.126397	teruel	-0.6989701
-4.343881	thyssen	-0.30103
-4.343881	ticket	-0.30103
-4.16779	tiempo	-0.30103
-2.96367	tiene	-0.6392019
-3.530968	tienen	-0.4336555
-4.343881	tienes	-0.30103
-2.477594	tipo	-1.480007
-3.498783	tipos	-1.146128
-4.16779	toda	-0.4771213
-2.874059	todo	-0.916454
-4.042851	todos	-0.39794
-3.389638	toledo	-0.4607308
-4.343881	total	-0.30103
-4.343881	totalmente	-0.30103
-4.16779	trabajo	-0.30103
-4.343881	trata	-0.30103
-3.603518	trayecto	-0.5440681
-4.343881	trayectos	-0.30103
-3.741821	trece	-0.3802113
-2.793653	treinta	-1.041393
-1.863874	tren	-0.9885203
-3.741821	tren_hotel	-0.3802112
-2.074368	trenes	-0.9658809
-2.859581	tres	-0.9294189
-4.343881	triana	-0.30103
-4.343881	tu	-0.30103
-3.389638	turista	-0.49485
-4.042851	u	-0.39794
-1.93649	un	-1.228849
-3.065127	una	-0.4850902
-2.710413	uno	-1.18089
-3.690669	unos	-0.4771212
-4.16779	usted	-0.30103
-4.343881	utilizar	-0.30103
-4.343881	uy	-0.30103
-4.343881	v'alido	-0.30103
-3.690669	va	-0.4771213
-4.16779	vacaciones	-0.30103
-4.343881	valdr'ia	-0.30103
-3.46882	vale	-0.3802112
-4.042851	valen	-0.30103
-2.417024	valencia	-0.9542426
-4.343881	valer	-0.30103
-3.213547	valladolid	-0.6283889
-3.741821	vamos	-0.6532125
-3.343881	van	-0.7596678
-3.644911	vaya	-0.5118834
-4.042851	vayan	-0.39794
-4.343881	veamos	-0.30103
-2.954715	veinte	-0.8952646
-3.283183	veinticinco	-1.079181
-3.2647	veinticuatro	-0.937852
-3.389638	veintid'os	-0.7201594
-3.16779	veintinueve	-1.028029
-3.440791	veintiocho	-0.929419
-3.343881	veintis'eis	-0.7596679
-3.389638	veintisiete	-0.5835766
-3.197753	veintitr'es	-1
-3.644911	veintiuno	-0.7403626
-4.343881	vendr'ia	-0.30103
-4.343881	venga	-0.30103
-4.343881	vengan	-0.30103
-4.343881	vente	-0.30103
-3.001458	ver	-0.4983106
-3.799813	ver'a	-0.39794
-4.343881	verano	-0.30103
-4.16779	verdad	-0.4771212
-3.799813	vez	-0.39794
-4.343881	viaja	-0.30103
-3.603518	viajando	-0.6368221
-2.273843	viajar	-1.220108
-4.343881	viajara	-0.30103
-2.154953	viaje	-1.194976
-3.246971	viajes	-0.60206
-4.343881	vida	-0.30103
-2.859581	viene	-0.6766937
-2.343881	viernes	-0.7949648
-4.042851	viernes_santo	-0.39794
-3.021662	vigo	-0.7075702
-4.16779	visita	-0.30103
-4.16779	visitar	-0.4771213
-4.343881	visitarlos	-0.30103
-3.46882	vitoria	-0.4771213
-2.690669	volver	-0.7948569
-4.343881	volver'ia	-0.30103
-3.440791	volviendo	-0.6766937
-3.799813	voy	-0.60206
-2.223307	vuelta	-0.8889422
-3.799813	vuelva	-0.3424227
-4.343881	vuelven	-0.30103
-4.16779	vuelvo	-0.4771212
-1.716003	y	-0.9364955
-2.96367	ya	-0.7558749
-3.440791	yo	-0.4973246
-3.86676	zamora	-0.4259687
-2.658139	zaragoza	-0.8952647
-4.16779	zona	-0.30103

\2-grams:
-0.3895018	'avila </s>
-0.6990569	'avila a	-0.2984307
-1.539401	'avila desde
-0.8289571	'avila el	-0.7781513
-1.241962	'avila en	-0.4771212
-1.520461	'avila para
-0.6683515	'ultima hora
-0.1916102	'ultima semana	-0.5346685
-0.401401	'ultimo </s>
-1.441878	'ultimo el
-1.547738	'ultimo es
-1.563739	'ultimo euromed
-1.250043	'ultimo que
-0.4860598	'ultimo tren	-0.3561736
-0.1520669	'ultimos </s>
-0.3001455	'unicamente cu'al
-0.2951286	'unico tren
-3.6659	<s> 'avila
-1.379575	<s> a	-0.3411921
-3.218453	<s> al	-0.1841286
-3.678148	<s> albacete
-3.366382	<s> alg'un	-0.4771213
-3.101673	<s> alguno	-0.2528471
-3.700451	<s> alrededor
-3.512362	<s> antes
-3.712047	<s> ay
-2.879524	<s> barcelona	-0.845098
-2.75483	<s> bien	-0.01087867
-2.312432	<s> buenas	-0.2673617
-2.535844	<s> bueno	-0.1556967
-2.247801	<s> buenos	-1.477121
-3.685983	<s> burgos
-3.712047	<s> buscar'ia
-3.662891	<s> c'aceres
-3.392127	<s> c'adiz	-0.4771213
-3.404353	<s> cambiar
-3.389722	<s> catorce	-0.4771213
-3.675054	<s> ciudad_real
-3.602782	<s> con
-3.6311	<s> conocer
-3.40684	<s> creo	-0.4771212
-2.366128	<s> cu'al	-0.3656435
-2.430739	<s> cu'anto	-0.5445253
-3.712047	<s> cuales
-3.007075	<s> cualquier	-0.3316554
-3.710372	<s> cualquiera
-3.678148	<s> cuenca
-3.396164	<s> d'igame	-0.4771213
-2.557066	<s> de
-3.091368	<s> del
-3.218817	<s> desde
-3.705383	<s> deseaba
-2.168315	<s> desear'ia	-0.3801123
-2.057754	<s> deseo	-0.4655372
-3.374023	<s> diecinueve
-3.388127	<s> dieciocho	-0.4771213
-3.651059	<s> diecis'eis
-3.218992	<s> diecisiete	-0.60206
-3.567686	<s> dos
-3.705383	<s> durante
-1.224509	<s> el	-0.4795628
-3.710372	<s> elegir
-2.824195	<s> en	-0.0856723
-3.679704	<s> entonces
-2.704557	<s> entre	-1.041393
-3.700451	<s> era
-2.984388	<s> es
-3.352223	<s> ese
-2.993705	<s> eso	0.08443269
-3.679704	<s> esos
-2.920397	<s> este	-0.1765551
-3.70704	<s> esto
-3.70704	<s> estoy
-3.703733	<s> exactamente
-3.408506	<s> exacto
-3.409342	<s> existe	-0.4771212
-3.703733	<s> finales
-3.708703	<s> gasteiz
-3.69882	<s> gerona
-2.945049	<s> gracias
-3.655458	<s> granada
-3.705383	<s> habr'ia
-2.403692	<s> hay	-0.1914712
-1.383284	<s> hola	-0.4921246
-2.838334	<s> horario	-0.60206
-2.695845	<s> horarios	-0.3438383
-3.009732	<s> hoy	-0.3100218
-3.354189	<s> ir
-3.195881	<s> jueves
-3.702089	<s> l'erida
-2.694017	<s> la	-0.5642715
-3.396976	<s> la_coru~na	-0.4771212
-3.625561	<s> llega
-3.682832	<s> lleida
-3.684404	<s> lo
-3.155689	<s> los
-3.339935	<s> lunes
-2.806796	<s> madrid	-0.9030899
-3.375568	<s> martes
-2.22056	<s> ma~nana	-0.4293507
-1.435796	<s> me	-0.7838834
-3.226063	<s> mira
-3.104151	<s> mire
-3.517695	<s> muchas
-3.700451	<s> muy
-2.086963	<s> nada	-0.4173876
-3.708703	<s> necesitar'ia
-2.711712	<s> necesito	-0.08177286
-0.7245383	<s> no	-0.4880556
-3.539708	<s> o
-2.54634	<s> obtener	-0.4022758
-3.601478	<s> ocho
-3.712047	<s> oiga
-3.616036	<s> once
-3.692354	<s> otro
-3.388127	<s> oviedo	-0.4771213
-3.218992	<s> pamplona	-0.60206
-2.842321	<s> para	-0.06383958
-3.009067	<s> pasado	-0.7781512
-3.410179	<s> perdone
-3.69882	<s> pod'ia
-2.85442	<s> podr'ia
-2.776745	<s> por	-0.6532122
-3.238113	<s> pr'oximo
-3.307666	<s> precios
-3.411017	<s> preferir'ia
-3.708703	<s> pregunto
-3.360364	<s> puede	-0.4771212
-3.228262	<s> puedo
-1.663775	<s> pues	-0.3542022
-2.321536	<s> qu'e	-0.3814448
-2.386908	<s> que	-0.1507294
-1.475651	<s> quer'ia	-0.494455
-2.012239	<s> querr'ia	-0.4755809
-3.712047	<s> quieres
-1.357056	<s> quiero	-0.6646407
-3.382587	<s> quince	-0.4771213
-1.614694	<s> quisiera	-0.3915035
-3.712047	<s> realmente
-3.497769	<s> s'abado
-0.477887	<s> s'i	-0.2932273
-2.402787	<s> saber	-0.2621298
-3.363363	<s> sale	-0.4771213
-3.625561	<s> salida
-2.943137	<s> salir	-0.2024873
-3.390522	<s> san_sebasti'an	-0.4771212
-3.371717	<s> santander	-0.4771213
-3.69882	<s> santiago_de_compostela
-2.843376	<s> sevilla	-0.9030901
-2.880018	<s> si	0.001341641
-3.078814	<s> siete	-0.69897
-3.700451	<s> solo
-3.66893	<s> son
-3.621454	<s> tambi'en
-3.712047	<s> tampoco
-2.85746	<s> tarragona	-0.90309
-3.662891	<s> teruel
-3.375568	<s> tiene
-3.693961	<s> tienen
-3.162421	<s> tipo	-0.60206
-3.708703	<s> todos
-3.685983	<s> toledo
-3.358129	<s> treinta
-3.326375	<s> trenes
-3.622819	<s> tres
-3.017244	<s> un	-0.2196203
-3.655458	<s> una
-3.589919	<s> uno
-3.712047	<s> utilizar
-3.40188	<s> vale	-0.4771212
-3.290794	<s> valencia	-0.4771212
-3.671981	<s> valladolid
-3.702089	<s> vamos
-3.712047	<s> veamos
-3.211505	<s> veinte	-0.60206
-3.678148	<s> veinticinco
-3.676598	<s> veinticuatro
-3.685983	<s> veintid'os
-3.667412	<s> veintinueve
-3.222785	<s> veintitr'es	-0.60206
-3.703733	<s> ver'a
-2.719101	<s> viajar	-0.7403628
-3.372234	<s> viaje
-3.036063	<s> viernes
-3.095946	<s> vigo	-0.69897
-3.584879	<s> volver
-2.407758	<s> y	-0.2090389
-3.000501	<s> ya	-0.2225519
-3.401059	<s> yo
-1.960886	a 'avila	-0.1853087
-2.885747	a 'ultima	-0.4771212
-2.112062	a albacete	-0.2510791
-2.890621	a algeciras
-2.889642	a alguna	-0.4771212
-1.528872	a alicante	-0.3885022
-2.345784	a almer'ia	-0.2920696
-2.237572	a badajoz	-0.1274798
-1.067656	a barcelona	-0.4751739
-1.621296	a bilbao	-0.3399113
-2.490628	a burgos	-0.03891683
-2.076691	a c'aceres	-0.2124433
-1.869642	a c'adiz	-0.111526
-1.760524	a c'ordoba	-0.4202165
-3.191162	a castell'o
-1.848027	a castell'on	-0.3074387
-2.111899	a ciudad_real	-0.305307
-2.878536	a cualquier	-0.4771212
-3.10606	a cuatro
-2.190868	a cuenca	-0.7781513
-3.130057	a decir
-3.182436	a decirme
-2.84198	a diez
-2.843736	a dos
-3.186293	a esa
-3.121632	a ese
-3.130057	a eso
-2.589346	a finales	-0.69897
-3.191162	a francia
-2.890132	a gasteiz
-2.492192	a gerona	-0.1023052
-2.711112	a gij'on	-0.2038611
-2.413664	a girona	-0.1506931
-1.793692	a granada	-0.2332214
-2.890132	a guadalajara	-0.4771212
-3.189207	a haber
-2.712737	a huelva	-0.1568383
-2.492976	a huesca	-0.09458154
-2.753116	a ir
-2.413174	a ja'en	-0.05693203
-2.589102	a l'erida	-0.04154859
-1.976788	a la	-0.1400415
-2.112225	a la_coru~na	-0.161842
-1.24405	a las	-0.5344845
-2.287949	a le'on	-0.2417814
-2.411707	a lleida	0.003844202
-2.237137	a logro~no	-0.6020598
-2.890621	a lugo
-1.890818	a m'alaga	-0.1927681
-2.15066	a m'erida	-0.1396423
-3.191162	a m'i
-0.984573	a madrid	-0.2246377
-3.191162	a mediados
-2.707882	a mediod'ia	-0.09812593
-3.187262	a mi
-1.986736	a murcia	-0.3797978
-3.129207	a noche
-3.132617	a once
-2.889153	a orense	-0.4771213
-2.076766	a oviedo	-0.4785832
-2.711761	a palencia	-0.1692981
-1.829902	a pamplona	-0.3732131
-2.714367	a par'is	-0.1545853
-1.484553	a partir	-1.423246
-3.191162	a pe~n'iscola
-2.078048	a poder	-1.146128
-3.191162	a port_aventura
-2.074739	a primera	-1.146128
-3.191162	a primeros
-2.288929	a principios	-0.9542425
-3.058093	a pues
-1.37724	a qu'e	-1.525045
-2.390971	a que	-0.3670827
-2.896286	a quer'ia
-1.830158	a salamanca	-0.3862262
-3.191162	a san_fermines
-2.190281	a san_sebasti'an	-0.2468326
-1.647569	a santander	-0.2096815
-3.190183	a santiago
-2.346623	a santiago_de_compostela	-0.1912186
-2.015724	a segovia	-0.4145285
-2.692081	a seis	-0.60206
-1.984114	a ser	-1.230449
-1.310825	a sevilla	-0.4080898
-3.116654	a siete
-2.492779	a soria	-0.2505007
-3.191162	a sueca
-1.673004	a tarragona	-0.2371587
-1.829988	a teruel	-0.1881058
-2.045734	a toledo	-0.06870273
-2.480688	a un	-0.299954
-2.703718	a una
-2.713062	a unos	-0.60206
-1.405078	a valencia	-0.5200818
-1.987348	a valladolid	-0.3514552
-1.623755	a ver	-0.1026155
-2.789609	a viajar
-1.829604	a vigo	-0.2173341
-2.191652	a vitoria	-0.09151775
-1.932583	a zaragoza	-0.3131902
-0.2868905	abre a
-0.2349298	abril </s>
-1.473069	abril a	-0.1454394
-2.289639	abril al
-1.988222	abril con	-0.4771213
-1.057978	abril de	-0.3660539
-1.679619	abril del	-0.69897
-2.296075	abril dentro
-2.292358	abril despu'es
-2.288673	abril diecis'eis
-1.952768	abril en	-0.4771212
-2.123297	abril no
-2.272185	abril o
-1.779897	abril para	-0.60206
-1.33308	abril por	-0.7403629
-2.294115	abril porque
-2.193481	abril que
-1.955001	abril quer'ia
-2.244277	abril quisiera
-2.295879	abril viernes_santo
-1.240347	abril y	-0.101057
-0.2962752	acabado gracias
-0.2997727	acceder o
-0.1745692	acerca del
-0.2990572	acercara m'as
-0.3009906	acudir esta
-0.1520669	acuerdo </s>
-1.417539	adem'as deseo
-1.207301	adem'as el
-1.380408	adem'as en
-1.361409	adem'as la
-1.429127	adem'as lo
-1.384628	adem'as los
-1.364636	adem'as me
-1.096726	adem'as que
-1.38304	adem'as quer'ia
-1.416853	adem'as querr'ia
-0.9323362	adem'as quiero	-0.1606197
-1.33547	adem'as saber
-0.04502069	adi'os </s>
-0.2731599	aeropuerto de
-0.2635832	agosto </s>
-1.448541	agosto a	-0.2169719
-1.999391	agosto cualquier
-1.663285	agosto de
-1.952631	agosto del
-1.95547	agosto desde
-1.986286	agosto dos
-2.003967	agosto e
-1.929967	agosto en
-1.945614	agosto es
-1.99521	agosto hasta
-1.091773	agosto por	-0.9542425
-1.913426	agosto quiero
-1.956897	agosto quisiera
-1.967503	agosto si
-1.993479	agosto tambi'en
-1.922131	agosto un
-1.27628	agosto y	-0.1039425
-0.2542408	agradecer'ia </s>
-0.2838257	ah s'i
-0.954036	ahora dime
-0.3476978	ahora me	-0.07742575
-0.9416483	ahora quer'ia
-1.715669	al aeropuerto
-1.414723	al atardecer
-1.233453	al cuatro	-0.1587769
-0.6696525	al d'ia	-1.079181
-1.710519	al destino
-1.710189	al diecisiete
-1.703476	al euromed
-1.714668	al igual
-1.412888	al mediod'ia
-1.715669	al men'u
-1.711346	al mismo
-1.715669	al museo
-1.409489	al once	-0.4771213
-1.715669	al principio
-1.688937	al s'abado
-1.110985	al treinta	-0.69897
-1.683782	al viernes
-0.4505077	alaris </s>
-1.402305	alaris me
-0.8277327	alaris o	-0.69897
-1.40318	alaris que
-0.5847436	alaris si	-0.3231013
-0.4012084	albacete </s>
-0.8472281	albacete a	-0.1408632
-1.465244	albacete antes
-1.474532	albacete destino
-1.315717	albacete el
-1.429961	albacete para
-1.473516	albacete saliendo
-1.143907	albacete y	-0.4771213
-1.838974	alg'un ave
-1.53486	alg'un billete
-1.526675	alg'un d'ia
-1.836951	alg'un euromed
-1.839935	alg'un fin
-1.523257	alg'un horario
-1.543311	alg'un otro
-1.843155	alg'un regional
-1.364134	alg'un talgo	-0.0829702
-1.829476	alg'un tipo
-0.2101123	alg'un tren	-0.1863031
-0.5130358	algeciras </s>
-0.5931413	algeciras en
-0.5130358	algo </s>
-0.5905662	algo que
-0.5439795	alguna ciudad
-0.845039	alguna historia
-0.844921	alguna otra
-0.9526316	alguno </s>
-0.5844328	alguno de	-0.2954105
-1.488031	alguno es
-0.356947	alguno que	-0.4594031
-1.502013	alguno sale
-0.4003998	alicante </s>
-0.8390992	alicante a	-0.8129134
-1.878756	alicante antes
-0.9140791	alicante el	-0.3182145
-1.864566	alicante ma~nana
-1.039063	alicante para	-0.2105305
-1.889095	alicante pero
-1.818263	alicante saber
-0.979709	alicante y	-0.06151303
-1.000284	all'i a
-0.3415205	all'i antes	0.1723459
-0.705174	all'i el
-0.4367155	almer'ia </s>
-0.9800811	almer'ia a	-0.4771213
-0.7987861	almer'ia el
-1.295995	almer'ia en
-1.319161	almer'ia hasta
-1.297442	almer'ia por
-0.2542408	almeria </s>
-0.2123586	alrededor de	-0.8450981
-0.6959311	alrededor del	-0.4771213
-0.5130358	alta_velocidad </s>
-0.5931413	alta_velocidad en
-0.5130358	altaria </s>
-0.5995489	altaria o
-0.2542408	amable </s>
-0.3791796	amigos </s>
-0.8897797	amigos en
-0.9024412	amigos entonces
-0.8044411	anterior </s>
-0.9335003	anterior a
-0.8923402	anterior el
-0.9718164	anterior que
-0.9601285	anterior y
-1.378416	antes </s>
-0.05497893	antes de	-1.526021
-1.415215	antes del	-0.2197311
-2.195801	antes estaba
-2.195261	antes mejor
-0.2731599	aparte de
-0.277257	aprovechar el
-0.698793	aproximadamente alrededor
-0.3964375	aproximadamente antes	-0.4771212
-0.2990572	aproximado m'as
-0.6449111	aqu'i de
-0.395077	aqu'i desde	-0.4771212
-0.1520669	arco </s>
-1.078857	as'i como
-0.2325891	as'i es	-0.2841341
-1.077649	as'i hasta
-0.2868905	asistir a
-0.2731599	asunto de
-0.5130358	atardecer </s>
-0.5856696	atardecer y
-0.2542408	atenci'on </s>
-0.7473114	aunque no
-0.7759141	aunque sea
-0.771794	aunque si
-0.2952451	autobuses que
-0.3010103	autom'aticamente tienes
-0.3456808	ave </s>
-1.669479	ave a
-1.859659	ave d'igame
-1.247719	ave de	-0.221263
-1.817046	ave desde
-1.862321	ave disponible
-1.862154	ave eh
-1.767248	ave la
-1.842428	ave o
-1.857674	ave pero
-1.796494	ave por
-1.861154	ave porque
-1.852097	ave puede
-1.855698	ave saliendo
-1.844505	ave sevilla
-1.013071	ave si	-0.6532124
-1.496541	ave y
-0.2542408	ay </s>
-0.2542408	ayudar </s>
-0.8990169	a~no dos
-0.9022252	a~no entonces
-0.9005398	a~no entre
-0.8709053	a~no y
-0.3010005	b'usqueme usted
-0.3250948	badajoz </s>
-1.13762	badajoz a
-1.09646	badajoz el
-1.174051	badajoz para
-1.164248	badajoz y
-0.5963527	bajar desde
-0.5931413	bajar en
-0.5029427	bar </s>
-1.017992	bar me
-1.036385	bar o
-0.7239723	bar y	-0.4771213
-0.1411619	barato </s>
-1.266475	barato para
-1.26726	barato que
-1.091667	barato y
-0.3009906	baratos tanto
-0.4640993	barcelona </s>
-0.8518102	barcelona a	-0.4904913
-1.782629	barcelona antes	0.2392927
-2.378277	barcelona castell'on
-1.772429	barcelona desde	-0.123567
-0.9084358	barcelona el	-0.4312061
-1.595372	barcelona en	-0.2039475
-2.372752	barcelona ese
-2.377985	barcelona este
-2.309167	barcelona ida
-2.234381	barcelona la
-2.389241	barcelona llegan
-2.390143	barcelona lleida
-2.048791	barcelona ma~nana	-0.4771213
-2.241157	barcelona me
-2.150572	barcelona no
-1.064884	barcelona para	-0.2455403
-2.385953	barcelona pero
-2.033841	barcelona por
-2.349684	barcelona pues
-1.751201	barcelona que
-2.280907	barcelona quer'ia
-2.249778	barcelona quiero
-2.317482	barcelona quisiera
-2.395285	barcelona saldr'ia
-2.382393	barcelona saliendo
-2.379156	barcelona sobre
-2.263039	barcelona un
-2.384763	barcelona una
-2.070136	barcelona valencia	-0.4771212
-1.414102	barcelona y	-0.04999252
-0.4666787	bien </s>
-1.652977	bien b'usqueme
-0.9834139	bien el	-0.2983822
-1.643986	bien ese
-1.647699	bien est'a
-1.652858	bien estar'ia
-1.037042	bien gracias	0.1496723
-1.586485	bien me
-1.584264	bien para
-1.652269	bien perfecto
-1.11102	bien s'i	-0.1726343
-1.628323	bien si
-0.571821	bilbao </s>
-0.5133232	bilbao a	-0.3323717
-2.193327	bilbao al
-2.199366	bilbao alrededor
-2.154475	bilbao barcelona
-1.654315	bilbao de
-1.86853	bilbao desde
-1.188809	bilbao el	-0.08705264
-2.108464	bilbao en
-2.196448	bilbao entonces
-1.596406	bilbao hasta	-0.1251502
-2.07592	bilbao la
-2.116763	bilbao las
-2.081378	bilbao me
-1.280764	bilbao para	-0.04847954
-2.158967	bilbao qu'e
-2.084651	bilbao que
-2.113055	bilbao quer'ia
-2.088298	bilbao quiero
-2.033027	bilbao saber
-2.189568	bilbao santander
-2.176127	bilbao sevilla
-1.274936	bilbao y	-0.0617213
-0.693099	billete </s>
-1.616648	billete a
-0.2827674	billete de	-0.9474626
-1.656165	billete del	-0.1148066
-2.228432	billete desde
-2.268629	billete disponible
-1.307826	billete en	-0.324192
-1.417804	billete ida	-0.9030901
-2.240823	billete m'as
-2.133437	billete no
-2.269218	billete normal
-1.552253	billete para
-1.771647	billete por	-0.60206
-2.268334	billete tendr'ia
-2.159441	billete y
-0.6076781	billetes </s>
-0.4247207	billetes de	-0.3603969
-1.121908	billetes para
-1.129454	billetes por
-0.3000474	buena hora
-1.794596	buenas a
-1.624994	buenas desear'ia
-1.892609	buenas es
-1.928662	buenas he
-1.074977	buenas me	-0.90309
-1.927045	buenas mira
-0.7799569	buenas quer'ia	-0.3893279
-1.149019	buenas querr'ia	-0.05150343
-1.079968	buenas quisiera	-0.1828905
-0.4107935	buenas tardes	-0.2303458
-1.928662	buenas ver'a
-1.670227	bueno desear'ia
-1.377446	bueno el
-1.669882	bueno entre
-1.622534	bueno es
-1.169476	bueno me	-0.60206
-1.678945	bueno mejor
-1.648016	bueno obtener
-0.7238426	bueno pues	-0.04657031
-1.647689	bueno qu'e
-1.610634	bueno quer'ia
-1.590346	bueno quiero
-1.355852	bueno quisiera
-1.443856	bueno s'i
-1.673171	bueno saliendo
-1.677714	bueno ser'ia
-1.361412	bueno si
-1.552147	bueno y
-1.678417	bueno yo
-0.004840566	buenos d'ias	-0.5290935
-0.5367874	burgos </s>
-0.5694371	burgos a	-0.3493983
-0.9929592	burgos el
-1.325343	burgos la
-1.359021	burgos saliendo
-1.360137	burgos valladolid
-0.296032	buscar un
-0.2947503	buscar'e la
-0.296032	buscar'ia un
-0.5577906	c'aceres </s>
-0.7318271	c'aceres a	-0.4760919
-1.590927	c'aceres capital
-1.571409	c'aceres desde
-1.060371	c'aceres el	-0.60206
-0.9782419	c'aceres para	-0.4771213
-0.8032773	c'aceres y	-0.08365884
-0.4059287	c'adiz </s>
-1.432147	c'adiz a
-0.8970851	c'adiz el	-0.1301471
-1.513435	c'adiz en
-1.5486	c'adiz ese
-1.497252	c'adiz la
-1.235185	c'adiz los	-0.4771213
-1.500008	c'adiz me
-1.515758	c'adiz por
-1.551801	c'adiz saliendo
-0.6985767	c'omo ha
-0.3874148	c'omo no
-0.3009021	c'omoda mejor
-0.4003689	c'omodo </s>
-1.021824	c'omodo de
-1.095881	c'omodo no
-1.116059	c'omodo para
-1.144459	c'omodo pero
-0.4548984	c'ordoba </s>
-1.08611	c'ordoba a	-0.60206
-0.5766453	c'ordoba el	-0.3503992
-0.9797632	c'ordoba para
-1.589886	c'ordoba ser'ia
-1.265675	c'ordoba y
-0.9980272	cada cu'anto
-0.9982623	cada salida
-0.3005227	cada uno	-0.07753032
-0.2542408	callado </s>
-0.1516785	cama </s>
-1.543125	cama adem'as
-1.398666	cama de
-1.536578	cama o
-1.531445	cama si
-1.543301	cama tienen
-0.3559276	cambiar el	-0.2083592
-0.5393497	cambiar la	-0.1437672
-1.146069	cambiar ninguna
-0.2868905	cambrils a
-0.2731599	camino de
-0.2542408	capital </s>
-0.5130358	caracter'isticas </s>
-0.5991774	caracter'isticas tipo
-0.2542408	carnavales </s>
-0.2542408	caro </s>
-0.5130358	casa </s>
-0.5856696	casa y
-0.2542408	castell'o </s>
-0.5677703	castell'on </s>
-0.4875563	castell'on a	-0.748188
-1.587446	castell'on de
-1.821509	castell'on desde
-1.853133	castell'on destino
-1.285455	castell'on el	-0.2084908
-1.802388	castell'on en
-1.849601	castell'on este
-1.737119	castell'on no
-1.235492	castell'on para	-0.144003
-1.529522	castell'on por
-1.855928	castell'on viajando
-1.50515	castell'on y
-0.2989005	catalu~na_expres si
-1.318107	catorce </s>
-0.2344876	catorce de	-0.413742
-0.9417425	catorce horas	-0.238718
-1.230473	catorce por	-0.4771213
-1.540424	catorce tambi'en
-1.543891	catorce verdad
-0.3010103	celebre carnavales
-0.1619327	cerca de	-0.4771212
-0.2542408	cercana </s>
-0.2868905	cercano a
-0.300853	cero horas
-0.2979911	cierra del
-0.7382873	cinco </s>
-1.880073	cinco a
-2.024245	cinco creo
-0.2273785	cinco de	-0.6872069
-2.024716	cinco esto
-2.023186	cinco horas
-1.955351	cinco la
-2.018396	cinco llega
-2.010453	cinco o
-1.712801	cinco qu'e	-0.4771213
-1.960506	cinco que
-1.398887	cinco y	-0.4771212
-0.8652183	cincuenta </s>
-0.1733162	cincuenta y	-0.2526622
-0.2542408	citado </s>
-0.9541638	ciudad cercana
-0.5991535	ciudad de
-0.9541638	ciudad monumental
-0.9315512	ciudad que
-0.4196168	ciudad_real </s>
-0.9819371	ciudad_real a	-0.2144712
-0.9606681	ciudad_real el	-0.2203012
-1.188545	ciudad_real hasta	-0.4771213
-1.169067	ciudad_real para
-1.462588	ciudad_real por
-1.162042	ciudad_real y
-0.3423853	claro </s>
-1.065432	claro es
-1.054961	claro para
-1.072892	claro pues
-0.6336167	clase </s>
-1.518068	clase de
-1.454628	clase econ'omica	-0.4771213
-1.755659	clase especial
-1.734652	clase m'as
-1.652125	clase no
-1.447974	clase o	-0.4771213
-0.755626	clase preferente	-0.1731452
-1.749537	clase primera
-1.735064	clase qu'e
-0.6096077	clase turista	-0.1201637
-1.391001	coche </s>
-0.1035065	coche cama	-0.1441495
-1.03691	coche en	-0.60206
-0.9131343	coger a
-0.6180238	coger el
-0.4721233	coger un	-0.60206
-0.2868905	cogi'endolo a
-0.277257	cogiendo el
-0.2731599	cojo de
-1.075586	como de
-0.9622862	como es
-1.246761	como horarios
-1.267653	como llegar
-1.278577	como m'aximo
-1.226043	como para
-1.266274	como precios
-1.277958	como servicio
-1.278134	como voy
-0.2542408	compa~n'ia </s>
-0.3010103	competici'on deportiva
-0.2979911	completo del
-0.1232664	comprar un	-0.2063958
-0.296032	compro un
-1.676399	con arco	-0.4771213
-1.976153	con bar
-1.971667	con coche
-0.8311321	con destino	-0.147339
-1.97733	con direcci'on
-1.190596	con el	-0.198979
-1.976741	con esto
-1.866699	con la
-1.903237	con las
-1.976545	con literas
-1.497857	con llegada	-0.60206
-1.953429	con llegar
-1.278321	con punto	-0.7781513
-1.657734	con qu'e	-0.4771212
-0.597029	con salida	-0.3035723
-1.199277	con servicio	-0.845098
-1.910086	con trenes
-1.46832	con un	-0.1681448
-1.975957	con unos
-1.928662	con vuelta
-0.4756482	concierto </s>
-0.8039898	concierto a
-0.8268077	concierto para
-0.277257	concretar el
-0.2948472	concretos para
-0.300391	condiciones entre
-0.7104126	confirmar el
-0.7595781	confirmar la
-0.7473114	confirmar no
-0.277257	confirme el
-0.3010103	confundida se~norita
-0.2868905	congreso a
-0.3107268	conocer el	-0.774173
-1.755497	conocer horario
-1.074777	conocer horarios	-0.544068
-0.572492	conocer los	-0.9542426
-1.475295	conocer tambi'en	-0.4771213
-1.748991	conocer un
-0.3008136	conozco entonces
-0.374167	conseguir el	-0.4771212
-0.690823	conseguir los
-0.5130358	consulta </s>
-0.5943766	consulta horario
-1.651328	consultar adem'as
-0.6675533	consultar el	-0.7403626
-1.347545	consultar ese	-0.4771213
-1.160858	consultar horario	-0.1455084
-0.8677453	consultar horarios	-0.2376488
-0.8669142	consultar los	-0.1467571
-1.585474	consultar precio
-1.636652	consultar precios
-1.645955	consultar tambi'en
-1.61138	consultar trenes
-1.596728	consultar un
-1.618187	consultar viaje
-0.3010103	contestan autom'aticamente
-0.300676	corresponde al
-0.3010103	cosa odio
-0.3009611	cosita dime
-0.3009021	costa porque
-0.2542408	costar </s>
-0.8978304	costar'ia </s>
-0.6253216	costar'ia el	-0.2976411
-1.327102	costar'ia en
-1.355555	costar'ia ese
-1.336282	costar'ia ir
-1.313862	costar'ia la
-0.8714044	costar'ia un	-0.60206
-1.354702	costar'ia volver
-0.2542408	crem'a </s>
-0.05042518	creo que	-0.05667942
-1.107241	cu'al de	-0.3385525
-1.968129	cu'al era
-0.07620929	cu'al es	-1.032747
-1.491099	cu'al ser'ia	-0.60206
-0.6578081	cu'ales de	-0.4771213
-0.6986308	cu'ales llegan
-0.5225936	cu'ales son	-0.2108212
-0.7743901	cu'ando hay
-0.7764136	cu'ando llega
-0.7761785	cu'ando podr'ia
-1.119135	cu'anto costar'ia	-0.2044211
-0.4350748	cu'anto cuesta	-0.3158811
-1.62774	cu'anto de
-1.596405	cu'anto dura	-0.4771213
-1.574471	cu'anto es
-0.7777144	cu'anto me	-0.4496004
-1.889017	cu'anto puede
-1.892794	cu'anto salen
-1.897371	cu'anto tarda
-1.897371	cu'anto tardar'ia
-1.897244	cu'anto tiempo
-1.052255	cu'anto vale	-0.1171959
-1.897116	cu'anto valen
-0.5999403	cu'antos d'ias
-0.548001	cu'antos de
-0.3008038	cuales llegan
-1.528255	cualquier clase
-1.531341	cualquier compa~n'ia
-0.6831662	cualquier d'ia	-0.2942137
-1.052068	cualquier hora	-0.1996026
-1.530516	cualquier otro
-0.5761132	cualquier tipo	0.305854
-0.8242692	cualquier tren	-0.544068
-0.5130358	cualquiera </s>
-0.6013916	cualquiera pero
-0.3003714	cuando podr'ia
-0.2995275	cuanto antes
-0.98643	cuarenta </s>
-1.096815	cuarenta que
-0.2077327	cuarenta y	-0.5207024
-0.3511508	cuarto </s>
-0.6449111	cuarto de
-0.3528949	cuatro </s>
-1.506316	cuatro a
-2.026354	cuatro cinco
-2.036483	cuatro cincuenta
-0.4959056	cuatro de	-0.6003264
-2.023601	cuatro deseo
-2.036955	cuatro necesitar'ia
-1.728907	cuatro o
-1.711619	cuatro por	-0.4771213
-1.865725	cuatro s'i
-2.036955	cuatro u
-1.528121	cuatro y
-0.4984453	cuenca </s>
-0.7182543	cuenca a	-0.2952308
-1.427642	cuenca con
-0.5691532	cuenca el	-0.3748142
-1.391492	cuenca y
-0.2542408	cuento </s>
-0.5473365	cuesta </s>
-1.60992	cuesta billete
-1.62262	cuesta cada
-1.621521	cuesta d'igame
-0.4633778	cuesta el	-0.5508621
-1.618475	cuesta este
-1.597803	cuesta ir
-1.01125	cuesta un	-0.285577
-0.2927575	cullera y
-0.2927575	cultural y
-0.2731599	curso de
-0.2947503	d'e la
-1.118078	d'ia </s>
-2.148102	d'ia a
-2.574492	d'ia anterior
-2.075509	d'ia antes	0.3184739
-1.575989	d'ia catorce	-0.04993433
-1.494357	d'ia cinco	-0.4974326
-1.868798	d'ia cuatro	-0.304905
-1.419729	d'ia de	-0.1701898
-1.620471	d'ia diecinueve	-0.3668153
-2.095052	d'ia dieciocho	-0.60206
-1.4966	d'ia diecis'eis	-0.2279055
-1.4622	d'ia diecisiete	-0.3955097
-1.867818	d'ia diez	-0.7781512
-1.619033	d'ia doce	-0.7403628
-1.96258	d'ia dos	-0.4771212
-1.890005	d'ia el
-2.546048	d'ia entre
-2.55453	d'ia est'a
-1.731821	d'ia laborable	-0.2433908
-2.253024	d'ia lunes	-0.4771213
-2.145191	d'ia me	-0.4771212
-1.728257	d'ia nueve	-0.6532124
-2.517601	d'ia o
-1.6696	d'ia ocho	-0.1071445
-1.670282	d'ia once	0.012557
-2.141131	d'ia para
-2.268016	d'ia pero
-1.924371	d'ia por	-0.1533864
-2.566103	d'ia preferente
-2.488444	d'ia qu'e
-2.35118	d'ia que
-1.496683	d'ia quince	-0.8450983
-2.500881	d'ia s'abado
-1.320134	d'ia seis	-0.9999998
-1.428328	d'ia siete	-0.07316983
-1.430362	d'ia siguiente	-0.116099
-2.099035	d'ia trece
-1.532873	d'ia treinta	-0.4436728
-1.872444	d'ia tres	-0.7781513
-1.428293	d'ia uno	-0.2489431
-1.345599	d'ia veinte	-0.1261996
-2.27073	d'ia veinticinco
-1.797338	d'ia veinticuatro	-0.8450981
-2.27197	d'ia veintid'os	-0.4771213
-1.575989	d'ia veintinueve	-0.1022984
-2.097703	d'ia veintiocho	-0.60206
-2.271474	d'ia veintis'eis
-1.797838	d'ia veintisiete	-0.03824407
-1.534824	d'ia veintitr'es	-0.8129132
-2.273961	d'ia veintiuno	-0.4771213
-1.977525	d'ia y
-1.535808	d'ias </s>
-1.811865	d'ias desear'ia	-0.4771212
-1.639373	d'ias diecinueve	-0.60206
-1.814531	d'ias diecis'eis
-2.102274	d'ias doce
-1.739164	d'ias el
-2.120082	d'ias laborables
-1.642961	d'ias llamaba	-0.60206
-0.8570327	d'ias me	-0.6003046
-1.216808	d'ias mira	-0.4580319
-1.216808	d'ias mire	-0.3850951
-2.115197	d'ias necesito
-2.102038	d'ias ocho
-2.104401	d'ias podr'ia
-2.082681	d'ias pues
-0.8142519	d'ias quer'ia	-0.04534009
-0.8883204	d'ias querr'ia	-0.1146339
-1.265645	d'ias quisiera	-0.6532125
-1.809216	d'ias siete	-0.4771213
-2.1135	d'ias son
-1.815018	d'ias tengo
-2.099923	d'ias uno
-1.81356	d'ias veinte	-0.4771212
-1.815871	d'ias veintinueve	-0.4771213
-1.950087	d'ias y
-1.367206	d'igame a
-1.488616	d'igame alguno
-0.887094	d'igame cu'al	-0.69897
-1.491067	d'igame cu'antos
-0.5587534	d'igame el	-0.9542426
-1.448494	d'igame en
-1.452074	d'igame los
-1.169587	d'igame por	-0.4771212
-1.470523	d'igame si
-1.485305	d'igame tambi'en
-0.295449	d'onde quiero
-0.0791655	da igual	-0.07014357
-0.6506379	dado </s>
-0.7104126	dado el
-0.767799	dado es
-0.2969374	dame los
-0.1838157	dar el	-1
-1.133964	dar los
-1.133563	dar por
-0.374167	darme el	-0.4771212
-0.690823	darme los
-2.995479	de 'avila	-0.60206
-2.177781	de </s>
-2.726166	de a
-1.242512	de abril	-0.283532
-3.183847	de acuerdo	-0.4771213
-1.582422	de agosto	-0.1649016
-2.876867	de albacete	-0.69897
-3.145423	de alg'un	-0.4771213
-2.521874	de alicante	-0.5404187
-3.17478	de almer'ia	-0.4771212
-3.482768	de alta_velocidad
-3.481367	de aqu'i
-3.147363	de ave
-3.470322	de badajoz
-2.706961	de bar	-0.07707918
-1.934154	de barcelona	-0.5764216
-1.810789	de bilbao	-0.3566516
-2.741842	de billete	-0.2334012
-2.881059	de billetes	-0.69897
-2.782957	de burgos	-0.317606
-2.578103	de c'aceres	-0.5642713
-3.450341	de c'adiz
-3.441322	de c'ordoba
-3.484173	de cambrils
-2.103259	de castell'on	-0.6557674
-2.998229	de ciudad_real	-0.2053197
-3.153892	de clase
-2.702285	de cualquier	-0.1966538
-3.366537	de cuatro
-2.703449	de cuenca	-0.2160054
-2.529397	de d'ia	-0.195657
-2.424644	de de
-1.894482	de diciembre	-0.2277703
-2.961658	de diez	-0.60206
-3.135221	de doce	-0.4771212
-3.481367	de dormir
-2.004992	de dos	-0.7148515
-2.404133	de el	-0.1429257
-2.485441	de ellos	-0.05783797
-2.087586	de enero	-0.1710486
-3.403489	de entre
-3.477192	de esa
-2.03586	de ese	-0.4959897
-2.280933	de esos	-0.3454466
-3.481367	de esta
-3.474431	de estar
-3.183847	de estas
-2.251494	de este	-0.5835766
-2.485159	de estos	-0.154146
-3.390819	de euromed
-1.832339	de febrero	-0.2892913
-3.47581	de fecha
-3.484173	de forma
-2.783798	de gij'on	-0.2989589
-3.47581	de girona
-2.871684	de granada	-0.287363
-3.364396	de hora
-3.128086	de horario
-2.769064	de horarios	-0.4771213
-3.178941	de huelva
-1.01566	de ida	-0.2888316
-3.471688	de ja'en
-1.804312	de julio	-0.2025363
-1.70023	de junio	-0.2011314
-3.180337	de l'erida
-1.050679	de la	-0.8050691
-3.000071	de la_coru~na	-0.2089973
-1.111613	de las	-0.6305352
-3.463559	de le'on
-3.470322	de litera
-2.440229	de llegada	-0.1546665
-3.172027	de lleida	-0.4771212
-3.17478	de logro~no	-0.4771212
-1.464307	de los	-0.9837223
-3.167931	de m'alaga	-0.4771213
-1.747242	de madrid	-0.53601
-3.484173	de manera
-1.40639	de marzo	-0.2612247
-1.634304	de mayo	-0.3926752
-2.705455	de ma~nana	-0.03715831
-3.452953	de mediod'ia
-3.473057	de mes
-3.484173	de muestras
-2.440865	de murcia	-0.200077
-3.484173	de navidad
-3.484173	de negocio
-3.482768	de negocios
-2.768635	de noche	0.06624797
-2.054167	de noviembre	-0.3146352
-3.411749	de nueve
-2.184482	de octubre	-0.4036873
-3.47858	de orense
-3.484173	de origen
-2.87375	de oviedo	-0.69897
-2.784359	de palencia	-0.2862139
-2.872715	de pamplona	-0.1319328
-3.479971	de par'is
-3.481367	de pasar
-3.484173	de pascua
-3.484173	de paso
-2.86453	de primera	-0.1072175
-3.471688	de r'apidos
-3.298149	de s'abado
-3.467604	de s'olo
-3.447745	de salamanca
-2.203867	de salida	-0.09655261
-3.484173	de san_jos'e
-2.702052	de san_sebasti'an	-0.6020601
-2.866562	de santander	-0.2904794
-3.482768	de santiago
-3.459551	de segovia
-3.391956	de seis
-1.793173	de semana	-0.1475712
-3.47858	de semana_santa
-1.87273	de septiembre	-0.3774061
-3.386302	de ser
-3.484173	de servicios
-3.484173	de setiembre
-2.394448	de sevilla	-0.4864583
-3.380721	de siete
-3.356982	de talgo
-2.772991	de tarragona	-0.7781512
-3.484173	de teatro
-3.442599	de teruel
-3.183847	de trabajo
-1.299561	de tren	-0.4011338
-1.240958	de trenes	-0.2512276
-3.40819	de tres
-1.384334	de un	-0.9648702
-3.436251	de una
-3.179639	de unos
-3.482768	de vacaciones
-1.690761	de valencia	-0.7772883
-2.99731	de valladolid	-0.60206
-3.484173	de verano
-2.808796	de viajar	-0.1263369
-2.445293	de viaje	-0.3405988
-2.998229	de viajes	-0.60206
-3.268895	de viernes
-2.990483	de vigo	-0.60206
-3.00285	de vitoria	-0.2049679
-1.470544	de vuelta	-0.2493633
-2.882817	de zamora	-0.217956
-2.101098	de zaragoza	-0.7557092
-0.3010103	debe durar
-0.3002437	deber'ian ser
-0.2542408	debido </s>
-1.486701	decir </s>
-1.521764	decir a
-1.909302	decir cu'anto
-0.3646619	decir el	-0.747212
-1.856266	decir en
-1.20918	decir horarios	-0.5440681
-1.573025	decir la
-1.130767	decir los	-0.60206
-1.57369	decir para
-1.421212	decir por	-0.60206
-1.136109	decir qu'e	-0.1033753
-1.839484	decir que
-1.888183	decir si
-1.867388	decir trenes
-1.912052	decir ya
-1.203648	decirme cu'ales
-0.6806868	decirme el	-0.60206
-1.167735	decirme la
-0.8909261	decirme los	-0.4771212
-1.179342	decirme por
-0.8967327	decirme si
-0.3006563	decirte una
-0.277257	deis el
-1.505125	del 'ultimo	-0.3256043
-1.93959	del ave
-2.545616	del a~no
-0.7337175	del billete	-0.3375273
-2.240087	del coche	-0.4771212
-2.226037	del cuatro
-1.682854	del d'ia	-0.06500581
-1.707908	del de	-0.1318059
-2.526655	del diecinueve
-2.52296	del domingo
-1.266658	del dos	-0.5387602
-1.764175	del euromed	-0.2523055
-2.16889	del horario	-0.4771212
-2.237325	del intercity	-0.4771213
-2.229975	del jueves	-0.4771212
-2.04258	del m'as	-0.60206
-2.546478	del mare_nostrum
-1.31669	del mediod'ia	-0.1604736
-2.069213	del mes	-0.1501838
-2.240727	del mismo
-1.918759	del pr'oximo
-1.989196	del precio	-0.1693992
-1.64328	del primer	-0.4165317
-2.068495	del primero
-2.346373	del que
-2.531214	del quince
-1.834583	del s'abado	-0.01703086
-1.848113	del segundo	-0.544068
-2.516468	del seis
-1.761972	del talgo	-0.08140431
-2.54691	del tercer
-2.54691	del tercero
-2.54691	del ticket
-2.488398	del tipo
-2.069069	del trayecto	-0.1128851
-0.8026845	del tren	-0.291891
-2.410815	del trenes
-2.522143	del tres
-2.54691	del triana
-1.763463	del uno	-0.60206
-2.067348	del veinticinco	-0.60206
-2.067777	del veintis'eis	-0.60206
-0.9644856	del viaje	-0.2891118
-2.205484	del viernes
-0.6989307	demasiado caro
-0.3958008	demasiado tarde
-0.9022644	deme cualquier
-0.5668713	deme el	-0.4771212
-0.5965615	deme horarios
-0.1619327	dentro de
-0.2952451	deportiva que
-0.2973566	des horarios
-1.830745	desde 'avila	-0.544068
-1.707478	desde </s>
-1.748902	desde alicante	-0.2393934
-1.832213	desde almer'ia	-0.1139501
-2.531772	desde almeria
-2.230742	desde aqu'i	-0.4771213
-1.296015	desde barcelona	-0.2232948
-0.8501115	desde bilbao	-0.2673162
-2.052692	desde burgos	-0.171478
-1.751906	desde c'aceres	-0.2989664
-2.223442	desde c'ordoba	-0.4771213
-1.827922	desde castell'on	-0.04508111
-1.685903	desde ciudad_real	-0.1602592
-2.051878	desde cuenca
-1.951458	desde el
-2.531772	desde el_ferrol
-2.527864	desde gerona
-2.053181	desde gij'on	-0.1528308
-1.926047	desde granada	-0.07566534
-2.530791	desde guadalajara
-1.93008	desde hendaya	-0.1586282
-2.229272	desde huelva	-0.4771212
-2.230987	desde ir'un
-2.230987	desde iru~nea	-0.4771213
-2.22659	desde la_coru~na
-1.882666	desde las	-0.1371008
-1.832115	desde le'on	-0.544068
-1.686253	desde lleida	-0.90309
-1.928731	desde logro~no	-0.07178874
-2.525922	desde luego
-1.22482	desde madrid	-0.3504488
-2.531772	desde monz'on
-1.627396	desde murcia	-0.234386
-2.529813	desde orense
-1.685414	desde oviedo	-0.1463032
-2.053507	desde palencia	-0.1692981
-2.223201	desde pamplona	-0.4771213
-2.51872	desde salamanca
-1.57693	desde san_sebasti'an	-0.2041508
-2.218882	desde santander
-2.052366	desde segovia
-1.916779	desde sevilla	-0.4771213
-2.218643	desde tarragona	-0.4771212
-2.223684	desde teruel
-2.52399	desde toledo
-1.131502	desde valencia	-0.3477672
-2.225135	desde valladolid
-2.221516	desde vigo
-2.525438	desde vitoria
-0.9295033	desde zaragoza	-0.4984843
-0.9491571	deseaba nada
-0.6493928	deseaba obtener
-0.919871	deseaba saber
-0.9518097	deseaba tambi'en
-0.9024892	desear'ia conocer	-0.227433
-1.854489	desear'ia hacer
-1.825751	desear'ia ir
-1.837996	desear'ia m'as
-0.6799643	desear'ia obtener	-0.4988167
-1.528119	desear'ia que
-0.6753204	desear'ia saber	-0.03439415
-0.9005181	desear'ia salir	-0.2469701
-1.531869	desear'ia un	-0.4771212
-1.008944	desear'ia viajar	-0.3191867
-1.5341	deseo cambiar	-0.1997734
-1.435699	deseo conocer	-0.06338659
-2.130412	deseo consultar
-1.431795	deseo el	-0.2812945
-2.071743	deseo horarios
-1.831228	deseo informaci'on
-1.425478	deseo ir	-0.2563833
-1.528766	deseo llegar	-0.69897
-1.634308	deseo los	-0.2004717
-0.9048447	deseo nada	-1.255272
-1.286447	deseo obtener	-0.1354696
-1.624199	deseo que	-0.60206
-2.133926	deseo realizar
-2.135042	deseo regresar
-0.7866431	deseo saber	-0.3372999
-0.7922975	deseo salir	-0.9208188
-1.655754	deseo tambi'en	-0.1999239
-1.511416	deseo un	-0.0672126
-1.177625	deseo viajar	-0.3167386
-0.6768226	despu'es </s>
-0.338024	despu'es de	-0.4627991
-1.413441	despu'es del
-1.405139	despu'es en
-1.428657	despu'es saliendo
-1.383939	despu'es y
-0.938556	destino a	-0.09206651
-1.200463	destino alicante	-0.60206
-1.657804	destino antes
-0.8973827	destino barcelona	-0.2053876
-1.660196	destino bilbao
-1.671899	destino castell'on
-1.614547	destino en
-1.679513	destino ja'en
-0.9734527	destino madrid	-0.01866439
-1.618071	destino por
-1.672978	destino santander
-1.663508	destino sevilla
-1.672824	destino tarragona
-1.676078	destino teruel
-1.677012	destino valladolid
-1.372644	destino zaragoza
-0.6002929	dice cu'al
-0.555748	dice el
-0.1640421	dices el	-0.4771212
-0.5443916	dicho </s>
-1.394413	dicho al
-1.383144	dicho antes
-1.389176	dicho cu'al
-1.177108	dicho de
-1.204077	dicho el
-1.364351	dicho es
-1.358652	dicho los
-1.343291	dicho que
-1.342251	dicho tren
-0.2973859	dichos trenes
-0.2586299	diciembre </s>
-1.570095	diciembre a
-1.666158	diciembre con
-1.487345	diciembre de
-0.888317	diciembre por	-0.845098
-1.656865	diciembre qu'e
-1.627842	diciembre que
-1.173257	diciembre y
-0.3921551	diciendo que	-0.4771212
-0.6989307	diciendo se~nora
-0.9850389	diecinueve </s>
-0.198401	diecinueve de	-0.6591272
-1.446539	diecinueve horas	-0.4771213
-1.442773	diecinueve o
-1.719415	diecinueve por
-1.743326	diecinueve treinta
-1.252004	diecinueve y	-0.60206
-1.226063	dieciocho a
-1.567553	dieciocho cuarenta
-0.2804523	dieciocho de	-0.5940877
-1.560712	dieciocho o
-1.254606	dieciocho por	-0.4771213
-0.7817779	dieciocho y	-0.60206
-0.9096516	diecis'eis </s>
-1.379779	diecis'eis cuarenta	-0.4771213
-0.2915398	diecis'eis de	-0.763428
-1.680769	diecis'eis habr'ia
-1.679827	diecis'eis horas
-0.9802612	diecis'eis o	-0.3097515
-1.634081	diecis'eis para
-1.619093	diecis'eis y
-1.395506	diecisiete </s>
-1.524565	diecisiete a
-0.123732	diecisiete de	-0.6415227
-1.289592	diecisiete horas
-1.540818	diecisiete no
-0.555748	diera el
-0.594744	diera horarios
-0.296032	dieras un
-0.8872193	diez </s>
-1.546848	diez a	-0.2215541
-0.3161685	diez de	-0.8291548
-2.05074	diez o
-2.027966	diez por
-2.048209	diez pues
-2.055146	diez treinta
-0.5671862	diez y	-0.64283
-0.2969374	diga los
-0.8039898	digas a
-0.5088794	digas el
-0.8341698	digas horarios
-0.7779152	dijese cu'ales
-0.7104126	dijese el
-0.7659873	dijese los
-1.038452	dime alg'un
-1.041196	dime cu'ando
-0.6832052	dime el	-0.4771212
-1.023329	dime horarios
-1.021305	dime los
-0.1640421	dir'ia el	-0.4771212
-0.2868905	direcci'on a
-0.2731599	dispone de
-0.5641884	disponible </s>
-0.8660848	disponible el
-0.9365846	disponible en
-0.9300227	disponible para
-0.1520669	disponibles </s>
-0.5742269	diurno a
-0.5951311	diurno es
-0.8442382	doce </s>
-1.40605	doce a	-0.221641
-0.2848277	doce de	-0.6053963
-1.141578	doce del	-0.4186943
-1.917341	doce ese
-1.837642	doce no
-1.887623	doce por
-1.923572	doce vamos
-1.011894	doce y	-0.5642714
-0.6009741	domingo </s>
-1.218464	domingo a	-0.69897
-1.880283	domingo cualquiera
-1.17038	domingo d'ia	-0.297425
-1.088913	domingo de	-0.1041739
-1.829124	domingo del
-1.831962	domingo desde
-1.541017	domingo en	-0.4771212
-1.781103	domingo para
-0.832522	domingo por	-0.4891784
-1.786912	domingo que
-1.843995	domingo si
-1.87676	domingo veinticinco
-1.877638	domingo veintid'os
-1.875534	domingo veintinueve
-1.578369	domingo veintiocho	-0.4771213
-1.877638	domingo veintisiete
-1.510457	domingo y
-0.3934578	dormir en
-0.6964589	dormir hay
-2.064075	dos 'ultimos
-1.004562	dos </s>
-2.063054	dos cuarenta
-0.6353261	dos de	-0.5367748
-1.744045	dos del
-1.741302	dos es
-2.018969	dos horarios
-1.989152	dos la
-0.3922296	dos mil	-0.3367388
-2.064202	dos semanas
-1.278449	dos trenes	-0.08320872
-2.056726	dos tres
-1.436069	dos y	-0.2960476
-0.1640421	dura el
-0.1239234	duraci'on del	-0.60206
-0.9531421	durante cualquier
-0.8660848	durante el
-0.6407426	durante la	-0.4771213
-0.9541245	durante toda
-0.3009218	durar como
-0.1738444	durmiendo en	-0.4771213
-0.2977665	e ir
-0.3511508	econ'omica </s>
-0.6966546	econ'omica posible
-0.2927575	efectivamente y
-0.2542408	efecto </s>
-0.0587901	eh </s>
-0.5336401	ejemplo </s>
-0.9022939	ejemplo c'adiz
-0.5668713	ejemplo el
-2.292872	el 'ultimo	0.03214425
-3.407177	el 'unico
-2.363414	el </s>
-3.404052	el anterior
-2.229677	el ave	-0.1429569
-1.913042	el billete	-0.4928565
-3.407177	el camino
-2.327604	el catorce	-1.113943
-2.103997	el cinco	-0.4637229
-3.095689	el coche	-0.4771212
-2.61793	el cuatro	-0.3628969
-1.067127	el d'ia	-0.5982398
-1.972551	el de	-0.6938184
-2.857085	el del
-3.383525	el destino
-2.08466	el diecinueve	-0.6871505
-2.085332	el dieciocho	-0.2487465
-2.29233	el diecis'eis	-0.2664622
-2.406003	el diecisiete	-0.2985997
-2.125545	el diez	-0.7274119
-2.044428	el doce	-0.6663023
-1.784395	el domingo	-0.205839
-2.69371	el dos	-0.7781512
-2.290229	el euromed	-0.3037625
-2.702289	el fin	-0.7781512
-0.9122148	el horario	-0.3682365
-2.920236	el intercity	-0.60206
-3.106148	el intervalo	-0.4771213
-1.73533	el jueves	-0.2473114
-1.744352	el lunes	-0.273743
-2.222238	el m'as	-0.5523571
-3.406394	el mare_nostrum
-1.960244	el martes	-0.1836049
-3.389507	el mediod'ia
-3.400949	el mes
-2.365428	el mi'ercoles	-0.05372643
-2.203254	el mismo	-0.5865474
-3.407177	el momento
-3.407177	el norte
-2.259372	el nueve	-0.512477
-2.104699	el ocho	-0.4509735
-2.448773	el once	-1
-3.397868	el otro
-1.027695	el pr'oximo	-0.5691013
-0.6851901	el precio	-0.5893423
-2.231295	el primer	-0.2231004
-2.40757	el primero	-0.08360527
-3.106148	el puente
-2.928751	el punto	-0.6020601
-2.106142	el que	-0.2276443
-2.128383	el quince	-1.30103
-3.407177	el regreso
-1.587218	el s'abado	-0.2325892
-3.104582	el segundo
-2.126899	el seis	-1.30103
-2.28969	el siete	-0.7269987
-2.801214	el siguiente
-2.693256	el talgo	-0.04209676
-1.580951	el tipo	-1.832509
-2.928751	el trayecto	-0.1128851
-3.104582	el trece	-0.4771213
-1.901856	el treinta	-0.4474047
-1.538963	el tren	-0.378449
-3.104582	el tren_hotel
-2.127476	el tres	-0.6236371
-1.974885	el uno	-1.161368
-3.045844	el valencia	-0.4771212
-2.259875	el veinte	-0.5214961
-2.365714	el veinticinco	-1.079181
-2.365642	el veinticuatro	-0.0682621
-2.926931	el veintid'os	-0.60206
-2.327604	el veintinueve	-1.113943
-2.453109	el veintiocho	-1
-2.365927	el veintis'eis	-0.8129134
-2.706955	el veintisiete	-0.08026072
-2.406551	el veintitr'es	-0.7781512
-2.804726	el veintiuno	-0.69897
-1.740736	el viaje	-0.05557448
-1.324664	el viernes	-0.2215688
-3.106148	el viernes_santo
-0.2905048	el_ferrol no
-0.1640421	elegir el
-0.9760758	ellos </s>
-1.139961	ellos a
-0.6223201	ellos es	-0.2951564
-1.226405	ellos llega
-1.228868	ellos llegan
-1.228456	ellos son
-1.227156	ellos tiene
-1.769369	en </s>
-2.392781	en agosto	-0.4771213
-2.412933	en alaris
-2.412933	en albacete	-0.4771213
-2.682343	en alg'un
-2.397324	en alicante
-2.71975	en alta_velocidad
-2.71975	en altaria
-1.440996	en ave	-0.3142635
-1.993681	en barcelona	-0.1017472
-2.699661	en c'aceres
-2.237857	en cama	-0.60206
-2.231131	en castell'on	-0.2172038
-2.704928	en ciudad_real
-1.377919	en clase	-0.5424899
-1.490108	en coche	-1.255273
-2.019001	en cualquier	-0.2300523
-2.720436	en cullera
-2.539947	en d'ia
-2.653164	en d'ias
-2.720436	en efecto
-0.9664041	en el	-0.3974968
-2.484721	en en
-2.717017	en esa
-2.394398	en ese
-2.681715	en este
-1.377016	en euromed	-0.253249
-2.689955	en fin
-2.719065	en fumadores
-2.71975	en galicia
-2.511033	en horario
-2.714978	en huelva
-1.605543	en intercity	-0.1582253
-2.241872	en la
-2.710259	en le'on
-2.021191	en litera	-0.05947414
-2.642134	en llegar
-2.704266	en m'alaga
-2.184153	en madrid
-2.41872	en mi	-0.4771212
-2.720436	en nochevieja
-1.874456	en preferente	-0.05920187
-1.22914	en primera	-0.3102048
-2.201673	en qu'e	-0.60206
-2.434309	en que
-2.720436	en realidad
-2.116663	en regional	-0.1296332
-2.334192	en saber
-2.417693	en segunda	-0.4771212
-2.243314	en semana_santa	-0.1767312
-2.693166	en septiembre
-2.382888	en sevilla
-2.593389	en si
-1.030113	en talgo	-0.4602996
-2.110553	en tarragona	-0.0751695
-2.23718	en teruel	-0.2053893
-2.63082	en tipo
-1.307545	en tren	-0.1967512
-2.716336	en tren_hotel
-2.308539	en trenes
-2.240577	en turista
-0.809003	en un	-0.4738168
-2.696402	en una
-2.000168	en valencia	-0.1910579
-2.703605	en valladolid
-2.118547	en vez	-0.2359728
-1.792906	en viaje	-0.6989702
-2.693811	en vigo
-2.103365	en zaragoza	-0.1357539
-2.71975	en zona
-0.2310782	enero </s>
-1.156523	enero a	-0.4771212
-1.339627	enero de
-1.360932	enero el
-1.474704	enero en
-1.463612	enero para
-1.476312	enero quer'ia
-0.2969374	ense~nara los
-0.2542408	entendido </s>
-0.2948472	enterar para
-0.3009906	entiendo c'omo
-1.137238	entonces </s>
-1.527532	entonces bueno
-1.530329	entonces claro
-1.226186	entonces cu'anto	-0.4771213
-1.530712	entonces deme
-1.293069	entonces el
-0.7404962	entonces me	-0.845098
-1.528674	entonces necesito
-1.166196	entonces no
-1.203609	entonces quer'ia	-0.4771213
-1.463984	entonces quiero
-1.526773	entonces tengo
-1.525383	entonces ya
-1.506974	entre </s>
-1.571772	entre bilbao	-0.4771213
-1.876818	entre c'ordoba
-1.87987	entre cada
-0.4233074	entre el	-0.3988012
-1.878224	entre esos
-1.876351	entre granada
-0.4809278	entre las	-0.4343963
-1.878459	entre lleida
-1.869626	entre lunes
-1.848629	entre madrid
-1.869511	entre zaragoza
-0.2969374	enumerar los
-0.2542408	equipada </s>
-0.295449	equivocado quiero
-0.9201672	era </s>
-1.000726	era de
-1.019804	era el
-1.145597	era solo
-0.6678475	era todo
-1.116968	era un
-0.6865001	error la
-0.3874148	error no	-0.4771213
-1.044655	es </s>
-2.073871	es a
-2.59471	es buena
-2.583466	es bueno
-2.117327	es cada	-0.60206
-2.583466	es coche
-1.772604	es de
-2.59471	es debido
-2.29368	es demasiado	-0.4771213
-2.493555	es desde
-0.6258445	es el	-0.5312118
-2.212585	es en
-2.572133	es este
-1.890586	es euromed	-0.7781512
-2.592751	es exactamente
-2.462922	es horario
-2.59471	es imposible
-2.285895	es intercity
-2.480981	es ir
-1.934386	es la	-0.1453524
-2.548195	es llegar
-1.991571	es lo	-0.69897
-2.256619	es m'as	-0.4771212
-2.292699	es muy
-2.583084	es oviedo
-2.590411	es palencia
-1.849366	es para
-2.582319	es pero
-0.6504862	es posible	-0.2578726
-1.43304	es que	-0.113326
-2.534304	es s'abado
-2.334568	es saber
-2.51134	es salir
-1.992454	es su	-0.6989701
-1.553674	es suficiente	-0.1447422
-2.555311	es talgo
-0.9614882	es todo	-1.070037
-1.406203	es un	-0.04886913
-2.561452	es volver
-2.347712	es y
-1.041294	esa franja
-1.036502	esa hora
-1.041245	esa misma
-1.041245	esa ruta
-0.7372749	esa semana	-0.4771212
-1.512011	ese 'ultimo	-0.1357389
-1.476005	ese </s>
-1.28554	ese billete	-0.3326448
-0.8723469	ese d'ia	-0.2433207
-1.624702	ese de
-1.689901	ese diurno
-1.979771	ese domingo
-1.92646	ese es
-1.65307	ese horario	-0.4771213
-1.982654	ese intercity
-1.387791	ese mismo	-0.2148998
-1.817858	ese no
-1.687646	ese primer	-0.4771213
-1.990833	ese recorrido
-1.383935	ese talgo	0.01589519
-1.963227	ese tipo
-1.689115	ese trayecto	-0.4771212
-0.5398446	ese tren	-0.4496173
-1.374227	ese viaje	-0.4771213
-1.953559	ese viernes
-1.18546	eso </s>
-1.409104	eso era	-0.60206
-0.1535153	eso es	-0.6362458
-1.882349	eso est'a
-1.835509	eso me
-1.849835	eso por
-1.560892	eso quiero	-0.4771213
-1.751776	eso s'i
-1.884724	eso ser'ia
-1.094869	esos dos	-0.4771212
-1.089594	esos horarios
-0.1929061	esos trenes	-0.2582479
-1.396957	esos viajes
-0.296801	espec'ificamente por
-0.2950607	especial me
-1.140214	est'a </s>
-0.6907579	est'a bien	-0.299353
-1.431206	est'a diciendo	-0.4771212
-1.731922	est'a disponible
-0.8818659	est'a gracias	-0.90309
-0.6899435	est'a muchas	-1.079181
-0.7319297	est'a todo	-0.1758569
-1.732236	est'a totalmente
-0.777149	esta bien
-0.7760903	esta noche
-0.7744486	esta semana
-0.3010005	estaba interesado
-0.2969861	estado las
-0.2950607	estamos me
-0.5641829	estar all'i	-0.1876772
-0.705174	estar el
-0.5597892	estar en
-0.1759241	estar'ia bien
-0.5130358	estas </s>
-0.602001	estas caracter'isticas
-1.407589	este 'ultimo	-0.1357389
-1.409091	este a~no
-1.399886	este billete	-0.60206
-1.876734	este domingo
-1.185918	este fin	-0.7781512
-1.873476	este jueves
-1.584625	este mes	-0.4771213
-1.881999	este mi'ercoles
-1.583126	este mismo
-1.564486	este pr'oximo	-0.4771213
-1.181971	este s'abado
-1.884988	este servicio
-1.868956	este talgo
-0.8360112	este tren	-0.2927379
-1.2717	este viaje	-0.293588
-0.7379802	este viernes	-0.08901547
-1.763645	este y
-0.7773594	esto el
-0.538861	esto es
-0.8407521	esto muchas
-1.278547	estos 'ultimos
-0.9741575	estos dos
-1.253669	estos horarios
-1.278547	estos talgos
-1.278616	estos trayectos
-0.7931765	estos trenes	-0.2058393
-0.8010589	estos viajes	-0.1031485
-0.9029326	estoy diciendo
-0.902972	estoy interesado
-0.9030113	estoy refiriendo
-0.9030113	estoy satisfecho
-0.8371326	estrella </s>
-0.6900513	estrella en	-0.4771213
-0.9915441	estrella si
-0.6825796	estrella y	-0.4771213
-0.2247936	euromed </s>
-1.934174	euromed disponibles
-1.516376	euromed el
-1.887568	euromed en
-1.927521	euromed entre
-1.897689	euromed es
-1.890101	euromed por
-1.436532	euromed que	-0.2212115
-1.086059	euromed si	-0.40912
-1.932878	euromed vale
-1.07647	euromed y	-0.1208154
-0.8532204	exactamente </s>
-1.070243	exactamente antes
-1.073901	exactamente cu'al
-0.9528577	exactamente el
-1.075362	exactamente entre
-0.9848998	exactamente s'i
-0.4615501	exacto </s>
-0.98797	exacto del
-0.9969025	exacto ese
-0.9972934	exacto eso
-0.2965477	examen en
-0.277257	excursi'on el
-0.4253789	existe alg'un	-0.60206
-0.902795	existe ning'un
-0.902677	existe otro
-0.9030113	exposici'on abre
-0.9016757	exposici'on al
-0.9030113	exposici'on cierra
-0.8624384	exposici'on no
-0.2948472	fallas para
-0.5995685	falta llegar
-0.5974609	falta viajar
-0.1846606	favor </s>
-2.258846	favor adem'as
-1.778595	favor cu'al	0.2155489
-2.26087	favor dime
-1.629579	favor el	-0.1857316
-1.912473	favor en
-1.920944	favor horarios	-0.4771212
-2.136974	favor la
-1.916535	favor los
-1.627137	favor me
-2.257502	favor mire
-2.261096	favor otra
-1.656618	favor podr'ia	-0.2875398
-1.939688	favor qu'e	-0.4771213
-1.915007	favor quer'ia
-2.235052	favor querr'ia
-2.202723	favor quisiera
-1.977024	favor s'i
-2.260194	favor se
-1.769265	favor si	-0.2136815
-2.248645	favor tambi'en
-2.26087	favor ver'a
-1.526668	favor y
-0.381741	febrero </s>
-1.744846	febrero bueno
-0.860062	febrero de	-0.90309
-1.260027	febrero del	-0.60206
-1.446833	febrero durante
-1.684585	febrero para
-1.255758	febrero por	-0.1482543
-1.747972	febrero preferentemente
-1.731107	febrero pues
-1.444085	febrero sobre	-0.4771212
-1.403494	febrero y
-0.8879825	fecha </s>
-1.113295	fecha como
-1.096021	fecha del
-0.8109993	fecha entre	-0.4771212
-1.107034	fecha posible
-1.111119	fecha tiene
-0.2979911	fechas del
-0.2731599	feria de
-0.008531391	fin de	-1.210712
-0.1927564	finales de	-0.544068
-0.8970333	finales del
-0.2947503	forma la
-0.2868905	francia a
-0.3010103	franja horaria
-0.1759044	frecuencia salen	-0.4771212
-1.270553	fuera antes	-0.4771212
-1.579351	fuera demasiado
-1.549283	fuera desde
-1.370559	fuera el
-1.086449	fuera en	-0.196029
-1.274661	fuera euromed	-0.4771213
-1.535386	fuera por
-1.098427	fuera posible
-1.572062	fuera r'apido
-0.533393	fuera un	-0.1408345
-1.555071	fuera viajar
-1.113632	fuese a
-1.201717	fuese barato
-0.8250217	fuese el
-0.8990461	fuese posible	-0.4771213
-1.19919	fuese r'apido
-1.170285	fuese un
-1.183347	fuese viaje
-0.2542408	fumador </s>
-0.3511508	fumadores </s>
-0.6980463	fumadores clase
-0.295449	fundamentalmente quiero
-0.1520669	galicia </s>
-0.3511508	gasteiz </s>
-0.6932627	gasteiz desde
-0.4003689	gerona </s>
-1.079628	gerona a
-1.038468	gerona el
-1.116059	gerona para
-1.143236	gerona salida
-0.5184765	gij'on </s>
-0.4676439	gij'on a	-0.422436
-1.254918	gij'on alrededor
-0.9485352	gij'on desde	-0.4771212
-0.3925435	girona </s>
-0.9874032	girona a
-1.023735	girona en
-1.017173	girona para
-0.07293127	gracias </s>
-2.397276	gracias adi'os	-0.4771212
-2.685889	gracias buenos
-1.999793	gracias eh	-0.7781512
-1.789381	gracias es	-0.69897
-1.467923	gracias eso	-0.9777235
-2.219543	gracias est'a	-0.1862864
-2.696029	gracias ha
-1.919542	gracias hasta	-0.845098
-2.387156	gracias muchas	-0.4771214
-2.388453	gracias nada	-0.4771213
-1.96916	gracias no
-2.201104	gracias por
-2.493186	gracias s'i
-1.794996	gracias ya	-0.3774538
-0.514653	granada </s>
-1.057914	granada a	-0.2846105
-1.42249	granada de
-1.129193	granada el
-1.648674	granada en
-1.698709	granada entre
-1.40236	granada este
-1.704551	granada hacia
-1.700467	granada hasta
-1.365003	granada para	-0.4771212
-1.228342	granada saliendo	-0.60206
-1.704824	granada ser'ia
-1.69979	granada sobre
-1.351691	granada y
-0.1087757	guadalajara </s>
-0.296032	gustado un
-1.857426	gustar'ia </s>
-2.668454	gustar'ia cambiar
-2.668756	gustar'ia como
-2.67088	gustar'ia comprar
-1.629183	gustar'ia conocer	-0.2943797
-2.067453	gustar'ia consultar
-2.064151	gustar'ia de
-2.591097	gustar'ia desde
-2.098736	gustar'ia el	-0.4771212
-2.30631	gustar'ia en
-2.660661	gustar'ia granada
-2.067832	gustar'ia hacer	-0.1752014
-2.67088	gustar'ia hacerlo
-2.657701	gustar'ia informaci'on
-2.670576	gustar'ia informarme
-1.325084	gustar'ia ir	-0.3137572
-1.764194	gustar'ia llegar	-0.3371429
-2.426471	gustar'ia no
-1.017566	gustar'ia obtener	-0.1669549
-2.193961	gustar'ia preguntar	-0.1862661
-1.302591	gustar'ia que	-0.3704593
-2.368787	gustar'ia realizar
-2.669362	gustar'ia regresar
-0.3403907	gustar'ia saber	-0.4663589
-1.151408	gustar'ia salir	-0.3858162
-2.33918	gustar'ia si
-2.361716	gustar'ia tambi'en	-0.4771213
-2.67088	gustar'ia tener
-2.299404	gustar'ia un	-0.4771212
-1.06825	gustar'ia viajar	-0.3156661
-2.06323	gustar'ia volver	-0.6989701
-1.446981	ha citado
-1.145951	ha dado
-1.243991	ha de
-0.6018577	ha dicho	-0.1276451
-1.446981	ha equivocado
-0.9699187	ha habido	-0.60206
-1.145995	ha quedado
-1.446981	ha respondido
-1.446981	ha sido
-0.9019896	hab'ia alguno
-0.9024609	hab'ia dicho
-0.9030113	hab'ia olvidado
-0.8997191	hab'ia uno
-0.3008726	hab'ias dicho
-0.7778562	haber ning'un
-0.7606823	haber tren
-0.7673094	haber trenes
-0.1232664	habido un	-0.60206
-0.9970588	habr'ia alg'un
-0.998625	habr'ia alguno
-0.9999017	habr'ia gustado
-0.9699305	habr'ia para
-0.9996558	habr'ia posibilidad
-0.8427728	hace ese
-0.8433015	hace este
-0.5440238	hace falta
-0.3002535	hacen ese
-1.452819	hacer a
-1.386077	hacer de
-0.7295547	hacer el	-0.4232985
-1.228652	hacer este	-0.4771213
-0.2992594	hacer un	-0.7349133
-1.529242	hacer una
-0.3934578	hacerlo en
-0.6865001	hacerlo la
-1.215658	hacia 'avila
-0.9100385	hacia barcelona	-0.06360382
-1.515807	hacia cuenca
-1.193767	hacia las
-1.515455	hacia m'alaga
-1.030397	hacia madrid
-1.040135	hacia oviedo	-0.1522374
-1.512302	hacia santander
-1.505146	hacia sevilla
-1.512186	hacia tarragona
-1.514636	hacia teruel
-1.499009	hacia valencia
-0.555748	haga el
-0.5895901	haga la
-0.277257	hagan el
-0.7780725	has dado
-0.3009251	has dicho
-1.864059	hasta albacete
-1.853676	hasta alicante
-1.866525	hasta badajoz
-1.544108	hasta barcelona
-1.839291	hasta bilbao
-1.387609	hasta castell'on	-0.1712274
-1.864059	hasta cuenca
-1.508619	hasta el
-1.362029	hasta las	-0.60206
-1.865402	hasta le'on
-1.86473	hasta lleida
-0.9146374	hasta luego	-0.4249257
-0.9582108	hasta madrid	-0.1856848
-1.861606	hasta media
-1.867876	hasta orense
-1.862051	hasta oviedo
-1.862719	hasta salamanca
-1.562247	hasta santander	-0.4771213
-1.383523	hasta sevilla
-1.867651	hasta soria
-1.832585	hasta valencia
-1.168365	hasta vigo	-0.2283865
-1.557365	hasta zaragoza	-0.4771213
-0.9800048	hay </s>
-0.6850162	hay alg'un	-0.3417825
-2.2025	hay alguna
-1.161902	hay alguno	-0.8129134
-2.201208	hay alrededor
-2.201208	hay claro
-1.347564	hay de	-0.1052891
-1.858106	hay desde
-2.202177	hay disponible
-2.171607	hay dos
-1.617898	hay el
-2.076255	hay en
-2.183516	hay entre
-2.203471	hay intercitys
-2.107588	hay ir
-2.14333	hay m'as
-2.163845	hay nada
-1.504501	hay ning'un	-0.241545
-1.726566	hay ninguno	-0.1329216
-1.725486	hay otro	-0.60206
-1.902279	hay otros	-0.4771212
-1.465882	hay para	-0.3323391
-1.902603	hay plazas	-0.4771212
-1.682601	hay por	-0.60206
-1.901955	hay posibilidad	-0.4771213
-2.127806	hay pr'oximo
-2.154768	hay pues
-2.170704	hay talgo
-2.202823	hay tanto
-1.572873	hay trenes	-0.1062663
-1.18784	hay un	-0.5483561
-1.899051	hay viajes
-1.453256	hay y	-0.2018327
-0.296032	haya un
-1.041294	he acabado
-0.7399694	he dicho
-1.041294	he entendido
-1.041294	he estado
-1.041294	he preguntado
-0.269284	hendaya </s>
-0.7712224	hendaya es
-0.2731599	historia de
-0.7561262	hola buenas	-0.3189729
-0.6055284	hola buenos	-1.770852
-2.368214	hola deseaba
-1.888597	hola desear'ia	-0.2016141
-1.885511	hola deseo	-0.2163219
-1.085117	hola me	-0.6214938
-1.89087	hola mira	-0.2118302
-2.365552	hola mire
-1.891593	hola muy	-0.60206
-2.365552	hola necesito
-0.7442459	hola quer'ia	-0.270264
-1.666085	hola querr'ia	-0.005745932
-1.133186	hola quiero	-0.3352891
-1.364509	hola quisiera	-0.2454637
-1.430348	hola s'i	-0.2746703
-2.334363	hola si
-2.363072	hola tengo
-0.8658246	hora </s>
-1.840565	hora a
-2.06646	hora cu'al
-0.9886038	hora de	-0.5331252
-2.02134	hora del
-1.725747	hora el
-1.746919	hora es
-0.5544885	hora llega	-0.4882756
-2.085907	hora llegaba
-1.607507	hora llegan	-0.60206
-2.085907	hora llegar'ia
-2.019202	hora ma~nana
-2.071459	hora podr'ia
-2.083428	hora porque
-2.06045	hora posible
-2.071241	hora puede
-2.082306	hora puedo
-0.9093043	hora sale	-0.303635
-2.077846	hora salen
-2.084103	hora se
-1.784426	hora tendr'ia
-1.606457	hora tengo
-1.927302	hora y
-0.2542408	horaria </s>
-1.237733	horario </s>
-2.32075	horario a
-2.604787	horario con
-0.4368812	horario de	-0.7925138
-1.225661	horario del	-0.382693
-2.28395	horario desde
-1.951201	horario el	-0.1857316
-2.506266	horario en
-2.607983	horario entre
-2.625237	horario exacto
-2.589987	horario hay
-2.280643	horario ida
-2.515595	horario los
-2.62554	horario otra
-0.7328035	horario para	-0.5071291
-2.617119	horario pero
-2.6074	horario podr'ia
-2.265007	horario por
-2.093887	horario que	-0.2203367
-2.274663	horario s'i
-2.412977	horario saber
-2.61356	horario saliendo
-2.621309	horario ser'ia
-2.610322	horario sobre
-2.608859	horario tambi'en
-2.616227	horario tengo
-2.62342	horario tienen
-2.092817	horario tren
-2.494205	horario un
-2.626756	horario uy
-0.7156962	horario y	-1.026896
-1.274484	horarios </s>
-1.827434	horarios a	-0.2819197
-2.563137	horarios antes
-2.604416	horarios as'i
-2.598103	horarios bueno
-2.122676	horarios con	-0.60206
-2.606846	horarios concretos
-2.606846	horarios corresponde
-0.4459235	horarios de	-0.8017339
-1.642834	horarios del	-0.1518002
-2.264039	horarios desde
-2.034093	horarios el
-2.486355	horarios en
-2.605629	horarios habr'ia
-1.699513	horarios hay	-0.3638914
-2.516201	horarios ir
-2.603509	horarios mejor
-2.570076	horarios o
-0.7241089	horarios para	-0.3418785
-2.301271	horarios pero
-1.973649	horarios por	-0.1533864
-2.602	horarios puedo
-1.589767	horarios que	-0.1377568
-2.461033	horarios quiero
-2.127396	horarios son
-2.575993	horarios talgo
-2.588948	horarios tambi'en
-2.606846	horarios tendr'e
-2.605022	horarios tendr'ia
-2.474294	horarios un
-0.7465414	horarios y	-0.6472701
-0.4997619	horas </s>
-1.042921	horas a
-0.9947823	horas de
-1.374204	horas del
-1.392621	horas puede
-1.38119	horas si
-1.395038	horas tengo
-1.064725	horas y
-0.5230861	hoy </s>
-1.023343	hoy de
-1.391191	hoy es
-1.413049	hoy mismo
-0.9280477	hoy por	-0.60206
-1.411681	hoy tiene
-0.7985382	hoy y	-0.141271
-0.6099458	hubiera </s>
-0.397881	hubiera literas	-0.4771212
-0.4863289	huelva </s>
-1.144508	huelva destino
-1.132427	huelva madrid
-0.8372746	huelva ma~nana	-0.4771213
-1.121694	huelva un
-0.3791796	huesca </s>
-0.8353513	huesca el
-0.8847997	huesca para
-1.015252	ida </s>
-0.8508242	ida a	-0.2200321
-2.52761	ida como
-2.047138	ida con	-0.60206
-0.9668296	ida de	-0.2438119
-2.194036	ida del
-1.147125	ida desde	-0.1239988
-2.159064	ida el
-2.178214	ida en
-2.221564	ida entre
-2.529021	ida esto
-2.525036	ida hacia
-2.500544	ida nada
-2.500985	ida o
-1.608819	ida para	-0.2999954
-1.903362	ida por	-0.4771214
-2.409025	ida que
-2.355804	ida saber
-2.516489	ida salida
-2.519473	ida saliendo
-2.529021	ida solamente
-2.492028	ida valencia
-1.619388	ida vuelta	-0.1488808
-0.3888705	ida y	-1.022069
-0.2975518	idea es
-1.112294	igual cualquier
-0.7451747	igual el
-1.102469	igual qu'e
-1.080336	igual que
-1.100233	igual salir
-1.113	igual yo
-0.2952451	importa que
-0.2905048	importancia no
-0.2987244	importar'ia viajar
-0.3010005	imposible usted
-1.715856	informaci'on acerca
-1.715561	informaci'on adi'os
-0.6617203	informaci'on de	-0.3889378
-0.9326937	informaci'on para	-0.2128453
-0.2687452	informaci'on sobre	-0.4437901
-0.8450095	informarme acerca
-0.5395176	informarme del
-0.8268077	informarme para
-0.3009218	instrucciones como
-0.2105307	intercity </s>
-1.512836	intercity de
-1.538067	intercity el
-1.709065	intercity ese
-1.679348	intercity por
-1.66652	intercity que
-1.679266	intercity quer'ia
-1.013208	intercity si	-0.7781512
-1.715738	intercity verdad
-0.2542408	intercitys </s>
-0.8044411	interesa </s>
-0.8923402	interesa el
-0.9961316	interesa ese
-0.9839223	interesa ir
-0.9999017	interesa tenerlo
-0.5931413	interesado en
-0.6005673	interesado euromed
-0.3005581	interesar'ia informaci'on
-0.2952451	intermedio que
-0.37007	intervalo de
-0.6964589	intervalo hay
-1.748924	ir </s>
-0.3299496	ir a	-0.3367785
-2.539517	ir al
-2.544384	ir como
-2.2381	ir con	-0.4771213
-0.6812874	ir de	-0.379793
-1.24265	ir desde	-0.08467579
-1.16407	ir el	-0.1866922
-1.111854	ir en	-0.197113
-2.533939	ir entre
-2.065439	ir este
-2.243354	ir hacia
-2.536431	ir hasta
-2.487578	ir ma~nana
-2.522063	ir o
-2.531651	ir ocho
-2.204969	ir por	-0.4771213
-2.446629	ir quiero
-2.45611	ir un
-1.904611	ir y	-0.141271
-0.5130358	ir'un </s>
-0.5742269	ir'un a
-0.1201742	irme a	-0.2209126
-0.1520669	iru~nea </s>
-0.4303321	ja'en </s>
-1.161961	ja'en desde
-1.068431	ja'en el
-0.8597664	ja'en para
-1.173835	ja'en saliendo
-0.6456038	jueves </s>
-1.428026	jueves a	-0.60206
-1.992342	jueves adem'as
-1.385744	jueves antes	-0.69897
-1.93267	jueves d'ia
-1.071779	jueves de	-0.4632063
-1.216727	jueves despu'es	-0.8450981
-1.989074	jueves dieciocho
-1.691005	jueves diecisiete
-1.991114	jueves entonces
-1.815179	jueves no
-1.038465	jueves o	-0.4288269
-1.686724	jueves ocho	-0.4771213
-1.881324	jueves para
-1.279173	jueves por	-0.7781513
-1.364029	jueves que	-0.69897
-1.685812	jueves uno	-0.4771212
-1.99091	jueves veinticinco
-1.517276	jueves veintid'os	-0.60206
-1.991523	jueves veintis'eis
-1.463665	jueves y
-0.1535567	julio </s>
-1.742536	julio antes
-1.755167	julio cu'ales
-1.441334	julio del
-1.723882	julio horarios
-1.751646	julio martes
-1.74185	julio pues
-1.686548	julio y
-1.751646	julio ya
-0.112513	junio </s>
-1.831759	junio antes
-1.818485	junio del
-1.806332	junio en
-1.814753	junio es
-1.833911	junio o
-1.842098	junio pero
-1.808442	junio por
-1.843949	junio porque
-0.2905048	juntos no
-0.3925435	l'erida </s>
-0.9874032	l'erida a
-1.035414	l'erida antes
-1.023735	l'erida en
-1.874593	la 'ultima	-1
-2.527301	la ciudad	-0.4771212
-2.347126	la clase
-2.828655	la costa
-2.828655	la crem'a
-2.738792	la del
-2.35175	la duraci'on	-0.60206
-2.351642	la exposici'on
-2.129815	la fecha	-0.07639311
-2.828655	la feria
-1.871469	la hora	-0.292585
-2.479792	la ida	-0.4771212
-2.828655	la idea
-2.813995	la informaci'on
-2.658856	la la
-1.982262	la llegada	-0.06484734
-2.768513	la m'as
-0.4824817	la ma~nana	-0.2387643
-2.828655	la ma~nanita
-2.828331	la misma
-1.043602	la noche	-0.3550926
-2.527139	la posibilidad	-0.4771213
-1.874665	la pr'oxima	-1
-1.923826	la primera	-0.507237
-2.047972	la salida
-2.050666	la segunda	-0.60206
-1.284069	la semana	-0.768693
-2.82736	la semana_santa
-2.802552	la siete
-0.5236022	la tarde	-0.4764205
-1.786791	la una	-0.3586231
-2.828655	la vida
-1.445536	la vuelta	-0.2153212
-0.3980898	la_coru~na </s>
-1.082737	la_coru~na a	-0.4771213
-1.287145	la_coru~na el
-1.429851	la_coru~na entonces
-1.427798	la_coru~na hasta
-1.389826	la_coru~na para
-0.8149287	la_coru~na y
-0.8652183	laborable </s>
-0.1666011	laborable de	-0.845098
-0.2542408	laborables </s>
-0.3002535	lanzadera ese
-1.912015	las </s>
-2.644538	las caracter'isticas
-2.041155	las catorce	-0.69897
-2.644832	las cero
-1.042662	las cinco	-0.3160694
-1.197233	las cuatro	-0.3507918
-2.039689	las diecinueve	-0.1397319
-2.63608	las dieciocho
-2.164286	las diecis'eis	-0.2155934
-2.339258	las diecisiete	-0.4771212
-0.7641895	las diez	-0.4122761
-1.182252	las doce	0.007879376
-1.388448	las dos	-0.3491858
-2.644832	las fechas
-2.640142	las horas
-2.644832	las instrucciones
-2.644832	las m'aquinas
-2.644832	las ma~nanas
-2.644832	las mismas
-2.644832	las navidades
-1.264498	las nueve	-0.151669
-1.113276	las ocho	-0.09065127
-1.011501	las once	-0.2161679
-2.634063	las quince
-1.301995	las seis	0.000466466
-1.042736	las siete	-0.309014
-1.229757	las tres	-0.3317775
-2.644538	las vacaciones
-2.042036	las veintid'os	-0.69897
-2.573762	las vuelta
-1.079083	le agradecer'ia
-1.078935	le estoy
-1.078935	le hab'ia
-0.7779791	le he
-0.7780529	le pregunto	-0.4771213
-0.4037768	le'on </s>
-1.263763	le'on a
-0.973654	le'on el
-1.316198	le'on en
-0.8642796	le'on hasta	-0.60206
-1.306581	le'on para
-0.2927575	lentos y
-0.2542408	lezama </s>
-0.3036427	litera </s>
-1.171084	litera o
-0.866644	litera por	-0.4771212
-1.167635	litera si
-0.2190137	literas </s>
-0.8336042	literas que
-0.07793763	llamaba para	-0.3003595
-0.9795037	llega </s>
-0.4061548	llega a	-0.4012188
-0.9212949	llega antes	-0.9542425
-0.8046214	llega el	-0.3252314
-1.820358	llega entre
-1.22227	llega ese	-0.69897
-1.820707	llega este
-1.783038	llega un
-1.756748	llega y
-0.3004303	llegaba este
-0.1753394	llegaban antes	-0.4771212
-1.197285	llegada </s>
-0.5095083	llegada a	-0.1784377
-1.414308	llegada antes	-0.4771212
-1.277844	llegada de	-0.4771212
-1.405324	llegada del
-0.7189027	llegada en	-0.07760063
-1.68427	llegada es
-1.421596	llegada fuera	-0.4771212
-1.721921	llegada ha
-1.716438	llegada podr'ia
-1.659476	llegada que
-1.715396	llegada sea
-0.3151805	llegan a	-0.07421518
-0.4431961	llegan antes	-0.9999999
-1.319182	llegan de
-0.5742269	llegando a
-0.555748	llegando el
-1.560522	llegar </s>
-0.5472104	llegar a	-0.2889989
-1.677713	llegar all'i	-0.115033
-0.6360474	llegar antes	-1.243038
-2.154668	llegar aproximadamente
-2.106362	llegar del
-2.10906	llegar desde
-0.6507767	llegar el	-0.4434041
-2.1446	llegar entre
-2.154167	llegar esa
-2.15217	llegar lo
-2.12296	llegar m'as
-2.153834	llegar muy
-2.060604	llegar para
-1.442152	llegar por	-0.7781513
-2.129213	llegar pues
-1.849566	llegar sobre	-0.4771212
-0.2542408	llegar'ia </s>
-0.5742269	llegara a
-0.5921209	llegara un
-0.168964	llegaran a
-0.1753394	llegase antes	-0.4771212
-0.7683092	llegue a	-0.1031811
-1.629941	llegue al
-1.632584	llegue all'i
-0.4284088	llegue antes	-1.230449
-1.412636	llegue de
-1.081695	llegue el
-1.627121	llegue entre
-1.614133	llegue m'as
-1.592924	llegue por
-1.627897	llegue sobre
-0.8472281	lleguen a
-0.4759188	lleguen antes	-0.7781512
-0.6675533	lleguen el	-0.2147121
-1.173698	lleguen este
-0.2947344	lleida </s>
-1.055802	lleida a	-0.4771213
-1.271616	lleida el
-1.371715	lleida en
-1.397822	lleida pirineos
-1.072551	lleida y
-0.8619818	llevar a
-0.5668713	llevar el	-0.4771212
-0.6019714	llevar mi	-0.4771212
-0.2868905	llevarme a
-0.2868905	lleve a
-1.380093	lo conozco
-1.07329	lo m'as	-0.4771213
-1.079034	lo menos
-1.378915	lo necesito
-1.376216	lo puede
-0.3356536	lo que	-0.225992
-0.4972789	logro~no </s>
-0.9800811	logro~no a
-0.7987861	logro~no el	-0.220532
-1.319161	logro~no hasta
-1.285835	logro~no la
-1.011818	logro~no ma~nana	-0.4771213
-2.637155	los autobuses
-1.938152	los billetes	-0.1506351
-1.490074	los d'ias	-0.290243
-1.856449	los dos	-0.2030611
-2.616595	los hay
-2.576144	los horario
-0.381869	los horarios	-0.3883458
-2.637155	los mismos
-2.637155	los modalidad
-2.636654	los otros
-2.636988	los posibles
-0.8811955	los precios	-0.1856328
-1.919157	los que	-0.544068
-2.636988	los talgos
-1.792057	los tipos	-0.90309
-0.5366257	los trenes	-0.5483009
-1.682783	los viajes	-0.2412203
-0.2744164	luego </s>
-1.188773	luego a
-1.232003	luego gracias
-1.225203	luego para
-1.212717	luego saber
-0.5130358	lugo </s>
-0.555748	lugo el
-0.4372066	lunes </s>
-1.23871	lunes a	-0.0806598
-1.454567	lunes antes	-0.69897
-1.580844	lunes cinco	-0.60206
-1.725689	lunes el
-1.281922	lunes o	-0.60206
-2.048836	lunes ocho
-1.950147	lunes para
-1.347996	lunes por	-0.7781513
-1.737662	lunes pr'oximo
-1.341693	lunes que	-0.7781513
-1.960104	lunes quiero
-2.056475	lunes quince
-1.458542	lunes seis	-0.69897
-1.585413	lunes siguiente	-0.60206
-2.05284	lunes sobre
-1.754635	lunes uno	-0.4771212
-1.586099	lunes veintid'os
-2.060346	lunes veintis'eis
-1.760545	lunes veintitr'es	-0.4771213
-1.532488	lunes y
-0.3846137	m'alaga </s>
-1.170159	m'alaga a	-0.4771212
-1.51814	m'alaga antes
-1.506367	m'alaga desde
-0.986619	m'alaga el	-0.2084908
-1.203294	m'alaga para
-1.531213	m'alaga sabe
-1.527425	m'alaga saliendo
-1.462152	m'alaga y
-0.2952451	m'aquinas que
-0.690046	m'as </s>
-2.096368	m'as a
-0.8728514	m'as barato	-0.9294183
-2.349776	m'as baratos
-2.349776	m'as c'omoda
-1.504813	m'as c'omodo	-0.08804485
-2.34954	m'as cerca
-2.349305	m'as econ'omica
-1.979112	m'as el
-0.6757157	m'as gracias	-1.681241
-2.338141	m'as hasta
-2.220058	m'as la
-0.9509126	m'as muchas	-1.414973
-2.149193	m'as no
-2.034365	m'as o	-0.4771212
-2.258635	m'as por
-2.048746	m'as pronto	-0.4771213
-1.094032	m'as r'apido	-0.1737631
-2.047921	m'as r'apidos
-1.390324	m'as tarde	-0.1034258
-2.048746	m'as temprano	-0.4771213
-2.346955	m'as tipos
-2.270261	m'as trenes
-2.346721	m'as vale
-0.3006563	m'aximo una
-0.2489769	m'erida </s>
-1.175855	m'erida durante
-1.158433	m'erida en
-1.151871	m'erida para
-0.2950607	m'i me
-0.2868905	m'ireme a
-0.4548823	madrid </s>
-0.7910523	madrid a	-0.4183286
-1.885019	madrid antes	-0.69897
-2.498351	madrid aproximadamente
-2.431999	madrid barcelona
-1.987347	madrid de
-2.406706	madrid del
-1.991174	madrid desde
-2.194993	madrid despu'es	-0.4771212
-2.488788	madrid destino
-0.8985725	madrid el	-0.3391258
-1.860926	madrid en
-2.478473	madrid entre
-2.477201	madrid eso
-2.479749	madrid este
-2.49239	madrid hacia
-2.190047	madrid hasta
-2.496023	madrid ja'en
-2.324988	madrid la
-2.49702	madrid le
-2.498685	madrid llegando
-2.148043	madrid ma~nana	-0.4771213
-1.09336	madrid para	-0.4773938
-2.49239	madrid pasado
-2.488461	madrid pero
-2.131828	madrid por
-2.109473	madrid que
-2.374704	madrid quer'ia
-2.341401	madrid quiero
-2.49503	madrid s'olo
-2.016257	madrid sobre	-0.2170523
-2.427444	madrid viajar
-1.252848	madrid y	-0.05005017
-2.182731	madrid zaragoza
-0.2952451	manera que
-0.1520669	mare_nostrum </s>
-0.8072264	martes </s>
-1.614793	martes a
-1.305343	martes d'ia	-0.217109
-1.095153	martes de	-0.287115
-1.753099	martes del
-1.495096	martes diecis'eis
-1.783272	martes dos
-1.799026	martes mismamente
-1.790306	martes nueve
-1.709644	martes para
-0.837608	martes por	-1
-1.005931	martes que	-0.845098
-1.318302	martes seis	-0.60206
-1.795579	martes veinticuatro
-1.796517	martes veintisiete
-1.165096	martes y
-0.2537548	marzo </s>
-1.390854	marzo a	-0.3593118
-1.130922	marzo de	-0.2669909
-2.087298	marzo del
-1.854729	marzo el
-1.63303	marzo en	-0.2046582
-2.123427	marzo entre
-2.118686	marzo lunes
-2.126049	marzo martes
-1.649753	marzo o	-0.60206
-1.222032	marzo por	-0.9542425
-2.114297	marzo querr'ia
-2.051853	marzo quiero
-2.126358	marzo saliendo
-2.100661	marzo si
-1.164697	marzo y	-0.1692552
-0.249648	mayo </s>
-1.384861	mayo a	-0.2131838
-1.699923	mayo de
-1.588549	mayo del	-0.4771213
-1.196085	mayo en	-0.1733155
-1.891903	mayo o
-1.902736	mayo perd'on
-1.052562	mayo por	-0.3294776
-1.047385	mayo y
-0.2679336	ma~nana </s>
-1.342167	ma~nana a	-0.183709
-2.519046	ma~nana cinco
-1.746223	ma~nana de
-2.039195	ma~nana del	-0.2197038
-2.458691	ma~nana desde
-2.548978	ma~nana dime
-1.850266	ma~nana el
-1.535526	ma~nana en	-0.2796338
-2.543728	ma~nana entonces
-2.066723	ma~nana entre	-0.60206
-2.191713	ma~nana es
-2.543728	ma~nana hacia
-2.368372	ma~nana la
-2.485533	ma~nana m'as
-2.242003	ma~nana martes
-2.450475	ma~nana ma~nana
-2.007601	ma~nana me
-2.276572	ma~nana no
-1.54694	ma~nana o	-0.21469
-2.370701	ma~nana para
-2.539573	ma~nana pero
-1.337872	ma~nana por	-0.9542427
-2.54687	ma~nana porque
-2.216867	ma~nana qu'e
-2.380385	ma~nana que
-2.055049	ma~nana s'abado	-0.1485828
-2.161444	ma~nana s'i
-2.54652	ma~nana s'olo
-1.69551	ma~nana si	-0.2206187
-2.531719	ma~nana sobre
-2.550036	ma~nana temprano
-2.550036	ma~nana todos
-2.547572	ma~nana viajando
-2.216376	ma~nana viernes
-1.093685	ma~nana y	-0.1527185
-0.2542408	ma~nanas </s>
-0.2995275	ma~nanita antes
-2.816642	me buscar'e
-2.816642	me confirme
-1.862502	me costar'ia	-0.06532006
-2.335083	me cuesta
-2.816642	me d'e
-2.118041	me da	-0.7781513
-2.816642	me deis
-2.816642	me des
-2.515842	me dice
-2.515842	me dices	-0.4771213
-2.515842	me diera
-2.816642	me dieras
-2.816642	me diga
-2.214928	me digas	-0.07440592
-2.339828	me dijese
-2.515842	me dir'ia	-0.4771213
-2.816642	me ense~nara
-2.505804	me est'a	-0.4771213
-2.81526	me estoy
-0.1746377	me gustar'ia	-0.3851279
-1.775333	me ha	-0.2299768
-2.81526	me hab'ia
-2.816642	me hab'ias
-2.8148	me habr'ia
-2.214928	me has	-0.1760388
-2.816642	me importa
-2.816642	me importar'ia
-2.118041	me interesa
-2.816642	me interesar'ia
-2.808868	me lo
-2.816642	me parece
-2.214351	me pod'ia	-0.1235351
-1.311448	me podr'ia	-0.8793422
-2.515842	me podr'ias	-0.4771212
-2.816642	me pregunta
-2.81618	me pueda
-1.354085	me puede	-0.5523705
-1.612897	me puedes	-0.2708084
-2.426459	me quer'ia
-2.816642	me repitas
-2.81618	me saldr'ia
-2.816642	me sirve
-2.51446	me va	-0.4771212
-2.810685	me vale
-2.816642	me vendr'ia
-2.112991	me viene	-0.3599822
-2.814341	me voy
-0.5866793	media </s>
-1.509313	media a
-0.4385999	media de	-1.20412
-1.590601	media en
-1.614133	media m'as
-1.602986	media ma~nana
-1.592924	media por
-1.632192	media porque
-1.604088	media viaje
-1.55708	media y
-0.2979911	mediados del
-0.303479	mediod'ia </s>
-1.49921	mediod'ia con
-1.343745	mediod'ia el
-1.470524	mediod'ia en
-1.495192	mediod'ia hay
-1.504835	mediod'ia perd'on
-1.472418	mediod'ia por
-1.00631	mediod'ia y
-0.5007313	mejor </s>
-0.8865038	mejor el
-1.255154	mejor equipada
-0.9356694	mejor la	-0.4771213
-1.254977	mejor prefiero
-1.253505	mejor veintinueve
-0.3010103	men'u principal
-0.269284	menos </s>
-0.7777186	menos d'igame
-0.4415653	mes </s>
-0.4560528	mes de
-1.062053	mes que
-0.6020157	mi casa
-0.6016028	mi coche
-0.903031	mi novio
-0.3881508	mi'ercoles </s>
-1.529124	mi'ercoles catorce
-1.370074	mi'ercoles el
-1.212791	mi'ercoles en	-0.4771212
-1.487223	mi'ercoles que
-0.8311731	mi'ercoles siete	-0.2351461
-1.529281	mi'ercoles siguiente
-1.198264	mi'ercoles y
-0.2542408	miguel_de_unamuno </s>
-1.696175	mil cinco
-0.04569323	mil cuatro	-0.6314901
-1.697173	mil tres
-0.2731599	minutos de
-1.367206	mira a
-1.173213	mira es	-0.4771213
-1.435068	mira me
-1.433171	mira para
-1.436713	mira que
-0.4871229	mira quer'ia	-0.2204953
-1.184227	mira querr'ia	-0.4771212
-1.438538	mira quiero
-1.464378	mira quisiera
-1.490575	mira vamos
-0.2969374	mirar los
-1.503961	mire como
-1.295925	mire el
-1.462612	mire las
-1.027236	mire necesito	-0.195936
-1.460752	mire por
-1.488069	mire pues
-1.445396	mire que
-0.5962423	mire quer'ia	-0.2935021
-1.447381	mire quiero
-1.475558	mire quisiera
-1.203255	mire yo
-0.6006849	misma noche
-0.602001	misma ruta
-0.296801	mismamente por
-0.3010103	mismas condiciones
-0.4013326	mismo d'ia	-0.5712777
-1.577625	mismo hoy
-1.571318	mismo jueves
-1.57462	mismo martes
-1.578703	mismo mes
-1.080822	mismo precio
-1.562078	mismo s'abado
-1.571743	mismo seis
-1.579459	mismo tiempo
-1.578595	mismo trayecto
-1.518899	mismo tren
-0.2973566	mismos horarios
-0.2731599	modalidad de
-0.2542408	momento </s>
-0.2542408	monumental </s>
-0.2868905	monz'on a
-0.123348	much'isimas gracias	0.2288535
-0.002911859	muchas gracias	-0.4167053
-0.298167	muestras desde
-0.3831393	murcia </s>
-0.668189	murcia a	-0.5118834
-0.901569	murcia el
-1.631956	murcia hacia
-1.311173	murcia para
-1.604695	murcia por
-1.57862	murcia y
-0.3010103	museo thyssen
-1.113845	muy amable
-1.112274	muy bien
-0.6355942	muy buenas	-0.60206
-1.113747	muy pronto
-0.8075849	muy tarde
-1.70179	nada </s>
-2.129037	nada entonces
-2.12628	nada eso
-0.04745036	nada m'as	-0.77772
-1.824958	nada muchas	-0.4771214
-1.824578	nada pues
-0.2965477	navidad en
-0.2965477	navidades en
-0.752121	necesitar'ia saber
-0.7712417	necesitar'ia salir
-0.7712708	necesitar'ia viajar
-1.144675	necesito </s>
-1.294452	necesito el
-1.517453	necesito estar
-1.195896	necesito horarios
-1.512884	necesito informaci'on
-0.9067361	necesito ir	-0.4771212
-1.503775	necesito llegar
-1.449565	necesito para
-1.501953	necesito precios
-1.166896	necesito saber
-1.491512	necesito salir
-0.8076441	necesito un	-0.1252045
-0.2542408	negocio </s>
-0.1719353	negocios y
-1.069608	ning'un d'ia
-0.7779447	ning'un otro	-0.4771213
-0.2980693	ning'un tren	-0.1192139
-0.2731599	ninguna de
-0.6979482	ninguno hasta
-0.3921551	ninguno que
-0.6336811	no </s>
-2.03796	no a	-0.03957488
-2.760649	no adi'os	-0.4771212
-2.95893	no antes
-3.051267	no burgos
-3.06207	no c'omo
-2.760649	no creo	-0.4771212
-3.048229	no d'igame
-2.012044	no de	-0.0836471
-2.871596	no del
-3.062852	no dentro
-1.248772	no desde	-0.1136954
-3.06051	no deseaba
-2.740068	no desear'ia
-1.599591	no deseo	-0.4853678
-3.048229	no despu'es
-3.063635	no dispone
-1.553306	no el	-0.1292419
-3.063635	no entiendo
-2.739324	no entre
-2.080981	no es	-0.2178793
-3.007101	no ese
-1.831575	no eso	-0.3135073
-2.358901	no est'a	-0.7781513
-3.061289	no estoy
-2.761822	no existe
-3.06207	no fumadores
-0.6744817	no gracias	-0.4917295
-3.06051	no habr'ia
-2.762213	no hace	-0.4771212
-2.014751	no hay	-0.2925303
-3.059732	no he
-2.445573	no la
-2.585991	no le	-0.1938071
-2.756763	no lo
-2.820323	no los
-1.858186	no me	0.02392161
-2.460596	no mejor	-0.4771212
-3.06207	no much'isimas
-1.100154	no muchas	-1.968483
-1.300018	no nada	-0.711389
-3.048229	no necesito
-1.862105	no no	-0.7232811
-2.762213	no perdone
-2.579256	no pero	-0.2162841
-3.063635	no podr'ian
-2.814098	no por
-3.055094	no porque
-2.44975	no precio	-0.1855168
-2.711265	no precios	-0.4771212
-3.047473	no preferente
-3.061289	no prefiero
-2.738211	no puede	-0.4771212
-3.051267	no puedo
-2.70504	no pues
-2.385357	no quer'ia	-0.01502985
-2.346994	no querr'ia	-0.1061665
-1.156535	no quiero	-0.3402685
-2.665045	no quisiera
-2.286138	no s'e
-2.438582	no s'i
-2.4604	no s'olo
-3.06207	no salgo
-2.74156	no salida
-2.746443	no saliendo
-3.057407	no se
-2.277199	no sea	-0.07963913
-2.762213	no sean
-2.686223	no si	-0.4771212
-2.760649	no solo
-3.042963	no son
-3.037023	no tengo
-2.453804	no tiene	-0.126947
-2.780555	no un
-3.058181	no va
-3.053559	no vale
-2.680344	no viajar
-3.059732	no voy
-1.683424	no ya	-0.5987185
-3.052794	no yo
-0.2698158	noche </s>
-1.753743	noche a
-1.898502	noche antes
-1.452525	noche de
-1.597209	noche del
-1.918665	noche durmiendo
-1.47383	noche el
-1.421425	noche en
-1.609322	noche o
-1.576511	noche para
-1.589275	noche por	-0.4771212
-1.863199	noche quer'ia
-1.853855	noche un
-1.121864	noche y
-0.3009218	nochevieja viajando
-0.2990964	nocturno qu'e
-0.2542408	normal </s>
-0.2952451	norte que
-0.2470784	noviembre </s>
-1.176376	noviembre a	-0.4771212
-1.138726	noviembre de
-1.486055	noviembre quiero
-1.508767	noviembre s'abado
-1.025002	noviembre y	-0.2177974
-0.277257	novio el
-1.128861	nueve </s>
-1.457202	nueve a
-0.1823647	nueve de	-0.9380525
-1.673017	nueve el
-1.494549	nueve o
-0.9471422	nueve y	-0.06707582
-2.217631	o 'ultima
-1.586858	o a	-0.2131838
-2.220753	o alguna
-2.219189	o alrededor
-2.221538	o altaria
-2.166336	o antes
-2.218799	o as'i
-1.915048	o bien	-0.4771213
-2.186857	o cinco
-1.912537	o clase
-2.209158	o diecisiete
-1.910231	o domingo	-0.4771213
-1.610544	o dos	-0.25946
-0.5215751	o el	-0.2722149
-1.839805	o en
-2.202722	o hasta
-2.113371	o ida
-2.205739	o intercity
-2.21802	o litera
-1.739345	o martes
-1.920704	o menos	-0.4771212
-1.748319	o no
-1.910423	o nueve	-0.4771213
-1.443125	o pasado	0.1160995
-2.131805	o pr'oximo
-2.15139	o qu'e
-2.036218	o que
-2.207635	o quince
-2.22193	o restaurante
-1.604531	o s'abado	-0.69897
-1.265164	o sea	-0.04631454
-2.194164	o seis
-2.144763	o si
