
\data\
ngram 1=766
ngram 2=5407
ngram 3=4092
ngram 4=4138
ngram 5=3309

\1-grams:
-3.160198	'avila	-0.8046349
-3.558138	'ultima	-1.183034
-3.145958	'ultimo	-1.00795
-4.336289	'ultimos	-0.3585267
-4.63732	'unicamente	-0.2643613
-4.63732	'unico	-0.2591743
-0.9365293	</s>
-99	<s>	-1.285941
-1.472967	a	-1.509987
-4.63732	abre	-0.2503859
-2.386899	abril	-1.081937
-4.63732	acabado	-0.2603706
-4.63732	acceder	-0.2639799
-4.336289	acerca	-0.4088407
-4.63732	acercara	-0.2632464
-4.63732	acudir	-0.2652231
-4.336289	acuerdo	-0.3585267
-3.461228	adem'as	-0.2509278
-3.73423	adi'os	-0.9008242
-4.63732	aeropuerto	-0.234938
-2.718241	agosto	-0.7778536
-4.63732	agradecer'ia	-0.2118348
-4.63732	ah	-0.2470269
-3.859168	ahora	-0.7225903
-3.093251	al	-0.5734548
-3.294897	alaris	-1.012694
-3.294897	albacete	-0.6741748
-2.866467	alg'un	-0.931532
-4.336289	algeciras	-0.2066301
-4.336289	algo	-0.205092
-4.03526	alguna	-0.3323246
-3.205956	alguno	-1.059333
-2.79847	alicante	-1.241408
-3.73423	all'i	-0.4916778
-3.461228	almer'ia	-0.4735029
-4.63732	almeria	-0.2118348
-3.73423	alrededor	-0.5836005
-4.336289	alta_velocidad	-0.2066301
-4.336289	altaria	-0.2103946
-4.63732	amable	-0.2118348
-3.938349	amigos	-0.3684703
-3.938349	anterior	-0.1461842
-2.455476	antes	-1.558641
-4.63732	aparte	-0.234938
-4.63732	aprovechar	-0.2396569
-4.160198	aproximadamente	-0.3557504
-4.63732	aproximado	-0.2632464
-4.160198	aqu'i	-0.3239049
-4.336289	arco	-0.3585267
-3.683077	as'i	-0.6971804
-4.63732	asistir	-0.2503859
-4.63732	asunto	-0.234938
-4.336289	atardecer	-0.2021269
-4.63732	atenci'on	-0.2118348
-4.160198	aunque	-0.2512862
-4.63732	autobuses	-0.2592961
-4.63732	autom'aticamente	-0.2652431
-2.889132	ave	-0.6344653
-4.63732	ay	-0.2118348
-4.63732	ayudar	-0.2118348
-4.03526	a~no	-0.2547562
-4.63732	b'usqueme	-0.2652331
-3.595927	badajoz	-0.4629931
-4.336289	bajar	-0.2576998
-3.792222	bar	-0.351138
-3.105841	barato	-1.086142
-4.63732	baratos	-0.2652231
-2.298863	barcelona	-0.9659902
-3.118806	bien	-0.672857
-2.503781	bilbao	-0.8962109
-2.404324	billete	-1.261086
-3.63732	billetes	-0.4384756
-4.63732	buena	-0.2642609
-2.768088	buenas	-1.051818
-3.160198	bueno	-0.3872367
-2.68793	buenos	-1.95317
-3.406871	burgos	-0.4471944
-4.63732	buscar	-0.2601174
-4.63732	buscar'e	-0.2587782
-4.63732	buscar'ia	-0.2601174
-3.132169	c'aceres	-0.8072709
-3.222346	c'adiz	-0.6166491
-4.160198	c'omo	-0.346191
-4.63732	c'omoda	-0.265133
-3.683077	c'omodo	-0.3406958
-3.118806	c'ordoba	-1.07151
-3.792222	cada	-0.5200224
-4.63732	callado	-0.2118348
-3.174922	cama	-0.93626
-3.595927	cambiar	-0.7726913
-4.63732	cambrils	-0.2503859
-4.63732	camino	-0.234938
-4.63732	capital	-0.2118348
-4.336289	caracter'isticas	-0.2101788
-4.63732	carnavales	-0.2118348
-4.63732	caro	-0.2118348
-4.336289	casa	-0.2021269
-4.63732	castell'o	-0.2118348
-2.866467	castell'on	-0.7859328
-4.63732	catalu~na_expres	-0.2630854
-3.174922	catorce	-0.9832342
-4.63732	celebre	-0.2652431
-4.336289	cerca	-0.3816299
-4.63732	cercana	-0.2118348
-4.63732	cercano	-0.2503859
-4.63732	cero	-0.2650829
-4.63732	cierra	-0.2621487
-2.664192	cinco	-1.122858
-3.792222	cincuenta	-0.5516257
-4.63732	citado	-0.2118348
-3.938349	ciudad	-0.2814135
-3.257108	ciudad_real	-0.6074761
-3.73423	claro	-0.4138106
-2.974562	clase	-0.8716087
-3.160198	coche	-1.295563
-3.859168	coger	-0.4087325
-4.63732	cogi'endolo	-0.2503859
-4.63732	cogiendo	-0.2396569
-4.63732	cojo	-0.234938
-3.63732	como	-0.2425726
-4.63732	compa~n'ia	-0.2118348
-4.63732	competici'on	-0.2652431
-4.63732	completo	-0.2621487
-4.160198	comprar	-0.5780867
-4.63732	compro	-0.2601174
-2.762258	con	-0.7303015
-4.03526	concierto	-0.2546627
-4.63732	concretar	-0.2396569
-4.63732	concretos	-0.2588798
-4.63732	condiciones	-0.264612
-4.160198	confirmar	-0.2209536
-4.63732	confirme	-0.2396569
-4.63732	confundida	-0.2652431
-4.63732	congreso	-0.2503859
-2.904926	conocer	-1.228617
-4.63732	conozco	-0.2650428
-4.160198	conseguir	-0.3273082
-4.336289	consulta	-0.2073627
-3.118806	consultar	-0.5716162
-4.63732	contestan	-0.2652431
-4.63732	corresponde	-0.2649026
-4.63732	cosa	-0.2652431
-4.63732	cosita	-0.265193
-4.63732	costa	-0.265133
-4.63732	costar	-0.2118348
-3.461228	costar'ia	-0.3438323
-4.63732	crem'a	-0.2118348
-3.73423	creo	-0.9482855
-2.68793	cu'al	-1.607372
-3.792222	cu'ales	-0.446429
-4.160198	cu'ando	-0.2627331
-2.817776	cu'anto	-0.9188383
-4.336289	cu'antos	-0.2337878
-4.63732	cuales	-0.2650328
-3.205956	cualquier	-0.8024371
-4.336289	cualquiera	-0.211461
-4.63732	cuando	-0.2645919
-4.63732	cuanto	-0.2637288
-3.63732	cuarenta	-0.8942005
-4.160198	cuarto	-0.2694925
-2.650548	cuatro	-1.030282
-3.294897	cuenca	-0.7817069
-4.63732	cuento	-0.2118348
-3.105841	cuesta	-0.9980582
-4.63732	cullera	-0.25668
-4.63732	cultural	-0.25668
-4.63732	curso	-0.234938
-4.63732	d'e	-0.2587782
-2.122772	d'ia	-0.9371878
-2.607936	d'ias	-0.7960159
-3.3151	d'igame	-0.5991037
-4.63732	d'onde	-0.2595092
-3.938349	da	-0.6912349
-4.160198	dado	-0.1784676
-4.63732	dame	-0.2610585
-3.595927	dar	-0.9709204
-4.160198	darme	-0.3273082
-1.171194	de	-1.36081
-4.63732	debe	-0.2652431
-4.63732	deber'ian	-0.2644615
-4.63732	debido	-0.2118348
-2.804811	decir	-0.6617593
-3.63732	decirme	-0.3579874
-4.63732	decirte	-0.2648826
-4.63732	deis	-0.2396569
-2.147361	del	-1.001976
-4.160198	demasiado	-0.3551673
-3.938349	deme	-0.3484997
-4.336289	dentro	-0.3816299
-4.63732	deportiva	-0.2592961
-4.63732	des	-0.2614929
-2.173427	desde	-0.8999313
-3.938349	deseaba	-0.305011
-2.844928	desear'ia	-1.169095
-2.565438	deseo	-1.088289
-3.3151	despu'es	-0.7098055
-3.132169	destino	-0.4367222
-4.336289	dice	-0.2387108
-4.336289	dices	-0.3863488
-3.461228	dicho	-0.2448364
-4.63732	dichos	-0.2615232
-3.046255	diciembre	-0.7887831
-4.160198	diciendo	-0.351388
-2.947124	diecinueve	-0.9366336
-3.145958	dieciocho	-0.8501813
-3.035259	diecis'eis	-0.7962312
-3.105841	diecisiete	-1.030236
-4.336289	diera	-0.2356673
-4.63732	dieras	-0.2601174
-2.607936	diez	-1.431263
-4.63732	diga	-0.2610585
-4.03526	digas	-0.2869141
-4.160198	dijese	-0.2351311
-3.859168	dime	-0.2741175
-4.336289	dir'ia	-0.3863488
-4.63732	direcci'on	-0.2503859
-4.63732	dispone	-0.234938
-3.938349	disponible	-0.2222762
-4.336289	disponibles	-0.3585267
-4.336289	diurno	-0.2467031
-2.762258	doce	-1.118187
-2.873892	domingo	-0.6081759
-4.160198	dormir	-0.3514692
-2.624482	dos	-1.109133
-4.336289	dura	-0.3863488
-4.160198	duraci'on	-0.5801181
-3.938349	durante	-0.285361
-4.63732	durar	-0.265153
-4.336289	durmiendo	-0.4073459
-4.63732	e	-0.2619168
-4.160198	econ'omica	-0.3026102
-4.63732	efectivamente	-0.25668
-4.63732	efecto	-0.2118348
-3.859168	eh	-0.6615258
-3.938349	ejemplo	-0.2955809
-1.242343	el	-1.868367
-4.63732	el_ferrol	-0.2542842
-4.336289	elegir	-0.3863488
-3.63732	ellos	-0.4077239
-1.977403	en	-0.9082151
-3.23938	enero	-0.6946145
-4.63732	ense~nara	-0.2610585
-4.63732	entendido	-0.2118348
-4.63732	enterar	-0.2588798
-4.63732	entiendo	-0.2652231
-3.3151	entonces	-0.2804801
-2.83114	entre	-0.9568082
-4.63732	enumerar	-0.2610585
-4.63732	equipada	-0.2118348
-4.63732	equivocado	-0.2595092
-3.73423	era	-0.232211
-4.160198	error	-0.3397444
-2.088316	es	-1.034084
-3.859168	esa	-0.3065686
-2.745225	ese	-0.7601148
-2.804811	eso	-1.100492
-3.3151	esos	-0.9928061
-4.63732	espec'ificamente	-0.2609169
-4.63732	especial	-0.2591033
-2.974562	est'a	-1.076187
-4.160198	esta	-0.2629747
-4.63732	estaba	-0.2652331
-4.63732	estado	-0.261109
-4.63732	estamos	-0.2591033
-3.73423	estar	-0.5031065
-4.336289	estar'ia	-0.4116146
-4.336289	estas	-0.2118121
-2.859168	este	-0.7480579
-4.03526	esto	-0.3014858
-3.558138	estos	-0.4158616
-4.03526	estoy	-0.265183
-3.859168	estrella	-0.2863669
-2.762258	euromed	-0.9608936
-3.859168	exactamente	-0.1567346
-3.859168	exacto	-0.3371651
-4.63732	examen	-0.260654
-4.63732	excursi'on	-0.2396569
-3.938349	existe	-0.4265224
-4.03526	exposici'on	-0.2539041
-4.63732	fallas	-0.2588798
-4.336289	falta	-0.2616342
-2.4332	favor	-0.9099633
-2.984107	febrero	-0.7035919
-3.792222	fecha	-0.2427064
-4.63732	fechas	-0.2621487
-4.63732	feria	-0.234938
-2.965222	fin	-1.650926
-3.859168	finales	-0.5511759
-4.63732	forma	-0.2587782
-4.63732	francia	-0.2503859
-4.63732	franja	-0.2652431
-4.336289	frecuencia	-0.4115745
-3.205956	fuera	-0.5758039
-3.683077	fuese	-0.2714476
-4.63732	fumador	-0.2118348
-4.160198	fumadores	-0.3034157
-4.63732	fundamentalmente	-0.2595092
-4.336289	galicia	-0.3585267
-4.160198	gasteiz	-0.3006298
-3.683077	gerona	-0.3411982
-3.491192	gij'on	-0.5292488
-3.792222	girona	-0.5438202
-1.951578	gracias	-1.641114
-3.069118	granada	-0.5095931
-4.160198	guadalajara	-0.5298041
-4.63732	gustado	-0.2601174
-1.994855	gustar'ia	-1.327362
-3.358566	ha	-0.4883735
-4.03526	hab'ia	-0.2639698
-4.63732	hab'ias	-0.265103
-4.160198	haber	-0.2552994
-4.160198	habido	-0.5780867
-3.938349	habr'ia	-0.2579341
-4.03526	hace	-0.331031
-4.63732	hacen	-0.2644716
-3.190161	hacer	-0.8135701
-4.160198	hacerlo	-0.3462116
-3.3151	hacia	-0.4662468
-4.336289	haga	-0.2327857
-4.63732	hagan	-0.2396569
-4.03526	has	-0.479277
-2.929749	hasta	-0.5382329
-2.533516	hay	-0.627791
-4.63732	haya	-0.2601174
-3.859168	he	-0.3086769
-4.03526	hendaya	-0.4220126
-4.63732	historia	-0.234938
-2.30086	hola	-1.452543
-2.641684	hora	-0.7700982
-4.63732	horaria	-0.2118348
-2.042927	horario	-1.12364
-2.064448	horarios	-1.194909
-3.406871	horas	-0.3890352
-3.358566	hoy	-0.5768192
-4.160198	hubiera	-0.3038802
-3.683077	huelva	-0.5026829
-3.938349	huesca	-0.3371366
-2.139009	ida	-1.292626
-4.63732	idea	-0.2616948
-3.792222	igual	-0.2653181
-4.63732	importa	-0.2592961
-4.63732	importancia	-0.2542842
-4.63732	importar'ia	-0.2629043
-4.63732	imposible	-0.2652331
-2.965222	informaci'on	-1.283486
-4.03526	informarme	-0.3228905
-4.63732	instrucciones	-0.265153
-3.003851	intercity	-0.8074614
-4.63732	intercitys	-0.2118348
-3.938349	interesa	-0.1777703
-4.336289	interesado	-0.2598945
-4.63732	interesar'ia	-0.2647824
-4.63732	intermedio	-0.2592961
-4.160198	intervalo	-0.3256745
-2.116182	ir	-1.418663
-4.336289	ir'un	-0.1949835
-4.160198	irme	-0.5683552
-4.336289	iru~nea	-0.3585267
-3.63732	ja'en	-0.3714616
-2.745225	jueves	-0.6467203
-2.956078	julio	-0.9448324
-2.85199	junio	-1.072312
-4.63732	juntos	-0.2542842
-3.792222	l'erida	-0.5496024
-1.829785	la	-1.578683
-3.33629	la_coru~na	-0.7077864
-3.792222	laborable	-0.5268893
-4.63732	laborables	-0.2118348
-4.63732	lanzadera	-0.2644716
-2.022422	las	-1.569192
-3.792222	le	-0.3427601
-3.4332	le'on	-0.5856346
-4.63732	lentos	-0.25668
-4.63732	lezama	-0.2118348
-3.595927	litera	-0.5700763
-3.938349	literas	-0.8859233
-3.938349	llamaba	-0.6849318
-2.873892	llega	-1.115503
-4.63732	llegaba	-0.2646521
-4.336289	llegaban	-0.4104207
-3.024536	llegada	-0.6608862
-3.294897	llegan	-1.559702
-4.336289	llegando	-0.2238705
-2.536949	llegar	-1.025823
-4.63732	llegar'ia	-0.2118348
-4.336289	llegara	-0.2450702
-4.336289	llegaran	-0.3970778
-4.336289	llegase	-0.4104207
-3.118806	llegue	-0.7089697
-3.595927	lleguen	-0.5037096
-3.358566	lleida	-0.6592748
-3.938349	llevar	-0.3369373
-4.63732	llevarme	-0.2503859
-4.63732	lleve	-0.2503859
-3.382047	lo	-0.7441739
-3.461228	logro~no	-0.4022045
-2.017184	los	-1.68091
-3.523376	luego	-0.6823561
-4.336289	lugo	-0.1827739
-2.659596	lunes	-0.6866165
-3.23938	m'alaga	-0.5687761
-4.63732	m'aquinas	-0.2592961
-2.33629	m'as	-1.115013
-4.63732	m'aximo	-0.2648826
-3.595927	m'erida	-0.7635411
-4.63732	m'i	-0.2591033
-4.63732	m'ireme	-0.2503859
-2.18707	madrid	-0.9880528
-4.63732	manera	-0.2592961
-4.336289	mare_nostrum	-0.3585267
-2.965222	martes	-0.6224773
-2.558138	marzo	-1.018148
-2.786061	mayo	-0.9671967
-2.132169	ma~nana	-0.9467622
-4.63732	ma~nanas	-0.2118348
-4.63732	ma~nanita	-0.2637288
-1.85199	me	-1.383502
-3.118806	media	-0.740301
-4.63732	mediados	-0.2621487
-3.257108	mediod'ia	-0.6671052
-3.558138	mejor	-0.365623
-4.63732	men'u	-0.2652431
-4.03526	menos	-0.425801
-3.683077	mes	-1.088779
-3.938349	mi	-0.3780445
-3.222346	mi'ercoles	-0.6314571
-4.63732	miguel_de_unamuno	-0.2118348
-2.965222	mil	-1.633801
-4.63732	minutos	-0.234938
-3.3151	mira	-0.540002
-4.63732	mirar	-0.2610585
-3.3151	mire	-0.493459
-4.336289	misma	-0.2645418
-4.63732	mismamente	-0.2609169
-4.63732	mismas	-0.2652431
-3.205956	mismo	-0.6577817
-4.63732	mismos	-0.2614929
-4.63732	modalidad	-0.234938
-4.63732	momento	-0.2118348
-4.63732	monumental	-0.2118348
-4.63732	monz'on	-0.2503859
-4.160198	much'isimas	-0.5783399
-2.470002	muchas	-2.165379
-4.63732	muestras	-0.2623302
-3.081017	murcia	-0.8965113
-4.63732	museo	-0.2652431
-3.73423	muy	-0.396458
-2.52673	nada	-1.517654
-4.63732	navidad	-0.260654
-4.63732	navidades	-0.260654
-4.160198	necesitar'ia	-0.2512449
-3.3151	necesito	-0.3566883
-4.63732	negocio	-0.2118348
-4.336289	negocios	-0.4033719
-3.683077	ning'un	-0.5512616
-4.63732	ninguna	-0.234938
-4.160198	ninguno	-0.3508802
-1.603092	no	-1.084864
-2.79847	noche	-0.6737557
-4.63732	nochevieja	-0.265153
-4.63732	nocturno	-0.2632866
-4.63732	normal	-0.2118348
-4.63732	norte	-0.2592961
-3.205956	noviembre	-0.7706799
-4.63732	novio	-0.2396569
-2.881445	nueve	-1.15294
-2.533516	o	-0.643741
-4.63732	obra	-0.234938
-2.349518	obtener	-1.961784
-2.756506	ocho	-0.8417134
-3.33629	octubre	-0.9013678
-4.63732	odio	-0.2503859
-4.63732	oiga	-0.2650428
-4.63732	olvidado	-0.2118348
-2.824406	once	-0.9032569
-4.63732	oposici'on	-0.2118348
-3.938349	orense	-0.2778537
-4.63732	origen	-0.2624209
-3.938349	otra	-0.316607
-3.523376	otro	-0.8988299
-4.03526	otros	-0.4751109
-3.145958	oviedo	-1.159212
-3.558138	palencia	-0.6068699
-3.105841	pamplona	-0.6290882
-4.03526	par'is	-0.2443882
-1.836602	para	-1.076311
-4.63732	parece	-0.2592961
-4.63732	parte	-0.234938
-2.929749	partir	-1.780027
-3.3151	pasado	-0.9943032
-4.160198	pasar	-0.2297546
-4.63732	pascua	-0.2396569
-4.63732	paso	-0.2650428
-4.336289	pedir	-0.4114743
-4.160198	perd'on	-0.5298041
-4.03526	perdone	-0.2274891
-3.792222	perfecto	-0.5175707
-3.118806	pero	-0.1439133
-4.63732	pe~n'iscola	-0.260654
-4.63732	pirineos	-0.2118348
-4.336289	plazas	-0.4073459
-3.938349	poco	-0.4216003
-4.63732	pocos	-0.2615232
-3.683077	pod'ia	-0.2894606
-3.491192	poder	-1.409324
-2.817776	podr'ia	-0.8763666
-4.63732	podr'iamos	-0.265143
-4.63732	podr'ian	-0.2652231
-4.336289	podr'ias	-0.4112638
-4.63732	poquito	-0.2396569
-2.002842	por	-1.494604
-3.558138	porque	-0.3988949
-4.63732	port_aventura	-0.2118348
-3.859168	posibilidad	-0.5531402
-4.336289	posibilidades	-0.2636183
-2.569134	posible	-0.7079179
-4.336289	posibles	-0.2528445
-3.63732	pr'oxima	-1.210417
-2.22908	pr'oximo	-1.532853
-1.844928	precio	-1.257718
-2.485031	precios	-1.014078
-3.294897	preferente	-0.8926873
-4.63732	preferentemente	-0.2396569
-4.160198	preferir'ia	-0.3526345
-4.03526	prefiero	-0.2556987
-4.63732	pregunta	-0.2652331
-4.63732	preguntado	-0.2609169
-3.683077	preguntar	-0.3431099
-4.160198	pregunto	-0.3470017
-3.23938	primer	-1.161085
-2.873892	primera	-0.9219344
-3.491192	primero	-0.33194
-4.63732	primeros	-0.234938
-4.63732	principal	-0.2118348
-4.63732	principio	-0.2644716
-3.73423	principios	-0.9239274
-4.160198	pronto	-0.2942289
-4.336289	pudiera	-0.2109395
-4.63732	pudiese	-0.2644615
-4.336289	pueda	-0.265193
-2.811245	puede	-1.029385
-3.382047	puedes	-0.7052478
-3.406871	puedo	-0.542231
-4.160198	puente	-0.3262234
-2.4332	pues	-0.5173215
-3.63732	punto	-1.011078
-2.345063	qu'e	-1.188166
-1.865732	que	-0.8236962
-4.336289	quedado	-0.265163
-2.001836	quer'ia	-1.33135
-2.543898	querr'ia	-1.082117
-4.63732	quieres	-0.2624209
-1.881445	quiero	-1.324673
-3.057536	quince	-1.36911
-4.160198	quincena	-0.2694925
-2.18707	quisiera	-1.263232
-4.336289	quiz'a	-0.2585343
-2.786061	r'apido	-0.7384673
-3.63732	r'apidos	-0.2007678
-4.63732	realice	-0.265193
-4.63732	realidad	-0.2591033
-4.63732	realizan	-0.2644716
-3.491192	realizar	-0.8447576
-4.63732	realmente	-0.2609068
-4.63732	reconfirmar	-0.2396569
-4.63732	recorrido	-0.2118348
-4.63732	refiriendo	-0.2649026
-3.406871	regional	-0.6212866
-4.160198	regionales	-0.1977637
-4.63732	regresando	-0.2396569
-3.73423	regresar	-0.6603769
-4.63732	regreso	-0.2650629
-4.63732	rep'itame	-0.2610585
-4.336289	repetir	-0.2352062
-3.859168	repetirme	-0.3659461
-4.63732	repitas	-0.2396569
-4.63732	reservar	-0.2601174
-4.63732	respondido	-0.2652431
-4.63732	restaurante	-0.2118348
-4.160198	reuni'on	-0.3110779
-4.63732	reunirme	-0.2645017
-4.336289	ruta	-0.3585267
-2.417212	s'abado	-0.8393862
-3.859168	s'e	-0.1847304
-1.386168	s'i	-1.064418
-3.523376	s'olo	-0.3135385
-4.336289	sabe	-0.2628741
-1.679234	saber	-1.3282
-4.63732	saberlo	-0.2623302
-3.190161	salamanca	-0.7111955
-4.336289	saldr'ia	-0.2327857
-2.837979	sale	-0.905688
-3.069118	salen	-0.7604542
-2.947124	salga	-0.7063823
-3.63732	salgan	-0.2493909
-4.160198	salgo	-0.2071911
-2.873892	salida	-0.4421848
-2.984107	saliendo	-0.9867309
-3.859168	saliera	-0.3751101
-4.160198	salieran	-0.2024741
-4.160198	saliese	-0.2387427
-2.266252	salir	-1.01984
-4.63732	san_fermines	-0.2118348
-4.63732	san_jos'e	-0.2118348
-3.190161	san_sebasti'an	-0.6469567
-2.921316	santander	-0.7565593
-4.336289	santiago	-0.211155
-3.683077	santiago_de_compostela	-0.4706084
-4.63732	satisfecho	-0.2652431
-3.683077	se	-0.3109547
-2.762258	sea	-0.3813266
-4.03526	sean	-0.2375919
-3.358566	segovia	-0.4076524
-3.73423	segunda	-0.6516618
-3.792222	segundo	-0.627925
-2.768088	seis	-1.054932
-2.54041	semana	-0.8313148
-3.938349	semana_santa	-0.2236969
-4.63732	semanas	-0.25668
-3.01407	septiembre	-1.081488
-2.739692	ser	-0.6686084
-4.63732	ser'a	-0.265133
-3.358566	ser'ia	-0.6263407
-3.73423	servicio	-0.464354
-4.63732	servicios	-0.2647824
-4.63732	setiembre	-0.25668
-2.580415	sevilla	-1.058953
-4.63732	se~nora	-0.2118348
-4.63732	se~norita	-0.2609169
-2.302866	si	-0.9780197
-4.63732	sido	-0.265173
-2.71304	siete	-1.177755
-3.205956	siguiente	-0.6476947
-4.63732	sin	-0.2628942
-4.63732	sirve	-0.2644716
-2.889132	sobre	-0.9059598
-4.03526	solamente	-0.1961822
-3.73423	solo	-0.2305035
-3.190161	son	-0.3703234
-3.859168	soria	-0.6724508
-3.683077	su	-0.9937486
-4.63732	sueca	-0.2396569
-3.595927	suficiente	-0.4466355
-4.63732	supuesto	-0.2118348
-4.63732	sus	-0.2638293
-2.612014	talgo	-0.7132866
-4.336289	talgos	-0.2116989
-2.85199	tambi'en	-0.4705254
-4.63732	tampoco	-0.2639799
-4.160198	tanto	-0.3202022
-4.63732	tarda	-0.2118348
-4.63732	tardan	-0.2647423
-4.63732	tardar'ia	-0.260654
-2.30086	tarde	-1.070059
-3.118806	tardes	-0.8343143
-2.913044	tarragona	-0.5358873
-4.63732	te	-0.2652431
-4.63732	teatro	-0.25668
-4.160198	temprano	-0.3026102
-4.63732	tendr'e	-0.2588798
-3.792222	tendr'ia	-0.2726569
-4.63732	tendr'ian	-0.2610585
-4.160198	tener	-0.2389555
-4.63732	tenerlo	-0.2118348
-4.160198	tenga	-0.2990298
-3.081017	tengo	-0.807217
-4.63732	tercer	-0.2591743
-4.63732	tercero	-0.2118348
-3.132169	teruel	-0.9394833
-4.63732	thyssen	-0.265103
-4.63732	ticket	-0.2623302
-4.336289	tiempo	-0.265153
-2.965222	tiene	-0.6601484
-3.558138	tienen	-0.3456995
-4.63732	tienes	-0.2652331
-2.472967	tipo	-1.693942
-3.523376	tipos	-1.115813
-4.336289	toda	-0.4054701
-2.873892	todo	-1.225847
-4.160198	todos	-0.2991901
-3.406871	toledo	-0.4356425
-4.63732	total	-0.234938
-4.63732	totalmente	-0.2652431
-4.336289	trabajo	-0.2584631
-4.63732	trata	-0.234938
-3.63732	trayecto	-0.4268917
-4.63732	trayectos	-0.260654
-3.792222	trece	-0.2832354
-2.792222	treinta	-1.263496
-1.857002	tren	-0.9282044
-3.792222	tren_hotel	-0.3130578
-2.067946	trenes	-0.9504138
-2.859168	tres	-1.146295
-4.63732	triana	-0.2118348
-4.63732	tu	-0.2652431
-3.406871	turista	-0.4522882
-4.160198	u	-0.3309511
-1.929749	un	-1.424179
-3.069118	una	-0.4814705
-2.707901	uno	-1.18033
-3.73423	unos	-0.4762463
-4.336289	usted	-0.2644214
-4.63732	utilizar	-0.2649828
-4.63732	uy	-0.2396569
-4.63732	v'alido	-0.2118348
-3.73423	va	-0.3620445
-4.336289	vacaciones	-0.2074313
-4.63732	valdr'ia	-0.2396569
-3.491192	vale	-0.2478616
-4.160198	valen	-0.2093712
-2.41201	valencia	-1.046263
-4.63732	valer	-0.2601174
-3.222346	valladolid	-0.6885763
-3.792222	vamos	-0.5444822
-3.358566	van	-0.8447188
-3.683077	vaya	-0.6252763
-4.160198	vayan	-0.3110779
-4.63732	veamos	-0.2595092
-2.956078	veinte	-0.9616914
-3.294897	veinticinco	-1.365475
-3.275592	veinticuatro	-1.14358
-3.406871	veintid'os	-1.094101
-3.174922	veintinueve	-1.471099
-3.461228	veintiocho	-1.353482
-3.358566	veintis'eis	-1.049812
-3.406871	veintisiete	-0.6332669
-3.205956	veintitr'es	-1.088502
-3.683077	veintiuno	-1.131633
-4.63732	vendr'ia	-0.2649226
-4.63732	venga	-0.2647423
-4.63732	vengan	-0.234938
-4.63732	vente	-0.234938
-3.003851	ver	-0.4417977
-3.859168	ver'a	-0.3459547
-4.63732	verano	-0.260654
-4.336289	verdad	-0.3585267
-3.859168	vez	-0.2987376
-4.63732	viaja	-0.2623302
-3.63732	viajando	-0.9541567
-2.268104	viajar	-1.377282
-4.63732	viajara	-0.260654
-2.148769	viaje	-1.241609
-3.257108	viajes	-0.6534168
-4.63732	vida	-0.2588798
-2.859168	viene	-0.7191892
-2.338466	viernes	-0.7050564
-4.160198	viernes_santo	-0.2748759
-3.024536	vigo	-0.7863703
-4.336289	visita	-0.2503755
-4.336289	visitar	-0.3970778
-4.63732	visitarlos	-0.2118348
-3.491192	vitoria	-0.3343634
-2.68793	volver	-0.9179378
-4.63732	volver'ia	-0.2587782
-3.461228	volviendo	-0.9169536
-3.859168	voy	-0.8611163
-2.217364	vuelta	-0.8322673
-3.859168	vuelva	-0.2240819
-4.63732	vuelven	-0.2503859
-4.336289	vuelvo	-0.3863488
-1.708924	y	-0.7371017
-2.965222	ya	-0.7951337
-3.461228	yo	-0.572892
-3.938349	zamora	-0.4114192
-2.655048	zaragoza	-1.019539
-4.336289	zona	-0.2652131

\2-grams:
-0.3309932	'avila </s>
-0.6780755	'avila a	-0.3965784
-1.817142	'avila desde
-0.8769988	'avila el	-0.7714199
-1.388848	'avila en	-0.3476736
-1.817142	'avila para
-0.733464	'ultima hora
-0.1249387	'ultima semana	-0.8616539
-0.3452336	'ultimo </s>
-1.831383	'ultimo el
-1.831383	'ultimo es
-1.831383	'ultimo euromed
-1.403089	'ultimo que
-0.4121805	'ultimo tren	-0.3321264
-0.2127568	'ultimos </s>
-0.3400209	'unicamente cu'al
-0.3400209	'unico tren
-4.040811	<s> 'avila
-1.376508	<s> a	-0.05273896
-3.355073	<s> al	-0.07297184
-4.040811	<s> albacete
-3.612517	<s> alg'un	0.1343301
-3.101252	<s> alguno	-0.1865516
-4.040811	<s> alrededor
-4.040811	<s> antes
-4.040811	<s> ay
-3.015646	<s> barcelona	-0.5080421
-2.746548	<s> bien	0.1508326
-2.30285	<s> buenas	0.02579558
-2.524699	<s> bueno	-0.07762462
-2.238392	<s> buenos	0.4771212
-4.040811	<s> burgos
-4.040811	<s> buscar'ia
-4.040811	<s> c'aceres
-3.612517	<s> c'adiz	-0.131372
-3.612517	<s> cambiar
-3.612517	<s> catorce	0.07575357
-4.040811	<s> ciudad_real
-4.040811	<s> con
-4.040811	<s> conocer
-3.612517	<s> creo	0.5218406
-2.358367	<s> cu'al	-0.09639513
-2.422037	<s> cu'anto	-0.2803857
-4.040811	<s> cuales
-3.100668	<s> cualquier	-0.3457014
-4.040811	<s> cualquiera
-4.040811	<s> cuenca
-3.612517	<s> d'igame	-0.224126
-3.355073	<s> de
-3.355073	<s> del
-3.612517	<s> desde
-4.040811	<s> deseaba
-2.156722	<s> desear'ia	0.221438
-2.047578	<s> deseo	-0.1832483
-3.612517	<s> diecinueve
-3.612517	<s> dieciocho	-0.02022153
-4.040811	<s> diecis'eis
-3.355073	<s> diecisiete	0.2754511
-4.040811	<s> dos
-4.040811	<s> durante
-1.223669	<s> el	0.01946127
-4.040811	<s> elegir
-3.015646	<s> en	-0.09867129
-4.040811	<s> entonces
-2.70079	<s> entre	-0.7915152
-4.040811	<s> era
-3.101252	<s> es
-3.612517	<s> ese
-3.100668	<s> eso	0.4394865
-4.040811	<s> esos
-3.015646	<s> este	-0.08211075
-4.040811	<s> esto
-4.040811	<s> estoy
-4.040811	<s> exactamente
-3.612517	<s> exacto
-3.612517	<s> existe	-0.1779837
-4.040811	<s> finales
-4.040811	<s> gasteiz
-4.040811	<s> gerona
-3.101252	<s> gracias
-4.040811	<s> granada
-4.040811	<s> habr'ia
-2.39976	<s> hay	-0.2276211
-1.370376	<s> hola	0.00325036
-3.015646	<s> horario	-0.1640624
-2.746548	<s> horarios	-0.3678525
-3.100668	<s> hoy	-0.2862014
-4.040811	<s> ir
-3.355073	<s> jueves
-4.040811	<s> l'erida
-2.7977	<s> la	-0.4856997
-3.612517	<s> la_coru~na	-0.131372
-4.040811	<s> llega
-4.040811	<s> lleida
-4.040811	<s> lo
-3.612517	<s> los
-3.612517	<s> lunes
-2.901744	<s> madrid	-0.5904242
-3.612517	<s> martes
-2.223669	<s> ma~nana	-0.3419092
-1.426632	<s> me	-0.6961468
-3.355073	<s> mira
-3.101252	<s> mire
-4.040811	<s> muchas
-4.040811	<s> muy
-2.077541	<s> nada	0.1371996
-4.040811	<s> necesitar'ia
-2.70079	<s> necesito	-0.07232429
-0.7117856	<s> no	-0.188983
-4.040811	<s> o
-2.554662	<s> obtener	-0.2124228
-4.040811	<s> ocho
-4.040811	<s> oiga
-4.040811	<s> once
-4.040811	<s> otro
-3.612517	<s> oviedo	-0.2197939
-3.355073	<s> pamplona	-0.2808514
-3.100668	<s> para	-0.01480956
-3.100668	<s> pasado	-0.09540808
-3.612517	<s> perdone
-4.040811	<s> pod'ia
-2.901744	<s> podr'ia
-2.901744	<s> por	0.5849985
-3.612517	<s> pr'oximo
-3.612517	<s> precios
-3.612517	<s> preferir'ia
-4.040811	<s> pregunto
-3.612517	<s> puede	-0.4058273
-3.355073	<s> puedo
-1.651572	<s> pues	-0.263949
-2.320579	<s> qu'e	-0.5428
-2.422037	<s> que	-0.1663301
-1.465262	<s> quer'ia	-0.289813
-2.00182	<s> querr'ia	-0.2408637
-4.040811	<s> quieres
-1.346682	<s> quiero	-0.3151486
-3.612517	<s> quince	0.5453216
-1.60388	<s> quisiera	0.1706565
-4.040811	<s> realmente
-4.040811	<s> s'abado
-0.4650094	<s> s'i	0.01444602
-2.470341	<s> saber	-0.2145705
-3.612517	<s> sale	-0.4168453
-4.040811	<s> salida
-3.100668	<s> salir	0.04500011
-3.612517	<s> san_sebasti'an	-0.2156928
-3.612517	<s> santander	-0.07812643
-4.040811	<s> santiago_de_compostela
-2.901744	<s> sevilla	-0.5795795
-3.015646	<s> si	0.1114127
-3.101252	<s> siete	-0.3709528
-4.040811	<s> solo
-4.040811	<s> son
-4.040811	<s> tambi'en
-4.040811	<s> tampoco
-2.901744	<s> tarragona	-0.6048383
-4.040811	<s> teruel
-3.612517	<s> tiene
-4.040811	<s> tienen
-3.355073	<s> tipo	0.908325
-4.040811	<s> todos
-4.040811	<s> toledo
-3.612517	<s> treinta
-4.040811	<s> trenes
-4.040811	<s> tres
-3.355073	<s> un	-0.2299622
-4.040811	<s> una
-4.040811	<s> uno
-4.040811	<s> utilizar
-3.612517	<s> vale	-0.3926217
-3.612517	<s> valencia	-0.3276666
-4.040811	<s> valladolid
-4.040811	<s> vamos
-4.040811	<s> veamos
-3.355073	<s> veinte	0.01024008
-4.040811	<s> veinticinco
-4.040811	<s> veinticuatro
-4.040811	<s> veintid'os
-4.040811	<s> veintinueve
-3.355073	<s> veintitr'es	0.02920794
-4.040811	<s> ver'a
-2.746548	<s> viajar	-0.3254106
-4.040811	<s> viaje
-3.101252	<s> viernes
-3.101252	<s> vigo	-0.302237
-4.040811	<s> volver
-2.470341	<s> y	-0.2353033
-3.100668	<s> ya	0.00697273
-3.612517	<s> yo
-1.933904	a 'avila	-0.1490362
-3.07608	a 'ultima	-0.3437037
-2.085172	a albacete	-0.30103
-3.07608	a algeciras
-3.07608	a alguna	-0.2735444
-1.501595	a alicante	-0.1511103
-2.365307	a almer'ia	-0.08862635
-2.21011	a badajoz	0.03395551
-1.040501	a barcelona	-0.4213413
-1.596151	a bilbao	-0.3087998
-2.56423	a burgos	0.01941673
-2.05041	a c'aceres	-0.07575995
-1.842134	a c'adiz	0.07402563
-1.732989	a c'ordoba	-0.2565627
-3.504374	a castell'o
-1.82193	a castell'on	-0.3040895
-2.085172	a ciudad_real	-0.135412
-3.07608	a cualquier	-0.3951964
-3.504374	a cuatro
-2.164353	a cuenca	-0.3598764
-3.504374	a decir
-3.504374	a decirme
-3.07608	a diez
-3.07608	a dos
-3.504374	a esa
-3.504374	a ese
-3.504374	a eso
-2.564814	a finales	-0.2656577
-3.504374	a francia
-3.07608	a gasteiz
-2.56423	a gerona	0.006834298
-2.818636	a gij'on	-0.1970484
-2.479208	a girona	0.02259737
-1.766413	a granada	-0.1312568
-3.07608	a guadalajara	0.1508205
-3.504374	a haber
-2.818636	a huelva	0.01643719
-2.56423	a huesca	0.007523865
-3.07608	a ir
-2.479208	a ja'en	0.02582307
-2.564814	a l'erida	0.2001651
-1.988262	a la	-0.03907776
-2.085172	a la_coru~na	0.1404597
-1.21987	a las	0.1437768
-2.261263	a le'on	-0.1021035
-2.479208	a lleida	0.2389168
-2.21011	a logro~no	-0.2433378
-3.07608	a lugo
-1.863323	a m'alaga	-0.1347389
-2.12296	a m'erida	0
-3.504374	a m'i
-0.957527	a madrid	0.07987255
-3.504374	a mediados
-2.818636	a mediod'ia	0.1891401
-3.504374	a mi
-1.960233	a murcia	-0.3883128
-3.504374	a noche
-3.504374	a once
-3.07608	a orense	-0.3103044
-2.05041	a oviedo	-0.1423235
-2.818636	a palencia	-0.06199266
-1.802625	a pamplona	-0.1650785
-2.818636	a par'is	-0.07797112
-1.456783	a partir	0.02616489
-3.504374	a pe~n'iscola
-2.05041	a poder	0
-3.504374	a port_aventura
-2.05041	a primera	-1.035913
-3.504374	a primeros
-2.261263	a principios	0
-3.504374	a pues
-1.351439	a qu'e	-1.771861
-2.56423	a que	-0.4580729
-3.504374	a quer'ia
-1.802625	a salamanca	-0.2064339
-3.504374	a san_fermines
-2.164353	a san_sebasti'an	-0.1283849
-1.620285	a santander	-0.04401261
-3.504374	a santiago
-2.365307	a santiago_de_compostela	0.03454688
-1.988262	a segovia	-0.18234
-2.818636	a seis	0.05690145
-1.960233	a ser	-1.132162
-1.283539	a sevilla	-0.2747573
-3.504374	a siete
-2.56423	a soria	0.01111668
-3.504374	a sueca
-1.645839	a tarragona	-0.04755235
-1.802625	a teruel	-0.03486449
-2.018225	a toledo	0.09132047
-2.564814	a un	-0.3357619
-2.818636	a una
-2.818636	a unos	-0.2579567
-1.379023	a valencia	-0.5207658
-1.960233	a valladolid	-0.2275013
-1.596151	a ver	0.03380722
-3.07608	a viajar
-1.802625	a vigo	-0.06589937
-2.164353	a vitoria	-0.01533505
-1.90908	a zaragoza	-0.3797305
-0.3400209	abre a
-0.1973416	abril </s>
-1.565275	abril a	-0.171522
-2.590441	abril al
-2.162147	abril con	-0.4087079
-1.0463	abril de	-0.5975827
-1.650882	abril del	-0.7113691
-2.590441	abril dentro
-2.590441	abril despu'es
-2.590441	abril diecis'eis
-2.162147	abril en	-0.3476736
-2.590441	abril no
-2.590441	abril o
-1.904703	abril para	-0.534492
-1.296178	abril por	0.5505111
-2.590441	abril porque
-2.590441	abril que
-2.162147	abril quer'ia
-2.590441	abril quisiera
-2.590441	abril viernes_santo
-1.209027	abril y	-0.08572136
-0.3400209	acabado gracias
-0.3400209	acceder o
-0.2127568	acerca del
-0.3400209	acercara m'as
-0.3400209	acudir esta
-0.2127568	acuerdo </s>
-1.516112	adem'as deseo
-1.516112	adem'as el
-1.516112	adem'as en
-1.516112	adem'as la
-1.516112	adem'as lo
-1.516112	adem'as los
-1.516112	adem'as me
-1.087818	adem'as que
-1.516112	adem'as quer'ia
-1.516112	adem'as querr'ia
-0.830374	adem'as quiero	-0.06073739
-1.516112	adem'as saber
-0.05115252	adi'os </s>
-0.3400209	aeropuerto de
-0.1948022	agosto </s>
-1.573361	agosto a	-0.2213868
-2.259099	agosto cualquier
-2.259099	agosto de
-2.259099	agosto del
-2.259099	agosto desde
-2.259099	agosto dos
-2.259099	agosto e
-2.259099	agosto en
-2.259099	agosto es
-2.259099	agosto hasta
-1.015988	agosto por	-0.586937
-2.259099	agosto quiero
-2.259099	agosto quisiera
-2.259099	agosto si
-2.259099	agosto tambi'en
-2.259099	agosto un
-1.318956	agosto y	-0.1126937
-0.3400209	agradecer'ia </s>
-0.3400209	ah s'i
-1.118172	ahora dime
-0.1786127	ahora me	0.213172
-1.118172	ahora quer'ia
-1.884089	al aeropuerto
-1.455795	al atardecer
-1.198351	al cuatro	-0.04939745
-0.5026754	al d'ia	-1.060178
-1.884089	al destino
-1.884089	al diecisiete
-1.884089	al euromed
-1.884089	al igual
-1.455795	al mediod'ia
-1.884089	al men'u
-1.884089	al mismo
-1.884089	al museo
-1.455795	al once	-0.03446195
-1.884089	al principio
-1.884089	al s'abado
-0.9445295	al treinta	-0.5170808
-1.884089	al viernes
-0.3881802	alaris </s>
-1.682444	alaris me
-0.7428842	alaris o	-0.7251127
-1.682444	alaris que
-0.5433769	alaris si	-0.1556115
-0.30103	albacete </s>
-0.7428842	albacete a	-0.1505689
-1.682444	albacete antes
-1.682444	albacete destino
-1.682444	albacete el
-1.682444	albacete para
-1.682444	albacete saliendo
-1.25415	albacete y	-0.4277681
-2.110873	alg'un ave
-1.682579	alg'un billete
-1.682579	alg'un d'ia
-2.110873	alg'un euromed
-2.110873	alg'un fin
-1.682579	alg'un horario
-1.682579	alg'un otro
-2.110873	alg'un regional
-1.425135	alg'un talgo	0.1756934
-2.110873	alg'un tipo
-0.1373836	alg'un tren	-0.09748027
-0.6410509	algeciras </s>
-0.6410509	algeciras en
-0.6410509	algo </s>
-0.6410509	algo que
-0.5137869	alguna ciudad
-0.9420809	alguna historia
-0.9420809	alguna otra
-1.085647	alguno </s>
-0.5282738	alguno de	-0.3218967
-1.771385	alguno es
-0.2852357	alguno que	-0.6502366
-1.771385	alguno sale
-0.3617278	alicante </s>
-0.7974564	alicante a	-1.110846
-2.17887	alicante antes
-0.8846066	alicante el	-0.3573817
-2.17887	alicante ma~nana
-1.039803	alicante para	-0.1350611
-2.17887	alicante pero
-2.17887	alicante saber
-0.9357591	alicante y	-0.07335956
-1.243111	all'i a
-0.3029675	all'i antes	0.5747105
-0.8148168	all'i el
-0.3770455	almer'ia </s>
-1.087818	almer'ia a	-0.4091852
-0.830374	almer'ia el
-1.516112	almer'ia en
-1.516112	almer'ia hasta
-1.516112	almer'ia por
-0.3400209	almeria </s>
-0.2179454	alrededor de	-0.6764246
-0.8148168	alrededor del	-0.4255408
-0.6410509	alta_velocidad </s>
-0.6410509	alta_velocidad en
-0.6410509	altaria </s>
-0.6410509	altaria o
-0.3400209	amable </s>
-0.3532527	amigos </s>
-1.038991	amigos en
-1.038991	amigos entonces
-1.038991	anterior </s>
-1.038991	anterior a
-1.038991	anterior el
-1.038991	anterior que
-1.038991	anterior y
-1.496699	antes </s>
-0.0419645	antes de	-1.722362
-1.496699	antes del	-0.2319636
-2.521864	antes estaba
-2.521864	antes mejor
-0.3400209	aparte de
-0.3400209	aprovechar el
-0.8171421	aproximadamente alrededor
-0.3888481	aproximadamente antes	0.6033136
-0.3400209	aproximado m'as
-0.8171421	aqu'i de
-0.3888481	aqu'i desde	-0.3541152
-0.2127568	arco </s>
-1.294263	as'i como
-0.1551968	as'i es	-0.3636737
-1.294263	as'i hasta
-0.3400209	asistir a
-0.3400209	asunto de
-0.6410509	atardecer </s>
-0.6410509	atardecer y
-0.3400209	atenci'on </s>
-0.8171421	aunque no
-0.8171421	aunque sea
-0.8171421	aunque si
-0.3400209	autobuses que
-0.3400209	autom'aticamente tienes
-0.2568263	ave </s>
-2.088209	ave a
-2.088209	ave d'igame
-1.402471	ave de	-0.2350433
-2.088209	ave desde
-2.088209	ave disponible
-2.088209	ave eh
-2.088209	ave la
-2.088209	ave o
-2.088209	ave pero
-2.088209	ave por
-2.088209	ave porque
-2.088209	ave puede
-2.088209	ave saliendo
-2.088209	ave sevilla
-0.9491423	ave si	-0.3545115
-1.659915	ave y
-0.3400209	ay </s>
-0.3400209	ayudar </s>
-0.9420809	a~no dos
-0.9420809	a~no entonces
-0.9420809	a~no entre
-0.9420809	a~no y
-0.3400209	b'usqueme usted
-0.2423469	badajoz </s>
-1.381414	badajoz a
-1.381414	badajoz el
-1.381414	badajoz para
-1.381414	badajoz y
-0.6410509	bajar desde
-0.6410509	bajar en
-0.4993808	bar </s>
-1.185119	bar me
-1.185119	bar o
-0.7568249	bar y	-0.4251722
-0.1001152	barato </s>
-1.443206	barato para
-1.443206	barato que
-1.185762	barato y
-0.3400209	baratos tanto
-0.4246427	barcelona </s>
-0.8069776	barcelona a	-0.3457246
-1.738918	barcelona antes	0.6965538
-2.678477	barcelona castell'on
-1.738918	barcelona desde	-0.1002531
-0.8760585	barcelona el	-0.5019861
-1.653312	barcelona en	-0.1819745
-2.678477	barcelona ese
-2.678477	barcelona este
-2.678477	barcelona ida
-2.678477	barcelona la
-2.678477	barcelona llegan
-2.678477	barcelona lleida
-2.250183	barcelona ma~nana	-0.0478259
-2.678477	barcelona me
-2.678477	barcelona no
-1.016237	barcelona para	-0.3273858
-2.678477	barcelona pero
-2.250183	barcelona por
-2.678477	barcelona pues
-1.738918	barcelona que
-2.678477	barcelona quer'ia
-2.678477	barcelona quiero
-2.678477	barcelona quisiera
-2.678477	barcelona saldr'ia
-2.678477	barcelona saliendo
-2.678477	barcelona sobre
-2.678477	barcelona un
-2.678477	barcelona una
-2.250183	barcelona valencia	-0.3276666
-1.384214	barcelona y	-0.05519371
-0.3723859	bien </s>
-1.858535	bien b'usqueme
-0.9189754	bien el	-0.3310405
-1.858535	bien ese
-1.858535	bien est'a
-1.858535	bien estar'ia
-0.9189754	bien gracias	0.5404
-1.858535	bien me
-1.858535	bien para
-1.858535	bien perfecto
-1.172797	bien s'i	-0.09761158
-1.858535	bien si
-0.5314789	bilbao </s>
-0.4522977	bilbao a	-0.3395412
-2.47356	bilbao al
-2.47356	bilbao alrededor
-2.47356	bilbao barcelona
-2.045266	bilbao de
-2.045266	bilbao desde
-1.179296	bilbao el	-0.05403909
-2.47356	bilbao en
-2.47356	bilbao entonces
-1.534	bilbao hasta	-0.09037066
-2.47356	bilbao la
-2.47356	bilbao las
-2.47356	bilbao me
-1.230449	bilbao para	-0.01050593
-2.47356	bilbao qu'e
-2.47356	bilbao que
-2.47356	bilbao quer'ia
-2.47356	bilbao quiero
-2.47356	bilbao saber
-2.47356	bilbao santander
-2.47356	bilbao sevilla
-1.230449	bilbao y	-0.0738683
-0.6766936	billete </s>
-1.633458	billete a
-0.2507249	billete de	-1.155219
-1.633458	billete del	-0.0793476
-2.573017	billete desde
-2.573017	billete disponible
-1.278754	billete en	-0.3709984
-1.43395	billete ida	-0.547298
-2.573017	billete m'as
-2.573017	billete no
-2.573017	billete normal
-1.632874	billete para
-1.887279	billete por	-0.3555498
-2.573017	billete tendr'ia
-2.573017	billete y
-0.6542827	billetes </s>
-0.3998776	billetes de	-0.4378291
-1.340021	billetes para
-1.340021	billetes por
-0.3400209	buena hora
-2.209253	buenas a
-1.780959	buenas desear'ia
-2.209253	buenas es
-2.209253	buenas he
-1.070186	buenas me	-0.2453015
-2.209253	buenas mira
-0.7231037	buenas quer'ia	-0.03885549
-1.184087	buenas querr'ia	0.0535849
-1.070186	buenas quisiera	-0.1205427
-0.3507178	buenas tardes	0.006386399
-2.209253	buenas ver'a
-1.817142	bueno desear'ia
-1.817142	bueno el
-1.817142	bueno entre
-1.817142	bueno es
-1.131404	bueno me	-0.004724085
-1.817142	bueno mejor
-1.817142	bueno obtener
-0.5228788	bueno pues	-0.04812519
-1.817142	bueno qu'e
-1.817142	bueno quer'ia
-1.817142	bueno quiero
-1.388848	bueno quisiera
-1.817142	bueno s'i
-1.817142	bueno saliendo
-1.817142	bueno ser'ia
-1.388848	bueno si
-1.817142	bueno y
-1.817142	bueno yo
-0.004852503	buenos d'ias	-0.4004994
-0.5453043	burgos </s>
-0.5453043	burgos a	-0.3563145
-1.142176	burgos el
-1.57047	burgos la
-1.57047	burgos saliendo
-1.57047	burgos valladolid
-0.3400209	buscar un
-0.3400209	buscar'e la
-0.3400209	buscar'ia un
-0.50515	c'aceres </s>
-0.7061042	c'aceres a	-0.5069658
-1.845171	c'aceres capital
-1.845171	c'aceres desde
-1.159433	c'aceres el	-0.5129104
-0.9056115	c'aceres para	-0.2982028
-0.8200054	c'aceres y	-0.09367226
-0.30103	c'adiz </s>
-1.754994	c'adiz a
-0.8154348	c'adiz el	-0.1243721
-1.754994	c'adiz en
-1.754994	c'adiz ese
-1.754994	c'adiz la
-1.3267	c'adiz los	-0.4175709
-1.754994	c'adiz me
-1.754994	c'adiz por
-1.754994	c'adiz saliendo
-0.8171421	c'omo ha
-0.3888481	c'omo no
-0.3400209	c'omoda mejor
-0.3541201	c'omodo </s>
-1.294263	c'omodo de
-1.294263	c'omodo no
-1.294263	c'omodo para
-1.294263	c'omodo pero
-0.4045706	c'ordoba </s>
-1.172797	c'ordoba a	-0.5522721
-0.5185139	c'ordoba el	-0.3564748
-0.9189754	c'ordoba para
-1.858535	c'ordoba ser'ia
-1.430241	c'ordoba y
-1.185119	cada cu'anto
-1.185119	cada salida
-0.2449756	cada uno	0.2131413
-0.3400209	callado </s>
-0.08218676	cama </s>
-1.802419	cama adem'as
-1.802419	cama de
-1.802419	cama o
-1.802419	cama si
-1.802419	cama tienen
-0.3562481	cambiar el	-0.1964932
-0.4418542	cambiar la	-0.1583411
-1.381414	cambiar ninguna
-0.3400209	cambrils a
-0.3400209	camino de
-0.3400209	capital </s>
-0.6410509	caracter'isticas </s>
-0.6410509	caracter'isticas tipo
-0.3400209	carnavales </s>
-0.3400209	caro </s>
-0.6410509	casa </s>
-0.6410509	casa y
-0.3400209	castell'o </s>
-0.5155795	castell'on </s>
-0.4091242	castell'on a	-0.6178663
-2.110873	castell'on de
-2.110873	castell'on desde
-2.110873	castell'on destino
-1.425135	castell'on el	-0.1967283
-2.110873	castell'on en
-2.110873	castell'on este
-2.110873	castell'on no
-1.171314	castell'on para	-0.1589399
-1.682579	castell'on por
-2.110873	castell'on viajando
-1.682579	castell'on y
-0.3400209	catalu~na_expres si
-1.802419	catorce </s>
-0.161368	catorce de	-0.4232214
-0.8628595	catorce horas	-0.1382701
-1.374125	catorce por	-0.06509641
-1.802419	catorce tambi'en
-1.802419	catorce verdad
-0.3400209	celebre carnavales
-0.2127568	cerca de	-0.3958669
-0.3400209	cercana </s>
-0.3400209	cercano a
-0.3400209	cero horas
-0.3400209	cierra del
-0.7178553	cinco </s>
-2.313149	cinco a
-2.313149	cinco creo
-0.1807362	cinco de	-0.765288
-2.313149	cinco esto
-2.313149	cinco horas
-2.313149	cinco la
-2.313149	cinco llega
-2.313149	cinco o
-1.884855	cinco qu'e	-0.3074632
-2.313149	cinco que
-1.373589	cinco y	-0.4173022
-1.185119	cincuenta </s>
-0.1599534	cincuenta y	-0.3348103
-0.3400209	citado </s>
-1.038991	ciudad cercana
-0.6106969	ciudad de
-1.038991	ciudad monumental
-1.038991	ciudad que
-0.3388186	ciudad_real </s>
-1.034494	ciudad_real a	-0.2136119
-1.034494	ciudad_real el	-0.2320803
-1.291938	ciudad_real hasta	-0.3583002
-1.291938	ciudad_real para
-1.720232	ciudad_real por
-1.291938	ciudad_real y
-0.3029675	claro </s>
-1.243111	claro es
-1.243111	claro para
-1.243111	claro pues
-0.5835766	clase </s>
-2.002779	clase de
-1.574485	clase econ'omica	-0.2043844
-2.002779	clase especial
-2.002779	clase m'as
-2.002779	clase no
-1.574485	clase o	-0.4281912
-0.6627578	clase preferente	-0.05551738
-2.002779	clase primera
-2.002779	clase qu'e
-0.5166298	clase turista	0.0002560616
-1.817142	coche </s>
-0.06214791	coche cama	0.04742461
-1.131404	coche en	-0.503523
-1.118172	coger a
-0.6898781	coger el
-0.432434	coger un	-0.4021558
-0.3400209	cogi'endolo a
-0.3400209	cogiendo el
-0.3400209	cojo de
-1.340021	como de
-0.9117268	como es
-1.340021	como horarios
-1.340021	como llegar
-1.340021	como m'aximo
-1.340021	como para
-1.340021	como precios
-1.340021	como servicio
-1.340021	como voy
-0.3400209	compa~n'ia </s>
-0.3400209	competici'on deportiva
-0.3400209	completo del
-0.131404	comprar un	-0.1891747
-0.3400209	compro un
-1.786788	con arco	-0.02045691
-2.215082	con bar
-2.215082	con coche
-0.7289332	con destino	-0.06421672
-2.215082	con direcci'on
-1.274939	con el	-0.2339347
-2.215082	con esto
-2.215082	con la
-2.215082	con las
-2.215082	con literas
-1.529344	con llegada	-0.4356356
-2.215082	con llegar
-1.274939	con punto	0.2258253
-1.786788	con qu'e	-0.4296782
-0.49485	con salida	-0.3076696
-1.189917	con servicio	-0.309098
-2.215082	con trenes
-1.529344	con un	-0.08192669
-2.215082	con unos
-2.215082	con vuelta
-0.5137869	concierto </s>
-0.9420809	concierto a
-0.9420809	concierto para
-0.3400209	concretar el
-0.3400209	concretos para
-0.3400209	condiciones entre
-0.8171421	confirmar el
-0.8171421	confirmar la
-0.8171421	confirmar no
-0.3400209	confirme el
-0.3400209	confundida se~norita
-0.3400209	congreso a
-0.2699957	conocer el	-1.026737
-2.072415	conocer horario
-1.132271	conocer horarios	-0.1313588
-0.5282738	conocer los	-0.976126
-1.644121	conocer tambi'en	-0.3964734
-2.072415	conocer un
-0.3400209	conozco entonces
-0.3888481	conseguir el	-0.328572
-0.8171421	conseguir los
-0.6410509	consulta </s>
-0.6410509	consulta horario
-1.858535	consultar adem'as
-0.5642715	consultar el	-0.6002241
-1.430241	consultar ese	-0.4096749
-1.172797	consultar horario	-0.02264732
-0.8333693	consultar horarios	0.01446664
-0.8333693	consultar los	-0.09665234
-1.858535	consultar precio
-1.858535	consultar precios
-1.858535	consultar tambi'en
-1.858535	consultar trenes
-1.858535	consultar un
-1.858535	consultar viaje
-0.3400209	contestan autom'aticamente
-0.3400209	corresponde al
-0.3400209	cosa odio
-0.3400209	cosita dime
-0.3400209	costa porque
-0.3400209	costar </s>
-1.087818	costar'ia </s>
-0.5759689	costar'ia el	-0.2911974
-1.516112	costar'ia en
-1.516112	costar'ia ese
-1.516112	costar'ia ir
-1.516112	costar'ia la
-0.830374	costar'ia un	-0.5094038
-1.516112	costar'ia volver
-0.3400209	crem'a </s>
-0.05115252	creo que	-0.06257669
-1.150344	cu'al de	-0.3179142
-2.289411	cu'al era
-0.0572954	cu'al es	-1.19807
-1.603673	cu'al ser'ia	-0.2783042
-0.7568249	cu'ales de	-0.4309146
-0.7568249	cu'ales llegan
-0.4993808	cu'ales son	-0.2010082
-0.8171421	cu'ando hay
-0.8171421	cu'ando llega
-0.8171421	cu'ando podr'ia
-1.134399	cu'anto costar'ia	-0.2080439
-0.3571459	cu'anto cuesta	-0.06022459
-2.159565	cu'anto de
-1.731271	cu'anto dura	-0.02045691
-1.731271	cu'anto es
-0.7056006	cu'anto me	-0.6538075
-2.159565	cu'anto puede
-2.159565	cu'anto salen
-2.159565	cu'anto tarda
-2.159565	cu'anto tardar'ia
-2.159565	cu'anto tiempo
-1.020498	cu'anto vale	-0.07146726
-2.159565	cu'anto valen
-0.6410509	cu'antos d'ias
-0.6410509	cu'antos de
-0.3400209	cuales llegan
-1.771385	cualquier clase
-1.771385	cualquier compa~n'ia
-0.632318	cualquier d'ia	-0.3886138
-1.085647	cualquier hora	-0.1706124
-1.771385	cualquier otro
-0.4771213	cualquier tipo	1.095776
-0.8312413	cualquier tren	-0.3034409
-0.6410509	cualquiera </s>
-0.6410509	cualquiera pero
-0.3400209	cuando podr'ia
-0.3400209	cuanto antes
-1.340021	cuarenta </s>
-1.340021	cuarenta que
-0.09691001	cuarenta y	-0.5704507
-0.3888481	cuarto </s>
-0.8171421	cuarto de
-0.3146739	cuatro </s>
-1.641055	cuatro a
-2.326793	cuatro cinco
-2.326793	cuatro cincuenta
-0.4552928	cuatro de	-0.6459074
-2.326793	cuatro deseo
-2.326793	cuatro necesitar'ia
-1.898499	cuatro o
-1.898499	cuatro por	-0.06509641
-2.326793	cuatro s'i
-2.326793	cuatro u
-1.641055	cuatro y
-0.4393327	cuenca </s>
-0.7423003	cuenca a	-0.2807193
-1.682444	cuenca con
-0.5433769	cuenca el	-0.3638725
-1.682444	cuenca y
-0.3400209	cuento </s>
-0.4900862	cuesta </s>
-1.8715	cuesta billete
-1.8715	cuesta cada
-1.8715	cuesta d'igame
-0.3853509	cuesta el	-0.7089881
-1.8715	cuesta este
-1.8715	cuesta ir
-0.9319404	cuesta un	-0.2915078
-0.3400209	cullera y
-0.3400209	cultural y
-0.3400209	curso de
-0.3400209	d'e la
-1.15282	d'ia </s>
-2.854569	d'ia a
-2.854569	d'ia anterior
-2.16883	d'ia antes	0.798887
-1.514548	d'ia catorce	0.225271
-1.435367	d'ia cinco	-0.6112033
-1.914425	d'ia cuatro	-0.2735739
-1.473155	d'ia de	-0.2094488
-1.560305	d'ia diecinueve	-0.4101745
-2.16883	d'ia dieciocho	-0.1448774
-1.435367	d'ia diecis'eis	-0.1193588
-1.400604	d'ia diecisiete	-0.2814344
-1.914425	d'ia diez	-0.5021869
-1.560305	d'ia doce	-0.1331843
-1.915009	d'ia dos	-0.2456395
-2.426275	d'ia el
-2.854569	d'ia entre
-2.854569	d'ia est'a
-1.715502	d'ia laborable	0.001065373
-2.426275	d'ia lunes	-0.4221479
-2.426275	d'ia me	-0.4295575
-1.715502	d'ia nueve	0.02431762
-2.854569	d'ia o
-1.611458	d'ia ocho	0.1754613
-1.611458	d'ia once	0.1696815
-2.426275	d'ia para
-2.426275	d'ia pero
-1.915009	d'ia por	0.02814382
-2.854569	d'ia preferente
-2.854569	d'ia qu'e
-2.854569	d'ia que
-1.435367	d'ia quince	0.1694542
-2.854569	d'ia s'abado
-1.259275	d'ia seis	-0.6420559
-1.36842	d'ia siete	0.4541393
-1.36842	d'ia siguiente	0.01769188
-2.16883	d'ia trece
-1.473155	d'ia treinta	-0.4706066
-1.914425	d'ia tres	-0.4523895
-1.36842	d'ia uno	0.1214481
-1.284099	d'ia veinte	0.218335
-2.426275	d'ia veinticinco
-1.829403	d'ia veinticuatro	0.171647
-2.426275	d'ia veintid'os	0.01989573
-1.514548	d'ia veintinueve	-0.01472324
-2.16883	d'ia veintiocho	0.6190335
-2.426275	d'ia veintis'eis
-1.829403	d'ia veintisiete	0.3138975
-1.473155	d'ia veintitr'es	-0.2210922
-2.426275	d'ia veintiuno	0.5218406
-2.16883	d'ia y
-2.369405	d'ias </s>
-1.941111	d'ias desear'ia	-0.3121081
-1.683666	d'ias diecinueve	-0.5369521
-1.941111	d'ias diecis'eis
-2.369405	d'ias doce
-2.369405	d'ias el
-2.369405	d'ias laborables
-1.683666	d'ias llamaba	0.1342472
-0.7741113	d'ias me	-0.7029388
-1.126294	d'ias mira	-0.2968539
-1.126294	d'ias mire	-0.2051154
-2.369405	d'ias necesito
-2.369405	d'ias ocho
-2.369405	d'ias podr'ia
-2.369405	d'ias pues
-0.7283538	d'ias quer'ia	0.1717642
-0.7989349	d'ias querr'ia	0.1868486
-1.230338	d'ias quisiera	-0.3249508
-1.941111	d'ias siete	-0.4260198
-2.369405	d'ias son
-1.941111	d'ias tengo
-2.369405	d'ias uno
-1.941111	d'ias veinte	-0.3862086
-1.941111	d'ias veintinueve	-0.368346
-2.369405	d'ias y
-1.66224	d'igame a
-1.66224	d'igame alguno
-0.7226808	d'igame cu'al	0.1690677
-1.66224	d'igame cu'antos
-0.4191293	d'igame el	-0.8504125
-1.66224	d'igame en
-1.66224	d'igame los
-1.233946	d'igame por	-0.230894
-1.66224	d'igame si
-1.66224	d'igame tambi'en
-0.3400209	d'onde quiero
-0.09884758	da igual	-0.04264265
-0.8171421	dado </s>
-0.8171421	dado el
-0.8171421	dado es
-0.3400209	dame los
-0.08715018	dar el	-0.89617
-1.381414	dar los
-1.381414	dar por
-0.3888481	darme el	-0.328572
-0.8171421	darme los
-3.120409	de 'avila	-0.4547632
-2.866587	de </s>
-3.806147	de a
-1.223088	de abril	0.02976799
-3.377853	de acuerdo	-0.02045691
-1.563036	de agosto	0.01032722
-2.866587	de albacete	-0.6523377
-3.377853	de alg'un	0.1343301
-2.511883	de alicante	-0.8788214
-3.377853	de almer'ia	-0.3953901
-3.806147	de alta_velocidad
-3.806147	de aqu'i
-3.377853	de ave
-3.806147	de badajoz
-2.780981	de bar	-0.02936353
-1.922058	de barcelona	-0.764533
-1.794028	de bilbao	-0.1743163
-2.866004	de billete	-0.1030703
-2.866587	de billetes	-0.5183678
-2.866004	de burgos	-0.3153706
-2.563036	de c'aceres	-0.08988285
-3.806147	de c'adiz
-3.806147	de c'ordoba
-3.806147	de cambrils
-2.085915	de castell'on	-0.8646317
-3.120409	de ciudad_real	-0.19474
-3.377853	de clase
-2.780981	de cualquier	-0.1659488
-3.806147	de cuatro
-2.780981	de cuenca	-0.2553193
-2.563036	de d'ia	-0.2082397
-3.377853	de de
-1.875061	de diciembre	0.003362179
-3.120409	de diez	-0.5479659
-3.377853	de doce	-0.4193721
-3.806147	de dormir
-1.989005	de dos	-0.9114422
-2.866587	de el	-0.1563512
-2.466126	de ellos	0.04817006
-2.068186	de enero	-0.002688825
-3.806147	de entre
-3.806147	de esa
-2.018968	de ese	-0.5251843
-2.262006	de esos	-0.2798407
-3.806147	de esta
-3.806147	de estar
-3.377853	de estas
-2.235677	de este	-0.3586773
-2.466126	de estos	0.002096683
-3.806147	de euromed
-1.812913	de febrero	0.01983148
-3.806147	de fecha
-3.806147	de forma
-2.866004	de gij'on	-0.2766143
-3.806147	de girona
-2.866587	de granada	-0.2897786
-3.806147	de hora
-3.806147	de horario
-2.866587	de horarios	-0.3066883
-3.377853	de huelva
-0.9963039	de ida	0.07637393
-3.806147	de ja'en
-1.784885	de julio	-0.001995504
-1.680796	de junio	0
-3.377853	de l'erida
-1.033157	de la	-0.6231093
-3.120409	de la_coru~na	-0.2093696
-1.093214	de las	-0.08846152
-3.806147	de le'on
-3.806147	de litera
-2.424733	de llegada	0.0174723
-3.377853	de lleida	-0.4034485
-3.377853	de logro~no	-0.3953901
-1.449093	de los	-1.051324
-3.377853	de m'alaga	-0.4105754
-1.733732	de madrid	-0.3409128
-3.806147	de manera
-1.386945	de marzo	-0.005887628
-1.614868	de mayo	0.03476971
-2.866004	de ma~nana	0.1376817
-3.806147	de mediod'ia
-3.806147	de mes
-3.806147	de muestras
-2.424733	de murcia	-0.2075673
-3.806147	de navidad
-3.806147	de negocio
-3.806147	de negocios
-2.866004	de noche	0.297658
-2.034762	de noviembre	-0.002275884
-3.806147	de nueve
-2.165096	de octubre	-0.01231688
-3.806147	de orense
-3.806147	de origen
-2.866587	de oviedo	-0.6092957
-2.866004	de palencia	-0.2365345
-2.866587	de pamplona	-0.1351917
-3.806147	de par'is
-3.806147	de pasar
-3.806147	de pascua
-3.806147	de paso
-2.866587	de primera	-0.06380221
-3.806147	de r'apidos
-3.806147	de s'abado
-3.806147	de s'olo
-3.806147	de salamanca
-2.187372	de salida	0.08875048
-3.806147	de san_jos'e
-2.780981	de san_sebasti'an	-0.5051392
-2.866587	de santander	-0.3046091
-3.806147	de santiago
-3.806147	de segovia
-3.806147	de seis
-1.77593	de semana	0.08963108
-3.806147	de semana_santa
-1.853342	de septiembre	0.155246
-3.806147	de ser
-3.806147	de servicios
-3.806147	de setiembre
-2.386945	de sevilla	-0.5223465
-3.806147	de siete
-3.806147	de talgo
-2.866004	de tarragona	-0.7816454
-3.806147	de teatro
-3.806147	de teruel
-3.377853	de trabajo
-1.284282	de tren	-0.3442759
-1.223088	de trenes	-0.09018499
-3.806147	de tres
-1.369216	de un	-0.9560738
-3.806147	de una
-3.377853	de unos
-3.806147	de vacaciones
-1.673734	de valencia	-0.8544397
-3.120409	de valladolid	-0.4848585
-3.806147	de verano
-2.866587	de viajar	-0.1154028
-2.466126	de viaje	-0.3865106
-3.120409	de viajes	-0.1310891
-3.806147	de viernes
-3.120409	de vigo	-0.5127474
-3.120409	de vitoria	-0.1970484
-1.453289	de vuelta	-0.1091805
-2.866587	de zamora	-0.0847435
-2.085915	de zaragoza	-0.8665496
-0.3400209	debe durar
-0.3400209	deber'ian ser
-0.3400209	debido </s>
-2.17253	decir </s>
-1.744236	decir a
-2.17253	decir cu'anto
-0.2884409	decir el	-0.922841
-2.17253	decir en
-1.232386	decir horarios	-0.1313588
-1.744236	decir la
-1.147364	decir los	-0.1921943
-1.744236	decir para
-1.486792	decir por	-0.3555498
-1.147364	decir qu'e	-0.06980002
-2.17253	decir que
-2.17253	decir si
-2.17253	decir trenes
-2.17253	decir ya
-1.340021	decirme cu'ales
-0.6542827	decirme el	-0.4532278
-1.340021	decirme la
-0.9117268	decirme los	-0.1870142
-1.340021	decirme por
-0.9117268	decirme si
-0.3400209	decirte una
-0.3400209	deis el
-1.448566	del 'ultimo	0.1539631
-1.89042	del ave
-2.829979	del a~no
-0.6770451	del billete	0.004219234
-2.401685	del coche	0.4426593
-2.401685	del cuatro
-1.690913	del d'ia	-0.06726052
-1.89042	del de	-0.1279373
-2.829979	del diecinueve
-2.829979	del domingo
-1.211205	del dos	-0.7130744
-1.804814	del euromed	-0.05439743
-2.401685	del horario	-0.332164
-2.401685	del intercity	0.1218852
-2.401685	del jueves	-0.3037354
-2.144241	del m'as	-0.4864767
-2.829979	del mare_nostrum
-1.25951	del mediod'ia	-0.005991101
-2.144241	del mes	0.01643719
-2.401685	del mismo
-1.89042	del pr'oximo
-2.144241	del precio	-0.08788964
-1.586869	del primer	-0.2211332
-2.144241	del primero
-2.829979	del que
-2.829979	del quince
-1.889836	del s'abado	0.09389029
-1.889836	del segundo	0.08753073
-2.829979	del seis
-1.804814	del talgo	-0.09328848
-2.829979	del tercer
-2.829979	del tercero
-2.829979	del ticket
-2.829979	del tipo
-2.144241	del trayecto	0.05080254
-0.7495958	del tren	-0.3279908
-2.829979	del trenes
-2.829979	del tres
-2.829979	del triana
-1.804814	del uno	0.1741648
-2.144241	del veinticinco	0.4843349
-2.144241	del veintis'eis	-0.4550654
-0.9101749	del viaje	-0.174738
-2.401685	del viernes
-0.8171421	demasiado caro
-0.3888481	demasiado tarde
-1.038991	deme cualquier
-0.6106969	deme el	-0.373885
-0.6106969	deme horarios
-0.2127568	dentro de
-0.3400209	deportiva que
-0.3400209	des horarios
-1.863771	desde 'avila	-0.01267505
-2.803914	desde </s>
-1.778748	desde alicante	0.0236178
-1.863771	desde almer'ia	-0.0105357
-2.803914	desde almeria
-2.37562	desde aqu'i	-0.2043844
-1.233444	desde barcelona	-0.1028098
-0.7826517	desde bilbao	-0.1642435
-2.118176	desde burgos	-0.09119412
-1.778748	desde c'aceres	-0.1822571
-2.37562	desde c'ordoba	-0.4022025
-1.863771	desde castell'on	0.03185037
-1.664847	desde ciudad_real	0.01693907
-2.118176	desde cuenca
-2.803914	desde el
-2.803914	desde el_ferrol
-2.803914	desde gerona
-2.118176	desde gij'on	-0.05243786
-1.864354	desde granada	0.04200152
-2.803914	desde guadalajara
-1.864354	desde hendaya	0.01168674
-2.37562	desde huelva	-0.1791361
-2.37562	desde ir'un
-2.37562	desde iru~nea	-0.02045691
-2.37562	desde la_coru~na
-1.864354	desde las	-0.1406398
-1.863771	desde le'on	-0.06088504
-1.664847	desde lleida	-0.3639797
-1.864354	desde logro~no	0.004867822
-2.803914	desde luego
-1.162863	desde madrid	-0.4705696
-2.803914	desde monz'on
-1.560803	desde murcia	-0.1255846
-2.803914	desde orense
-1.664847	desde oviedo	-0.143793
-2.118176	desde palencia	-0.06199266
-2.37562	desde pamplona	-0.4031213
-2.803914	desde salamanca
-1.50965	desde san_sebasti'an	-0.04739472
-2.37562	desde santander
-2.118176	desde segovia
-1.864354	desde sevilla	-0.1158597
-2.37562	desde tarragona	-0.239605
-2.37562	desde teruel
-2.803914	desde toledo
-1.065953	desde valencia	-0.01160353
-2.37562	desde valladolid
-2.37562	desde vigo
-2.803914	desde vitoria
-0.861833	desde zaragoza	-0.2156308
-1.038991	deseaba nada
-0.6106969	deseaba obtener
-1.038991	deseaba saber
-1.038991	deseaba tambi'en
-0.8381492	desear'ia conocer	0.2382854
-2.132413	desear'ia hacer
-2.132413	desear'ia ir
-2.132413	desear'ia m'as
-0.6163004	desear'ia obtener	-0.4449352
-1.704118	desear'ia que
-0.6163004	desear'ia saber	0.1220065
-0.8381492	desear'ia salir	-0.1427277
-1.704118	desear'ia un	-0.384748
-0.9933459	desear'ia viajar	-0.1795792
-1.472343	deseo cambiar	-0.08711445
-1.47176	deseo conocer	0.0875594
-2.411903	deseo consultar
-1.472343	deseo el	-0.2806447
-2.411903	deseo horarios
-1.983609	deseo informaci'on
-1.47176	deseo ir	-0.1651763
-1.472343	deseo llegar	-0.6162826
-1.726165	deseo los	-0.1729951
-0.8414331	deseo nada	-0.04777277
-1.272836	deseo obtener	-0.04509169
-1.726165	deseo que	-0.5382867
-2.411903	deseo realizar
-2.411903	deseo regresar
-0.7294593	deseo saber	-0.3024939
-0.7294593	deseo salir	-0.7447374
-1.726165	deseo tambi'en	-0.159069
-1.472343	deseo un	0.02458388
-1.11764	deseo viajar	-0.06926697
-0.7220969	despu'es </s>
-0.243038	despu'es de	-0.7416162
-1.66224	despu'es del
-1.66224	despu'es en
-1.66224	despu'es saliendo
-1.66224	despu'es y
-0.9050276	destino a	-0.08473586
-1.159433	destino alicante	-0.3092733
-1.845171	destino antes
-0.8200054	destino barcelona	-0.1839815
-1.845171	destino bilbao
-1.845171	destino castell'on
-1.845171	destino en
-1.845171	destino ja'en
-0.9050276	destino madrid	0.08099328
-1.845171	destino por
-1.845171	destino santander
-1.845171	destino sevilla
-1.845171	destino tarragona
-1.845171	destino teruel
-1.845171	destino valladolid
-1.416877	destino zaragoza
-0.6410509	dice cu'al
-0.6410509	dice el
-0.2127568	dices el	-0.328572
-0.4909466	dicho </s>
-1.516112	dicho al
-1.516112	dicho antes
-1.516112	dicho cu'al
-1.516112	dicho de
-1.516112	dicho el
-1.516112	dicho es
-1.516112	dicho los
-1.516112	dicho que
-1.516112	dicho tren
-0.3400209	dichos trenes
-0.1931246	diciembre </s>
-1.931085	diciembre a
-1.931085	diciembre con
-1.931085	diciembre de
-0.90592	diciembre por	-0.3456541
-1.931085	diciembre qu'e
-1.931085	diciembre que
-1.245347	diciembre y
-0.3888481	diciendo que	-0.4204823
-0.8171421	diciendo se~nora
-1.090074	diecinueve </s>
-0.146128	diecinueve de	-0.8240972
-1.601923	diecinueve horas	-0.2315103
-1.601923	diecinueve o
-2.030217	diecinueve por
-2.030217	diecinueve treinta
-1.344479	diecinueve y	-0.551906
-1.403089	dieciocho a
-1.831383	dieciocho cuarenta
-0.2126081	dieciocho de	-0.5787038
-1.831383	dieciocho o
-1.403089	dieciocho por	-0.06509641
-0.8062171	dieciocho y	-0.4901963
-1.001938	diecis'eis </s>
-1.513787	diecis'eis cuarenta	0.2665681
-0.2218488	diecis'eis de	-0.6839727
-1.942081	diecis'eis habr'ia
-1.942081	diecis'eis horas
-1.001938	diecis'eis o	-0.2548285
-1.942081	diecis'eis para
-1.942081	diecis'eis y
-1.8715	diecisiete </s>
-1.8715	diecisiete a
-0.06908092	diecisiete de	-0.6588953
-1.443206	diecisiete horas
-1.8715	diecisiete no
-0.6410509	diera el
-0.6410509	diera horarios
-0.3400209	dieras un
-0.8832557	diez </s>
-1.683666	diez a	-0.2361687
-0.2890211	diez de	-0.8833087
-2.369405	diez o
-2.369405	diez por
-2.369405	diez pues
-2.369405	diez treinta
-0.5380221	diez y	-0.9840209
-0.3400209	diga los
-0.9420809	digas a
-0.5137869	digas el
-0.9420809	digas horarios
-0.8171421	dijese cu'ales
-0.8171421	dijese el
-0.8171421	dijese los
-1.118172	dime alg'un
-1.118172	dime cu'ando
-0.6898781	dime el	-0.328572
-1.118172	dime horarios
-1.118172	dime los
-0.2127568	dir'ia el	-0.373885
-0.3400209	direcci'on a
-0.3400209	dispone de
-0.6106969	disponible </s>
-1.038991	disponible el
-1.038991	disponible en
-1.038991	disponible para
-0.2127568	disponibles </s>
-0.6410509	diurno a
-0.6410509	diurno es
-0.8336686	doce </s>
-1.529344	doce a	-0.236464
-0.2415928	doce de	-0.7315252
-1.189917	doce del	-0.506943
-2.215082	doce ese
-2.215082	doce no
-2.215082	doce por
-2.215082	doce vamos
-0.9719713	doce y	-0.4921412
-0.5329791	domingo </s>
-1.16389	domingo a	-0.7350453
-2.103449	domingo cualquiera
-1.163306	domingo d'ia	-0.2886732
-1.163306	domingo de	-0.1141742
-2.103449	domingo del
-2.103449	domingo desde
-1.675155	domingo en	-0.3476736
-2.103449	domingo para
-0.7220353	domingo por	-0.6740872
-2.103449	domingo que
-2.103449	domingo si
-2.103449	domingo veinticinco
-2.103449	domingo veintid'os
-2.103449	domingo veintinueve
-1.675155	domingo veintiocho	0.7436894
-2.103449	domingo veintisiete
-1.675155	domingo y
-0.3888481	dormir en
-0.8171421	dormir hay
-2.352858	dos 'ultimos
-1.012837	dos </s>
-2.352858	dos cuarenta
-0.5978639	dos de	-0.5674065
-1.924564	dos del
-1.924564	dos es
-2.352858	dos horarios
-2.352858	dos la
-0.3407394	dos mil	0
-2.352858	dos semanas
-1.327693	dos trenes	-0.09299981
-2.352858	dos tres
-1.413299	dos y	-0.322456
-0.2127568	dura el
-0.131404	duraci'on del	-0.5539309
-1.038991	durante cualquier
-1.038991	durante el
-0.6106969	durante la	-0.4291131
-1.038991	durante toda
-0.3400209	durar como
-0.2127568	durmiendo en	-0.428601
-0.3400209	e ir
-0.3888481	econ'omica </s>
-0.8171421	econ'omica posible
-0.3400209	efectivamente y
-0.3400209	efecto </s>
-0.09300663	eh </s>
-0.6106969	ejemplo </s>
-1.038991	ejemplo c'adiz
-0.6106969	ejemplo el
-2.281033	el 'ultimo	0.4183545
-3.734998	el 'unico
-3.306704	el </s>
-3.734998	el anterior
-2.218885	el ave	-0.1268733
-1.903615	el billete	-0.5484002
-3.734998	el camino
-2.315795	el catorce	-0.6057878
-2.093947	el cinco	-0.5320221
-3.306704	el coche	-0.3990637
-2.709832	el cuatro	-0.3440875
-1.054533	el d'ia	-0.3156998
-2.052554	el de	-0.8422303
-3.049259	el del
-3.734998	el destino
-2.072757	el diecinueve	-0.7781512
-2.072757	el dieciocho	-0.06627023
-2.281033	el diecis'eis	-0.1396329
-2.394977	el diecisiete	-0.1674911
-2.116223	el diez	-0.9653732
-2.033249	el doce	-0.6289128
-1.771727	el domingo	-0.01688325
-2.794854	el dos	-0.6892208
-2.281033	el euromed	-0.3357921
-2.794854	el fin	0.8656739
-0.8994324	el horario	-0.1240689
-3.049259	el intercity	-0.002770603
-3.306704	el intervalo	-0.2043844
-1.722879	el jueves	0.01614082
-1.732219	el lunes	0.02326322
-2.218885	el m'as	-0.4296981
-3.734998	el mare_nostrum
-1.947819	el martes	0.05510652
-3.734998	el mediod'ia
-3.734998	el mes
-2.353584	el mi'ercoles	0.1636766
-2.190857	el mismo	-0.500341
-3.734998	el momento
-3.734998	el norte
-2.248849	el nueve	-0.5943732
-2.093947	el ocho	-0.4177219
-2.440734	el once	-0.60206
-3.734998	el otro
-1.014766	el pr'oximo	-0.2151407
-0.6723428	el precio	-0.3944291
-2.218885	el primer	0.3637877
-2.394977	el primero	-0.05484423
-3.306704	el puente
-3.049259	el punto	0.4843349
-2.116223	el que	-0.2903406
-2.116223	el quince	-0.3233064
-3.734998	el regreso
-1.575433	el s'abado	0.08464205
-3.306704	el segundo
-2.116223	el seis	-0.6870708
-2.281033	el siete	-0.2181798
-2.795438	el siguiente
-2.794854	el talgo	0.1656277
-1.568902	el tipo	-0.3671261
-3.049259	el trayecto	0.05080254
-3.306704	el trece	-0.2670267
-1.889827	el treinta	-0.4004145
-1.531654	el tren	-0.2135718
-3.306704	el tren_hotel
-2.116223	el tres	-0.6139752
-1.963613	el uno	-0.7285614
-3.306704	el valencia	-0.4266333
-2.248849	el veinte	-0.5788302
-2.353584	el veinticinco	-0.03778851
-2.353584	el veinticuatro	0.1442439
-3.049259	el veintid'os	-0.1047601
-2.315795	el veintinueve	-0.4296966
-2.440734	el veintiocho	0.1760913
-2.353584	el veintis'eis	-0.6047474
-2.794854	el veintisiete	0.1384565
-2.394977	el veintitr'es	0.2411205
-2.795438	el veintiuno	0.215313
-1.732219	el viaje	0.1481937
-1.312191	el viernes	0.03261441
-3.306704	el viernes_santo
-0.3400209	el_ferrol no
-0.2127568	elegir el
-1.340021	ellos </s>
-1.340021	ellos a
-0.4004615	ellos es	-0.3203582
-1.340021	ellos llega
-1.340021	ellos llegan
-1.340021	ellos son
-1.340021	ellos tiene
-2.999937	en </s>
-2.571643	en agosto	0.009554893
-2.571643	en alaris
-2.571643	en albacete	-0.4075122
-2.999937	en alg'un
-2.571643	en alicante
-2.999937	en alta_velocidad
-2.999937	en altaria
-1.381163	en ave	-0.1880857
-2.059794	en barcelona	-0.1079076
-2.999937	en c'aceres
-2.314199	en cama	0.2063702
-2.314199	en castell'on	-0.2277137
-2.999937	en ciudad_real
-1.317494	en clase	-0.7210575
-1.429467	en coche	-0.3802112
-2.059794	en cualquier	-0.02019474
-2.999937	en cullera
-2.999937	en d'ia
-2.999937	en d'ias
-2.999937	en efecto
-0.9356403	en el	-0.5860745
-2.999937	en en
-2.999937	en esa
-2.571643	en ese
-2.999937	en este
-1.317494	en euromed	0.110742
-2.999937	en fin
-2.999937	en fumadores
-2.999937	en galicia
-2.999937	en horario
-2.999937	en huelva
-1.545973	en intercity	-0.08253491
-2.571643	en la
-2.999937	en le'on
-2.059794	en litera	0.1220056
-2.999937	en llegar
-2.999937	en m'alaga
-2.314199	en madrid
-2.571643	en mi	-0.3103044
-2.999937	en nochevieja
-1.86087	en preferente	0.2399782
-1.168555	en primera	-0.3561378
-2.314199	en qu'e	-0.4321191
-2.999937	en que
-2.999937	en realidad
-2.060378	en regional	-0.1319822
-2.999937	en saber
-2.571643	en segunda	-0.3601965
-2.314199	en semana_santa	-0.1147311
-2.999937	en septiembre
-2.571643	en sevilla
-2.999937	en si
-0.9697201	en talgo	-0.3663821
-2.060378	en tarragona	0.02832457
-2.314199	en teruel	-0.1791957
-2.999937	en tipo
-1.261976	en tren	-0.09791788
-2.999937	en tren_hotel
-2.571643	en trenes
-2.314199	en turista
-0.7514312	en un	-0.2867829
-2.999937	en una
-2.059794	en valencia	-0.2119168
-2.999937	en valladolid
-2.060378	en vez	-0.1388752
-1.756826	en viaje	0.01775843
-2.999937	en vigo
-2.060378	en zaragoza	-0.1419896
-2.999937	en zona
-0.1426675	enero </s>
-1.309667	enero a	-0.4169601
-1.737961	enero de
-1.737961	enero el
-1.737961	enero en
-1.737961	enero para
-1.737961	enero quer'ia
-0.3400209	ense~nara los
-0.3400209	entendido </s>
-0.3400209	enterar para
-0.3400209	entiendo c'omo
-1.66224	entonces </s>
-1.66224	entonces bueno
-1.66224	entonces claro
-1.233946	entonces cu'anto	-0.3371339
-1.66224	entonces deme
-1.66224	entonces el
-0.6370746	entonces me	-0.1606259
-1.66224	entonces necesito
-1.233946	entonces no
-1.233946	entonces quer'ia	-0.3935153
-1.66224	entonces quiero
-1.66224	entonces tengo
-1.66224	entonces ya
-2.146201	entre </s>
-1.717907	entre bilbao	-0.406073
-2.146201	entre c'ordoba
-2.146201	entre cada
-0.3590219	entre el	-0.4006445
-2.146201	entre esos
-2.146201	entre granada
-0.40824	entre las	-0.2904317
-2.146201	entre lleida
-2.146201	entre lunes
-2.146201	entre madrid
-2.146201	entre zaragoza
-0.3400209	enumerar los
-0.3400209	equipada </s>
-0.3400209	equivocado quiero
-1.243111	era </s>
-1.243111	era de
-1.243111	era el
-1.243111	era solo
-0.5573727	era todo
-1.243111	era un
-0.8171421	error la
-0.3888481	error no	-0.3990424
-1.057642	es </s>
-2.46073	es a
-2.889024	es buena
-2.889024	es bueno
-2.203286	es cada	-0.191651
-2.889024	es coche
-1.949465	es de
-2.889024	es debido
-2.46073	es demasiado	-0.2043844
-2.889024	es desde
-0.5899619	es el	-0.6138866
-2.46073	es en
-2.889024	es este
-1.948881	es euromed	-0.3384461
-2.889024	es exactamente
-2.889024	es horario
-2.889024	es imposible
-2.46073	es intercity
-2.889024	es ir
-1.949465	es la	-0.1629702
-2.889024	es llegar
-1.949465	es lo	-0.3287551
-2.46073	es m'as	-0.3914433
-2.46073	es muy
-2.889024	es oviedo
-2.889024	es palencia
-1.948881	es para
-2.889024	es pero
-0.6045206	es posible	-0.06730288
-1.402875	es que	-0.1441078
-2.889024	es s'abado
-2.889024	es saber
-2.889024	es salir
-1.949465	es su	0.2610704
-1.507611	es suficiente	0.05649677
-2.889024	es talgo
-0.9155348	es todo	-0.6803511
-1.372912	es un	0.03552788
-2.889024	es volver
-2.889024	es y
-1.118172	esa franja
-1.118172	esa hora
-1.118172	esa misma
-1.118172	esa ruta
-0.6898781	esa semana	-0.2799746
-1.546377	ese 'ultimo	0.02408414
-2.232116	ese </s>
-1.291972	ese billete	-0.3583428
-0.7781513	ese d'ia	-0.2794152
-2.232116	ese de
-1.803821	ese diurno
-2.232116	ese domingo
-2.232116	ese es
-1.803821	ese horario	-0.4085523
-2.232116	ese intercity
-1.292556	ese mismo	0.01302078
-2.232116	ese no
-1.803821	ese primer	-0.07585463
-2.232116	ese recorrido
-1.292556	ese talgo	0.2480496
-2.232116	ese tipo
-1.803821	ese trayecto	-0.1447708
-0.4449366	ese tren	-0.6598358
-1.292556	ese viaje	-0.4118654
-2.232116	ese viernes
-1.23297	eso </s>
-1.486792	eso era	-0.4161395
-0.1001152	eso es	-0.866206
-2.17253	eso est'a
-2.17253	eso me
-2.17253	eso por
-1.744236	eso quiero	-0.42549
-2.17253	eso s'i
-2.17253	eso ser'ia
-1.233946	esos dos	-0.4114845
-1.233946	esos horarios
-0.1180993	esos trenes	-0.3891295
-1.66224	esos viajes
-0.3400209	espec'ificamente por
-0.3400209	especial me
-1.317041	est'a </s>
-0.6213651	est'a bien	-0.0982486
-1.574485	est'a diciendo	-0.2043844
-2.002779	est'a disponible
-0.8637121	est'a gracias	0.08192652
-0.6213651	est'a muchas	1.09108
-0.6627578	est'a todo	-0.09927249
-2.002779	est'a totalmente
-0.8171421	esta bien
-0.8171421	esta noche
-0.8171421	esta semana
-0.3400209	estaba interesado
-0.3400209	estado las
-0.3400209	estamos me
-0.5573727	estar all'i	-0.1646232
-0.8148168	estar el
-0.5573727	estar en
-0.2127568	estar'ia bien
-0.6410509	estas </s>
-0.6410509	estas caracter'isticas
-1.432434	este 'ultimo	0.02408414
-1.432434	este a~no
-1.432434	este billete	-0.4543955
-2.118172	este domingo
-1.178029	este fin	0.8656739
-2.118172	este jueves
-1.689878	este mes	-0.1791361
-2.118172	este mi'ercoles
-1.689878	este mismo
-1.689878	este pr'oximo	-0.3029156
-1.178029	este s'abado
-2.118172	este servicio
-2.118172	este talgo
-0.7367586	este tren	-0.4759192
-1.178613	este viaje	-0.3159938
-0.6320232	este viernes	0.009010747
-2.118172	este y
-0.9420809	esto el
-0.5137869	esto es
-0.9420809	esto muchas
-1.419202	estos 'ultimos
-0.9909081	estos dos
-1.419202	estos horarios
-1.419202	estos talgos
-1.419202	estos trayectos
-0.733464	estos trenes	-0.1912012
-0.733464	estos viajes	0.1891401
-0.9420809	estoy diciendo
-0.9420809	estoy interesado
-0.9420809	estoy refiriendo
-0.9420809	estoy satisfecho
-1.118172	estrella </s>
-0.6898781	estrella en	-0.4018953
-1.118172	estrella si
-0.6898781	estrella y	-0.4199333
-0.1760913	euromed </s>
-2.215082	euromed disponibles
-1.786788	euromed el
-2.215082	euromed en
-2.215082	euromed entre
-2.215082	euromed es
-2.215082	euromed por
-1.529344	euromed que	-0.2351966
-1.076015	euromed si	-0.2963704
-2.215082	euromed vale
-1.076015	euromed y	-0.1511401
-1.118172	exactamente </s>
-1.118172	exactamente antes
-1.118172	exactamente cu'al
-1.118172	exactamente el
-1.118172	exactamente entre
-1.118172	exactamente s'i
-0.432434	exacto </s>
-1.118172	exacto del
-1.118172	exacto ese
-1.118172	exacto eso
-0.3400209	examen en
-0.3400209	excursi'on el
-0.3532527	existe alg'un	0.009674251
-1.038991	existe ning'un
-1.038991	existe otro
-0.9420809	exposici'on abre
-0.9420809	exposici'on al
-0.9420809	exposici'on cierra
-0.9420809	exposici'on no
-0.3400209	fallas para
-0.6410509	falta llegar
-0.6410509	falta viajar
-0.1359341	favor </s>
-2.544141	favor adem'as
-1.858403	favor cu'al	0.6711687
-2.544141	favor dime
-1.858403	favor el	-0.1329987
-2.115847	favor en
-2.115847	favor horarios	-0.2231423
-2.544141	favor la
-2.115847	favor los
-1.604581	favor me
-2.544141	favor mire
-2.544141	favor otra
-1.604581	favor podr'ia	-0.2956232
-2.115847	favor qu'e	-0.3074632
-2.115847	favor quer'ia
-2.544141	favor querr'ia
-2.544141	favor quisiera
-2.544141	favor s'i
-2.544141	favor se
-1.858403	favor si	-0.2098709
-2.544141	favor tambi'en
-2.544141	favor ver'a
-1.603998	favor y
-0.3107898	febrero </s>
-1.993233	febrero bueno
-0.8541667	febrero de	-0.7931579
-1.307495	febrero del	-0.5294973
-1.564939	febrero durante
-1.993233	febrero para
-1.307495	febrero por	-0.03532065
-1.993233	febrero preferentemente
-1.993233	febrero pues
-1.564939	febrero sobre	-0.2405164
-1.564939	febrero y
-1.185119	fecha </s>
-1.185119	fecha como
-1.185119	fecha del
-0.7568249	fecha entre	-0.1825245
-1.185119	fecha posible
-1.185119	fecha tiene
-0.3400209	fechas del
-0.3400209	feria de
-0.00914338	fin de	-1.664761
-0.1780288	finales de	-0.4910949
-1.118172	finales del
-0.3400209	forma la
-0.3400209	francia a
-0.3400209	franja horaria
-0.2127568	frecuencia salen	-0.4055704
-1.343091	fuera antes	0.6033136
-1.771385	fuera demasiado
-1.771385	fuera desde
-1.771385	fuera el
-1.085647	fuera en	-0.1521003
-1.343091	fuera euromed	0.04471931
-1.771385	fuera por
-1.085647	fuera posible
-1.771385	fuera r'apido
-0.3899711	fuera un	-0.05234225
-1.771385	fuera viajar
-1.294263	fuese a
-1.294263	fuese barato
-0.8659694	fuese el
-0.8659694	fuese posible	-0.2215486
-1.294263	fuese r'apido
-1.294263	fuese un
-1.294263	fuese viaje
-0.3400209	fumador </s>
-0.3888481	fumadores </s>
-0.8171421	fumadores clase
-0.3400209	fundamentalmente quiero
-0.2127568	galicia </s>
-0.3888481	gasteiz </s>
-0.8171421	gasteiz desde
-0.3541201	gerona </s>
-1.294263	gerona a
-1.294263	gerona el
-1.294263	gerona para
-1.294263	gerona salida
-0.5460056	gij'on </s>
-0.4609834	gij'on a	-0.5203707
-1.486149	gij'on alrededor
-1.057855	gij'on desde	-0.3541152
-0.2455595	girona </s>
-1.185119	girona a
-1.185119	girona en
-1.185119	girona para
-0.06145964	gracias </s>
-2.597469	gracias adi'os	0.5218406
-3.025763	gracias buenos
-2.085619	gracias eh	-0.1006233
-1.782652	gracias es	-0.6670476
-1.455293	gracias eso	-0.6005769
-2.340024	gracias est'a	-0.1181388
-3.025763	gracias ha
-2.000597	gracias hasta	-0.6286387
-2.597469	gracias muchas	1.73786
-2.597469	gracias nada	0.7750978
-2.085619	gracias no
-2.340024	gracias por
-3.025763	gracias s'i
-1.782652	gracias ya	-0.1097027
-0.4220737	granada </s>
-0.9686632	granada a	-0.288418
-1.908223	granada de
-1.222484	granada el
-1.908223	granada en
-1.908223	granada entre
-1.479929	granada este
-1.908223	granada hacia
-1.908223	granada hasta
-1.479929	granada para	-0.3056269
-1.222484	granada saliendo	-0.1825989
-1.908223	granada ser'ia
-1.908223	granada sobre
-1.479929	granada y
-0.131404	guadalajara </s>
-0.3400209	gustado un
-2.296747	gustar'ia </s>
-2.982486	gustar'ia cambiar
-2.982486	gustar'ia como
-2.982486	gustar'ia comprar
-1.601072	gustar'ia conocer	0.1397227
-2.042926	gustar'ia consultar
-2.554191	gustar'ia de
-2.982486	gustar'ia desde
-2.554191	gustar'ia el	-0.328572
-2.554191	gustar'ia en
-2.982486	gustar'ia granada
-2.042926	gustar'ia hacer	0.06660363
-2.982486	gustar'ia hacerlo
-2.982486	gustar'ia informaci'on
-2.982486	gustar'ia informarme
-1.300042	gustar'ia ir	-0.1042622
-1.739375	gustar'ia llegar	-0.1184905
-2.982486	gustar'ia no
-0.989252	gustar'ia obtener	0.302816
-2.296747	gustar'ia preguntar	-0.1140238
-1.280737	gustar'ia que	-0.3588296
-2.554191	gustar'ia realizar
-2.982486	gustar'ia regresar
-0.3120508	gustar'ia saber	-0.04148591
-1.123951	gustar'ia salir	-0.1635107
-2.554191	gustar'ia si
-2.554191	gustar'ia tambi'en	-0.4031234
-2.982486	gustar'ia tener
-2.554191	gustar'ia un	-0.2433457
-1.040405	gustar'ia viajar	-0.2569826
-2.042926	gustar'ia volver	-0.4971097
-1.618775	ha citado
-1.19048	ha dado
-1.618775	ha de
-0.4797078	ha dicho	-0.1040867
-1.618775	ha equivocado
-0.9330363	ha habido	0.02616465
-1.19048	ha quedado
-1.618775	ha respondido
-1.618775	ha sido
-0.9420809	hab'ia alguno
-0.9420809	hab'ia dicho
-0.9420809	hab'ia olvidado
-0.9420809	hab'ia uno
-0.3400209	hab'ias dicho
-0.8171421	haber ning'un
-0.8171421	haber tren
-0.8171421	haber trenes
-0.131404	habido un	-0.555166
-1.038991	habr'ia alg'un
-1.038991	habr'ia alguno
-1.038991	habr'ia gustado
-1.038991	habr'ia para
-1.038991	habr'ia posibilidad
-0.9420809	hace ese
-0.9420809	hace este
-0.5137869	hace falta
-0.3400209	hacen ese
-1.787179	hacer a
-1.787179	hacer de
-0.7620134	hacer el	-0.5233975
-1.358885	hacer este	-0.4026183
-0.2167091	hacer un	-1.041393
-1.787179	hacer una
-0.3888481	hacerlo en
-0.8171421	hacerlo la
-1.233946	hacia 'avila
-0.7226808	hacia barcelona	0.04044521
-1.66224	hacia cuenca
-1.233946	hacia las
-1.66224	hacia m'alaga
-0.976502	hacia madrid
-0.976502	hacia oviedo	-0.02422056
-1.66224	hacia santander
-1.66224	hacia sevilla
-1.66224	hacia tarragona
-1.66224	hacia teruel
-1.66224	hacia valencia
-0.6410509	haga el
-0.6410509	haga la
-0.3400209	hagan el
-0.9420809	has dado
-0.2563427	has dicho
-2.047591	hasta albacete
-2.047591	hasta alicante
-2.047591	hasta badajoz
-1.619297	hasta barcelona
-2.047591	hasta bilbao
-1.361853	hasta castell'on	-0.07876049
-2.047591	hasta cuenca
-2.047591	hasta el
-1.361853	hasta las	-0.4684999
-2.047591	hasta le'on
-2.047591	hasta lleida
-0.7533277	hasta luego	-0.4423591
-0.8044802	hasta madrid	-0.02563319
-2.047591	hasta media
-2.047591	hasta orense
-2.047591	hasta oviedo
-2.047591	hasta salamanca
-1.619297	hasta santander	-0.07812643
-1.361853	hasta sevilla
-2.047591	hasta soria
-2.047591	hasta valencia
-1.107448	hasta vigo	-0.02431253
-1.619297	hasta zaragoza	-0.3422253
-0.9898604	hay </s>
-0.5852898	hay alg'un	-0.2113293
-2.443825	hay alguna
-1.062411	hay alguno	-0.7741505
-2.443825	hay alrededor
-2.443825	hay claro
-1.503681	hay de	-0.1169133
-2.015531	hay desde
-2.443825	hay disponible
-2.443825	hay dos
-2.015531	hay el
-2.443825	hay en
-2.443825	hay entre
-2.443825	hay intercitys
-2.443825	hay ir
-2.443825	hay m'as
-2.443825	hay nada
-1.503681	hay ning'un	-0.1255075
-1.758086	hay ninguno	-0.008811116
-1.758086	hay otro	-0.3984729
-2.015531	hay otros	-0.08155349
-1.503681	hay para	-0.3495969
-2.015531	hay plazas	-0.02045691
-1.758086	hay por	-0.1897523
-2.015531	hay posibilidad	0.04086992
-2.443825	hay pr'oximo
-2.443825	hay pues
-2.443825	hay talgo
-2.443825	hay tanto
-1.504265	hay trenes	-0.05899145
-1.103804	hay un	-0.845098
-2.015531	hay viajes
-1.503681	hay y	-0.2407048
-0.3400209	haya un
-1.118172	he acabado
-0.6898781	he dicho
-1.118172	he entendido
-1.118172	he estado
-1.118172	he preguntado
-0.2563427	hendaya </s>
-0.9420809	hendaya es
-0.3400209	historia de
-0.7236759	hola buenas	-0.04151839
-0.5730317	hola buenos	0.1833905
-2.676481	hola deseaba
-1.990742	hola desear'ia	-0.1687128
-1.990742	hola deseo	-0.2219397
-1.057706	hola me	-0.7264199
-1.990742	hola mira	-0.2107174
-2.676481	hola mire
-1.990742	hola muy	-0.4161395
-2.676481	hola necesito
-0.7132105	hola quer'ia	-0.1887786
-1.736337	hola querr'ia	0.1221059
-1.106011	hola quiero	-0.4001324
-1.33646	hola quisiera	-0.1078227
-1.43337	hola s'i	-0.2837971
-2.676481	hola si
-2.676481	hola tengo
-0.8495072	hora </s>
-2.335656	hora a
-2.335656	hora cu'al
-0.9542425	hora de	-0.5362201
-2.335656	hora del
-2.335656	hora el
-1.907362	hora es
-0.4641563	hora llega	-0.297828
-2.335656	hora llegaba
-1.649918	hora llegan	-0.2146351
-2.335656	hora llegar'ia
-2.335656	hora ma~nana
-2.335656	hora podr'ia
-2.335656	hora porque
-2.335656	hora posible
-2.335656	hora puede
-2.335656	hora puedo
-0.819544	hora sale	-0.2323997
-2.335656	hora salen
-2.335656	hora se
-1.907362	hora tendr'ia
-1.649918	hora tengo
-2.335656	hora y
-0.3400209	horaria </s>
-1.272173	horario </s>
-2.934413	horario a
-2.934413	horario con
-0.4097011	horario de	-0.9360209
-1.196452	horario del	-0.4314038
-2.506119	horario desde
-2.248675	horario el	-0.1329987
-2.934413	horario en
-2.934413	horario entre
-2.934413	horario exacto
-2.934413	horario hay
-2.506119	horario ida
-2.934413	horario los
-2.934413	horario otra
-0.7022979	horario para	-0.3460324
-2.934413	horario pero
-2.934413	horario podr'ia
-2.506119	horario por
-2.248675	horario que	-0.2321774
-2.934413	horario s'i
-2.934413	horario saber
-2.934413	horario saliendo
-2.934413	horario ser'ia
-2.934413	horario sobre
-2.934413	horario tambi'en
-2.934413	horario tengo
-2.934413	horario tienen
-2.248675	horario tren
-2.934413	horario un
-2.934413	horario uy
-0.6859075	horario y	-1.18898
-1.317599	horarios </s>
-1.972749	horarios a	-0.2279521
-2.912893	horarios antes
-2.912893	horarios as'i
-2.912893	horarios bueno
-2.227154	horarios con	-0.4673264
-2.912893	horarios concretos
-2.912893	horarios corresponde
-0.4175356	horarios de	-0.9140576
-1.618629	horarios del	-0.1434993
-2.484598	horarios desde
-2.484598	horarios el
-2.912893	horarios en
-2.912893	horarios habr'ia
-1.669782	horarios hay	-0.3121036
-2.912893	horarios ir
-2.912893	horarios mejor
-2.912893	horarios o
-0.692058	horarios para	-0.1743311
-2.484598	horarios pero
-1.973333	horarios por	0.02814382
-2.912893	horarios puedo
-1.572872	horarios que	-0.1455903
-2.912893	horarios quiero
-2.227154	horarios son
-2.912893	horarios talgo
-2.912893	horarios tambi'en
-2.912893	horarios tendr'e
-2.912893	horarios tendr'ia
-2.912893	horarios un
-0.7155391	horarios y	-0.7804596
-0.4314032	horas </s>
-1.142176	horas a
-1.142176	horas de
-1.57047	horas del
-1.57047	horas puede
-1.57047	horas si
-1.57047	horas tengo
-1.142176	horas y
-0.4797078	hoy </s>
-1.19048	hoy de
-1.618775	hoy es
-1.618775	hoy mismo
-0.9330363	hoy por	-0.1897523
-1.618775	hoy tiene
-0.6792151	hoy y	-0.1509483
-0.8171421	hubiera </s>
-0.3888481	hubiera literas	0.256626
-0.354704	huelva </s>
-1.294263	huelva destino
-1.294263	huelva madrid
-0.8659694	huelva ma~nana	-0.4101256
-1.294263	huelva un
-0.3532527	huesca </s>
-1.038991	huesca el
-1.038991	huesca para
-1.021189	ida </s>
-0.8262127	ida a	-0.1863657
-2.838331	ida como
-2.152593	ida con	-0.3895667
-0.9542425	ida de	-0.2693877
-2.410038	ida del
-1.118099	ida desde	-0.01743257
-2.838331	ida el
-2.410038	ida en
-2.410038	ida entre
-2.838331	ida esto
-2.838331	ida hacia
-2.838331	ida nada
-2.838331	ida o
-1.595221	ida para	-0.2917253
-1.898772	ida por	0.8041354
-2.838331	ida que
-2.838331	ida saber
-2.838331	ida salida
-2.838331	ida saliendo
-2.838331	ida solamente
-2.838331	ida valencia
-1.595221	ida vuelta	-0.1275299
-0.3584315	ida y	-1.252324
-0.3400209	idea es
-1.185119	igual cualquier
-0.7568249	igual el
-1.185119	igual qu'e
-1.185119	igual que
-1.185119	igual salir
-1.185119	igual yo
-0.3400209	importa que
-0.3400209	importancia no
-0.3400209	importar'ia viajar
-0.3400209	imposible usted
-2.012119	informaci'on acerca
-2.012119	informaci'on adi'os
-0.6307052	informaci'on de	-0.4125797
-0.9869533	informaci'on para	-0.2306318
-0.2249398	informaci'on sobre	-0.4220778
-0.9420809	informarme acerca
-0.5137869	informarme del
-0.9420809	informarme para
-0.3400209	instrucciones como
-0.1421068	intercity </s>
-1.973489	intercity de
-1.973489	intercity el
-1.973489	intercity ese
-1.973489	intercity por
-1.973489	intercity que
-1.973489	intercity quer'ia
-1.033346	intercity si	-0.6016876
-1.973489	intercity verdad
-0.3400209	intercitys </s>
-1.038991	interesa </s>
-1.038991	interesa el
-1.038991	interesa ese
-1.038991	interesa ir
-1.038991	interesa tenerlo
-0.6410509	interesado en
-0.6410509	interesado euromed
-0.3400209	interesar'ia informaci'on
-0.3400209	intermedio que
-0.3888481	intervalo de
-0.8171421	intervalo hay
-1.9216	ir </s>
-0.3062942	ir a	-0.1810817
-2.861159	ir al
-2.861159	ir como
-2.432865	ir con	-0.4252476
-0.6638056	ir de	-0.4696006
-1.220108	ir desde	-0.07867245
-1.15941	ir el	-0.1722367
-1.089774	ir en	-0.001798391
-2.861159	ir entre
-2.175421	ir este
-2.432865	ir hacia
-2.861159	ir hasta
-2.861159	ir ma~nana
-2.861159	ir o
-2.861159	ir ocho
-2.432865	ir por	-0.06509641
-2.861159	ir quiero
-2.861159	ir un
-1.9216	ir y	-0.1509483
-0.6410509	ir'un </s>
-0.6410509	ir'un a
-0.131404	irme a	-0.2338438
-0.2127568	iru~nea </s>
-0.3998776	ja'en </s>
-1.340021	ja'en desde
-1.340021	ja'en el
-0.9117268	ja'en para
-1.340021	ja'en saliendo
-0.5910646	jueves </s>
-1.546377	jueves a	-0.541616
-2.232116	jueves adem'as
-1.292556	jueves antes	0.296786
-2.232116	jueves d'ia
-1.093049	jueves de	-0.4680253
-1.20695	jueves despu'es	-0.3449829
-2.232116	jueves dieciocho
-1.803821	jueves diecisiete
-2.232116	jueves entonces
-2.232116	jueves no
-0.9378521	jueves o	-0.3213287
-1.803821	jueves ocho	-0.0701023
-2.232116	jueves para
-1.291972	jueves por	-0.4482618
-1.292556	jueves que	-0.6965069
-1.803821	jueves uno	0.2417445
-2.232116	jueves veinticinco
-1.546377	jueves veintid'os	-0.1047601
-2.232116	jueves veintis'eis
-1.546377	jueves y
-0.09017663	julio </s>
-2.021262	julio antes
-2.021262	julio cu'ales
-1.592968	julio del
-2.021262	julio horarios
-2.021262	julio martes
-2.021262	julio pues
-2.021262	julio y
-2.021262	julio ya
-0.06105397	junio </s>
-2.125351	junio antes
-2.125351	junio del
-2.125351	junio en
-2.125351	junio es
-2.125351	junio o
-2.125351	junio pero
-2.125351	junio por
-2.125351	junio porque
-0.3400209	juntos no
-0.2455595	l'erida </s>
-1.185119	l'erida a
-1.185119	l'erida antes
-1.185119	l'erida en
-1.853292	la 'ultima	-0.39794
-2.719262	la ciudad	-0.3103044
-2.461818	la clase
-3.147556	la costa
-3.147556	la crem'a
-3.147556	la del
-2.461818	la duraci'on	0.02616465
-2.461818	la exposici'on
-2.207413	la fecha	-0.04264265
-3.147556	la feria
-1.853292	la hora	-0.2833349
-2.719262	la ida	-0.1820647
-3.147556	la idea
-3.147556	la informaci'on
-3.147556	la la
-2.008489	la llegada	-0.07308605
-3.147556	la m'as
-0.4611821	la ma~nana	0.063254
-3.147556	la ma~nanita
-3.147556	la misma
-1.022205	la noche	-0.1136884
-2.719262	la posibilidad	0.04086992
-1.853292	la pr'oxima	0
-1.904445	la primera	-0.527779
-2.122391	la salida
-2.122391	la segunda	-0.1549553
-1.263467	la semana	-0.9675349
-3.147556	la semana_santa
-3.147556	la siete
-0.5021837	la tarde	-0.1158764
-1.766142	la una	-0.3797788
-3.147556	la vida
-1.427324	la vuelta	0.03606024
-0.30103	la_coru~na </s>
-1.212757	la_coru~na a	-0.4255059
-1.641051	la_coru~na el
-1.641051	la_coru~na entonces
-1.641051	la_coru~na hasta
-1.641051	la_coru~na para
-0.7014915	la_coru~na y
-1.185119	laborable </s>
-0.1599534	laborable de	-0.6707347
-0.3400209	laborables </s>
-0.3400209	lanzadera ese
-2.526624	las </s>
-2.954918	las caracter'isticas
-2.015359	las catorce	-0.6748737
-2.954918	las cero
-1.012837	las cinco	-0.05826539
-1.167739	las cuatro	-0.0085693
-2.015359	las diecinueve	-0.1534735
-2.954918	las dieciocho
-2.26918	las diecis'eis	-0.2233161
-2.526624	las diecisiete	-0.4164606
-0.7340837	las diez	-0.2194066
-1.152499	las doce	0.3851629
-1.359625	las dos	-0.3917591
-2.954918	las fechas
-2.954918	las horas
-2.954918	las instrucciones
-2.954918	las m'aquinas
-2.954918	las ma~nanas
-2.954918	las mismas
-2.954918	las navidades
-1.234686	las nueve	0.1376035
-1.083418	las ocho	0.09134096
-0.9814287	las once	0.02134752
-2.954918	las quince
-1.272475	las seis	0.4560791
-1.012837	las siete	-0.04861075
-1.199924	las tres	-0.03995544
-2.954918	las vacaciones
-2.015359	las veintid'os	-0.6231969
-2.954918	las vuelta
-1.185119	le agradecer'ia
-1.185119	le estoy
-1.185119	le hab'ia
-0.7568249	le he
-0.7568249	le pregunto	-0.2043844
-0.30103	le'on </s>
-1.544141	le'on a
-1.115847	le'on el
-1.544141	le'on en
-0.8584027	le'on hasta	-0.52175
-1.544141	le'on para
-0.3400209	lentos y
-0.3400209	lezama </s>
-0.2423469	litera </s>
-1.381414	litera o
-0.9531195	litera por	-0.230894
-1.381414	litera si
-0.09943149	literas </s>
-1.038991	literas que
-0.09884758	llamaba para	-0.3031911
-1.078283	llega </s>
-0.3484547	llega a	-0.2946658
-0.860338	llega antes	0.08147305
-0.763428	llega el	-0.3566503
-2.103449	llega entre
-1.16389	llega ese	-0.545805
-2.103449	llega este
-2.103449	llega un
-2.103449	llega y
-0.3400209	llegaba este
-0.2127568	llegaban antes	0.6033136
-1.524511	llegada </s>
-0.4086639	llegada a	-0.1557437
-1.524511	llegada antes	0.6033136
-1.524511	llegada de	-0.4282246
-1.524511	llegada del
-0.6127838	llegada en	-0.1023379
-1.952805	llegada es
-1.524511	llegada fuera	-0.4122303
-1.952805	llegada ha
-1.952805	llegada podr'ia
-1.952805	llegada que
-1.952805	llegada sea
-0.2632414	llegan a	-0.07197237
-0.3881802	llegan antes	0.03571558
-1.682444	llegan de
-0.6410509	llegando a
-0.6410509	llegando el
-2.012097	llegar </s>
-0.4983106	llegar a	-0.2321168
-1.754653	llegar all'i	0.06227241
-0.5818566	llegar antes	-0.4297795
-2.440392	llegar aproximadamente
-2.440392	llegar del
-2.440392	llegar desde
-0.6090088	llegar el	-0.4621203
-2.440392	llegar entre
-2.440392	llegar esa
-2.440392	llegar lo
-2.440392	llegar m'as
-2.440392	llegar muy
-2.440392	llegar para
-1.500248	llegar por	-0.4482618
-2.440392	llegar pues
-2.012097	llegar sobre	-0.2405164
-0.3400209	llegar'ia </s>
-0.6410509	llegara a
-0.6410509	llegara un
-0.2127568	llegaran a
-0.2127568	llegase antes	0.6033136
-0.7194682	llegue a	-0.1102377
-1.858535	llegue al
-1.858535	llegue all'i
-0.314394	llegue antes	-0.1947334
-1.858535	llegue de
-1.172797	llegue el
-1.858535	llegue entre
-1.858535	llegue m'as
-1.858535	llegue por
-1.858535	llegue sobre
-0.9531195	lleguen a
-0.4412703	lleguen antes	0.2201482
-0.6956754	lleguen el	-0.2151318
-1.381414	lleguen este
-0.1995724	lleida </s>
-1.19048	lleida a	-0.3816583
-1.618775	lleida el
-1.618775	lleida en
-1.618775	lleida pirineos
-1.19048	lleida y
-1.038991	llevar a
-0.6106969	llevar el	-0.4321876
-0.6106969	llevar mi	-0.3103044
-0.3400209	llevarme a
-0.3400209	lleve a
-1.595293	lo conozco
-1.166999	lo m'as	-0.4297329
-1.166999	lo menos
-1.595293	lo necesito
-1.595293	lo puede
-0.2138798	lo que	-0.2894174
-0.4909466	logro~no </s>
-1.087818	logro~no a
-0.830374	logro~no el	-0.232787
-1.516112	logro~no hasta
-1.516112	logro~no la
-1.087818	logro~no ma~nana	-0.0478259
-2.960157	los autobuses
-2.020014	los billetes	-0.1380552
-1.474008	los d'ias	-0.2845028
-1.934991	los dos	-0.186714
-2.960157	los hay
-2.960157	los horario
-0.3648635	los horarios	-0.2428179
-2.960157	los mismos
-2.960157	los modalidad
-2.960157	los otros
-2.960157	los posibles
-0.8642612	los precios	0.1201255
-2.020014	los que	-0.4784824
-2.960157	los talgos
-1.82109	los tipos	0.3484928
-0.5197655	los trenes	-0.2375077
-1.665894	los viajes	-0.03474844
-0.1597008	luego </s>
-1.453964	luego a
-1.453964	luego gracias
-1.453964	luego para
-1.453964	luego saber
-0.6410509	lugo </s>
-0.6410509	lugo el
-0.3756636	lunes </s>
-1.292579	lunes a	-0.08702523
-1.378185	lunes antes	0.296786
-1.632006	lunes cinco	-0.08907995
-2.317744	lunes el
-1.292579	lunes o	-0.3385205
-2.317744	lunes ocho
-2.317744	lunes para
-1.377601	lunes por	-0.4482618
-1.88945	lunes pr'oximo
-1.377601	lunes que	-0.7731447
-2.317744	lunes quiero
-2.317744	lunes quince
-1.378185	lunes seis	-0.1249703
-1.632006	lunes siguiente	-0.125694
-2.317744	lunes sobre
-1.88945	lunes uno	0.2417445
-1.632006	lunes veintid'os
-2.317744	lunes veintis'eis
-1.88945	lunes veintitr'es	-0.4122303
-1.632006	lunes y
-0.2839966	m'alaga </s>
-1.309667	m'alaga a	-0.431742
-1.737961	m'alaga antes
-1.737961	m'alaga desde
-1.052223	m'alaga el	-0.1967283
-1.309667	m'alaga para
-1.737961	m'alaga sabe
-1.737961	m'alaga saliendo
-1.737961	m'alaga y
-0.3400209	m'aquinas que
-0.6675615	m'as </s>
-2.641051	m'as a
-0.8239087	m'as barato	0.05012083
-2.641051	m'as baratos
-2.641051	m'as c'omoda
-1.501984	m'as c'omodo	-0.0196982
-2.641051	m'as cerca
-2.641051	m'as econ'omica
-2.641051	m'as el
-0.6289321	m'as gracias	-0.8016795
-2.641051	m'as hasta
-2.641051	m'as la
-0.90309	m'as muchas	0.7552882
-2.641051	m'as no
-2.212757	m'as o	-0.4281912
-2.641051	m'as por
-2.212757	m'as pronto	-0.2043844
-1.045758	m'as r'apido	-0.05543438
-2.212757	m'as r'apidos
-1.346787	m'as tarde	0.1484413
-2.212757	m'as temprano	-0.2043844
-2.641051	m'as tipos
-2.641051	m'as trenes
-2.641051	m'as vale
-0.3400209	m'aximo una
-0.1383027	m'erida </s>
-1.381414	m'erida durante
-1.381414	m'erida en
-1.381414	m'erida para
-0.3400209	m'i me
-0.3400209	m'ireme a
-0.4208653	madrid </s>
-0.7512791	madrid a	-0.4283209
-1.850711	madrid antes	0.296786
-2.79027	madrid aproximadamente
-2.79027	madrid barcelona
-2.79027	madrid de
-2.79027	madrid del
-2.104532	madrid desde
-2.361976	madrid despu'es	-0.06442517
-2.79027	madrid destino
-0.8704655	madrid el	-0.4548644
-1.850711	madrid en
-2.79027	madrid entre
-2.79027	madrid eso
-2.79027	madrid este
-2.79027	madrid hacia
-2.361976	madrid hasta
-2.79027	madrid ja'en
-2.79027	madrid la
-2.79027	madrid le
-2.79027	madrid llegando
-2.361976	madrid ma~nana	-0.0478259
-1.052309	madrid para	-0.5713288
-2.79027	madrid pasado
-2.79027	madrid pero
-2.361976	madrid por
-2.361976	madrid que
-2.79027	madrid quer'ia
-2.79027	madrid quiero
-2.79027	madrid s'olo
-2.104532	madrid sobre	-0.2272199
-2.79027	madrid viajar
-1.2198	madrid y	-0.05143671
-2.361976	madrid zaragoza
-0.3400209	manera que
-0.2127568	mare_nostrum </s>
-0.7690079	martes </s>
-2.012119	martes a
-1.326381	martes d'ia	-0.2205914
-1.072559	martes de	-0.2969368
-2.012119	martes del
-1.583825	martes diecis'eis
-2.012119	martes dos
-2.012119	martes mismamente
-2.012119	martes nueve
-2.012119	martes para
-0.7178553	martes por	-0.6326945
-0.9869533	martes que	-0.6705369
-1.326381	martes seis	0.05690145
-2.012119	martes veinticuatro
-2.012119	martes veintisiete
-1.072559	martes y
-0.2099495	marzo </s>
-1.479059	marzo a	-0.4340064
-1.124939	marzo de	-0.3304672
-2.419202	marzo del
-2.419202	marzo el
-1.733464	marzo en	-0.1832938
-2.419202	marzo entre
-2.419202	marzo lunes
-2.419202	marzo martes
-1.733464	marzo o	-0.3508812
-1.176091	marzo por	-0.586937
-2.419202	marzo querr'ia
-2.419202	marzo quiero
-2.419202	marzo saliendo
-2.419202	marzo si
-1.124939	marzo y	-0.1894806
-0.2078057	mayo </s>
-1.505541	mayo a	-0.2098299
-2.191279	mayo de
-1.762985	mayo del	-0.4048415
-1.251136	mayo en	-0.162166
-2.191279	mayo o
-2.191279	mayo perd'on
-1.052213	mayo por	-0.1429447
-1.052213	mayo y
-0.2309921	ma~nana </s>
-1.329059	ma~nana a	-0.1944758
-2.845171	ma~nana cinco
-1.905612	ma~nana de
-2.159433	ma~nana del	-0.2311954
-2.845171	ma~nana desde
-2.845171	ma~nana dime
-2.159433	ma~nana el
-1.50515	ma~nana en	-0.1946137
-2.845171	ma~nana entonces
-2.159433	ma~nana entre	-0.3419424
-2.416877	ma~nana es
-2.845171	ma~nana hacia
-2.845171	ma~nana la
-2.845171	ma~nana m'as
-2.416877	ma~nana martes
-2.845171	ma~nana ma~nana
-2.159433	ma~nana me
-2.845171	ma~nana no
-1.50515	ma~nana o	-0.2702987
-2.845171	ma~nana para
-2.845171	ma~nana pero
-1.30103	ma~nana por	-0.09895444
-2.845171	ma~nana porque
-2.416877	ma~nana qu'e
-2.845171	ma~nana que
-2.159433	ma~nana s'abado	-0.01672056
-2.845171	ma~nana s'i
-2.845171	ma~nana s'olo
-1.706104	ma~nana si	-0.1895947
-2.845171	ma~nana sobre
-2.845171	ma~nana temprano
-2.845171	ma~nana todos
-2.845171	ma~nana viajando
-2.416877	ma~nana viernes
-1.057992	ma~nana y	-0.1803972
-0.3400209	ma~nanas </s>
-0.3400209	ma~nanita antes
-3.125351	me buscar'e
-3.125351	me confirme
-1.831087	me costar'ia	-0.02959149
-2.439613	me cuesta
-3.125351	me d'e
-2.185207	me da	-0.1242623
-3.125351	me deis
-3.125351	me des
-2.697057	me dice
-2.697057	me dices	-0.02045691
-2.697057	me diera
-3.125351	me dieras
-3.125351	me diga
-2.185791	me digas	-0.005614847
-2.439613	me dijese
-2.697057	me dir'ia	-0.02045691
-3.125351	me ense~nara
-2.697057	me est'a	-0.420676
-3.125351	me estoy
-0.1428653	me gustar'ia	0.04490983
-1.743937	me ha	-0.1322601
-3.125351	me hab'ia
-3.125351	me hab'ias
-3.125351	me habr'ia
-2.185791	me has	0.01168674
-3.125351	me importa
-3.125351	me importar'ia
-2.185207	me interesa
-3.125351	me interesar'ia
-3.125351	me lo
-3.125351	me parece
-2.185791	me pod'ia	-0.1009087
-1.28018	me podr'ia	-0.9988884
-2.697057	me podr'ias	-0.02045691
-3.125351	me pregunta
-3.125351	me pueda
-1.322932	me puede	-0.6776244
-1.58121	me puedes	-0.1376182
-2.697057	me quer'ia
-3.125351	me repitas
-3.125351	me saldr'ia
-3.125351	me sirve
-2.697057	me va	-0.3601965
-3.125351	me vale
-3.125351	me vendr'ia
-2.185207	me viene	-0.4312215
-3.125351	me voy
-0.5185139	media </s>
-1.858535	media a
-0.3424227	media de	-1.161895
-1.858535	media en
-1.858535	media m'as
-1.858535	media ma~nana
-1.858535	media por
-1.858535	media porque
-1.858535	media viaje
-1.858535	media y
-0.3400209	mediados del
-0.20412	mediod'ia </s>
-1.720232	mediod'ia con
-1.720232	mediod'ia el
-1.720232	mediod'ia en
-1.720232	mediod'ia hay
-1.720232	mediod'ia perd'on
-1.720232	mediod'ia por
-1.034494	mediod'ia y
-0.4790588	mejor </s>
-0.9909081	mejor el
-1.419202	mejor equipada
-0.9909081	mejor la	-0.4080556
-1.419202	mejor prefiero
-1.419202	mejor veintinueve
-0.3400209	men'u principal
-0.2563427	menos </s>
-0.9420809	menos d'igame
-0.354704	mes </s>
-0.354704	mes de
-1.294263	mes que
-0.6106969	mi casa
-0.6106969	mi coche
-1.038991	mi novio
-0.30103	mi'ercoles </s>
-1.754994	mi'ercoles catorce
-1.754994	mi'ercoles el
-1.3267	mi'ercoles en	-0.3476736
-1.754994	mi'ercoles que
-0.8148509	mi'ercoles siete	-0.09302834
-1.754994	mi'ercoles siguiente
-1.3267	mi'ercoles y
-0.3400209	miguel_de_unamuno </s>
-2.012119	mil cinco
-0.01888534	mil cuatro	-0.6833551
-2.012119	mil tres
-0.3400209	minutos de
-1.66224	mira a
-1.233946	mira es	-0.4148776
-1.66224	mira me
-1.66224	mira para
-1.66224	mira que
-0.3222193	mira quer'ia	-0.07349467
-1.233946	mira querr'ia	-0.1840783
-1.66224	mira quiero
-1.66224	mira quisiera
-1.66224	mira vamos
-0.3400209	mirar los
-1.66224	mire como
-1.66224	mire el
-1.66224	mire las
-0.976502	mire necesito	-0.1455129
-1.66224	mire por
-1.66224	mire pues
-1.66224	mire que
-0.4191293	mire quer'ia	-0.02374423
-1.66224	mire quiero
-1.66224	mire quisiera
-1.233946	mire yo
-0.6410509	misma noche
-0.6410509	misma ruta
-0.3400209	mismamente por
-0.3400209	mismas condiciones
-0.2552725	mismo d'ia	-0.74538
-1.771385	mismo hoy
-1.771385	mismo jueves
-1.771385	mismo martes
-1.771385	mismo mes
-1.085647	mismo precio
-1.771385	mismo s'abado
-1.771385	mismo seis
-1.771385	mismo tiempo
-1.771385	mismo trayecto
-1.771385	mismo tren
-0.3400209	mismos horarios
-0.3400209	modalidad de
-0.3400209	momento </s>
-0.3400209	monumental </s>
-0.3400209	monz'on a
-0.131404	much'isimas gracias	0.6427332
-0.002944381	muchas gracias	-0.204577
-0.3400209	muestras desde
-0.3258536	murcia </s>
-0.60206	murcia a	-0.4367372
-0.9561801	murcia el
-1.896323	murcia hacia
-1.468029	murcia para
-1.896323	murcia por
-1.896323	murcia y
-0.3400209	museo thyssen
-1.243111	muy amable
-1.243111	muy bien
-0.5573727	muy buenas	-0.3006099
-1.243111	muy pronto
-0.8148168	muy tarde
-2.022316	nada </s>
-2.450611	nada entonces
-2.450611	nada eso
-0.02780434	nada m'as	-0.9330229
-2.022316	nada muchas	1.73786
-2.022316	nada pues
-0.3400209	navidad en
-0.3400209	navidades en
-0.8171421	necesitar'ia saber
-0.8171421	necesitar'ia salir
-0.8171421	necesitar'ia viajar
-1.66224	necesito </s>
-1.66224	necesito el
-1.66224	necesito estar
-1.233946	necesito horarios
-1.66224	necesito informaci'on
-0.7226808	necesito ir	0.1064649
-1.66224	necesito llegar
-1.66224	necesito para
-1.66224	necesito precios
-1.233946	necesito saber
-1.66224	necesito salir
-0.7220969	necesito un	-0.05783811
-0.3400209	negocio </s>
-0.2127568	negocios y
-1.294263	ning'un d'ia
-0.8659694	ning'un otro	-0.1448104
-0.2690979	ning'un tren	-0.1063865
-0.3400209	ninguna de
-0.8171421	ninguno hasta
-0.3888481	ninguno que
-0.6175867	no </s>
-2.131137	no a	-0.02375263
-2.945954	no adi'os	0.5218406
-3.374248	no antes
-3.374248	no burgos
-3.374248	no c'omo
-2.945954	no creo	0.5218406
-3.374248	no d'igame
-2.349083	no de	-0.09437441
-3.374248	no del
-3.374248	no dentro
-1.221314	no desde	0.02897957
-3.374248	no deseaba
-2.945954	no desear'ia
-1.571829	no deseo	-0.4602504
-3.374248	no despu'es
-3.374248	no dispone
-1.587069	no el	-0.0779302
-3.374248	no entiendo
-2.945954	no entre
-2.079985	no es	-0.2321843
-3.374248	no ese
-1.803778	no eso	-0.2430381
-2.434105	no est'a	-0.6968776
-3.374248	no estoy
-2.945954	no existe
-3.374248	no fumadores
-0.6450612	no gracias	-0.05553389
-3.374248	no habr'ia
-2.945954	no hace	-0.2735444
-1.992835	no hay	-0.3572391
-3.374248	no he
-2.68851	no la
-2.68851	no le	-0.1532535
-2.945954	no lo
-3.374248	no los
-1.858136	no me	0.2991524
-2.434689	no mejor	-0.3331888
-3.374248	no much'isimas
-1.070439	no muchas	0.2017787
-1.270799	no nada	-0.5559282
-3.374248	no necesito
-1.888099	no no	-1.134329
-2.945954	no perdone
-2.68851	no pero	-0.220395
-3.374248	no podr'ian
-3.374248	no por
-3.374248	no porque
-2.68851	no precio	-0.1328568
-2.945954	no precios	-0.2757488
-3.374248	no preferente
-3.374248	no prefiero
-2.945954	no puede	-0.219111
-3.374248	no puedo
-2.945954	no pues
-2.434689	no quer'ia	0.1405976
-2.434105	no querr'ia	-0.1219047
-1.131137	no quiero	-0.2285163
-2.945954	no quisiera
-2.349083	no s'e
-3.374248	no s'i
-2.434689	no s'olo
-3.374248	no salgo
-2.945954	no salida
-2.945954	no saliendo
-3.374248	no se
-2.349083	no sea	-0.07880579
-2.945954	no sean
-2.945954	no si	-0.2185221
-2.945954	no solo
-3.374248	no son
-3.374248	no tengo
-2.434689	no tiene	-0.1172407
-3.374248	no un
-3.374248	no va
-3.374248	no vale
-2.945954	no viajar
-3.374248	no voy
-1.654016	no ya	-0.3311542
-3.374248	no yo
-0.2053806	noche </s>
-2.17887	noche a
-2.17887	noche antes
-1.750576	noche de
-1.750576	noche del
-2.17887	noche durmiendo
-1.750576	noche el
-1.493132	noche en
-1.750576	noche o
-1.750576	noche para
-1.750576	noche por	-0.230894
-2.17887	noche quer'ia
-2.17887	noche un
-1.153704	noche y
-0.3400209	nochevieja viajando
-0.3400209	nocturno qu'e
-0.3400209	normal </s>
-0.3400209	norte que
-0.1760913	noviembre </s>
-1.343091	noviembre a	-0.4169601
-1.343091	noviembre de
-1.771385	noviembre quiero
-1.771385	noviembre s'abado
-1.085647	noviembre y	-0.2233046
-0.3400209	novio el
-1.156336	nueve </s>
-1.667602	nueve a
-0.143091	nueve de	-1.295727
-2.095896	nueve el
-1.667602	nueve o
-0.9568291	nueve y	-0.07326791
-2.443825	o 'ultima
-1.758086	o a	-0.2098299
-2.443825	o alguna
-2.443825	o alrededor
